{"learner":{"attributes":{"best_iteration":"70","best_score":"0.05092633907344461","scikit_learn":"{\"_estimator_type\": \"classifier\"}"},"feature_names":[],"feature_types":[],"gradient_booster":{"model":{"cats":{"enc":[],"feature_segments":[],"sorted_idx":[]},"gbtree_model_param":{"num_parallel_tree":"1","num_trees":"1221"},"iteration_indptr":[0,11,22,33,44,55,66,77,88,99,110,121,132,143,154,165,176,187,198,209,220,231,242,253,264,275,286,297,308,319,330,341,352,363,374,385,396,407,418,429,440,451,462,473,484,495,506,517,528,539,550,561,572,583,594,605,616,627,638,649,660,671,682,693,704,715,726,737,748,759,770,781,792,803,814,825,836,847,858,869,880,891,902,913,924,935,946,957,968,979,990,1001,1012,1023,1034,1045,1056,1067,1078,1089,1100,1111,1122,1133,1144,1155,1166,1177,1188,1199,1210,1221],"tree_info":[0,1,2,3,4,5,6,7,8,9,10,0,1,2,3,4,5,6,7,8,9,10,0,1,2,3,4,5,6,7,8,9,10,0,1,2,3,4,5,6,7,8,9,10,0,1,2,3,4,5,6,7,8,9,10,0,1,2,3,4,5,6,7,8,9,10,0,1,2,3,4,5,6,7,8,9,10,0,1,2,3,4,5,6,7,8,9,10,0,1,2,3,4,5,6,7,8,9,10,0,1,2,3,4,5,6,7,8,9,10,0,1,2,3,4,5,6,7,8,9,10,0,1,2,3,4,5,6,7,8,9,10,0,1,2,3,4,5,6,7,8,9,10,0,1,2,3,4,5,6,7,8,9,10,0,1,2,3,4,5,6,7,8,9,10,0,1,2,3,4,5,6,7,8,9,10,0,1,2,3,4,5,6,7,8,9,10,0,1,2,3,4,5,6,7,8,9,10,0,1,2,3,4,5,6,7,8,9,10,0,1,2,3,4,5,6,7,8,9,10,0,1,2,3,4,5,6,7,8,9,10,0,1,2,3,4,5,6,7,8,9,10,0,1,2,3,4,5,6,7,8,9,10,0,1,2,3,4,5,6,7,8,9,10,0,1,2,3,4,5,6,7,8,9,10,0,1,2,3,4,5,6,7,8,9,10,0,1,2,3,4,5,6,7,8,9,10,0,1,2,3,4,5,6,7,8,9,10,0,1,2,3,4,5,6,7,8,9,10,0,1,2,3,4,5,6,7,8,9,10,0,1,2,3,4,5,6,7,8,9,10,0,1,2,3,4,5,6,7,8,9,10,0,1,2,3,4,5,6,7,8,9,10,0,1,2,3,4,5,6,7,8,9,10,0,1,2,3,4,5,6,7,8,9,10,0,1,2,3,4,5,6,7,8,9,10,0,1,2,3,4,5,6,7,8,9,10,0,1,2,3,4,5,6,7,8,9,10,0,1,2,3,4,5,6,7,8,9,10,0,1,2,3,4,5,6,7,8,9,10,0,1,2,3,4,5,6,7,8,9,10,0,1,2,3,4,5,6,7,8,9,10,0,1,2,3,4,5,6,7,8,9,10,0,1,2,3,4,5,6,7,8,9,10,0,1,2,3,4,5,6,7,8,9,10,0,1,2,3,4,5,6,7,8,9,10,0,1,2,3,4,5,6,7,8,9,10,0,1,2,3,4,5,6,7,8,9,10,0,1,2,3,4,5,6,7,8,9,10,0,1,2,3,4,5,6,7,8,9,10,0,1,2,3,4,5,6,7,8,9,10,0,1,2,3,4,5,6,7,8,9,10,0,1,2,3,4,5,6,7,8,9,10,0,1,2,3,4,5,6,7,8,9,10,0,1,2,3,4,5,6,7,8,9,10,0,1,2,3,4,5,6,7,8,9,10,0,1,2,3,4,5,6,7,8,9,10,0,1,2,3,4,5,6,7,8,9,10,0,1,2,3,4,5,6,7,8,9,10,0,1,2,3,4,5,6,7,8,9,10,0,1,2,3,4,5,6,7,8,9,10,0,1,2,3,4,5,6,7,8,9,10,0,1,2,3,4,5,6,7,8,9,10,0,1,2,3,4,5,6,7,8,9,10,0,1,2,3,4,5,6,7,8,9,10,0,1,2,3,4,5,6,7,8,9,10,0,1,2,3,4,5,6,7,8,9,10,0,1,2,3,4,5,6,7,8,9,10,0,1,2,3,4,5,6,7,8,9,10,0,1,2,3,4,5,6,7,8,9,10,0,1,2,3,4,5,6,7,8,9,10,0,1,2,3,4,5,6,7,8,9,10,0,1,2,3,4,5,6,7,8,9,10,0,1,2,3,4,5,6,7,8,9,10,0,1,2,3,4,5,6,7,8,9,10,0,1,2,3,4,5,6,7,8,9,10,0,1,2,3,4,5,6,7,8,9,10,0,1,2,3,4,5,6,7,8,9,10,0,1,2,3,4,5,6,7,8,9,10,0,1,2,3,4,5,6,7,8,9,10,0,1,2,3,4,5,6,7,8,9,10,0,1,2,3,4,5,6,7,8,9,10,0,1,2,3,4,5,6,7,8,9,10,0,1,2,3,4,5,6,7,8,9,10,0,1,2,3,4,5,6,7,8,9,10,0,1,2,3,4,5,6,7,8,9,10,0,1,2,3,4,5,6,7,8,9,10,0,1,2,3,4,5,6,7,8,9,10,0,1,2,3,4,5,6,7,8,9,10,0,1,2,3,4,5,6,7,8,9,10,0,1,2,3,4,5,6,7,8,9,10,0,1,2,3,4,5,6,7,8,9,10,0,1,2,3,4,5,6,7,8,9,10,0,1,2,3,4,5,6,7,8,9,10,0,1,2,3,4,5,6,7,8,9,10,0,1,2,3,4,5,6,7,8,9,10,0,1,2,3,4,5,6,7,8,9,10,0,1,2,3,4,5,6,7,8,9,10,0,1,2,3,4,5,6,7,8,9,10,0,1,2,3,4,5,6,7,8,9,10,0,1,2,3,4,5,6,7,8,9,10,0,1,2,3,4,5,6,7,8,9,10,0,1,2,3,4,5,6,7,8,9,10,0,1,2,3,4,5,6,7,8,9,10,0,1,2,3,4,5,6,7,8,9,10,0,1,2,3,4,5,6,7,8,9,10,0,1,2,3,4,5,6,7,8,9,10,0,1,2,3,4,5,6,7,8,9,10,0,1,2,3,4,5,6,7,8,9,10,0,1,2,3,4,5,6,7,8,9,10,0,1,2,3,4,5,6,7,8,9,10],"trees":[{"base_weights":[-6.314436E-4,-5.2845323E-1,3E0,-5.3095776E-1,7.4742906E-2,3E0,-4.3489408E-1,-3.4274942E-1,-5.311997E-1,3E0,-4.8408505E-1,3E0,-3.4266032E-2,-4.835495E-1,2.4E-1,-4.1999053E-2,2.4E-1,-4.2554967E-2,-5.0472313E-1,2.4E-1,-1.5335834E-2,4.7511038E-1,-5.207503E-1,3E0,-3.0924654E-2,-1.8577006E-1,-4.187851E-2,3E0,-5.1639223E-1,2.4E-1,-3.68184E-2,-4.236748E-2,4.282613E-2,2.4E-1,-1.4165445E-2,1.4237336E0,-4.655111E-1,2.4E-1,5.7014585E-3,-5.2438205E-1,1.4220625E-1,-1.5335834E-2,5.7014585E-3,-2.2227883E-2,2.4E-1,5.402808E-3,-4.0037483E-2,2.759186E-2,-4.2113166E-2,-4.015845E-2,2.4E-1],"categories":[],"categories_nodes":[],"categories_segments":[],"categories_sizes":[],"default_left":[0,0,0,0,0,0,0,0,0,0,0,0,0,0,0,0,0,0,0,0,0,0,0,0,0,0,0,0,0,0,0,0,0,0,0,0,0,0,0,0,0,0,0,0,0,0,0,0,0,0,0],"id":0,"left_children":[1,3,5,7,9,11,13,15,17,19,21,23,-1,25,-1,-1,-1,-1,27,-1,-1,29,31,33,-1,35,-1,37,39,-1,-1,-1,-1,-1,41,43,45,-1,-1,47,49,-1,-1,-1,-1,-1,-1,-1,-1,-1,-1],"loss_changes":[4.826138E5,2.563086E2,5.384625E3,6.9648438E0,1.9274333E3,1.61125E2,1.05119965E2,2.059427E2,2.484375E0,3.050354E1,2.3812408E1,1.0715625E2,0E0,4.847618E0,0E0,0E0,0E0,0E0,2.6257373E2,0E0,0E0,9.1258224E1,6.7507324E0,4.36875E1,0E0,2.8753792E1,0E0,1.2122925E1,2.4539429E1,0E0,0E0,0E0,0E0,0E0,4.297166E-1,3.0191835E1,1.1139965E0,0E0,0E0,8.604248E0,1.6662378E2,0E0,0E0,0E0,0E0,0E0,0E0,0E0,0E0,0E0,0E0],"parents":[2147483647,0,0,1,1,2,2,3,3,4,4,5,5,6,6,7,7,8,8,9,9,10,10,11,11,13,13,18,18,21,21,22,22,23,23,25,25,27,27,28,28,34,34,35,35,36,36,39,39,40,40],"right_children":[2,4,6,8,10,12,14,16,18,20,22,24,-1,26,-1,-1,-1,-1,28,-1,-1,30,32,34,-1,36,-1,38,40,-1,-1,-1,-1,-1,42,44,46,-1,-1,48,50,-1,-1,-1,-1,-1,-1,-1,-1,-1,-1],"split_conditions":[5.1566774E-1,3.1352037E-1,6.8516827E-1,-8.8830906E-1,-4.8333967E-1,-2.2771602E-2,1.2924649E0,-6.2720984E-1,-1.3911141E-1,3.511457E-1,-1.2603892E-1,7.878186E-1,-3.4266032E-2,9.942753E-1,2.4E-1,-4.1999053E-2,2.4E-1,-4.2554967E-2,-8.6994743E-1,2.4E-1,-1.5335834E-2,-2.1263504E-1,4.878316E-1,5.757325E-1,-3.0924654E-2,9.4178015E-1,-4.187851E-2,-9.357794E-2,1.2924649E0,2.4E-1,-3.68184E-2,-4.236748E-2,4.282613E-2,2.4E-1,-1.667086E-1,-4.4381195E-1,6.884202E-5,2.4E-1,5.7014585E-3,-7.5566053E-1,7.0339894E-1,-1.5335834E-2,5.7014585E-3,-2.2227883E-2,2.4E-1,5.402808E-3,-4.0037483E-2,2.759186E-2,-4.2113166E-2,-4.015845E-2,2.4E-1],"split_indices":[335,335,365,347,315,329,171,330,363,314,315,328,0,365,0,0,0,0,347,0,0,360,343,353,0,171,0,336,171,0,0,0,0,0,326,320,331,0,0,328,361,0,0,0,0,0,0,0,0,0,0],"split_type":[0,0,0,0,0,0,0,0,0,0,0,0,0,0,0,0,0,0,0,0,0,0,0,0,0,0,0,0,0,0,0,0,0,0,0,0,0,0,0,0,0,0,0,0,0,0,0,0,0,0,0],"sum_hessian":[1.808799E5,1.6957686E5,1.1303046E4,1.6887673E5,7.001257E2,1.0847301E4,4.55745E2,2.2311343E2,1.6865362E5,4.743085E1,6.526948E2,1.0834226E4,1.3075178E1,4.5320712E2,2.5378623E0,2.1846068E2,4.6527476E0,1.6402834E5,4.625281E3,4.4835567E1,2.5952826E0,2.264805E1,6.3004675E2,1.0825478E4,8.748439E0,5.6405594E1,3.9680154E2,7.9498653E0,4.617331E3,2.879115E0,1.9768936E1,6.262731E2,3.7736988E0,1.0820854E4,4.623469E0,6.876279E0,4.9529312E1,5.921679E0,2.0281863E0,4.5631396E3,5.4191116E1,2.5952826E0,2.0281863E0,4.152452E0,2.7238271E0,2.053265E0,4.7476048E1,9.28347E0,4.5538564E3,4.996135E1,4.2297707E0],"tree_param":{"num_deleted":"0","num_feature":"378","num_nodes":"51","size_leaf_vector":"1"}},{"base_weights":[-1.1147106E-4,-6.0471046E-1,2.0128365E0,2.0108247E0,-6.384899E-1,1.6788629E-1,-5.2475847E-2,-5.1711336E-2,1.678229E-1,-6.426606E-1,1.9589357E0,-1.2276491E-2,-6.486532E-1,-4.849117E-2,1.6733164E-1,2.0898237E0,-5.246491E-2,-6.5066576E-1,8.8944983E-1,-0E0,1.6750316E-1,5.497033E-1,-6.526613E-1,1.6614324E-1,-6.2632203E-1,1.667086E-1,-5.2153625E-2,-5.2249253E-2,1.6278861E-1,-5.192886E-2,7.5892374E-2],"categories":[],"categories_nodes":[],"categories_segments":[],"categories_sizes":[],"default_left":[0,0,0,0,0,0,0,0,0,0,0,0,0,0,0,0,0,0,0,0,0,0,0,0,0,0,0,0,0,0,0],"id":1,"left_children":[1,3,5,7,9,-1,-1,-1,-1,11,13,15,17,-1,-1,19,-1,21,23,-1,-1,25,27,-1,29,-1,-1,-1,-1,-1,-1],"loss_changes":[7.053315E5,3.938067E4,3.0635E4,1.3163477E3,4.770125E3,0E0,0E0,0E0,0E0,1.6589062E3,2.432622E2,5.604763E3,1.348625E3,0E0,0E0,6.0351562E0,0E0,1.0420469E3,1.0290399E3,0E0,0E0,1.3362855E3,5.335469E2,0E0,1.0761658E1,0E0,0E0,0E0,0E0,0E0,0E0],"parents":[2147483647,0,0,1,1,2,2,3,3,4,4,9,9,10,10,11,11,12,12,15,15,17,17,18,18,21,21,22,22,24,24],"right_children":[2,4,6,8,10,-1,-1,-1,-1,12,14,16,18,-1,-1,20,-1,22,24,-1,-1,26,28,-1,30,-1,-1,-1,-1,-1,-1],"split_conditions":[-2.059412E-1,-8.252627E-1,3.2259554E-1,-7.5858575E-1,5.1993375E0,1.6788629E-1,-5.2475847E-2,-5.1711336E-2,1.678229E-1,-2.0860047E0,5.1993375E0,8.905023E-2,5.1993375E0,-4.849117E-2,1.6733164E-1,1.897892E0,-5.246491E-2,-8.396458E-1,-4.2895287E-2,-0E0,1.6750316E-1,8.905023E-2,2.5117912E0,1.6614324E-1,-1.0782134E-1,1.667086E-1,-5.2153625E-2,-5.2249253E-2,1.6278861E-1,-5.192886E-2,7.5892374E-2],"split_indices":[191,359,338,315,61,0,0,0,0,250,287,337,165,0,0,1,0,327,361,0,0,337,146,0,329,0,0,0,0,0,0],"split_type":[0,0,0,0,0,0,0,0,0,0,0,0,0,0,0,0,0,0,0,0,0,0,0,0,0,0,0,0,0,0,0],"sum_hessian":[5.795476E5,4.4568544E5,1.338622E5,5.6809204E3,4.4000453E5,1.2969598E5,4.1662295E3,1.7943509E2,5.5014854E3,4.3930084E5,7.036893E2,4.1376484E3,4.351632E5,3.4079666E1,6.696096E2,9.6856586E2,3.1690825E3,4.3459603E5,5.671631E2,2.059036E0,9.665068E2,7.1997375E2,4.3387603E5,3.178069E2,2.4935619E2,3.157687E2,4.0420508E2,4.338044E5,7.164593E1,2.4727155E2,2.084644E0],"tree_param":{"num_deleted":"0","num_feature":"378","num_nodes":"31","size_leaf_vector":"1"}},{"base_weights":[-2.6422468E-4,-4.0875144E-2,3E0,2.4E-1,-3.9967906E-2],"categories":[],"categories_nodes":[],"categories_segments":[],"categories_sizes":[],"default_left":[0,0,0,0,0],"id":2,"left_children":[1,-1,3,-1,-1],"loss_changes":[2.0345331E5,0E0,1.6242344E3,0E0,0E0],"parents":[2147483647,0,0,2,2],"right_children":[2,-1,4,-1,-1],"split_conditions":[6.678634E-1,-4.0875144E-2,-7.549681E-1,2.4E-1,-3.9967906E-2],"split_indices":[367,0,368,0,0],"split_type":[0,0,0,0,0],"sum_hessian":[6.7005836E4,6.5437082E4,1.5687554E3,1.4368267E3,1.3192873E2],"tree_param":{"num_deleted":"0","num_feature":"378","num_nodes":"5","size_leaf_vector":"1"}},{"base_weights":[-1.5351964E-4,3E0,-5.3468585E-1,-4.327984E-2,2.4E-1,-5.397991E-1,1.3168846E0,-5.4133797E-1,1.9691391E0,2.4E-1,-4.3257616E-2,-5.420758E-1,6.856082E-1,2.4E-1,-4.203311E-2,-5.422842E-1,1.2369322E0,-4.2368386E-2,2.4E-1,-4.049988E-1,-5.432753E-1,-3.689074E-2,2.4E-1,2.4E-1,-4.346683E-2,-4.346559E-2,1.0249303E-1],"categories":[],"categories_nodes":[],"categories_segments":[],"categories_sizes":[],"default_left":[0,0,0,0,0,0,0,0,0,0,0,0,0,0,0,0,0,0,0,0,0,0,0,0,0,0,0],"id":3,"left_children":[1,3,5,-1,-1,7,9,11,13,-1,-1,15,17,-1,-1,19,21,-1,-1,23,25,-1,-1,-1,-1,-1,-1],"loss_changes":[5.893441E5,5.9E3,2.0780234E3,0E0,0E0,8.47375E2,3.7392412E3,1.9892969E2,8.847913E2,0E0,0E0,8.292969E1,6.22339E2,0E0,0E0,2.8933594E1,1.3473364E2,0E0,0E0,1.0692825E3,1.965625E1,0E0,0E0,0E0,0E0,0E0,0E0],"parents":[2147483647,0,0,1,1,2,2,5,5,6,6,7,7,8,8,11,11,12,12,15,15,16,16,19,19,20,20],"right_children":[2,4,6,-1,-1,8,10,12,14,-1,-1,16,18,-1,-1,20,22,-1,-1,24,26,-1,-1,-1,-1,-1,-1],"split_conditions":[-6.896474E-1,-1.11930594E-1,1.9692662E0,-4.327984E-2,2.4E-1,1.8117752E0,2.7163213E-1,3.1872993E0,2.2525735E-1,2.4E-1,-4.3257616E-2,1.503006E0,1.4223814E0,2.4E-1,-4.203311E-2,-2.7238588E0,-8.9808905E-1,-4.2368386E-2,2.4E-1,2.2525735E-1,3.2193046E0,-3.689074E-2,2.4E-1,2.4E-1,-4.346683E-2,-4.346559E-2,1.0249303E-1],"split_indices":[377,334,200,0,0,324,321,152,321,0,0,334,0,0,0,235,320,0,0,321,206,0,0,0,0,0,0],"split_type":[0,0,0,0,0,0,0,0,0,0,0,0,0,0,0,0,0,0,0,0,0,0,0,0,0,0,0],"sum_hessian":[2.3888238E5,1.9615912E4,2.1926645E5,4.698192E2,1.9146094E4,2.1866428E5,6.0216943E2,2.1853202E5,1.3227032E2,1.68312E2,4.3385745E2,2.184022E5,1.2982007E2,5.043868E1,8.183164E1,2.1837828E5,2.3909832E1,1.0563431E2,2.418576E1,1.5747456E3,2.1680355E5,1.7088207E1,6.8216248E0,3.410814E1,1.5406375E3,2.1679992E5,3.6169515E0],"tree_param":{"num_deleted":"0","num_feature":"378","num_nodes":"27","size_leaf_vector":"1"}},{"base_weights":[-6.884474E-4,-5.1503396E-1,3E0,-5.1620114E-1,6.346497E-1,-4.8656482E-1,3E0,-5.1668197E-1,1.0497097E0,2.4E-1,-4.0212005E-2,-4.112683E-2,2.9270595E-1,3E0,-3.8182013E-2,-5.1722664E-1,-2.623636E-1,2.4E-1,-3.7233014E-2,1.7188308E-1,-3.0590687E-2,-2.9229406E-2,3E0,-4.1437443E-2,-4.52318E-1,2.4E-1,-4.963143E-1,-1.6633783E-3,3E0,3E0,-4.9598145E-1,3.6394652E-2,-4.091742E-2,2.4E-1,-1.5486396E-2,2.4E-1,-1.874144E-2,-4.0671963E-2,1.6503254E-1],"categories":[],"categories_nodes":[],"categories_segments":[],"categories_sizes":[],"default_left":[0,0,0,0,0,0,0,0,0,0,0,0,0,0,0,0,0,0,0,0,0,0,0,0,0,0,0,0,0,0,0,0,0,0,0,0,0,0,0],"id":4,"left_children":[1,3,5,7,9,11,13,15,17,-1,-1,-1,19,21,-1,23,25,-1,-1,-1,-1,-1,27,-1,29,-1,31,-1,33,35,37,-1,-1,-1,-1,-1,-1,-1,-1],"loss_changes":[3.1285494E5,1.4158594E2,4.5147812E3,8.042578E1,5.921428E2,8.481873E0,4.3646875E2,1.3837891E1,2.1205469E2,0E0,0E0,0E0,2.1366798E1,9.765625E1,0E0,4.265625E0,2.9733676E2,0E0,0E0,0E0,0E0,0E0,3.26875E1,0E0,2.5939612E2,0E0,3.9697342E0,0E0,3.19375E1,4.0320267E1,4.1138397E1,0E0,0E0,0E0,0E0,0E0,0E0,0E0,0E0],"parents":[2147483647,0,0,1,1,2,2,3,3,4,4,5,5,6,6,7,7,8,8,12,12,13,13,15,15,16,16,22,22,24,24,26,26,28,28,29,29,30,30],"right_children":[2,4,6,8,10,12,14,16,18,-1,-1,-1,20,22,-1,24,26,-1,-1,-1,-1,-1,28,-1,30,-1,32,-1,34,36,38,-1,-1,-1,-1,-1,-1,-1,-1],"split_conditions":[7.4049026E-1,1.5480689E0,4.235624E-2,1.8846843E0,1.5624183E0,6.6125095E-1,1.3695675E0,1.5835346E0,-8.7755495E-1,2.4E-1,-4.0212005E-2,-4.112683E-2,3.8837317E-1,-6.716594E-1,-3.8182013E-2,1.1352316E0,-8.7876266E-1,2.4E-1,-3.7233014E-2,1.7188308E-1,-3.0590687E-2,-2.9229406E-2,-1.1344766E-1,-4.1437443E-2,-9.2058724E-1,2.4E-1,-6.158846E-1,-1.6633783E-3,-6.974926E-2,-6.502746E-1,8.7510693E-1,3.6394652E-2,-4.091742E-2,2.4E-1,-1.5486396E-2,2.4E-1,-1.874144E-2,-4.0671963E-2,1.6503254E-1],"split_indices":[345,353,365,339,333,334,0,339,351,0,0,0,367,340,0,339,355,0,0,0,0,0,356,0,355,0,363,0,329,329,334,0,0,0,0,0,0,0,0],"split_type":[0,0,0,0,0,0,0,0,0,0,0,0,0,0,0,0,0,0,0,0,0,0,0,0,0,0,0,0,0,0,0,0,0,0,0,0,0,0,0],"sum_hessian":[1.0903659E5,1.04783234E5,4.2533545E3,1.046785E5,1.047318E2,3.7071808E2,3.8826367E3,1.0464803E5,3.0473684E1,8.778645E0,9.5953156E1,3.593496E2,1.1368467E1,3.847214E3,3.5422623E1,1.0442036E5,2.276745E2,3.4388518E0,2.7034832E1,2.0655851E0,9.302882E0,8.04558E0,3.8391685E3,1.0321966E5,1.2007018E3,3.9206338E0,2.2375386E2,3.389973E0,3.8357783E3,7.1433225E0,1.1935585E3,2.0810025E0,2.2167285E2,3.8330466E3,2.7317572E0,3.733824E0,3.4094985E0,1.1895835E3,3.974924E0],"tree_param":{"num_deleted":"0","num_feature":"378","num_nodes":"39","size_leaf_vector":"1"}},{"base_weights":[3.230262E-3,-5.077551E-1,3E0,-5.098914E-1,3E0,-4.011894E-2,2.4E-1,-5.107133E-1,3E0,-2.450074E-2,2.4E-1,-4.0863633E-2,-2.5952443E-1,2.4E-1,-2.5316821E-2,-3.603286E-2,7.555606E-2],"categories":[],"categories_nodes":[],"categories_segments":[],"categories_sizes":[],"default_left":[0,0,0,0,0,0,0,0,0,0,0,0,0,0,0,0,0],"id":5,"left_children":[1,3,5,7,9,-1,-1,11,13,-1,-1,-1,15,-1,-1,-1,-1],"loss_changes":[2.0085097E5,8.135625E2,1.9830938E3,2.5576562E2,6.512018E1,0E0,0E0,6.855469E-1,6.992714E1,0E0,0E0,0E0,7.8602157E0,0E0,0E0,0E0,0E0],"parents":[2147483647,0,0,1,1,2,2,3,3,4,4,7,7,8,8,12,12],"right_children":[2,4,6,8,10,-1,-1,12,14,-1,-1,-1,16,-1,-1,-1,-1],"split_conditions":[1.6665848E0,1.3878493E0,3.035298E-1,3.238766E0,2.2525735E-1,-4.011894E-2,2.4E-1,3.1108491E0,2.1628385E0,-2.450074E-2,2.4E-1,-4.0863633E-2,1.2897418E0,2.4E-1,-2.5316821E-2,-3.603286E-2,7.555606E-2],"split_indices":[314,347,352,125,321,0,0,118,12,0,0,0,321,0,0,0,0],"split_type":[0,0,0,0,0,0,0,0,0,0,0,0,0,0,0,0,0],"sum_hessian":[6.622231E4,6.4657957E4,1.5643578E3,6.4646793E4,1.1166378E1,1.6105235E2,1.4033054E3,6.4638758E4,8.03201E0,5.4386005E0,5.7277775E0,6.4613562E4,2.5198738E1,2.2029912E0,5.829019E0,2.3189245E1,2.0094938E0],"tree_param":{"num_deleted":"0","num_feature":"378","num_nodes":"17","size_leaf_vector":"1"}},{"base_weights":[-1.5694987E-3,-5.3180873E-1,3E0,-5.343108E-1,5.188622E-2,3E0,-4.2435117E-2,-4.0184656E-1,-5.3621495E-1,3E0,-5.307098E-1,-2.7789405E-2,3E0,3E0,-5.1527315E-1,7.985803E-1,-5.3629136E-1,-1.9713085E-2,2.4E-1,-4.2838402E-2,3.743554E-2,3E0,-0E0,3E0,-3.4418534E-2,-5.273967E-1,8.646169E-1,2.4E-1,-2.9203147E-2,-5.371853E-1,-4.709623E-1,3E0,-2.3586642E-2,3.981929E-2,-2.3586642E-2,2.4E-1,-3.2347552E-2,-5.301253E-1,1.08411625E-1,2.4E-1,-3.651923E-2,-5.013724E-1,-4.2994916E-2,3E0,-5.269671E-1,-1.9021071E-2,2.4E-1,6.908492E-2,-4.262846E-2,2.4E-1,-4.2262197E-2,2.4E-1,-3.638676E-2,6.696288E-2,-4.2955082E-2],"categories":[],"categories_nodes":[],"categories_segments":[],"categories_sizes":[],"default_left":[0,0,0,0,0,0,0,0,0,0,0,0,0,0,0,0,0,0,0,0,0,0,0,0,0,0,0,0,0,0,0,0,0,0,0,0,0,0,0,0,0,0,0,0,0,0,0,0,0,0,0,0,0,0,0],"id":6,"left_children":[1,3,5,7,9,11,-1,13,15,17,19,-1,21,23,25,27,29,-1,-1,-1,-1,31,33,35,-1,37,39,-1,-1,41,43,45,-1,-1,-1,-1,-1,47,-1,-1,-1,49,-1,51,53,-1,-1,-1,-1,-1,-1,-1,-1,-1,-1],"loss_changes":[5.3736025E5,2.819375E2,2.740125E3,4.7703125E1,2.2779236E3,7.6625E1,0E0,1.3472808E3,2.0589844E1,4.0763916E1,4.3563538E0,0E0,5.675E1,1.5660876E2,4.605847E1,3.589399E1,1.02578125E1,0E0,0E0,0E0,0E0,5.425E1,2.3613777E0,1.2093555E2,0E0,1.5731201E1,1.1135968E2,0E0,0E0,8.59375E-1,5.189883E2,3.884375E1,0E0,0E0,0E0,0E0,0E0,1.1432617E1,0E0,0E0,0E0,1.7755319E2,0E0,2.1121259E2,3.591504E1,0E0,0E0,0E0,0E0,0E0,0E0,0E0,0E0,0E0,0E0],"parents":[2147483647,0,0,1,1,2,2,3,3,4,4,5,5,7,7,8,8,9,9,10,10,12,12,13,13,14,14,15,15,16,16,21,21,22,22,23,23,25,25,26,26,29,29,30,30,31,31,37,37,41,41,43,43,44,44],"right_children":[2,4,6,8,10,12,-1,14,16,18,20,-1,22,24,26,28,30,-1,-1,-1,-1,32,34,36,-1,38,40,-1,-1,42,44,46,-1,-1,-1,-1,-1,48,-1,-1,-1,50,-1,52,54,-1,-1,-1,-1,-1,-1,-1,-1,-1,-1],"split_conditions":[9.181402E-1,4.9710855E-1,3.856638E-1,-9.25689E-1,-7.7211666E-1,-1.2634113E-1,-4.2435117E-2,5.784403E-1,-9.129187E-1,2.2525735E-1,6.738274E-2,-2.7789405E-2,-2.5814387E-1,-4.4381195E-1,1.3787062E0,5.911549E-1,1.6758779E-1,-1.9713085E-2,2.4E-1,-4.2838402E-2,3.743554E-2,9.1423184E-1,-2.0392574E-1,8.0467105E-1,-3.4418534E-2,-3.8652122E-1,-7.6966983E-1,2.4E-1,-2.9203147E-2,-9.04531E-1,-7.2182107E-1,6.7304194E-2,-2.3586642E-2,3.981929E-2,-2.3586642E-2,2.4E-1,-3.2347552E-2,8.483226E-1,1.08411625E-1,2.4E-1,-3.651923E-2,-1.1199749E-2,-4.2994916E-2,1.3922766E-1,-6.621486E-1,-1.9021071E-2,2.4E-1,6.908492E-2,-4.262846E-2,2.4E-1,-4.2262197E-2,2.4E-1,-3.638676E-2,6.696288E-2,-4.2955082E-2],"split_indices":[355,355,327,352,362,331,0,334,319,321,336,0,319,320,0,314,371,0,0,0,0,325,314,369,0,355,320,0,0,352,370,324,0,0,0,0,0,353,0,0,0,334,0,367,370,0,0,0,0,0,0,0,0,0,0],"split_type":[0,0,0,0,0,0,0,0,0,0,0,0,0,0,0,0,0,0,0,0,0,0,0,0,0,0,0,0,0,0,0,0,0,0,0,0,0,0,0,0,0,0,0,0,0,0,0,0,0,0,0,0,0,0,0],"sum_hessian":[2.0754922E5,1.9298795E5,1.4561255E4,1.9216525E5,8.227049E2,1.434213E4,2.1912483E2,2.732908E3,1.8943234E5,6.605278E1,7.566521E2,6.281644E0,1.4335849E4,6.3153824E1,2.6697542E3,9.278012E0,1.8942306E5,3.4100354E0,6.264275E1,7.544765E2,2.1756084E0,1.4329304E4,6.5446577E0,5.047836E1,1.2675463E1,2.6480864E3,2.1667746E1,2.1480646E0,7.129948E0,1.868443E5,2.578763E3,1.4324814E4,4.4892263E0,2.055431E0,4.4892263E0,4.0654682E1,9.82368E0,2.6459536E3,2.1327453E0,4.238983E0,1.7428762E1,1.3431394E3,1.8550116E5,3.8126846E1,2.540636E3,3.2539384E0,1.4321561E4,3.5827177E0,2.6423708E3,4.709981E0,1.3384293E3,2.1086962E1,1.7039883E1,1.6870577E1,2.5237654E3],"tree_param":{"num_deleted":"0","num_feature":"378","num_nodes":"55","size_leaf_vector":"1"}},{"base_weights":[-1.0838466E-4,3E0,-5.812361E-1,2.4E-1,-4.5715198E-2,-5.8135474E-1,2.3194927E-1,-4.6526384E-2,-5.185649E-1,2.4E-1,-5.77513E-1,1.0027136E-2,-4.6416014E-2],"categories":[],"categories_nodes":[],"categories_segments":[],"categories_sizes":[],"default_left":[0,0,0,0,0,0,0,0,0,0,0,0,0],"id":7,"left_children":[1,3,5,-1,-1,7,-1,-1,9,-1,11,-1,-1],"loss_changes":[7.791558E5,2.07225E3,1.4160156E2,0E0,0E0,3.75E0,0E0,0E0,2.6223645E2,0E0,2.463623E0,0E0,0E0],"parents":[2147483647,0,0,1,1,2,2,5,5,8,8,10,10],"right_children":[2,4,6,-1,-1,8,-1,-1,10,-1,12,-1,-1],"split_conditions":[-8.5873973E-1,-8.294788E-1,1.5584816E0,2.4E-1,-4.5715198E-2,1.4215561E0,2.3194927E-1,-4.6526384E-2,-1.2502419E0,2.4E-1,-9.099066E-1,1.0027136E-2,-4.6416014E-2],"split_indices":[334,320,174,0,0,156,0,0,186,0,193,0,0],"split_type":[0,0,0,0,0,0,0,0,0,0,0,0,0],"sum_hessian":[3.8551394E5,5.4211156E4,3.3130278E5,5.4049445E4,1.6170981E2,3.312933E5,9.480594E0,3.300856E5,1.2077115E3,1.7625854E1,1.1900857E3,3.4762754E0,1.1866095E3],"tree_param":{"num_deleted":"0","num_feature":"378","num_nodes":"13","size_leaf_vector":"1"}},{"base_weights":[-1.4492484E-3,-5.2251405E-1,3E0,-5.292449E-1,1.0803757E0,2.4E-1,-1.5630513E-2,1.0243601E0,-4.234476E-2,-1.4727075E-1,3E0,1.708325E-1,-1.677241E-2,3E0,-3.0569527E-1,-4.0965584E-1,3E0,2.4E-1,-2.9679613E-2,-3.703395E-1,2.4E-1,-3.9507367E-2,3.0924218E-2,-3.5131833E-1,3E0,2.4E-1,-4.361268E-1,5.002848E-2,-3.8130175E-2,2.4E-1,-3.3280134E-2,2.1047023E-1,-3.7020214E-2],"categories":[],"categories_nodes":[],"categories_segments":[],"categories_sizes":[],"default_left":[0,0,0,0,0,0,0,0,0,0,0,0,0,0,0,0,0,0,0,0,0,0,0,0,0,0,0,0,0,0,0,0,0],"id":8,"left_children":[1,3,5,7,9,-1,-1,11,-1,13,15,-1,-1,17,19,21,23,-1,-1,25,-1,-1,-1,27,29,-1,31,-1,-1,-1,-1,-1,-1],"loss_changes":[4.5446112E5,1.7046992E3,3.134375E1,1.7375E1,2.2811382E3,0E0,0E0,1.2123521E1,0E0,2.9374823E2,5.3008325E2,0E0,0E0,9.574112E1,1.3385701E2,3.8503847E0,3.3856714E2,0E0,0E0,1.3526633E2,0E0,0E0,0E0,4.962042E0,1.4441943E2,0E0,4.075979E1,0E0,0E0,0E0,0E0,0E0,0E0],"parents":[2147483647,0,0,1,1,2,2,3,3,4,4,7,7,9,9,10,10,13,13,14,14,15,15,16,16,19,19,23,23,24,24,26,26],"right_children":[2,4,6,8,10,-1,-1,12,-1,14,16,-1,-1,18,20,22,24,-1,-1,26,-1,-1,-1,28,30,-1,32,-1,-1,-1,-1,-1,-1],"split_conditions":[1.5624183E0,4.3602623E-2,1.2924649E0,-8.7662715E-1,3.8216478E-1,2.4E-1,-1.5630513E-2,1.1241039E0,-4.234476E-2,-2.5523715E0,2.1849069E-1,1.708325E-1,-1.677241E-2,1.9688101E0,6.6847664E-1,1.3521711E0,-6.5609443E-1,2.4E-1,-2.9679613E-2,-9.355828E-1,2.4E-1,-3.9507367E-2,3.0924218E-2,-6.4816993E-1,8.994922E-1,2.4E-1,-7.187525E-1,5.002848E-2,-3.8130175E-2,2.4E-1,-3.3280134E-2,2.1047023E-1,-3.7020214E-2],"split_indices":[333,333,171,323,325,0,0,314,0,40,332,0,0,16,364,344,320,0,0,351,0,0,0,327,351,0,327,0,0,0,0,0,0],"split_type":[0,0,0,0,0,0,0,0,0,0,0,0,0,0,0,0,0,0,0,0,0,0,0,0,0,0,0,0,0,0,0,0,0],"sum_hessian":[1.6696053E5,1.5784592E5,9.114615E3,1.571875E5,6.584125E2,9.111948E3,2.6674497E0,4.8974466E0,1.5718261E5,4.7534012E2,1.8307236E2,2.0215855E0,2.8758612E0,1.6135727E1,4.592044E2,4.497963E1,1.3809273E2,8.291128E0,7.8445983E0,4.5505838E2,4.1460276E0,4.1933346E1,3.0462852E0,2.9582674E1,1.08510056E2,4.3428097E0,4.5071558E2,2.0026417E0,2.7580032E1,9.675547E1,1.1754585E1,2.0339184E0,4.4868164E2],"tree_param":{"num_deleted":"0","num_feature":"378","num_nodes":"33","size_leaf_vector":"1"}},{"base_weights":[-8.6634397E-4,-5.1154073E-2,2.2826297E0,2.2915947E0,-5.0765585E-2,2.2929358E0,-4.862483E-2,1.8343762E-1,2.0262439E-2],"categories":[],"categories_nodes":[],"categories_segments":[],"categories_sizes":[],"default_left":[0,0,0,0,0,0,0,0,0],"id":9,"left_children":[1,-1,3,5,-1,7,-1,-1,-1],"loss_changes":[7.940563E5,0E0,3.1155E3,4.643125E2,0E0,4.9375E0,0E0,0E0,0E0],"parents":[2147483647,0,0,2,2,3,3,5,5],"right_children":[2,-1,4,6,-1,8,-1,-1,-1],"split_conditions":[3.708083E-1,-5.1154073E-2,-2.844149E-1,3.661915E-1,-5.0765585E-2,4.4678694E-1,-4.862483E-2,1.8343762E-1,2.0262439E-2],"split_indices":[316,0,191,349,0,328,0,0,0],"split_type":[0,0,0,0,0,0,0,0,0],"sum_hessian":[5.445595E5,4.255577E5,1.1900181E5,1.1863781E5,3.639984E2,1.18583555E5,5.4257915E1,1.1858107E5,2.4854603E0],"tree_param":{"num_deleted":"0","num_feature":"378","num_nodes":"9","size_leaf_vector":"1"}},{"base_weights":[4.5531525E-4,-5.27777E-1,3E0,2.4E-1,-5.284548E-1,2.4E-1,-4.1464362E-2,3E0,-5.287937E-1,-1.905829E-2,2.4E-1,-5.3012305E-1,-2.0037213E-1,-1.4187434E-1,-5.3026366E-1,2.4E-1,-4.228383E-2,2.4E-1,-4.042815E-2,-4.123307E-1,-5.3063834E-1,2.4E-1,-4.2240098E-2,-1.1923588E-2,-4.2455778E-2],"categories":[],"categories_nodes":[],"categories_segments":[],"categories_sizes":[],"default_left":[0,0,0,0,0,0,0,0,0,0,0,0,0,0,0,0,0,0,0,0,0,0,0,0,0],"id":10,"left_children":[1,3,5,-1,7,-1,-1,9,11,-1,-1,13,15,17,19,-1,-1,-1,-1,21,23,-1,-1,-1,-1],"loss_changes":[4.764533E5,6.1816016E2,1.5110312E3,0E0,2.5841797E2,0E0,0E0,3.9688095E1,7.1421875E1,0E0,0E0,8.359375E0,1.1611488E3,1.0452123E2,6.5039062E0,0E0,0E0,0E0,0E0,3.2588516E2,3.0625E0,0E0,0E0,0E0,0E0],"parents":[2147483647,0,0,1,1,2,2,4,4,7,7,8,8,11,11,12,12,13,13,14,14,19,19,20,20],"right_children":[2,4,6,-1,8,-1,-1,10,12,-1,-1,14,16,18,20,-1,-1,-1,-1,22,24,-1,-1,-1,-1],"split_conditions":[2.1248322E0,-9.319462E-1,5.606714E-1,2.4E-1,-9.1075706E-1,2.4E-1,-4.1464362E-2,-8.155661E-1,1.8757632E0,-1.905829E-2,2.4E-1,-8.748896E-1,6.7304194E-2,1.2890494E0,-4.7194204E-1,2.4E-1,-4.228383E-2,2.4E-1,-4.042815E-2,-1.667086E-1,-9.0210146E-1,2.4E-1,-4.2240098E-2,-1.1923588E-2,-4.2455778E-2],"split_indices":[373,344,351,0,329,0,0,319,373,0,0,344,324,327,336,0,0,0,0,326,329,0,0,0,0],"split_type":[0,0,0,0,0,0,0,0,0,0,0,0,0,0,0,0,0,0,0,0,0,0,0,0,0],"sum_hessian":[1.753661E5,1.6506539E5,1.030069E4,1.2292147E1,1.6505311E5,1.0179329E4,1.21361374E2,9.481683E0,1.6504362E5,3.335609E0,6.1460733E0,1.6437553E5,6.680879E2,6.152268E1,1.6431402E5,2.4160427E1,6.439275E2,2.5432029E0,5.8979477E1,5.316228E2,1.6378239E5,6.781874E0,5.2484094E2,2.7350353E1,1.6375505E5],"tree_param":{"num_deleted":"0","num_feature":"378","num_nodes":"25","size_leaf_vector":"1"}},{"base_weights":[8.256305E-3,-5.2705526E-1,3E0,-5.2968514E-1,8.0885984E-2,3E0,-3.909905E-1,-4.444419E-1,-4.2437732E-2,3E0,-5.0522864E-1,-3.408646E-2,3E0,-4.7511488E-1,2.4E-1,-5.219861E-1,3E0,2.4E-1,-2.2319227E-2,-5.225687E-1,1.4007466E0,3E0,3.6084105E-3,-1.492677E-1,-4.2214856E-2,-4.2458974E-2,-3.5332914E-2,2.4E-1,-2.8407553E-2,-4.226915E-2,-2.5664514E-2,-1.1588607E-2,1.9014263E-1,2.4E-1,3.5817266E-2,1.1929613E0,-4.7066504E-1,2.1020488E-1,-3.79359E-2,4.139058E-2,-2.7585033E-2,-1.6833067E-1,2.4E-1,4.6361536E-3,-4.0226206E-2,-2.5653891E-2,5.6859083E-3],"categories":[],"categories_nodes":[],"categories_segments":[],"categories_sizes":[],"default_left":[0,0,0,0,0,0,0,0,0,0,0,0,0,0,0,0,0,0,0,0,0,0,0,0,0,0,0,0,0,0,0,0,0,0,0,0,0,0,0,0,0,0,0,0,0,0,0],"id":11,"left_children":[1,3,5,7,9,11,13,15,-1,17,19,-1,21,23,-1,25,27,-1,-1,29,31,33,-1,35,-1,-1,37,-1,-1,-1,39,-1,-1,-1,-1,41,43,-1,-1,-1,-1,45,-1,-1,-1,-1,-1],"loss_changes":[4.438145E5,2.6239844E2,5.2884062E3,1.0171875E1,1.8559716E3,1.58E2,1.7976932E2,5.1186792E2,0E0,5.0188843E1,2.342981E1,0E0,1.428125E1,7.2732925E0,0E0,5.8009033E0,8.352463E1,0E0,0E0,1.305069E0,1.139323E1,6.46875E0,0E0,3.1280579E1,0E0,0E0,3.8871986E1,0E0,0E0,0E0,2.9068842E0,0E0,0E0,0E0,0E0,3.7402954E1,1.089634E0,0E0,0E0,0E0,0E0,6.5266335E-1,0E0,0E0,0E0,0E0,0E0],"parents":[2147483647,0,0,1,1,2,2,3,3,4,4,5,5,6,6,7,7,9,9,10,10,12,12,13,13,15,15,16,16,19,19,20,20,21,21,23,23,26,26,30,30,35,35,36,36,41,41],"right_children":[2,4,6,8,10,12,14,16,-1,18,20,-1,22,24,-1,26,28,-1,-1,30,32,34,-1,36,-1,-1,38,-1,-1,-1,40,-1,-1,-1,-1,42,44,-1,-1,-1,-1,46,-1,-1,-1,-1,-1],"split_conditions":[5.1566774E-1,3.1352037E-1,6.043974E-1,-9.572728E-1,-4.1668597E-1,4.3438885E-1,1.2924649E0,2.5846082E-1,-4.2437732E-2,2.3127556E-2,1.2068555E0,-3.408646E-2,5.757325E-1,-1.0056262E0,2.4E-1,1.2548668E-2,2.3250349E-2,2.4E-1,-2.2319227E-2,9.3246055E-1,-6.452231E-2,1.5519468E-1,3.6084105E-3,9.942753E-1,-4.2214856E-2,-4.2458974E-2,4.367042E-2,2.4E-1,-2.8407553E-2,-4.226915E-2,5.290976E-1,-1.1588607E-2,1.9014263E-1,2.4E-1,3.5817266E-2,6.4754385E-1,-9.113325E-1,2.1020488E-1,-3.79359E-2,4.139058E-2,-2.7585033E-2,5.947987E-1,2.4E-1,4.6361536E-3,-4.0226206E-2,-2.5653891E-2,5.6859083E-3],"split_indices":[335,335,365,355,364,317,171,317,0,356,352,0,353,183,0,317,336,0,0,352,319,346,0,365,0,0,336,0,0,0,365,0,0,0,0,368,115,0,0,0,0,324,0,0,0,0,0],"split_type":[0,0,0,0,0,0,0,0,0,0,0,0,0,0,0,0,0,0,0,0,0,0,0,0,0,0,0,0,0,0,0,0,0,0,0,0,0,0,0,0,0,0,0,0,0,0,0],"sum_hessian":[1.7839873E5,1.6403238E5,1.436635E4,1.6332692E5,7.054591E2,1.3907038E4,4.5931155E2,1.5094198E3,1.618175E5,6.480863E1,6.4065045E2,1.2829097E1,1.3894209E4,4.5363306E2,5.678502E0,1.4863259E3,2.3093882E1,6.063199E1,4.176641E0,6.3657306E2,4.077401E0,1.3892002E4,2.207549E0,6.540793E1,3.8822513E2,1.4588835E3,2.7442383E1,1.623961E1,6.8542714E0,6.281141E2,8.458969E0,2.0391681E0,2.0382333E0,1.3889622E4,2.379491E0,1.1287875E1,5.4120052E1,2.310345E0,2.5132038E1,2.0914044E0,6.3675647E0,7.4053745E0,3.8825004E0,2.120369E0,5.1999683E1,5.3869953E0,2.0183792E0],"tree_param":{"num_deleted":"0","num_feature":"378","num_nodes":"47","size_leaf_vector":"1"}},{"base_weights":[-7.907342E-3,-5.965498E-1,1.7240949E0,1.7217258E0,-6.305838E-1,1.7911329E0,-5.2272413E-2,-5.122401E-2,1.43248E-1,-6.347679E-1,1.6887456E0,7.4740946E-3,1.4329235E-1,-2.938988E-2,-6.407828E-1,-4.7679473E-2,1.4291185E-1,1.4303912E-1,-6.5159243E-1,-6.428036E-1,7.99764E-1,2.1274664E-2,-5.2248433E-2,4.7733232E-1,-6.4480036E-1,1.4206839E-1,-6.2530494E-1,1.4248487E-1,-5.195993E-2,-5.16212E-2,1.3985915E-1,-5.149884E-2,5.2981723E-2],"categories":[],"categories_nodes":[],"categories_segments":[],"categories_sizes":[],"default_left":[0,0,0,0,0,0,0,0,0,0,0,0,0,0,0,0,0,0,0,0,0,0,0,0,0,0,0,0,0,0,0,0,0],"id":12,"left_children":[1,3,5,7,9,11,-1,-1,-1,13,15,-1,-1,17,19,-1,-1,-1,21,23,25,-1,-1,27,29,-1,31,-1,-1,-1,-1,-1,-1],"loss_changes":[5.9437556E5,3.433342E4,2.3572E4,1.0269082E3,4.1643594E3,3.15625E0,0E0,0E0,0E0,1.558E3,1.7493237E2,0E0,0E0,4.7692783E3,1.2352969E3,0E0,0E0,0E0,4.8428955E0,9.4746875E2,8.306467E2,0E0,0E0,1.112026E3,4.7289062E2,0E0,6.9745255E0,0E0,0E0,0E0,0E0,0E0,0E0],"parents":[2147483647,0,0,1,1,2,2,3,3,4,4,5,5,9,9,10,10,13,13,14,14,18,18,19,19,20,20,23,23,24,24,26,26],"right_children":[2,4,6,8,10,12,-1,-1,-1,14,16,-1,-1,18,20,-1,-1,-1,22,24,26,-1,-1,28,30,-1,32,-1,-1,-1,-1,-1,-1],"split_conditions":[-2.059412E-1,-8.252627E-1,3.2259554E-1,-7.5858575E-1,5.1993375E0,-5.9928423E-1,-5.2272413E-2,-5.122401E-2,1.43248E-1,-2.0860047E0,2.1329286E-2,7.4740946E-3,1.4329235E-1,1.1376773E0,5.1993375E0,-4.7679473E-2,1.4291185E-1,1.4303912E-1,-1.981721E-1,-8.396458E-1,-4.2895287E-2,2.1274664E-2,-5.2248433E-2,8.905023E-2,2.5117912E0,1.4206839E-1,-1.114276E-1,1.4248487E-1,-5.195993E-2,-5.16212E-2,1.3985915E-1,-5.149884E-2,5.2981723E-2],"split_indices":[191,359,338,315,61,348,0,0,0,250,290,0,0,16,165,0,0,0,337,327,361,0,0,337,146,0,329,0,0,0,0,0,0],"split_type":[0,0,0,0,0,0,0,0,0,0,0,0,0,0,0,0,0,0,0,0,0,0,0,0,0,0,0,0,0,0,0,0,0],"sum_hessian":[5.8298406E5,4.3510856E5,1.4787547E5,6.2936504E3,4.2881494E5,1.4382086E5,4.0545984E3,1.7764104E2,6.11601E3,4.280444E5,7.7052466E2,2.2215679E0,1.4381864E5,4.2120205E3,4.2383238E5,3.0955011E1,7.3956964E2,1.0730931E3,3.1389275E3,4.232401E5,5.922854E2,4.04813E0,3.1348794E3,7.518256E2,4.2248828E5,3.5143265E2,2.4085274E2,3.482211E2,4.0360452E2,4.2240794E5,8.034513E1,2.388226E2,2.0301385E0],"tree_param":{"num_deleted":"0","num_feature":"378","num_nodes":"33","size_leaf_vector":"1"}},{"base_weights":[1.2249292E-2,-4.0845495E-2,3E0,-3.990053E-2,2.4E-1],"categories":[],"categories_nodes":[],"categories_segments":[],"categories_sizes":[],"default_left":[0,0,0,0,0],"id":13,"left_children":[1,-1,3,-1,-1],"loss_changes":[1.9714231E5,0E0,1.5775469E3,0E0,0E0],"parents":[2147483647,0,0,2,2],"right_children":[2,-1,4,-1,-1],"split_conditions":[4.636365E-1,-4.0845495E-2,6.043974E-1,-3.990053E-2,2.4E-1],"split_indices":[329,0,365,0,0],"split_type":[0,0,0,0,0],"sum_hessian":[6.53328E4,6.3319098E4,2.0137064E3,1.2817859E2,1.8855278E3],"tree_param":{"num_deleted":"0","num_feature":"378","num_nodes":"5","size_leaf_vector":"1"}},{"base_weights":[4.263065E-3,3E0,-5.322698E-1,-4.311519E-2,2.4E-1,-5.3781754E-1,1.289101E0,-5.3944224E-1,1.6519333E0,2.4E-1,-4.3120228E-2,-5.402088E-1,6.542823E-1,2.4E-1,-4.213654E-2,-5.404497E-1,1.2858461E0,2.4E-1,-4.2314205E-2,-3.825448E-1,-5.4140806E-1,2.4E-1,-3.6647893E-2,2.4E-1,-4.3385316E-2,-4.331579E-2,9.240131E-2],"categories":[],"categories_nodes":[],"categories_segments":[],"categories_sizes":[],"default_left":[0,0,0,0,0,0,0,0,0,0,0,0,0,0,0,0,0,0,0,0,0,0,0,0,0,0,0],"id":14,"left_children":[1,3,5,-1,-1,7,9,11,13,-1,-1,15,17,-1,-1,19,21,-1,-1,23,25,-1,-1,-1,-1,-1,-1],"loss_changes":[5.2195528E5,5.680125E3,2.144789E3,0E0,0E0,7.5476953E2,3.3624111E3,1.94375E2,8.4164703E2,0E0,0E0,9.4890625E1,5.5012646E2,0E0,0E0,3.1183594E1,1.2497304E2,0E0,0E0,9.0142725E2,1.5824219E1,0E0,0E0,0E0,0E0,0E0,0E0],"parents":[2147483647,0,0,1,1,2,2,5,5,6,6,7,7,8,8,11,11,12,12,15,15,16,16,19,19,20,20],"right_children":[2,4,6,-1,-1,8,10,12,14,-1,-1,16,18,-1,-1,20,22,-1,-1,24,26,-1,-1,-1,-1,-1,-1],"split_conditions":[-6.896474E-1,4.9655538E-2,1.9692662E0,-4.311519E-2,2.4E-1,1.8117752E0,2.7163213E-1,3.1872993E0,2.2525735E-1,2.4E-1,-4.3120228E-2,1.503006E0,2.2525735E-1,2.4E-1,-4.213654E-2,-2.8118575E0,2.2525735E-1,2.4E-1,-4.2314205E-2,2.2525735E-1,3.2193046E0,2.4E-1,-3.6647893E-2,2.4E-1,-4.3385316E-2,-4.331579E-2,9.240131E-2],"split_indices":[377,334,200,0,0,324,321,152,321,0,0,334,321,0,0,235,321,0,0,321,206,0,0,0,0,0,0],"split_type":[0,0,0,0,0,0,0,0,0,0,0,0,0,0,0,0,0,0,0,0,0,0,0,0,0,0,0],"sum_hessian":[2.3665453E5,2.459903E4,2.120555E5,4.528116E2,2.4146219E4,2.1141323E5,6.4226465E2,2.1125822E5,1.5501031E2,2.2415489E2,4.1810977E2,2.1112416E5,1.3407126E2,6.527839E1,8.9731926E1,2.11098E5,2.6160769E1,3.0774408E1,1.03296844E2,1.2814585E3,2.0981653E5,9.664289E0,1.6496479E1,3.9891216E1,1.2415673E3,2.0981333E5,3.2091775E0],"tree_param":{"num_deleted":"0","num_feature":"378","num_nodes":"27","size_leaf_vector":"1"}},{"base_weights":[1.1535544E-2,-5.141839E-1,3E0,-5.154247E-1,6.508193E-1,-4.9524432E-1,3E0,-5.1592207E-1,1.0401174E0,2.4E-1,-4.0173523E-2,-5.0759757E-1,4.1883E-2,3E0,-3.808696E-2,-5.1709217E-1,-3.5550833E-1,2.4E-1,-3.710669E-2,-4.110296E-2,-0E0,-3.0317293E-2,3E0,-4.13846E-2,-4.5915735E-1,3E0,-4.66752E-1,1.4635458E-2,-1.4345267E-2,-3.1961899E-3,3E0,2.4E-1,-5.050689E-1,2.4E-1,-3.3418246E-2,6.428728E-1,-4.100775E-2,2.4E-1,-1.1561701E-2,3.2411157E-3,-4.086521E-2,-2.0991594E-2,2.4E-1],"categories":[],"categories_nodes":[],"categories_segments":[],"categories_sizes":[],"default_left":[0,0,0,0,0,0,0,0,0,0,0,0,0,0,0,0,0,0,0,0,0,0,0,0,0,0,0,0,0,0,0,0,0,0,0,0,0,0,0,0,0,0,0],"id":15,"left_children":[1,3,5,7,9,11,13,15,17,-1,-1,19,-1,21,-1,23,25,-1,-1,-1,27,-1,29,-1,31,33,35,-1,-1,-1,37,-1,39,-1,-1,41,-1,-1,-1,-1,-1,-1,-1],"loss_changes":[2.977014E5,1.4732031E2,4.4815625E3,7.981055E1,5.712567E2,5.4450226E0,4.295E2,1.8265625E1,1.9954663E2,0E0,0E0,8.625107E-1,0E0,1.096875E2,0E0,4.921875E-1,2.962384E2,0E0,0E0,0E0,6.421957E-1,0E0,3.53125E1,0E0,6.792541E1,1.627595E2,3.771727E1,0E0,0E0,0E0,2.421875E1,0E0,1.3075867E0,0E0,0E0,8.0268105E1,0E0,0E0,0E0,0E0,0E0,0E0,0E0],"parents":[2147483647,0,0,1,1,2,2,3,3,4,4,5,5,6,6,7,7,8,8,11,11,13,13,15,15,16,16,20,20,22,22,24,24,25,25,26,26,30,30,32,32,35,35],"right_children":[2,4,6,8,10,12,14,16,18,-1,-1,20,-1,22,-1,24,26,-1,-1,-1,28,-1,30,-1,32,34,36,-1,-1,-1,38,-1,40,-1,-1,42,-1,-1,-1,-1,-1,-1,-1],"split_conditions":[7.4049026E-1,1.5480689E0,4.235624E-2,1.8846843E0,1.5624183E0,3.6169332E-1,1.3695675E0,4.9944064E-1,-8.7755495E-1,2.4E-1,-4.0173523E-2,7.2691494E-1,4.1883E-2,-6.5784204E-1,-3.808696E-2,6.035558E-1,-8.6285806E-1,2.4E-1,-3.710669E-2,-4.110296E-2,1.1705061E0,-3.0317293E-2,-1.1344766E-1,-4.13846E-2,-3.3921844E-1,-5.7767546E-1,-5.6577796E-1,1.4635458E-2,-1.4345267E-2,-3.1961899E-3,5.606714E-1,2.4E-1,-2.0115922E-1,2.4E-1,-3.3418246E-2,-1.6221948E-1,-4.100775E-2,2.4E-1,-1.1561701E-2,3.2411157E-3,-4.086521E-2,-2.0991594E-2,2.4E-1],"split_indices":[345,353,365,339,333,348,0,360,351,0,0,334,0,340,0,345,351,0,0,0,225,0,356,0,320,320,376,0,0,0,351,0,320,0,0,346,0,0,0,0,0,0,0],"split_type":[0,0,0,0,0,0,0,0,0,0,0,0,0,0,0,0,0,0,0,0,0,0,0,0,0,0,0,0,0,0,0,0,0,0,0,0,0,0,0,0,0,0,0],"sum_hessian":[1.0662366E5,1.0121499E5,5.4086626E3,1.0110884E5,1.06149055E2,3.6614816E2,5.042514E3,1.0107819E5,3.0655445E1,1.1895535E1,9.425352E1,3.6323804E2,2.9101279E0,5.007645E3,3.4869453E1,1.0033871E5,7.394792E2,4.4779935E0,2.617745E1,3.5869656E2,4.5414944E0,9.018829E0,4.998626E3,9.994269E4,3.9602155E2,2.0670708E1,7.188085E2,2.0272107E0,2.514284E0,3.6022542E0,4.995024E3,3.3497734E0,3.9267175E2,7.360049E0,1.3310659E1,2.7053617E1,6.917548E2,4.9929194E3,2.1043537E0,3.059609E0,3.8961215E2,2.190191E1,5.1517057E0],"tree_param":{"num_deleted":"0","num_feature":"378","num_nodes":"43","size_leaf_vector":"1"}},{"base_weights":[1.789497E-2,-5.0711596E-1,3E0,-5.094093E-1,3E0,-4.01014E-2,2.4E-1,-5.101739E-1,3E0,-2.4934381E-2,2.4E-1,-4.0827505E-2,3.4348613E-1,-2.5429348E-2,2.4E-1,1.8185015E-1,-2.9844927E-2],"categories":[],"categories_nodes":[],"categories_segments":[],"categories_sizes":[],"default_left":[0,0,0,0,0,0,0,0,0,0,0,0,0,0,0,0,0],"id":16,"left_children":[1,3,5,7,9,-1,-1,11,13,-1,-1,-1,15,-1,-1,-1,-1],"loss_changes":[1.9519792E5,8.2222266E2,1.9482188E3,2.1277246E2,6.762854E1,0E0,0E0,9.588867E0,7.059589E1,0E0,0E0,0E0,2.2817774E1,0E0,0E0,0E0,0E0],"parents":[2147483647,0,0,1,1,2,2,3,3,4,4,7,7,8,8,12,12],"right_children":[2,4,6,8,10,-1,-1,12,14,-1,-1,-1,16,-1,-1,-1,-1],"split_conditions":[1.6665848E0,1.3878493E0,3.035298E-1,3.238766E0,2.2525735E-1,-4.01014E-2,2.4E-1,3.2019513E0,2.413539E0,-2.4934381E-2,2.4E-1,-4.0827505E-2,-1.1586062E-1,-2.5429348E-2,2.4E-1,1.8185015E-1,-2.9844927E-2],"split_indices":[314,347,352,125,321,0,0,118,24,0,0,0,366,0,0,0,0],"split_type":[0,0,0,0,0,0,0,0,0,0,0,0,0,0,0,0,0],"sum_hessian":[6.4536676E4,6.253111E4,2.0055634E3,6.2517652E4,1.3459953E1,1.582283E2,1.847335E3,6.2509168E4,8.484249E0,5.6424923E0,7.8174605E0,6.2498117E4,1.1047671E1,5.8830056E0,2.6012435E0,2.0040243E0,9.043648E0],"tree_param":{"num_deleted":"0","num_feature":"378","num_nodes":"17","size_leaf_vector":"1"}},{"base_weights":[6.863014E-3,-5.3024656E-1,3E0,-5.327718E-1,5.568765E-2,3E0,-4.223007E-2,-4.2780364E-1,-5.3511995E-1,3E0,-4.269859E-2,-2.8634034E-2,3E0,3E0,-5.0003064E-1,8.7435997E-1,-5.3517956E-1,3.2337755E-2,2.4E-1,3E0,-0E0,2.4E-1,-1.2156082E-2,-5.116361E-1,3E0,1.8191822E-1,-2.2139106E-2,-4.2875107E-2,-4.81284E-1,3E0,-2.1931404E-2,-2.2228073E-2,3.89142E-2,-1.5391423E-2,-5.221272E-1,-1.4757758E-2,2.4E-1,2.9176543E0,-5.236341E-1,3E0,-1.9842148E-2,-3.4048792E-2,2.4E-1,-4.1989625E-2,8.935335E-2,-3.285354E-2,2.4E-1,3.6064632E-2,-4.2919867E-2,2.4E-1,7.2062165E-2],"categories":[],"categories_nodes":[],"categories_segments":[],"categories_sizes":[],"default_left":[0,0,0,0,0,0,0,0,0,0,0,0,0,0,0,0,0,0,0,0,0,0,0,0,0,0,0,0,0,0,0,0,0,0,0,0,0,0,0,0,0,0,0,0,0,0,0,0,0,0,0],"id":17,"left_children":[1,3,5,7,9,11,-1,13,15,17,-1,-1,19,21,23,25,27,-1,-1,29,31,-1,-1,33,35,-1,-1,-1,37,39,-1,-1,-1,41,43,-1,-1,45,47,49,-1,-1,-1,-1,-1,-1,-1,-1,-1,-1,-1],"loss_changes":[4.8765788E5,2.7609766E2,2.5150312E3,4.5003906E1,2.0445732E3,8.284375E1,0E0,1.3915168E3,1.6636719E1,7.8723145E0,0E0,0E0,5.2E1,2.4232056E1,1.7964966E2,1.652665E1,6.6289062E0,0E0,0E0,4.78125E1,2.2009792E0,0E0,0E0,2.0395508E1,2.8819016E1,0E0,0E0,0E0,3.71963E2,4.04375E1,0E0,0E0,0E0,1.2388566E2,1.9414795E1,0E0,0E0,1.2837903E2,3.235144E1,3.534375E1,0E0,0E0,0E0,0E0,0E0,0E0,0E0,0E0,0E0,0E0,0E0],"parents":[2147483647,0,0,1,1,2,2,3,3,4,4,5,5,7,7,8,8,9,9,12,12,13,13,14,14,15,15,16,16,19,19,20,20,23,23,24,24,28,28,29,29,33,33,34,34,37,37,38,38,39,39],"right_children":[2,4,6,8,10,12,-1,14,16,18,-1,-1,20,22,24,26,28,-1,-1,30,32,-1,-1,34,36,-1,-1,-1,38,40,-1,-1,-1,42,44,-1,-1,46,48,50,-1,-1,-1,-1,-1,-1,-1,-1,-1,-1,-1],"split_conditions":[9.181402E-1,4.9710855E-1,3.856638E-1,-9.04531E-1,-7.2182107E-1,-1.2634113E-1,-4.223007E-2,3.9644217E-1,-9.129187E-1,2.797623E-1,-4.269859E-2,-2.8634034E-2,-2.5814387E-1,1.8846843E0,-3.2805008E-1,-8.316468E-1,1.6758779E-1,3.2337755E-2,2.4E-1,9.1423184E-1,-4.95431E-1,2.4E-1,-1.2156082E-2,6.1117715E-1,2.1196682E0,1.8191822E-1,-2.2139106E-2,-4.2875107E-2,-8.012089E-1,6.419951E-2,-2.1931404E-2,-2.2228073E-2,3.89142E-2,-4.4728823E-2,2.4085503E0,-1.4757758E-2,2.4E-1,-1.2747441E-1,-6.621486E-1,4.315635E-1,-1.9842148E-2,-3.4048792E-2,2.4E-1,-4.1989625E-2,8.935335E-2,-3.285354E-2,2.4E-1,3.6064632E-2,-4.2919867E-2,2.4E-1,7.2062165E-2],"split_indices":[355,355,327,352,370,331,0,334,319,321,0,0,319,339,355,318,371,0,0,325,327,0,0,334,138,0,0,0,362,362,0,0,0,342,133,0,0,317,370,315,0,0,0,0,0,0,0,0,0,0,0],"split_type":[0,0,0,0,0,0,0,0,0,0,0,0,0,0,0,0,0,0,0,0,0,0,0,0,0,0,0,0,0,0,0,0,0,0,0,0,0,0,0,0,0,0,0,0,0,0,0,0,0,0,0],"sum_hessian":[2.0504534E5,1.8652842E5,1.8516924E4,1.8572898E5,7.994358E2,1.8315559E4,2.0136427E2,4.0764785E3,1.8165252E5,8.040116E1,7.190346E2,6.778386E0,1.830878E4,5.151887E1,4.0249595E3,6.087809E0,1.8164642E5,2.4475582E0,7.7953606E1,1.8302633E4,6.147435E0,4.9434223E1,2.0846493E0,4.0144338E3,1.0525789E1,2.0629148E0,4.024894E0,1.7909617E5,2.5502517E3,1.8298656E4,3.9768925E0,4.0491686E0,2.0982668E0,8.42012E1,3.9302327E3,2.450759E0,8.07503E0,2.956825E1,2.5206836E3,1.8295283E4,3.3734581E0,7.6848785E1,7.3524213E0,3.9253276E3,4.9048367E0,1.0426983E1,1.9141268E1,3.1450129E1,2.4892334E3,1.8284365E4,1.0917782E1],"tree_param":{"num_deleted":"0","num_feature":"378","num_nodes":"51","size_leaf_vector":"1"}},{"base_weights":[-4.298776E-3,2.790027E0,-5.7774144E-1,-4.5564793E-2,2.2387236E-1,-5.7785803E-1,1.884092E-1,-4.6248317E-2,-5.087709E-1,2.0150337E-1,-5.716485E-1,6.835523E-2,-4.6125103E-2],"categories":[],"categories_nodes":[],"categories_segments":[],"categories_sizes":[],"default_left":[0,0,0,0,0,0,0,0,0,0,0,0,0],"id":18,"left_children":[1,3,5,-1,-1,7,-1,-1,9,-1,11,-1,-1],"loss_changes":[6.190371E5,1.8549062E3,1.13515625E2,0E0,0E0,4.5390625E0,0E0,0E0,2.251854E2,0E0,9.40271E0,0E0,0E0],"parents":[2147483647,0,0,1,1,2,2,5,5,8,8,10,10],"right_children":[2,4,6,-1,-1,8,-1,-1,10,-1,12,-1,-1],"split_conditions":[-8.5873973E-1,-7.2146606E-1,1.5584816E0,-4.5564793E-2,2.2387236E-1,1.3759552E0,1.884092E-1,-4.6248317E-2,-1.2502419E0,2.0150337E-1,-9.0665835E-1,6.835523E-2,-4.6125103E-2],"split_indices":[334,319,174,0,0,166,0,0,186,0,191,0,0],"split_type":[0,0,0,0,0,0,0,0,0,0,0,0,0],"sum_hessian":[3.8631672E5,6.577815E4,3.205386E5,1.6314124E2,6.561501E4,3.2052762E5,1.0965951E1,3.1936894E5,1.1586702E3,2.182296E1,1.1368473E3,2.3681657E0,1.1344791E3],"tree_param":{"num_deleted":"0","num_feature":"378","num_nodes":"13","size_leaf_vector":"1"}},{"base_weights":[8.515606E-3,-5.215983E-1,3E0,-5.2819616E-1,9.6526E-1,2.4E-1,-1.8703217E-2,2.5372876E-2,-4.225782E-2,2.973E0,-2.7814576E-1,-3.6904854E-1,3E0,-4.36244E-1,2.4E-1,2.4E-1,-4.1032217E-2,-4.0940118E-1,3E0,-4.6063223E-1,1.6738607E-1,9.361103E-3,-3.787789E-2,3E0,-2.5401242E-2,-4.8992106E-1,1.1434598E0,2.4E-1,-2.446697E-2,-4.1095152E-2,-1.7990712E-2,-1.9862603E-2,2.077444E-1],"categories":[],"categories_nodes":[],"categories_segments":[],"categories_sizes":[],"default_left":[0,0,0,0,0,0,0,0,0,0,0,0,0,0,0,0,0,0,0,0,0,0,0,0,0,0,0,0,0,0,0,0,0],"id":19,"left_children":[1,3,5,7,9,-1,-1,-1,-1,11,13,15,17,19,-1,-1,-1,21,23,25,-1,-1,-1,27,-1,29,31,-1,-1,-1,-1,-1,-1],"loss_changes":[4.221074E5,1.4999141E3,3.88125E1,3.9140625E0,1.6903047E3,0E0,0E0,0E0,0E0,1.1016401E3,3.2575082E2,5.3858253E1,3.3210742E2,2.8299911E1,0E0,0E0,0E0,1.2757664E0,6.468872E1,2.0905396E1,0E0,0E0,0E0,5.992578E1,0E0,1.9383163E0,1.8986343E1,0E0,0E0,0E0,0E0,0E0,0E0],"parents":[2147483647,0,0,1,1,2,2,3,3,4,4,9,9,10,10,11,11,12,12,13,13,17,17,18,18,19,19,23,23,25,25,26,26],"right_children":[2,4,6,8,10,-1,-1,-1,-1,12,14,16,18,20,-1,-1,-1,22,24,26,-1,-1,-1,28,-1,30,32,-1,-1,-1,-1,-1,-1],"split_conditions":[1.5624183E0,4.3602623E-2,1.2924649E0,-8.7662715E-1,-4.0763356E-2,2.4E-1,-1.8703217E-2,2.5372876E-2,-4.225782E-2,5.706759E-2,1.3695675E0,-3.8180527E-1,1.53262E-1,1.5189012E0,2.4E-1,2.4E-1,-4.1032217E-2,-2.6819712E-1,1.6123222E0,1.5519468E-1,1.6738607E-1,9.361103E-3,-3.787789E-2,4.8088917E-1,-2.5401242E-2,1.0626448E-1,-6.7091115E-2,2.4E-1,-2.446697E-2,-4.1095152E-2,-1.7990712E-2,-1.9862603E-2,2.077444E-1],"split_indices":[333,333,173,323,350,0,0,0,0,334,0,326,332,361,0,0,0,370,340,346,0,0,0,358,0,346,356,0,0,0,0,0,0],"split_type":[0,0,0,0,0,0,0,0,0,0,0,0,0,0,0,0,0,0,0,0,0,0,0,0,0,0,0,0,0,0,0,0,0],"sum_hessian":[1.6450066E5,1.5273969E5,1.1760961E4,1.5206653E5,6.731627E2,1.1757694E4,3.2667053E0,3.447435E0,1.5206308E5,2.5654196E2,4.166208E2,9.649084E1,1.6005112E2,4.080969E2,8.523885E0,2.0750225E0,9.441582E1,2.7955055E1,1.3209605E2,4.0601425E2,2.0826378E0,2.0072675E0,2.5947788E1,1.2674808E2,5.3479786E0,4.004042E2,5.6100435E0,1.2178285E2,4.9652286E0,3.6399823E2,3.6405987E1,3.5371337E0,2.0729098E0],"tree_param":{"num_deleted":"0","num_feature":"378","num_nodes":"33","size_leaf_vector":"1"}},{"base_weights":[-7.527608E-3,-6.3273144E-1,1.9171749E0,-5.0393857E-2,-5.082461E-2,-5.0036196E-2,1.9239289E0,1.9248163E0,-4.7984537E-2,1.5401012E-1,-4.263524E-2],"categories":[],"categories_nodes":[],"categories_segments":[],"categories_sizes":[],"default_left":[0,0,0,0,0,0,0,0,0,0,0],"id":20,"left_children":[1,3,5,-1,-1,-1,7,9,-1,-1,-1],"loss_changes":[6.5970525E5,1.875E0,2.311E3,0E0,0E0,0E0,3.0284375E2,1.045E2,0E0,0E0,0E0],"parents":[2147483647,0,0,1,1,2,2,6,6,7,7],"right_children":[2,4,6,-1,-1,-1,8,10,-1,-1,-1],"split_conditions":[3.708083E-1,-3.4838954E-1,-9.4289936E-2,-5.0393857E-2,-5.082461E-2,-5.0036196E-2,3.661915E-1,-5.2785844E-1,-4.7984537E-2,1.5401012E-1,-4.263524E-2],"split_indices":[316,359,372,0,0,0,349,181,0,0,0],"split_type":[0,0,0,0,0,0,0,0,0,0,0],"sum_hessian":[5.4822675E5,4.138099E5,1.3441684E5,1.983193E5,2.1549062E5,3.5541724E2,1.3406144E5,1.3401498E5,4.645335E1,1.339987E5,1.6273987E1],"tree_param":{"num_deleted":"0","num_feature":"378","num_nodes":"11","size_leaf_vector":"1"}},{"base_weights":[8.900908E-3,-5.262287E-1,3E0,2.4E-1,-5.269167E-1,2.4E-1,-4.143208E-2,3E0,-5.2730286E-1,-1.7232586E-2,2.4E-1,-5.288301E-1,-1.6587646E-1,-3.7524655E-1,-5.293138E-1,2.4E-1,-4.2236395E-2,2.4E-1,-4.2129558E-2,-2.1322574E-1,-5.294232E-1,2.4E-1,-4.0202294E-2,-1.4339814E-2,-4.2358696E-2],"categories":[],"categories_nodes":[],"categories_segments":[],"categories_sizes":[],"default_left":[0,0,0,0,0,0,0,0,0,0,0,0,0,0,0,0,0,0,0,0,0,0,0,0,0],"id":21,"left_children":[1,3,5,-1,7,-1,-1,9,11,-1,-1,13,15,17,19,-1,-1,-1,-1,21,23,-1,-1,-1,-1],"loss_changes":[4.3856672E5,5.631211E2,1.5188438E3,0E0,2.7142578E2,0E0,0E0,3.487738E1,8.743359E1,0E0,0E0,1.1058594E1,1.1897681E3,3.7830093E2,4.8203125E0,0E0,0E0,0E0,0E0,6.815246E1,2.7304688E0,0E0,0E0,0E0,0E0],"parents":[2147483647,0,0,1,1,2,2,4,4,7,7,8,8,11,11,12,12,13,13,14,14,19,19,20,20],"right_children":[2,4,6,-1,8,-1,-1,10,12,-1,-1,14,16,18,20,-1,-1,-1,-1,22,24,-1,-1,-1,-1],"split_conditions":[2.1248322E0,-9.319462E-1,3.8541543E-1,2.4E-1,-9.1075706E-1,2.4E-1,-4.143208E-2,-8.155661E-1,1.8757632E0,-1.7232586E-2,2.4E-1,-4.7194204E-1,6.7304194E-2,-1.667086E-1,-8.748896E-1,2.4E-1,-4.2236395E-2,2.4E-1,-4.2129558E-2,1.2890494E0,-9.0210146E-1,2.4E-1,-4.0202294E-2,-1.4339814E-2,-4.2358696E-2],"split_indices":[373,344,324,0,329,0,0,319,373,0,0,336,324,326,344,0,0,0,0,327,329,0,0,0,0],"split_type":[0,0,0,0,0,0,0,0,0,0,0,0,0,0,0,0,0,0,0,0,0,0,0,0,0],"sum_hessian":[1.727197E5,1.5954575E5,1.3173945E4,1.5496938E1,1.5953025E5,1.3051923E4,1.2202243E2,1.1648553E1,1.5951861E5,2.9485195E0,8.700033E0,1.588451E5,6.7351263E2,5.0681784E2,1.5833828E5,3.4527542E1,6.389851E2,1.0875018E1,4.959428E2,5.76981E1,1.5828058E5,2.4468246E0,5.5251278E1,2.9838333E1,1.5825073E5],"tree_param":{"num_deleted":"0","num_feature":"378","num_nodes":"25","size_leaf_vector":"1"}},{"base_weights":[1.5350669E-2,-5.257287E-1,3E0,-5.284752E-1,9.956065E-2,3E0,-3.9490962E-1,-4.5007724E-1,-4.2337846E-2,3E0,-5.209243E-1,-3.365439E-2,3E0,-4.786248E-1,2.4E-1,-5.165659E-1,3E0,2.4E-1,-3.104435E-2,1.5734682E-2,-4.2162593E-2,3E0,1.4183497E-3,-1.8529728E-1,-4.21652E-2,-5.2528733E-1,4.973943E-1,2.4E-1,-1.7210392E-2,4.0648196E-2,-2.0622138E-2,4.023213E-2,2.4E-1,1.3726497E0,-3.7942633E-2,-4.2424936E-2,-1.8233858E-1,2.1840899E-1,-3.119097E-2,2.2943372E-1,-7.110569E-2,-3.7273675E-2,1.1651354E-1,5.5487966E-3,-1.9393342E-2],"categories":[],"categories_nodes":[],"categories_segments":[],"categories_sizes":[],"default_left":[0,0,0,0,0,0,0,0,0,0,0,0,0,0,0,0,0,0,0,0,0,0,0,0,0,0,0,0,0,0,0,0,0,0,0,0,0,0,0,0,0,0,0,0,0],"id":22,"left_children":[1,3,5,7,9,11,13,15,-1,17,19,-1,21,23,-1,25,27,-1,-1,29,-1,31,-1,33,-1,35,37,-1,-1,-1,-1,-1,-1,39,-1,-1,41,-1,-1,-1,43,-1,-1,-1,-1],"loss_changes":[3.9535656E5,2.7135547E2,5.3023125E3,8.441406E0,1.6486271E3,1.4971875E2,1.6058884E2,4.2759958E2,0E0,1.0922644E2,2.0107727E0,0E0,1.671875E1,5.8976746E0,0E0,1.3916565E1,3.4789215E1,0E0,0E0,2.1809657E0,0E0,3.78125E0,0E0,3.345763E1,0E0,1.9145508E0,3.1827915E1,0E0,0E0,0E0,0E0,0E0,0E0,2.649543E1,0E0,0E0,1.4484385E1,0E0,0E0,0E0,5.031643E-1,0E0,0E0,0E0,0E0],"parents":[2147483647,0,0,1,1,2,2,3,3,4,4,5,5,6,6,7,7,9,9,10,10,12,12,13,13,15,15,16,16,19,19,21,21,23,23,25,25,26,26,33,33,36,36,40,40],"right_children":[2,4,6,8,10,12,14,16,-1,18,20,-1,22,24,-1,26,28,-1,-1,30,-1,32,-1,34,-1,36,38,-1,-1,-1,-1,-1,-1,40,-1,-1,42,-1,-1,-1,44,-1,-1,-1,-1],"split_conditions":[5.1566774E-1,3.1352037E-1,6.043974E-1,-9.572728E-1,1.3644318E-2,4.3438885E-1,1.2924649E0,3.62324E-1,-4.2337846E-2,-5.681839E-1,-4.1668597E-1,-3.365439E-2,5.757325E-1,-1.0151209E0,2.4E-1,1.5500635E-1,5.3835315E-1,2.4E-1,-3.104435E-2,6.131579E-1,-4.2162593E-2,-4.268294E-1,1.4183497E-3,1.53262E-1,-4.21652E-2,1.2548668E-2,2.9868248E-1,2.4E-1,-1.7210392E-2,4.0648196E-2,-2.0622138E-2,4.023213E-2,2.4E-1,-6.249912E-1,-3.7942633E-2,-4.2424936E-2,1.0241009E0,2.1840899E-1,-3.119097E-2,2.2943372E-1,8.349648E-1,-3.7273675E-2,1.1651354E-1,5.5487966E-3,-1.9393342E-2],"split_indices":[335,335,365,355,332,317,171,317,0,318,364,0,353,183,0,317,314,0,0,372,0,358,0,332,0,317,314,0,0,0,0,0,0,340,0,0,361,0,0,0,171,0,0,0,0],"split_type":[0,0,0,0,0,0,0,0,0,0,0,0,0,0,0,0,0,0,0,0,0,0,0,0,0,0,0,0,0,0,0,0,0,0,0,0,0,0,0,0,0,0,0,0,0],"sum_hessian":[1.7597944E5,1.579154E5,1.8064027E4,1.5722592E5,6.8948126E2,1.7604574E4,4.594525E2,1.5033599E3,1.5572256E5,8.831676E1,6.011645E2,1.216781E1,1.7592406E4,4.522773E2,7.17521E0,1.4830199E3,2.033997E1,7.939774E1,8.919015E0,5.8086085E0,5.953559E2,1.7589996E4,2.4116852E0,6.693404E1,3.8534326E2,1.4718174E3,1.1202613E1,1.7399096E1,2.9408746E0,2.1146138E0,3.693995E0,2.1326497E0,1.7587863E4,9.028833E0,5.79052E1,1.4480521E3,2.3765144E1,2.164811E0,9.037802E0,3.636269E0,5.392565E0,2.1739643E1,2.025501E0,2.0133264E0,3.3792381E0],"tree_param":{"num_deleted":"0","num_feature":"378","num_nodes":"45","size_leaf_vector":"1"}},{"base_weights":[-1.2925965E-2,-5.8813405E-1,1.5121951E0,4.6718556E-1,-6.2615216E-1,1.5691276E0,-5.203721E-2,1.5877687E0,-5.203757E-2,-6.313646E-1,1.4929726E0,-1.7374577E-2,1.2553254E-1,1.2575412E-1,1.6550514E0,-6.3409895E-1,9.187336E-1,-4.7443412E-2,1.2528104E-1,1.2753122E-1,1.837231E0,-6.35988E-1,3.782245E-1,1.557286E0,-5.092183E-2,1.258644E-1,1.5432355E-1,-6.3670427E-1,1.23843975E-1,1.24785975E-1,-5.1729996E-2,-6.885291E-3,1.2522721E-1,-5.100219E-2,5.833102E-2],"categories":[],"categories_nodes":[],"categories_segments":[],"categories_sizes":[],"default_left":[0,0,0,0,0,0,0,0,0,0,0,0,0,0,0,0,0,0,0,0,0,0,0,0,0,0,0,0,0,0,0,0,0,0,0],"id":23,"left_children":[1,3,5,7,9,11,-1,13,-1,15,17,-1,-1,-1,19,21,23,-1,-1,-1,25,27,29,31,-1,-1,-1,33,-1,-1,-1,-1,-1,-1,-1],"loss_changes":[5.1038916E5,1.6950578E4,1.9620531E4,1.8403162E4,4.5068438E3,8.90625E0,0E0,1.8515625E0,0E0,1.72575E3,1.547649E2,0E0,0E0,0E0,8.404541E0,7.7721875E2,7.150948E2,0E0,0E0,0E0,7.8125E-1,6.367969E2,9.208989E2,7.060913E0,0E0,0E0,0E0,4.568125E2,0E0,0E0,0E0,0E0,0E0,0E0,0E0],"parents":[2147483647,0,0,1,1,2,2,3,3,4,4,5,5,7,7,9,9,10,10,14,14,15,15,16,16,20,20,21,21,22,22,23,23,27,27],"right_children":[2,4,6,8,10,12,-1,14,-1,16,18,-1,-1,-1,20,22,24,-1,-1,-1,26,28,30,32,-1,-1,-1,34,-1,-1,-1,-1,-1,-1,-1],"split_conditions":[-2.059412E-1,-2.8152192E-1,3.2259554E-1,2.3033635E-1,5.1993375E0,-6.3654125E-1,-5.203721E-2,5.1993375E0,-5.203757E-2,5.1993375E0,5.1993375E0,-1.7374577E-2,1.2553254E-1,1.2575412E-1,-1.1161511E-1,2.418077E0,1.05091766E-1,-4.7443412E-2,1.2528104E-1,1.2753122E-1,-7.5070184E-1,2.5117912E0,2.057406E0,-6.8462384E-1,-5.092183E-2,1.258644E-1,1.5432355E-1,2.3820639E0,1.23843975E-1,1.24785975E-1,-5.1729996E-2,-6.885291E-3,1.2522721E-1,-5.100219E-2,5.833102E-2],"split_indices":[191,366,338,337,61,332,0,149,0,165,287,0,0,0,328,177,361,0,0,0,343,146,5,351,0,0,0,157,0,0,0,0,0,0,0],"split_type":[0,0,0,0,0,0,0,0,0,0,0,0,0,0,0,0,0,0,0,0,0,0,0,0,0,0,0,0,0,0,0,0,0,0,0],"sum_hessian":[5.81792E5,4.2246028E5,1.5933173E5,1.4688765E4,4.077715E5,1.5524564E5,4.0860957E3,7.334578E3,7.3541865E3,4.067726E5,9.9890607E2,2.0088465E0,1.5524362E5,5.982194E3,1.352384E3,4.060578E5,7.147729E2,3.3079506E1,9.6582654E2,1.0301896E3,3.2219443E2,4.0530275E5,7.5507214E2,5.069499E2,2.0782301E2,9.392271E1,2.2827173E2,4.0517153E5,1.3123541E2,3.5045682E2,4.0461533E2,2.075244E0,5.0487463E2,4.049289E5,2.4259885E2],"tree_param":{"num_deleted":"0","num_feature":"378","num_nodes":"35","size_leaf_vector":"1"}},{"base_weights":[3.100845E-2,-4.0813785E-2,3E0,-3.981723E-2,2.4E-1],"categories":[],"categories_nodes":[],"categories_segments":[],"categories_sizes":[],"default_left":[0,0,0,0,0],"id":24,"left_children":[1,-1,3,-1,-1],"loss_changes":[1.9095814E5,0E0,1.5040156E3,0E0,0E0],"parents":[2147483647,0,0,2,2],"right_children":[2,-1,4,-1,-1],"split_conditions":[4.636365E-1,-4.0813785E-2,9.072299E-1,-3.981723E-2,2.4E-1],"split_indices":[329,0,341,0,0],"split_type":[0,0,0,0,0],"sum_hessian":[6.363005E4,6.1020777E4,2.6092734E3,1.2224504E2,2.4870283E3],"tree_param":{"num_deleted":"0","num_feature":"378","num_nodes":"5","size_leaf_vector":"1"}},{"base_weights":[8.080256E-3,3E0,-5.292879E-1,-4.2889655E-2,2.4E-1,-5.331695E-1,2.365047E0,-5.3720313E-1,7.6935685E-1,2.4E-1,-4.198689E-2,-5.381673E-1,7.6310295E-1,2.4E-1,-4.3001693E-2,-5.390164E-1,-1.4993237E-1,2.4E-1,-4.226278E-2,-3.1439802E-1,-5.3984946E-1,2.4E-1,-4.3097038E-2,2.4E-1,-4.3215647E-2,-4.319551E-2,2.7526358E-2],"categories":[],"categories_nodes":[],"categories_segments":[],"categories_sizes":[],"default_left":[0,0,0,0,0,0,0,0,0,0,0,0,0,0,0,0,0,0,0,0,0,0,0,0,0,0,0],"id":25,"left_children":[1,3,5,-1,-1,7,9,11,13,-1,-1,15,17,-1,-1,19,21,-1,-1,23,25,-1,-1,-1,-1,-1,-1],"loss_changes":[4.435871E5,5.7304375E3,2.3021602E3,0E0,0E0,1.0746523E3,9.3377673E2,2.5657812E2,2.2904248E3,0E0,0E0,6.647266E1,5.330083E2,0E0,0E0,3.7285156E1,7.0110126E2,0E0,0E0,6.4451874E2,1.7421875E1,0E0,0E0,0E0,0E0,0E0,0E0],"parents":[2147483647,0,0,1,1,2,2,5,5,6,6,7,7,8,8,11,11,12,12,15,15,16,16,19,19,20,20],"right_children":[2,4,6,-1,-1,8,10,12,14,-1,-1,16,18,-1,-1,20,22,-1,-1,24,26,-1,-1,-1,-1,-1,-1],"split_conditions":[-8.362254E-1,8.1473726E-1,1.8117752E0,-4.2889655E-2,2.4E-1,1.9602964E0,2.2525735E-1,3.1872993E0,2.7163213E-1,2.4E-1,-4.198689E-2,1.6419275E0,2.2525735E-1,2.4E-1,-4.3001693E-2,-1.9186513E-1,2.2525735E-1,2.4E-1,-4.226278E-2,-3.6481032E-1,1.503006E0,2.4E-1,-4.3097038E-2,2.4E-1,-4.3215647E-2,-4.319551E-2,2.7526358E-2],"split_indices":[361,324,324,0,0,192,321,152,321,0,0,324,321,0,0,288,321,0,0,361,334,0,0,0,0,0,0],"split_type":[0,0,0,0,0,0,0,0,0,0,0,0,0,0,0,0,0,0,0,0,0,0,0,0,0,0,0],"sum_hessian":[2.3511731E5,3.0533988E4,2.0458333E5,4.5756122E2,3.0076428E4,2.0431112E5,2.72199E2,2.0368192E5,6.291944E2,1.8893604E2,8.326298E1,2.0353256E5,1.493682E2,1.9618607E2,4.3300833E2,2.0308633E5,4.4623398E2,4.6697258E1,1.0267094E2,7.554292E2,2.0233089E5,3.5680386E1,4.105536E2,4.0681564E1,7.147477E2,2.0231064E5,2.0263273E1],"tree_param":{"num_deleted":"0","num_feature":"378","num_nodes":"27","size_leaf_vector":"1"}},{"base_weights":[2.1963073E-2,-5.134759E-1,3E0,-5.147612E-1,5.865647E-1,-4.9133617E-1,3E0,-5.15253E-1,9.8901886E-1,-4.5477167E-1,3E0,-4.1067775E-2,1.2441585E-1,3E0,-3.7887838E-2,-5.164166E-1,-3.5757282E-1,2.4E-1,-3.6861997E-2,5.941519E-2,-4.013266E-2,2.4E-1,-1.2572311E-2,-3.0556794E-2,1.2792845E-1,3E0,-3.0138971E-2,-4.1316155E-2,-1.7487453E-1,-4.5104122E-1,3E0,3E0,-0E0,3.5740566E-2,-3.1499326E-2,2.4E-1,-4.831271E-1,2.4E-1,-2.7045371E-2,2.4E-1,-1.4166799E-2,-1.4946016E-2,1.4931315E-2,1.3863913E-2,-4.0967993E-2],"categories":[],"categories_nodes":[],"categories_segments":[],"categories_sizes":[],"default_left":[0,0,0,0,0,0,0,0,0,0,0,0,0,0,0,0,0,0,0,0,0,0,0,0,0,0,0,0,0,0,0,0,0,0,0,0,0,0,0,0,0,0,0,0,0],"id":26,"left_children":[1,3,5,7,9,11,13,15,17,19,21,-1,23,25,-1,27,29,-1,-1,-1,-1,-1,-1,-1,-1,31,-1,-1,33,35,37,39,41,-1,-1,-1,43,-1,-1,-1,-1,-1,-1,-1,-1],"loss_changes":[2.7832844E5,1.3883594E2,4.3854062E3,7.357617E1,4.7574756E2,5.1168747E0,4.0965625E2,1.7167969E1,1.7633495E2,6.6159096E0,2.6014282E1,0E0,1.3547325E1,1.05625E2,0E0,5.605469E-1,2.6428387E2,0E0,0E0,0E0,0E0,0E0,0E0,0E0,0E0,4.0703125E1,0E0,0E0,2.8757033E0,9.012993E1,7.87428E1,2.9078125E1,6.738059E-1,0E0,0E0,0E0,1.3700989E1,0E0,0E0,0E0,0E0,0E0,0E0,0E0,0E0],"parents":[2147483647,0,0,1,1,2,2,3,3,4,4,5,5,6,6,7,7,8,8,9,9,10,10,12,12,13,13,15,15,16,16,25,25,28,28,29,29,30,30,31,31,32,32,36,36],"right_children":[2,4,6,8,10,12,14,16,18,20,22,-1,24,26,-1,28,30,-1,-1,-1,-1,-1,-1,-1,-1,32,-1,-1,34,36,38,40,42,-1,-1,-1,44,-1,-1,-1,-1,-1,-1,-1,-1],"split_conditions":[7.4049026E-1,1.5480689E0,4.235624E-2,1.8846843E0,1.1352316E0,6.6125095E-1,1.3695675E0,4.9944064E-1,-8.7755495E-1,8.0534565E-1,6.6208667E-1,-4.1067775E-2,-8.9230084E-1,1.2475054E0,-3.7887838E-2,1.4461832E0,4.3822664E-1,2.4E-1,-3.6861997E-2,5.941519E-2,-4.013266E-2,2.4E-1,-1.2572311E-2,-3.0556794E-2,1.2792845E-1,1.0633165E0,-3.0138971E-2,-4.1316155E-2,-8.890497E-2,-9.1829336E-1,1.3046813E0,5.1313363E-2,-1.1567382E-4,3.5740566E-2,-3.1499326E-2,2.4E-1,-5.7389677E-1,2.4E-1,-2.7045371E-2,2.4E-1,-1.4166799E-2,-1.4946016E-2,1.4931315E-2,1.3863913E-2,-4.0967993E-2],"split_indices":[345,353,365,339,339,334,0,360,351,332,315,0,316,171,0,353,345,0,0,0,0,0,0,0,0,352,0,0,364,318,0,329,342,0,0,0,376,0,0,0,0,0,0,0,0],"split_type":[0,0,0,0,0,0,0,0,0,0,0,0,0,0,0,0,0,0,0,0,0,0,0,0,0,0,0,0,0,0,0,0,0,0,0,0,0,0,0,0,0,0,0,0,0],"sum_hessian":[1.0439988E5,9.7551414E4,6.848468E3,9.743908E4,1.1233388E2,3.5908496E2,6.489383E3,9.7408875E4,3.02093E1,9.4697655E1,1.7636225E1,3.4779703E2,1.1287927E1,6.4561035E3,3.327962E1,9.668765E4,7.212247E2,5.5236077E0,2.4685692E1,2.048015E0,9.2649635E1,1.5386752E1,2.249473E0,9.253429E0,2.0344975E0,6.4474253E3,8.678293E0,9.667515E4,1.2495719E1,7.062886E2,1.4936075E1,6.4428125E3,4.612681E0,2.116745E0,1.0378974E1,4.060518E0,7.02228E2,8.418858E0,6.5172176E0,6.4403145E3,2.4980605E0,2.6089642E0,2.0037165E0,2.8533598E1,6.7369446E2],"tree_param":{"num_deleted":"0","num_feature":"378","num_nodes":"45","size_leaf_vector":"1"}},{"base_weights":[2.4561975E-2,-4.6150714E-1,3E0,-4.829823E-1,3E0,-4.066266E-2,2.4E-1,-4.901801E-1,2.4E-1,-3.951894E-2,2.4E-1,-4.9861914E-1,3E0,-5.084058E-1,3.4343037E-1,2.4E-1,-3.8948603E-2,-5.090369E-1,1.409837E0,-4.06488E-2,2.4E-1,2.8037218E-2,-4.0766228E-2,-3.3670988E-2,2.4E-1],"categories":[],"categories_nodes":[],"categories_segments":[],"categories_sizes":[],"default_left":[0,0,0,0,0,0,0,0,0,0,0,0,0,0,0,0,0,0,0,0,0,0,0,0,0],"id":27,"left_children":[1,3,5,7,9,-1,-1,11,-1,-1,-1,13,15,17,19,-1,-1,21,23,-1,-1,-1,-1,-1,-1],"loss_changes":[1.612267E5,6.6929844E3,9.266531E3,2.5999785E3,1.1097266E3,0E0,0E0,2.29454E3,0E0,0E0,0E0,4.9118457E2,7.673192E2,7.339258E1,3.0712188E3,0E0,0E0,2.7890625E1,1.3533931E2,0E0,0E0,0E0,0E0,0E0,0E0],"parents":[2147483647,0,0,1,1,2,2,3,3,4,4,7,7,11,11,12,12,13,13,14,14,17,17,18,18],"right_children":[2,4,6,8,10,-1,-1,12,-1,-1,-1,14,16,18,20,-1,-1,22,24,-1,-1,-1,-1,-1,-1],"split_conditions":[1.0901163E0,2.8997583E0,8.0582815E-1,3.2902453E0,9.9631524E-1,-4.066266E-2,2.4E-1,2.896753E0,2.4E-1,-3.951894E-2,2.4E-1,2.696511E0,-4.3797088E-1,3.089935E0,5.976436E-1,2.4E-1,-3.8948603E-2,-3.0900066E0,3.2178387E-1,-4.06488E-2,2.4E-1,2.8037218E-2,-4.0766228E-2,-3.3670988E-2,2.4E-1],"split_indices":[347,125,352,193,352,0,0,352,0,0,0,24,319,261,347,0,0,307,347,0,0,0,0,0,0],"split_type":[0,0,0,0,0,0,0,0,0,0,0,0,0,0,0,0,0,0,0,0,0,0,0,0,0],"sum_hessian":[6.2787727E4,5.9848473E4,2.9392534E3,5.966592E4,1.8255005E2,7.5218286E2,2.1870706E3,5.9635008E4,3.091673E1,9.021307E1,9.233697E1,5.9536598E4,9.840735E1,5.8853957E4,6.8264075E2,3.59789E1,6.242845E1,5.8836332E4,1.762727E1,6.411372E2,4.150357E1,3.561264E1,5.880072E4,1.4976165E1,2.6511052E0],"tree_param":{"num_deleted":"0","num_feature":"378","num_nodes":"25","size_leaf_vector":"1"}},{"base_weights":[1.326222E-2,-5.263396E-1,3E0,-5.306138E-1,3.32447E-1,3E0,-3.434853E-1,-1.2889278E-1,-5.3298867E-1,3E0,-5.2938044E-1,3E0,-4.2283148E-2,3E0,-4.7533736E-1,2.4E-1,-4.6457255E-1,-4.5713285E-1,-5.343361E-1,3E0,-3.6203146E-2,-4.2758167E-2,4.0317677E-2,3E0,-4.0705644E-2,2.4E-1,-3.245421E-2,-4.908089E-1,2.1405599E-1,8.136505E-1,-4.281359E-2,3E0,-5.138383E-1,-1.1683505E-1,-5.3437746E-1,2.4E-1,3.2839715E-2,2.4E-1,-2.6724884E-2,6.540622E-1,-5.1059186E-1,-3.9691474E-2,2.4E-1,2.4E-1,3.929981E-2,-5.2900606E-1,7.314705E-2,1.11874245E-1,-3.6243863E-2,-2.0146099E-1,-4.275185E-2,-3.699897E-2,2.4E-1,6.218559E-1,-5.195519E-1,-4.2416826E-2,3.0038463E-2,2.4E-1,-4.1109715E-2,-3.3539824E-2,4.042467E-2,-3.063781E-2,1.9694513E-1,3.973782E-2,-4.2109475E-2],"categories":[],"categories_nodes":[],"categories_segments":[],"categories_sizes":[],"default_left":[0,0,0,0,0,0,0,0,0,0,0,0,0,0,0,0,0,0,0,0,0,0,0,0,0,0,0,0,0,0,0,0,0,0,0,0,0,0,0,0,0,0,0,0,0,0,0,0,0,0,0,0,0,0,0,0,0,0,0,0,0,0,0,0,0],"id":28,"left_children":[1,3,5,7,9,11,13,15,17,19,21,23,-1,25,27,-1,29,31,33,35,-1,-1,-1,37,-1,-1,-1,39,-1,41,-1,43,45,47,49,-1,-1,-1,-1,51,53,-1,-1,-1,-1,55,57,-1,-1,59,-1,-1,-1,61,63,-1,-1,-1,-1,-1,-1,-1,-1,-1,-1],"loss_changes":[4.047655E5,6.5453906E2,1.8633875E4,1.6853906E2,2.4939258E3,2.5404375E3,8.1022375E2,1.3894503E3,1.721875E1,1.9883594E2,4.514557E0,6.7059375E2,0E0,1.2072247E2,8.260953E1,0E0,8.893494E1,7.3591626E2,2.390625E0,7.411377E0,0E0,0E0,0E0,7E1,0E0,0E0,0E0,3.7414215E1,0E0,2.1587238E2,0E0,3.5419922E0,2.736615E1,1.31277E1,5.3515625E-1,0E0,0E0,0E0,0E0,9.0642624E1,1.7011963E1,0E0,0E0,0E0,0E0,3.8362427E0,1.784196E2,0E0,0E0,3.3818746E0,0E0,0E0,0E0,2.8655003E1,1.1658173E1,0E0,0E0,0E0,0E0,0E0,0E0,0E0,0E0,0E0,0E0],"parents":[2147483647,0,0,1,1,2,2,3,3,4,4,5,5,6,6,7,7,8,8,9,9,10,10,11,11,13,13,14,14,16,16,17,17,18,18,19,19,23,23,27,27,29,29,31,31,32,32,33,33,34,34,39,39,40,40,45,45,46,46,49,49,53,53,54,54],"right_children":[2,4,6,8,10,12,14,16,18,20,22,24,-1,26,28,-1,30,32,34,36,-1,-1,-1,38,-1,-1,-1,40,-1,42,-1,44,46,48,50,-1,-1,-1,-1,52,54,-1,-1,-1,-1,56,58,-1,-1,60,-1,-1,-1,62,64,-1,-1,-1,-1,-1,-1,-1,-1,-1,-1],"split_conditions":[2.4090153E-1,1.6758779E-1,1.6816114E-1,-9.06223E-1,-6.9434613E-1,4.4154787E-1,-5.395732E-1,3.9644217E-1,-9.04531E-1,7.4049026E-1,2.07635E0,2.520941E-1,-4.2283148E-2,1.088465E-1,3.3533187E0,2.4E-1,1.4461832E0,4.1407484E-1,-9.030531E-1,2.1621484E-1,-3.6203146E-2,-4.2758167E-2,4.0317677E-2,9.1423184E-1,-4.0705644E-2,2.4E-1,-3.245421E-2,-2.7474532E0,2.1405599E-1,-5.2952427E-1,-4.281359E-2,-7.769845E-1,1.354763E0,4.4083259E-1,-2.9295635E0,2.4E-1,3.2839715E-2,2.4E-1,-2.6724884E-2,1.4148214E0,-7.6253706E-1,-3.9691474E-2,2.4E-1,2.4E-1,3.929981E-2,3.2259583E0,-7.6570797E-1,1.11874245E-1,-3.6243863E-2,-3.050789E-1,-4.275185E-2,-3.699897E-2,2.4E-1,-1.409441E-1,3.8527542E-1,-4.2416826E-2,3.0038463E-2,2.4E-1,-4.1109715E-2,-3.3539824E-2,4.042467E-2,-3.063781E-2,1.9694513E-1,3.973782E-2,-4.2109475E-2],"split_indices":[371,371,334,319,370,352,323,334,352,345,321,367,0,367,9,0,353,334,319,377,0,0,0,325,0,0,0,251,0,322,0,329,0,314,50,0,0,0,0,0,370,0,0,0,0,292,329,0,0,317,0,0,0,317,261,0,0,0,0,0,0,0,0,0,0],"split_type":[0,0,0,0,0,0,0,0,0,0,0,0,0,0,0,0,0,0,0,0,0,0,0,0,0,0,0,0,0,0,0,0,0,0,0,0,0,0,0,0,0,0,0,0,0,0,0,0,0,0,0,0,0,0,0,0,0,0,0,0,0,0,0,0,0],"sum_hessian":[2.0299234E5,1.781722E5,2.4820139E4,1.7729117E5,8.810391E2,2.3153814E4,1.6663239E3,1.043821E3,1.7624734E5,1.7742836E2,7.036108E2,2.2950488E4,2.0332588E2,5.561251E1,1.6107113E3,7.560689E1,9.682142E2,3.0944336E3,1.7315292E5,1.6140129E2,1.6027061E1,7.015998E2,2.011009E0,2.289672E4,5.3767242E1,4.5816578E1,9.795933E0,1.6046796E3,6.0317984E0,4.920392E1,9.1901025E2,3.8058247E1,3.0563752E3,1.8918682E1,1.73134E5,1.590018E2,2.3994937E0,2.2890969E4,5.751944E0,2.573874E1,1.5789408E3,3.6726753E1,1.2477167E1,3.599861E1,2.0596335E0,2.9804106E3,7.596477E1,2.0180013E0,1.690068E1,1.3454539E1,1.7312055E5,1.933816E1,6.4005814E0,1.0882631E1,1.5680581E3,2.9778262E3,2.5843005E0,8.484098E0,6.748067E1,1.1447978E1,2.0065608E0,7.887255E0,2.995376E0,9.001155E0,1.559057E3],"tree_param":{"num_deleted":"0","num_feature":"378","num_nodes":"65","size_leaf_vector":"1"}},{"base_weights":[-9.58195E-3,2.2474232E0,-5.742509E-1,-4.5326095E-2,1.8024966E-1,-5.743549E-1,1.5605654E-1,-5.745843E-1,-5.097277E-1,-4.5734223E-2,-4.6196215E-2,1.6655871E-1,-5.6911635E-1,4.6404455E-2,-4.5819167E-2],"categories":[],"categories_nodes":[],"categories_segments":[],"categories_sizes":[],"default_left":[0,0,0,0,0,0,0,0,0,0,0,0,0,0,0],"id":29,"left_children":[1,3,5,-1,-1,7,-1,9,11,-1,-1,-1,13,-1,-1],"loss_changes":[4.933255E5,1.2448125E3,8.453906E1,0E0,0E0,3.6875E0,0E0,1.6328125E0,1.7594223E2,0E0,0E0,0E0,5.5275574E0,0E0,0E0],"parents":[2147483647,0,0,1,1,2,2,5,5,7,7,8,8,12,12],"right_children":[2,4,6,-1,-1,8,-1,10,12,-1,-1,-1,14,-1,-1],"split_conditions":[-8.5873973E-1,-7.2146606E-1,1.5584816E0,-4.5326095E-2,1.8024966E-1,1.4215561E0,1.5605654E-1,4.0063524E-1,-1.2502419E0,-4.5734223E-2,-4.6196215E-2,1.6655871E-1,-9.0665835E-1,4.6404455E-2,-4.5819167E-2],"split_indices":[334,319,174,0,0,156,0,263,186,0,0,0,191,0,0],"split_type":[0,0,0,0,0,0,0,0,0,0,0,0,0,0,0],"sum_hessian":[3.8708012E5,7.746049E4,3.0961962E5,1.559475E2,7.730455E4,3.0960862E5,1.1014313E1,3.0849028E5,1.1183499E3,1.535151E5,1.5497517E5,2.3338274E1,1.0950115E3,2.0078583E0,1.0930037E3],"tree_param":{"num_deleted":"0","num_feature":"378","num_nodes":"15","size_leaf_vector":"1"}},{"base_weights":[1.4957962E-2,-5.201404E-1,3E0,-5.270372E-1,9.182956E-1,2.4E-1,-1.648789E-2,4.106863E-1,-4.216629E-2,-1.730174E-1,3E0,-1.7758776E-2,8.9911714E-2,-3.6173868E-1,2.297216E0,-3.9399203E-2,3E0,2.4E-1,-4.2095688E-1,2.4E-1,-3.5259254E-2,-3.145173E-1,3E0,-4.488972E-1,2.0415428E-1,8.694077E-2,-3.867409E-2,2.4E-1,-3.321736E-2,-3.925717E-2,8.595113E-2],"categories":[],"categories_nodes":[],"categories_segments":[],"categories_sizes":[],"default_left":[0,0,0,0,0,0,0,0,0,0,0,0,0,0,0,0,0,0,0,0,0,0,0,0,0,0,0,0,0,0,0],"id":30,"left_children":[1,3,5,7,9,-1,-1,11,-1,13,15,-1,-1,17,19,-1,21,-1,23,-1,-1,25,27,29,-1,-1,-1,-1,-1,-1,-1],"loss_changes":[3.79362E5,1.4611797E3,3.31875E1,6.3164062E0,1.6324756E3,0E0,0E0,4.8622494E0,0E0,2.2025809E2,5.17406E2,0E0,0E0,9.457185E1,1.7789804E2,0E0,3.7272754E2,0E0,3.9276123E1,0E0,0E0,1.0226404E1,1.4444727E2,2.8871117E1,0E0,0E0,0E0,0E0,0E0,0E0,0E0],"parents":[2147483647,0,0,1,1,2,2,3,3,4,4,7,7,9,9,10,10,13,13,14,14,16,16,18,18,21,21,22,22,23,23],"right_children":[2,4,6,8,10,-1,-1,12,-1,14,16,-1,-1,18,20,-1,22,-1,24,-1,-1,26,28,30,-1,-1,-1,-1,-1,-1,-1],"split_conditions":[1.5624183E0,4.3602623E-2,1.2924649E0,-8.7662715E-1,3.8216478E-1,2.4E-1,-1.648789E-2,-7.605651E-1,-4.216629E-2,3.1541836E0,2.4027441E-1,-1.7758776E-2,8.9911714E-2,-9.355828E-1,1.4085652E0,-3.9399203E-2,-6.2954473E-1,2.4E-1,1.857885E0,2.4E-1,-3.5259254E-2,2.1231222E-1,8.994922E-1,2.4151204E0,2.0415428E-1,8.694077E-2,-3.867409E-2,2.4E-1,-3.321736E-2,-3.925717E-2,8.595113E-2],"split_indices":[333,333,173,323,325,0,0,363,0,244,332,0,0,351,0,0,320,0,0,0,0,345,351,202,0,0,0,0,0,0,0],"split_type":[0,0,0,0,0,0,0,0,0,0,0,0,0,0,0,0,0,0,0,0,0,0,0,0,0,0,0,0,0,0,0],"sum_hessian":[1.6204514E5,1.4713977E5,1.4905383E4,1.4643925E5,7.00514E2,1.490257E4,2.8121266E0,5.0529094E0,1.4643419E5,4.6383246E2,2.3668152E2,3.0361056E0,2.0168037E0,4.326856E2,3.1146852E1,4.173143E1,1.9495009E2,5.2894278E0,4.2739618E2,1.546969E1,1.5677161E1,3.34007E1,1.615494E2,4.2526556E2,2.1306202E0,2.105466E0,3.1295235E1,1.4978603E2,1.1763363E1,4.1554202E2,9.723541E0],"tree_param":{"num_deleted":"0","num_feature":"378","num_nodes":"31","size_leaf_vector":"1"}},{"base_weights":[-1.32067045E-2,-6.2581223E-1,1.660706E0,-4.9655452E-2,-5.0432548E-2,1.6660101E0,-4.9292155E-2,1.3335392E-1,-4.82214E-2],"categories":[],"categories_nodes":[],"categories_segments":[],"categories_sizes":[],"default_left":[0,0,0,0,0,0,0,0,0],"id":31,"left_children":[1,3,5,-1,-1,7,-1,-1,-1],"loss_changes":[5.609281E5,8.3125E0,1.77225E3,0E0,0E0,3.0546875E2,0E0,0E0,0E0],"parents":[2147483647,0,0,1,1,2,2,5,5],"right_children":[2,4,6,-1,-1,8,-1,-1,-1],"split_conditions":[3.708083E-1,-3.4838954E-1,-2.844149E-1,-4.9655452E-2,-5.0432548E-2,3.661915E-1,-4.9292155E-2,1.3335392E-1,-4.82214E-2],"split_indices":[316,359,191,0,0,349,0,0,0],"split_type":[0,0,0,0,0,0,0,0,0],"sum_hessian":[5.47002E5,4.0045E5,1.4655202E5,1.8959369E5,2.1085631E5,1.4621217E5,3.398521E2,1.4615405E5,5.81247E1],"tree_param":{"num_deleted":"0","num_feature":"378","num_nodes":"9","size_leaf_vector":"1"}},{"base_weights":[1.5102465E-2,-5.2481604E-1,3E0,2.4E-1,-5.2557796E-1,2.4E-1,-4.1348908E-2,3E0,-5.259527E-1,-1.7209124E-2,2.4E-1,-5.27607E-1,-1.4390329E-1,-6.1921638E-2,-5.2778256E-1,2.4E-1,-4.21672E-2,2.4E-1,-4.005191E-2,-3.8553455E-1,-5.2823377E-1,2.4E-1,-4.202383E-2,-8.466253E-3,-4.226372E-2],"categories":[],"categories_nodes":[],"categories_segments":[],"categories_sizes":[],"default_left":[0,0,0,0,0,0,0,0,0,0,0,0,0,0,0,0,0,0,0,0,0,0,0,0,0],"id":32,"left_children":[1,3,5,-1,7,-1,-1,9,11,-1,-1,13,15,17,19,-1,-1,-1,-1,21,23,-1,-1,-1,-1],"loss_changes":[3.9187966E5,5.4591797E2,1.476375E3,0E0,2.228125E2,0E0,0E0,3.4825027E1,9.648828E1,0E0,0E0,1.1941406E1,1.1155763E3,9.884923E1,9.0703125E0,0E0,0E0,0E0,0E0,3.0525876E2,3.453125E0,0E0,0E0,0E0,0E0],"parents":[2147483647,0,0,1,1,2,2,4,4,7,7,8,8,11,11,12,12,13,13,14,14,19,19,20,20],"right_children":[2,4,6,-1,8,-1,-1,10,12,-1,-1,14,16,18,20,-1,-1,-1,-1,22,24,-1,-1,-1,-1],"split_conditions":[2.1248322E0,-9.319462E-1,5.606714E-1,2.4E-1,-9.1075706E-1,2.4E-1,-4.1348908E-2,-8.155661E-1,1.8757632E0,-1.7209124E-2,2.4E-1,-8.748896E-1,6.7304194E-2,1.2890494E0,-4.7194204E-1,2.4E-1,-4.21672E-2,2.4E-1,-4.005191E-2,-1.667086E-1,-9.0210146E-1,2.4E-1,-4.202383E-2,-8.466253E-3,-4.226372E-2],"split_indices":[373,344,351,0,329,0,0,319,373,0,0,344,324,327,336,0,0,0,0,326,329,0,0,0,0],"split_type":[0,0,0,0,0,0,0,0,0,0,0,0,0,0,0,0,0,0,0,0,0,0,0,0,0],"sum_hessian":[1.7028481E5,1.5365467E5,1.6630148E4,2.1022123E1,1.5363364E5,1.6511486E4,1.18662735E2,1.3263227E1,1.5362039E5,2.9443855E0,1.0318842E1,1.5295602E5,6.643753E2,5.8974174E1,1.5289703E5,4.5830444E1,6.1854486E2,4.823852E0,5.4150322E1,4.923637E2,1.5240467E5,1.2406504E1,4.7995718E2,2.4338898E1,1.5238033E5],"tree_param":{"num_deleted":"0","num_feature":"378","num_nodes":"25","size_leaf_vector":"1"}},{"base_weights":[1.9475799E-2,-5.242727E-1,3E0,-5.2713054E-1,1.04290195E-1,3E0,-4.0715674E-1,-4.461918E-1,-4.2233925E-2,3E0,-5.0043416E-1,3E0,-3.1294465E-1,-4.6810597E-1,2.273268E-1,-5.170188E-1,3E0,2.4E-1,-2.505767E-2,5.836922E-1,-4.205522E-2,2.4E-1,-1.2177477E-2,5.6560594E-3,-3.3300195E-2,-1.3825203E-1,-4.170219E-2,-5.2588046E-1,4.8752153E-1,2.4E-1,-1.8277723E-2,2.0112433E-1,-3.0825488E-2,9.431679E-1,-3.9970793E-2,-4.2376388E-2,-2.518017E-1,1.895038E-1,-3.0715138E-2,1.9062983E0,-2.8107319E-2,7.977893E-2,-3.7192814E-2,2.1707289E-1,-1.5079306E-2],"categories":[],"categories_nodes":[],"categories_segments":[],"categories_sizes":[],"default_left":[0,0,0,0,0,0,0,0,0,0,0,0,0,0,0,0,0,0,0,0,0,0,0,0,0,0,0,0,0,0,0,0,0,0,0,0,0,0,0,0,0,0,0,0,0],"id":33,"left_children":[1,3,5,7,9,11,13,15,-1,17,19,21,23,25,-1,27,29,-1,-1,31,-1,-1,-1,-1,-1,33,-1,35,37,-1,-1,-1,-1,39,-1,-1,41,-1,-1,43,-1,-1,-1,-1,-1],"loss_changes":[3.3722066E5,2.723086E2,5.1851562E3,8.9140625E0,1.3937267E3,1.5540625E2,9.288934E1,3.875598E2,0E0,6.1899414E1,1.6948273E1,2.440625E1,8.689277E-1,7.2297134E0,0E0,1.3738983E1,3.7504547E1,0E0,0E0,3.084721E1,0E0,0E0,0E0,0E0,0E0,2.749096E1,0E0,8.504944E-1,2.6611927E1,0E0,0E0,0E0,0E0,2.3795622E1,0E0,0E0,8.534623E0,0E0,0E0,1.942958E1,0E0,0E0,0E0,0E0,0E0],"parents":[2147483647,0,0,1,1,2,2,3,3,4,4,5,5,6,6,7,7,9,9,10,10,11,11,12,12,13,13,15,15,16,16,19,19,25,25,27,27,28,28,33,33,36,36,39,39],"right_children":[2,4,6,8,10,12,14,16,-1,18,20,22,24,26,-1,28,30,-1,-1,32,-1,-1,-1,-1,-1,34,-1,36,38,-1,-1,-1,-1,40,-1,-1,42,-1,-1,44,-1,-1,-1,-1,-1],"split_conditions":[5.1566774E-1,3.1352037E-1,6.043974E-1,-9.572728E-1,-4.1668597E-1,9.606552E-2,1.2924649E0,3.62324E-1,-4.2233925E-2,-1.6127434E-1,1.3644318E-2,1.3843559E0,-1.333787E-1,9.942753E-1,2.273268E-1,1.5500635E-1,5.3835315E-1,2.4E-1,-2.505767E-2,-5.681839E-1,-4.205522E-2,2.4E-1,-1.2177477E-2,5.6560594E-3,-3.3300195E-2,8.310809E-1,-4.170219E-2,1.2548668E-2,2.9868248E-1,2.4E-1,-1.8277723E-2,2.0112433E-1,-3.0825488E-2,1.4634626E-1,-3.9970793E-2,-4.2376388E-2,7.940891E-1,1.895038E-1,-3.0715138E-2,9.1423184E-1,-2.8107319E-2,7.977893E-2,-3.7192814E-2,2.1707289E-1,-1.5079306E-2],"split_indices":[335,335,365,355,364,364,173,317,0,360,332,339,174,365,0,317,314,0,0,318,0,0,0,0,0,173,0,317,314,0,0,0,0,338,0,0,314,0,0,325,0,0,0,0,0],"split_type":[0,0,0,0,0,0,0,0,0,0,0,0,0,0,0,0,0,0,0,0,0,0,0,0,0,0,0,0,0,0,0,0,0,0,0,0,0,0,0,0,0,0,0,0,0],"sum_hessian":[1.7385016E5,1.514937E5,2.2356455E4,1.5080914E5,6.845573E2,2.191041E4,4.4604587E2,1.481243E3,1.493279E5,1.0202817E2,5.825292E2,2.1896773E4,1.3637159E1,4.3966312E2,6.3827357E0,1.4549039E3,2.6339025E1,9.6914825E1,5.1133385E0,1.1804337E1,5.7072485E2,2.1894672E4,2.1013849E0,2.0002732E0,1.1636886E1,6.3338757E1,3.7632437E2,1.4436196E3,1.1284325E1,2.3179672E1,3.1593542E0,3.051848E0,8.752489E0,1.4711623E1,4.8627132E1,1.420114E3,2.3505573E1,2.6661367E0,8.618188E0,8.115005E0,6.5966187E0,2.011413E0,2.149416E1,5.6039047E0,2.5110998E0],"tree_param":{"num_deleted":"0","num_feature":"378","num_nodes":"45","size_leaf_vector":"1"}},{"base_weights":[-1.6716054E-2,-5.795512E-1,1.3529897E0,1.3380615E0,-6.141917E-1,1.4014951E0,-5.1759098E-2,-5.011601E-2,1.1228463E-1,-6.183916E-1,1.3260735E0,-8.527142E-3,1.1212162E-1,-5.6990884E-2,-6.242979E-1,1.11877866E-1,-4.6689857E-2,1.4200084E0,-5.173025E-2,-6.2633973E-1,6.545465E-1,-0E0,1.1379296E-1,3.752117E-1,-6.2834597E-1,1.3879452E0,-6.0921955E-1,1.1157255E-1,-5.146109E-2,-5.0304763E-2,1.0995669E-1,1.1167901E-1,-0E0,-5.0522342E-2,5.919757E-2],"categories":[],"categories_nodes":[],"categories_segments":[],"categories_sizes":[],"default_left":[0,0,0,0,0,0,0,0,0,0,0,0,0,0,0,0,0,0,0,0,0,0,0,0,0,0,0,0,0,0,0,0,0,0,0],"id":34,"left_children":[1,3,5,7,9,11,-1,-1,-1,13,15,-1,-1,17,19,-1,-1,21,-1,23,25,-1,-1,27,29,31,33,-1,-1,-1,-1,-1,-1,-1,-1],"loss_changes":[4.4448653E5,2.7147531E4,1.62920625E4,9.351875E2,3.2732344E3,6.5625E0,0E0,0E0,0E0,1.3274375E3,1.219552E2,0E0,0E0,3.6377493E3,1.0361094E3,0E0,0E0,3.2316895E0,0E0,7.958125E2,5.89254E2,0E0,0E0,8.258209E2,3.6910938E2,4.269043E0,8.362747E0,0E0,0E0,0E0,0E0,0E0,0E0,0E0,0E0],"parents":[2147483647,0,0,1,1,2,2,3,3,4,4,5,5,9,9,10,10,13,13,14,14,17,17,19,19,20,20,23,23,24,24,25,25,26,26],"right_children":[2,4,6,8,10,12,-1,-1,-1,14,16,-1,-1,18,20,-1,-1,22,-1,24,26,-1,-1,28,30,32,34,-1,-1,-1,-1,-1,-1,-1,-1],"split_conditions":[-2.059412E-1,-8.229199E-1,3.2259554E-1,-7.5858575E-1,5.1993375E0,1.5399031E-1,-5.1759098E-2,-5.011601E-2,1.1228463E-1,-2.0860047E0,1.0255927E0,-8.527142E-3,1.1212162E-1,8.905023E-2,5.1993375E0,1.11877866E-1,-4.6689857E-2,-2.421694E0,-5.173025E-2,-8.396458E-1,-4.2895287E-2,-0E0,1.1379296E-1,8.905023E-2,2.5117912E0,-3.1968358E-1,-1.1473155E0,1.1157255E-1,-5.146109E-2,-5.0304763E-2,1.0995669E-1,1.1167901E-1,-0E0,-5.0522342E-2,5.919757E-2],"split_indices":[191,359,338,315,61,347,0,0,0,250,288,0,0,337,165,0,0,258,0,327,361,0,0,337,146,356,91,0,0,0,0,0,0,0,0],"split_type":[0,0,0,0,0,0,0,0,0,0,0,0,0,0,0,0,0,0,0,0,0,0,0,0,0,0,0,0,0,0,0,0,0,0,0],"sum_hessian":[5.7656144E5,4.086442E5,1.6791725E5,7.2493296E3,4.0139484E5,1.6394202E5,3.975236E3,2.330944E2,7.016235E3,4.005295E5,8.653583E2,2.259749E0,1.6393977E5,4.1710894E3,3.963584E5,8.3451746E2,3.0840765E1,1.1890184E3,2.982071E3,3.9572797E5,6.304236E2,2.0746243E0,1.1869438E3,7.898634E2,3.9493812E5,3.990455E2,2.3137808E2,3.9461993E2,3.952435E2,3.9484834E5,8.977595E1,3.9698047E2,2.0650187E0,2.2902544E2,2.3526473E0],"tree_param":{"num_deleted":"0","num_feature":"378","num_nodes":"35","size_leaf_vector":"1"}},{"base_weights":[4.2123035E-2,-4.078036E-2,3E0,-3.9723057E-2,2.4E-1],"categories":[],"categories_nodes":[],"categories_segments":[],"categories_sizes":[],"default_left":[0,0,0,0,0],"id":35,"left_children":[1,-1,3,-1,-1],"loss_changes":[1.799114E5,0E0,1.4182812E3,0E0,0E0],"parents":[2147483647,0,0,2,2],"right_children":[2,-1,4,-1,-1],"split_conditions":[4.636365E-1,-4.078036E-2,8.905023E-2,-3.9723057E-2,2.4E-1],"split_indices":[329,0,337,0,0],"split_type":[0,0,0,0,0],"sum_hessian":[6.187883E4,5.855446E4,3.3243677E3,1.1531581E2,3.2090518E3],"tree_param":{"num_deleted":"0","num_feature":"378","num_nodes":"5","size_leaf_vector":"1"}},{"base_weights":[6.547154E-3,2.8404799E0,-5.2703947E-1,-4.269489E-2,2.3043026E-1,-5.316929E-1,1.715042E0,-5.356362E-1,7.1011436E-1,2.3009683E-1,-4.248075E-2,-5.363803E-1,4.732088E-1,2.2789624E-1,-4.2825826E-2,-5.3711206E-1,-1.5686442E-1,2.1980254E-1,-4.2166576E-2,-3.2356057E-1,-5.3790647E-1,2.4E-1,-4.292834E-2,2.1922195E-1,-4.309077E-2,-4.3041453E-2,3.062149E-2],"categories":[],"categories_nodes":[],"categories_segments":[],"categories_sizes":[],"default_left":[0,0,0,0,0,0,0,0,0,0,0,0,0,0,0,0,0,0,0,0,0,0,0,0,0,0,0],"id":36,"left_children":[1,3,5,-1,-1,7,9,11,13,-1,-1,15,17,-1,-1,19,21,-1,-1,23,25,-1,-1,-1,-1,-1,-1],"loss_changes":[3.5341088E5,4.9888125E3,2.0547227E3,0E0,0E0,9.6223047E2,1.0681345E3,1.4761328E2,1.6625244E3,0E0,0E0,5.3671875E1,3.3590735E2,0E0,0E0,3.2378906E1,5.0044473E2,0E0,0E0,4.860277E2,2.0601562E1,0E0,0E0,0E0,0E0,0E0,0E0],"parents":[2147483647,0,0,1,1,2,2,5,5,6,6,7,7,8,8,11,11,12,12,15,15,16,16,19,19,20,20],"right_children":[2,4,6,-1,-1,8,10,12,14,-1,-1,16,18,-1,-1,20,22,-1,-1,24,26,-1,-1,-1,-1,-1,-1],"split_conditions":[-8.362254E-1,9.278174E-1,1.7643088E0,-4.269489E-2,2.3043026E-1,1.9692662E0,9.166915E-1,3.1872993E0,2.7163213E-1,2.3009683E-1,-4.248075E-2,1.6419275E0,2.2525735E-1,2.2789624E-1,-4.2825826E-2,-1.9186513E-1,2.2525735E-1,2.1980254E-1,-4.2166576E-2,-3.6481032E-1,1.503006E0,2.4E-1,-4.292834E-2,2.1922195E-1,-4.309077E-2,-4.3041453E-2,3.062149E-2],"split_indices":[361,324,324,0,0,200,351,152,321,0,0,324,321,0,0,288,321,0,0,361,334,0,0,0,0,0,0],"split_type":[0,0,0,0,0,0,0,0,0,0,0,0,0,0,0,0,0,0,0,0,0,0,0,0,0,0,0],"sum_hessian":[2.3370742E5,3.702994E4,1.9667748E5,4.3231387E2,3.659763E4,1.9627186E5,4.056131E2,1.9565212E5,6.197431E2,2.6715845E2,1.3845465E2,1.9550936E5,1.42764E2,2.2728683E2,3.9245627E2,1.9513095E5,3.7840594E2,4.269544E1,1.0006857E2,7.285289E2,1.9440242E5,3.5879356E1,3.4252658E2,4.6093754E1,6.824351E2,1.9438022E5,2.2210667E1],"tree_param":{"num_deleted":"0","num_feature":"378","num_nodes":"27","size_leaf_vector":"1"}},{"base_weights":[3.4852766E-2,-5.126189E-1,3E0,-5.140279E-1,6.545194E-1,-4.870517E-1,3E0,-5.141985E-1,2.1674144E0,-4.4983682E-1,3E0,7.9944335E-2,-5.032461E-1,3E0,-3.736356E-2,-5.151058E-1,-1.7065701E-1,2.4E-1,1.3166719E-2,-3.999358E-2,4.582802E-2,3E0,-1.5862802E-2,-4.1041173E-2,7.446583E-2,-2.9020363E-2,3E0,-5.1579267E-1,-4.1721424E-1,3E0,-4.0933575E-2,3.6925893E-2,2.4E-1,-1.5284209E-2,3.7902694E-2,-2.1277508E-2,3E0,-4.126636E-2,-1.8552169E-1,-4.7330484E-1,3E0,-1.275738E-2,2.4E-1,2.4E-1,-1.5623958E-2,-3.1845E-2,3.555951E-2,3.4223784E-2,-4.0901564E-2,2.4E-1,-0E0],"categories":[],"categories_nodes":[],"categories_segments":[],"categories_sizes":[],"default_left":[0,0,0,0,0,0,0,0,0,0,0,0,0,0,0,0,0,0,0,0,0,0,0,0,0,0,0,0,0,0,0,0,0,0,0,0,0,0,0,0,0,0,0,0,0,0,0,0,0,0,0],"id":37,"left_children":[1,3,5,7,9,11,13,15,17,19,21,-1,23,25,-1,27,29,-1,-1,-1,-1,31,-1,-1,33,-1,35,37,39,41,-1,-1,-1,-1,-1,-1,43,-1,45,47,49,-1,-1,-1,-1,-1,-1,-1,-1,-1,-1],"loss_changes":[2.558441E5,1.5499023E2,4.2502188E3,4.6097656E1,4.376941E2,9.975067E0,3.5703125E2,2.8542969E1,7.8326187E0,5.555725E0,3.275705E1,0E0,2.096344E0,9.553125E1,0E0,5.533203E0,3.809003E2,0E0,0E0,0E0,0E0,3.9535828E0,0E0,0E0,1.5852896E0,0E0,4.81875E1,5.1171875E-1,1.4995505E2,2.637033E1,0E0,0E0,0E0,0E0,0E0,0E0,3.1828125E1,0E0,2.8986444E0,2.3220352E1,1.7371483E1,0E0,0E0,0E0,0E0,0E0,0E0,0E0,0E0,0E0,0E0],"parents":[2147483647,0,0,1,1,2,2,3,3,4,4,5,5,6,6,7,7,8,8,9,9,10,10,12,12,13,13,15,15,16,16,21,21,24,24,26,26,27,27,28,28,29,29,36,36,38,38,39,39,40,40],"right_children":[2,4,6,8,10,12,14,16,18,20,22,-1,24,26,-1,28,30,-1,-1,-1,-1,32,-1,-1,34,-1,36,38,40,42,-1,-1,-1,-1,-1,-1,44,-1,46,48,50,-1,-1,-1,-1,-1,-1,-1,-1,-1,-1],"split_conditions":[7.4049026E-1,1.5480689E0,6.146847E-2,2.1216817E0,1.1352316E0,-5.6324077E-1,1.3695675E0,1.5835346E0,-5.009455E-1,-2.210265E-1,6.6208667E-1,7.9944335E-2,3.2052082E-1,-6.716594E-1,-3.736356E-2,4.9944064E-1,-9.239176E-1,2.4E-1,1.3166719E-2,-3.999358E-2,4.582802E-2,3.4642342E-1,-1.5862802E-2,-4.1041173E-2,1.5216765E-1,-2.9020363E-2,-1.1344766E-1,1.4461832E0,4.4785947E-1,-9.113413E-1,-4.0933575E-2,3.6925893E-2,2.4E-1,-1.5284209E-2,3.7902694E-2,-2.1277508E-2,2.1868763E-2,-4.126636E-2,-3.366934E-1,-5.740815E-2,5.0160736E-1,-1.275738E-2,2.4E-1,2.4E-1,-1.5623958E-2,-3.1845E-2,3.555951E-2,3.4223784E-2,-4.0901564E-2,2.4E-1,-0E0],"split_indices":[345,353,365,339,339,330,0,339,363,371,315,0,348,340,0,360,316,0,0,0,0,345,0,0,331,0,356,353,345,370,0,0,0,0,0,0,362,0,322,341,372,0,0,0,0,0,0,0,0,0,0],"split_type":[0,0,0,0,0,0,0,0,0,0,0,0,0,0,0,0,0,0,0,0,0,0,0,0,0,0,0,0,0,0,0,0,0,0,0,0,0,0,0,0,0,0,0,0,0,0,0,0,0,0,0],"sum_hessian":[1.02305836E5,9.363637E4,8.66947E3,9.352501E4,1.11357925E2,3.488548E2,8.320615E3,9.352086E4,4.146823E0,8.822821E1,2.3129717E1,2.1185977E0,3.467362E2,8.291579E3,2.9035545E1,9.327207E4,2.4878967E2,2.0197282E0,2.1270945E0,8.554991E1,2.6782932E0,2.0333681E1,2.7960353E0,3.420421E2,4.694107E0,7.8752136E0,8.283704E3,9.260863E4,6.6343744E2,1.4016128E1,2.3477354E2,2.033765E0,1.8299915E1,2.6938531E0,2.0002542E0,4.041566E0,8.279663E3,9.259567E4,1.2963804E1,6.560534E2,7.384009E0,2.2786894E0,1.1737438E1,8.276949E3,2.713634E0,1.0837619E1,2.1261857E0,2.5160326E1,6.3089307E2,5.2603626E0,2.1236465E0],"tree_param":{"num_deleted":"0","num_feature":"378","num_nodes":"51","size_leaf_vector":"1"}},{"base_weights":[4.3970115E-2,-5.054946E-1,3E0,-5.08248E-1,3E0,-4.006476E-2,2.4E-1,-5.092579E-1,3E0,-2.4672529E-2,2.4E-1,-4.0762644E-2,5.6559876E-2,2.4E-1,-2.6217837E-2,-3.6364563E-2,2.4E-1],"categories":[],"categories_nodes":[],"categories_segments":[],"categories_sizes":[],"default_left":[0,0,0,0,0,0,0,0,0,0,0,0,0,0,0,0,0],"id":38,"left_children":[1,3,5,7,9,-1,-1,11,13,-1,-1,-1,15,-1,-1,-1,-1],"loss_changes":[1.7661555E5,8.4797266E2,1.9069375E3,2.4700977E2,6.626819E1,0E0,0E0,9.079102E0,7.5852905E1,0E0,0E0,0E0,5.9279552E1,0E0,0E0,0E0,0E0],"parents":[2147483647,0,0,1,1,2,2,3,3,4,4,7,7,8,8,12,12],"right_children":[2,4,6,8,10,-1,-1,12,14,-1,-1,-1,16,-1,-1,-1,-1],"split_conditions":[1.6665848E0,1.3878493E0,3.035298E-1,3.238766E0,2.2525735E-1,-4.006476E-2,2.4E-1,3.1108491E0,2.1628385E0,-2.4672529E-2,2.4E-1,-4.0762644E-2,2.3915598E0,2.4E-1,-2.6217837E-2,-3.6364563E-2,2.4E-1],"split_indices":[314,347,352,125,321,0,0,118,12,0,0,0,24,0,0,0,0],"split_type":[0,0,0,0,0,0,0,0,0,0,0,0,0,0,0,0,0],"sum_hessian":[6.1062168E4,5.779294E4,3.269227E3,5.777264E4,2.0302431E1,1.5490118E2,3.1143257E3,5.776093E4,1.1709036E1,5.533631E0,1.47688E1,5.773394E4,2.6989975E1,5.3988175E0,6.3102183E0,2.498804E1,2.001933E0],"tree_param":{"num_deleted":"0","num_feature":"378","num_nodes":"17","size_leaf_vector":"1"}},{"base_weights":[1.3918536E-2,-5.26827E-1,3E0,-5.294214E-1,4.0737744E-2,3E0,-4.1898362E-2,-5.314882E-1,-4.2623752E-1,3E0,-5.249337E-1,3.55171E-2,3E0,-5.32288E-1,-4.8610634E-1,-4.9808133E-1,1.9901539E0,2.9071912E-2,2.4E-1,3.971461E-2,-4.2425845E-2,1.10495515E-1,-3.2023147E-2,3E0,8.3329374E-1,-5.3233045E-1,-2.8017873E-1,2.373163E0,-5.089622E-1,1.8218309E0,-5.045277E-1,2.4E-1,-3.92914E-2,2.4E-1,-1.717435E-2,-3.5266053E-2,2.3670714E-1,-5.0984067E-1,-4.2616643E-2,-3.8975265E-2,1.0817186E-1,2.4E-1,-2.401881E-2,-5.174085E-1,5.054697E-1,1.7944895E-1,2.76718E-2,-5.173075E-1,2.2499199E-1,2.2736113E-1,-4.221442E-2,-2.3289233E-2,-4.27745E-2,1.3742712E-1,-3.4640092E-2,-2.045191E-2,-4.2431455E-2,1.9636442E-1,-3.9931457E-2],"categories":[],"categories_nodes":[],"categories_segments":[],"categories_sizes":[],"default_left":[0,0,0,0,0,0,0,0,0,0,0,0,0,0,0,0,0,0,0,0,0,0,0,0,0,0,0,0,0,0,0,0,0,0,0,0,0,0,0,0,0,0,0,0,0,0,0,0,0,0,0,0,0,0,0,0,0,0,0],"id":39,"left_children":[1,3,5,7,9,11,-1,13,15,17,19,21,23,25,27,29,31,-1,-1,-1,-1,-1,-1,33,35,37,39,41,43,45,47,-1,-1,-1,-1,-1,-1,49,-1,-1,-1,-1,-1,51,53,-1,-1,55,57,-1,-1,-1,-1,-1,-1,-1,-1,-1,-1],"loss_changes":[3.530913E5,2.5410547E2,2.3564375E3,3.586328E1,1.4150111E3,9.6E1,0E0,5.3046875E0,5.9112384E2,1.0115356E1,4.4641724E0,1.1228484E1,7.83125E1,1.0820312E0,1.9639319E2,5.1979675E1,3.235901E2,0E0,0E0,0E0,0E0,0E0,0E0,3.41875E1,6.3707367E1,5.8203125E-1,1.3807216E1,4.7652023E1,2.5875793E1,2.8167648E0,3.0980896E1,0E0,0E0,0E0,0E0,0E0,0E0,1.7182635E2,0E0,0E0,0E0,0E0,0E0,1.0681335E1,3.1625998E1,0E0,0E0,1.0400757E1,9.8487755E1,0E0,0E0,0E0,0E0,0E0,0E0,0E0,0E0,0E0,0E0],"parents":[2147483647,0,0,1,1,2,2,3,3,4,4,5,5,7,7,8,8,9,9,10,10,11,11,12,12,13,13,14,14,15,15,16,16,23,23,24,24,25,25,26,26,27,27,28,28,29,29,30,30,37,37,43,43,44,44,47,47,48,48],"right_children":[2,4,6,8,10,12,-1,14,16,18,20,22,24,26,28,30,32,-1,-1,-1,-1,-1,-1,34,36,38,40,42,44,46,48,-1,-1,-1,-1,-1,-1,50,-1,-1,-1,-1,-1,52,54,-1,-1,56,58,-1,-1,-1,-1,-1,-1,-1,-1,-1,-1],"split_conditions":[9.181402E-1,4.9710855E-1,3.856638E-1,2.1196682E0,-7.7706337E-1,-9.4289936E-2,-4.1898362E-2,6.539771E-1,-2.1635582E-1,-1.6815823E-2,-1.8931001E-1,-9.40566E-1,3.1431603E-1,2.3612578E0,-7.5075215E-1,-7.4453664E-1,-5.395732E-1,2.9071912E-2,2.4E-1,3.971461E-2,-4.2425845E-2,1.10495515E-1,-3.2023147E-2,1.5624183E0,4.5582542E-1,-9.073186E-1,1.6640817E0,2.294626E0,2.7474532E0,-8.059399E-1,-4.4979084E-1,2.4E-1,-3.92914E-2,2.4E-1,-1.717435E-2,-3.5266053E-2,2.3670714E-1,4.1407484E-1,-4.2616643E-2,-3.8975265E-2,1.0817186E-1,2.4E-1,-2.401881E-2,1.088465E-1,-6.433989E-1,1.7944895E-1,2.76718E-2,-8.980615E-1,-7.042903E-1,2.2736113E-1,-4.221442E-2,-2.3289233E-2,-4.27745E-2,1.3742712E-1,-3.4640092E-2,-2.045191E-2,-4.2431455E-2,1.9636442E-1,-3.9931457E-2],"split_indices":[355,355,327,138,362,372,0,372,355,365,215,345,315,321,375,327,323,0,0,0,0,0,0,333,349,370,147,338,271,327,355,0,0,0,0,0,0,334,0,0,0,0,0,367,375,0,0,362,320,0,0,0,0,0,0,0,0,0,0],"split_type":[0,0,0,0,0,0,0,0,0,0,0,0,0,0,0,0,0,0,0,0,0,0,0,0,0,0,0,0,0,0,0,0,0,0,0,0,0,0,0,0,0,0,0,0,0,0,0,0,0,0,0,0,0,0,0,0,0,0,0],"sum_hessian":[2.0105875E5,1.725185E5,2.8540256E4,1.717345E5,7.839921E2,2.8351191E4,1.8906563E2,1.6834923E5,3.3852642E3,1.17214806E2,6.667773E2,1.1477716E1,2.8339713E4,1.6540169E5,2.947551E3,3.289263E3,9.6001236E1,2.6394837E0,1.14575325E2,2.056421E0,6.647209E2,2.0271242E0,9.450592E0,2.8320412E4,1.9301968E1,1.6536966E5,3.2041798E1,2.1570305E1,2.9259807E3,7.338922E0,3.281924E3,6.2062443E1,3.393879E1,2.831753E4,2.8814375E0,1.2912052E1,6.389916E0,2.7971765E3,1.6257247E5,2.9952585E1,2.0892112E0,1.6943802E1,4.626502E0,2.9032805E3,2.2700253E1,4.6370106E0,2.7019112E0,3.226666E3,5.52581E1,1.2984046E1,2.7841924E3,2.1047453E2,2.692806E3,9.412502E0,1.3287751E1,1.574577E2,3.0692083E3,1.254478E1,4.271332E1],"tree_param":{"num_deleted":"0","num_feature":"378","num_nodes":"59","size_leaf_vector":"1"}},{"base_weights":[-1.332111E-2,1.8929801E0,-5.705644E-1,-4.5073107E-2,1.5179269E-1,-5.706813E-1,1.3788076E-1,-5.709454E-1,-4.978696E-1,-4.536884E-2,-4.597216E-2,-5.6505024E-1,1.5492151E0,7.0702475E-3,-4.543914E-2,1.4532605E-1,-2.3925748E-2],"categories":[],"categories_nodes":[],"categories_segments":[],"categories_sizes":[],"default_left":[0,0,0,0,0,0,0,0,0,0,0,0,0,0,0,0,0],"id":40,"left_children":[1,3,5,-1,-1,7,-1,9,11,-1,-1,13,15,-1,-1,-1,-1],"loss_changes":[4.088512E5,9.4946875E2,8.271094E1,0E0,0E0,4.828125E0,0E0,3.28125E0,1.5374228E2,0E0,0E0,2.195404E0,1.9038132E1,0E0,0E0,0E0,0E0],"parents":[2147483647,0,0,1,1,2,2,5,5,7,7,8,8,11,11,12,12],"right_children":[2,4,6,-1,-1,8,-1,10,12,-1,-1,14,16,-1,-1,-1,-1],"split_conditions":[-8.5873973E-1,-7.2146606E-1,1.5584816E0,-4.5073107E-2,1.5179269E-1,1.4215561E0,1.3788076E-1,4.0063524E-1,1.3406359E0,-4.536884E-2,-4.597216E-2,-9.099066E-1,-1.3566242E-1,7.0702475E-3,-4.543914E-2,1.4532605E-1,-2.3925748E-2],"split_indices":[334,319,174,0,0,156,0,263,22,0,0,193,358,0,0,0,0],"split_type":[0,0,0,0,0,0,0,0,0,0,0,0,0,0,0,0,0],"sum_hessian":[3.8487747E5,8.705636E4,2.9782112E5,1.5600714E2,8.690035E4,2.9780766E5,1.3457781E1,2.9671084E5,1.0968308E3,1.4604919E5,1.5066164E5,1.0636174E3,3.3213303E1,3.7404053E0,1.0598771E3,2.928235E1,3.9309516E0],"tree_param":{"num_deleted":"0","num_feature":"378","num_nodes":"17","size_leaf_vector":"1"}},{"base_weights":[2.1504782E-2,-5.185363E-1,3E0,-5.2583903E-1,8.7758714E-1,2.4E-1,-1.7861767E-2,5.873514E-1,-4.2071715E-2,-1.7401065E-1,2.6204834E0,-2.0902433E-2,1.3082649E-1,-3.531448E-1,1.8649174E0,3E0,3.0683473E-1,-4.0862954E-1,2.323229E-1,2.4E-1,-3.559367E-2,-3.5250057E-2,3E0,-4.433987E-1,3E0,1.8573077E0,-4.414562E-1,3E0,-2.3667458E-2,-4.0118277E-2,-0E0,-1.1979522E-2,2.4E-1,2.0318197E-1,8.804256E-3,1.2255638E-1,-3.759149E-2,2.4E-1,-1.2255345E-2,4.868332E-2,-2.6869856E-2],"categories":[],"categories_nodes":[],"categories_segments":[],"categories_sizes":[],"default_left":[0,0,0,0,0,0,0,0,0,0,0,0,0,0,0,0,0,0,0,0,0,0,0,0,0,0,0,0,0,0,0,0,0,0,0,0,0,0,0,0,0],"id":41,"left_children":[1,3,5,7,9,-1,-1,11,-1,13,15,-1,-1,17,19,21,23,25,-1,-1,-1,-1,27,29,31,33,35,37,-1,-1,39,-1,-1,-1,-1,-1,-1,-1,-1,-1,-1],"loss_changes":[3.2977988E5,1.4418398E3,3.646875E1,9.894531E0,1.3517811E3,0E0,0E0,9.440736E0,0E0,1.706984E2,5.2045874E2,0E0,0E0,8.074907E1,1.5928079E2,1.9592017E2,1.7778787E2,3.385604E1,0E0,0E0,0E0,0E0,5.6585205E1,1.407157E0,2.4348694E1,5.3298283E0,2.558255E1,2.4155762E1,0E0,0E0,3.3312488E0,0E0,0E0,0E0,0E0,0E0,0E0,0E0,0E0,0E0,0E0],"parents":[2147483647,0,0,1,1,2,2,3,3,4,4,7,7,9,9,10,10,13,13,14,14,15,15,16,16,17,17,22,22,23,23,24,24,25,25,26,26,27,27,30,30],"right_children":[2,4,6,8,10,-1,-1,12,-1,14,16,-1,-1,18,20,22,24,26,-1,-1,-1,-1,28,30,32,34,36,38,-1,-1,40,-1,-1,-1,-1,-1,-1,-1,-1,-1,-1],"split_conditions":[1.5624183E0,4.3602623E-2,1.2924649E0,-8.7662715E-1,3.8216478E-1,2.4E-1,-1.7861767E-2,1.0083123E0,-4.2071715E-2,3.1541836E0,-4.0763356E-2,-2.0902433E-2,1.3082649E-1,1.857885E0,1.4085652E0,-1.4459382E-1,1.5547793E0,-7.030328E-1,2.323229E-1,2.4E-1,-3.559367E-2,-3.5250057E-2,9.166915E-1,1.4633853E0,-5.353846E-2,2.702171E-1,-9.355828E-1,1.6299223E0,-2.3667458E-2,-4.0118277E-2,4.239746E-1,-1.1979522E-2,2.4E-1,2.0318197E-1,8.804256E-3,1.2255638E-1,-3.759149E-2,2.4E-1,-1.2255345E-2,4.868332E-2,-2.6869856E-2],"split_indices":[333,333,171,323,325,0,0,361,0,244,350,0,0,0,0,377,344,327,0,0,0,0,351,344,364,373,351,353,0,0,367,0,0,0,0,0,0,0,0,0,0],"split_type":[0,0,0,0,0,0,0,0,0,0,0,0,0,0,0,0,0,0,0,0,0,0,0,0,0,0,0,0,0,0,0,0,0,0,0,0,0,0,0,0,0],"sum_hessian":[1.5998708E5,1.4128314E5,1.8703932E4,1.4054958E5,7.33568E2,1.8700854E4,3.0794125E0,5.7400064E0,1.4054383E5,4.584625E2,2.751055E2,3.737618E0,2.0023887E0,4.2318182E2,3.528067E1,1.9686513E2,7.824036E1,4.1796457E2,5.2172556E0,1.8602219E1,1.6678452E1,1.590685E1,1.8095828E2,6.309231E1,1.51480465E1,4.1637273E0,4.1380084E2,1.7625735E2,4.700925E0,5.5133938E1,7.9583735E0,2.10235E0,1.3045696E1,2.1360679E0,2.0276592E0,4.1263843E0,4.0967444E2,1.741837E2,2.0736516E0,2.0301056E0,5.928268E0],"tree_param":{"num_deleted":"0","num_feature":"378","num_nodes":"41","size_leaf_vector":"1"}},{"base_weights":[-1.5692053E-2,-6.1877674E-1,1.4707199E0,-6.1337245E-1,-4.9986176E-2,1.4755285E0,-4.9793726E-1,-4.894953E-2,-4.9822915E-2,1.4757171E0,-4.0409394E-2,-4.867712E-2,1.0688831E-1,1.4757824E0,-2.9883837E-2,1.18063636E-1,1.8648254E-2],"categories":[],"categories_nodes":[],"categories_segments":[],"categories_sizes":[],"default_left":[0,0,0,0,0,0,0,0,0,0,0,0,0,0,0,0,0],"id":42,"left_children":[1,3,5,7,-1,9,11,-1,-1,13,-1,-1,-1,15,-1,-1,-1],"loss_changes":[4.857954E5,1.1546875E1,1.482375E3,1.8203125E0,0E0,6.00625E1,7.99662E1,0E0,0E0,2.0125E1,0E0,0E0,0E0,5E-1,0E0,0E0,0E0],"parents":[2147483647,0,0,1,1,2,2,3,3,5,5,6,6,9,9,13,13],"right_children":[2,4,6,8,-1,10,12,-1,-1,14,-1,-1,-1,16,-1,-1,-1],"split_conditions":[2.776692E-1,9.9174625E-1,1.0548294E-1,5.440327E-1,-4.9986176E-2,-5.2785844E-1,6.675396E-1,-4.894953E-2,-4.9822915E-2,1.0771484E0,-4.0409394E-2,-4.867712E-2,1.0688831E-1,1.5613468E0,-2.9883837E-2,1.18063636E-1,1.8648254E-2],"split_indices":[318,87,364,320,0,181,318,0,0,325,0,0,0,112,0,0,0],"split_type":[0,0,0,0,0,0,0,0,0,0,0,0,0,0,0,0,0],"sum_hessian":[5.4191506E5,3.8550494E5,1.5641012E5,2.0377727E5,1.8172766E5,1.5602977E5,3.8035004E2,1.7587634E5,2.7900926E4,1.5601567E5,1.4092465E1,3.6024905E2,2.0100971E1,1.5601084E5,4.837821E0,1.5600842E5,2.422683E0],"tree_param":{"num_deleted":"0","num_feature":"378","num_nodes":"17","size_leaf_vector":"1"}},{"base_weights":[2.0492284E-2,3E0,-4.8565277E-1,2.4E-1,-3.9793715E-2,-5.214311E-1,2.4576747E0,-5.224804E-1,2.838725E0,2.4E-1,-4.207394E-2,-5.2551943E-1,2.3697865E-1,2.4E-1,-3.1230062E-2,-5.257148E-1,2.3410681E-1,2.4E-1,-4.2037338E-2,-3.3400968E-1,-5.268435E-1,2.4E-1,-4.208218E-2,5.3710835E-3,-4.2156886E-2],"categories":[],"categories_nodes":[],"categories_segments":[],"categories_sizes":[],"default_left":[0,0,0,0,0,0,0,0,0,0,0,0,0,0,0,0,0,0,0,0,0,0,0,0,0],"id":43,"left_children":[1,3,5,-1,-1,7,9,11,13,-1,-1,15,17,-1,-1,19,-1,-1,-1,21,23,-1,-1,-1,-1],"loss_changes":[3.1491162E5,6.2609375E2,1.5693074E4,0E0,0E0,5.2340625E2,6.764758E3,3.399961E2,1.1244232E2,0E0,0E0,1.0338281E2,1.5626492E3,0E0,0E0,3.1E1,0E0,0E0,0E0,6.813754E2,1.028125E1,0E0,0E0,0E0,0E0],"parents":[2147483647,0,0,1,1,2,2,5,5,6,6,7,7,8,8,11,11,12,12,15,15,19,19,20,20],"right_children":[2,4,6,-1,-1,8,10,12,14,-1,-1,16,18,-1,-1,20,-1,-1,-1,22,24,-1,-1,-1,-1],"split_conditions":[-8.748896E-1,1.2890494E0,4.7452727E-1,2.4E-1,-3.9793715E-2,1.7953267E0,-9.4468884E-2,4.1887525E-1,8.524294E-2,2.4E-1,-4.207394E-2,2.8544283E0,-2.8333974E-1,2.4E-1,-3.1230062E-2,-4.5551464E-1,2.3410681E-1,2.4E-1,-4.2037338E-2,-2.1865629E-1,-9.0210146E-1,2.4E-1,-4.208218E-2,5.3710835E-3,-4.2156886E-2],"split_indices":[344,327,366,0,0,358,344,366,317,0,0,340,344,0,0,336,0,0,0,337,329,0,0,0,0],"split_type":[0,0,0,0,0,0,0,0,0,0,0,0,0,0,0,0,0,0,0,0,0,0,0,0,0],"sum_hessian":[1.6842594E5,1.9442758E4,1.4898319E5,1.9392264E4,5.0494503E1,1.4719573E5,1.7874575E3,1.4715161E5,4.411703E1,1.2017688E3,5.856886E2,1.465664E5,5.8520935E2,3.4850086E1,9.266944E0,1.4655995E5,6.454979E0,9.984552E1,4.853638E2,8.639182E2,1.4569603E5,3.549287E1,8.284253E2,2.7776697E1,1.4566825E5],"tree_param":{"num_deleted":"0","num_feature":"378","num_nodes":"25","size_leaf_vector":"1"}},{"base_weights":[1.7376337E-2,-5.2290595E-1,2.9131176E0,-5.25804E-1,8.992443E-2,2.967283E0,-3.4795702E-1,1.2377794E-1,-5.2587986E-1,2.3081787E-1,-4.792621E-1,2.9701858E0,-3.721114E-2,2.025169E-1,-4.446577E-1,-3.384698E-2,1.4093922E-1,-4.592985E-1,-4.212269E-2,7.929871E-1,-5.176873E-1,2.3765998E-1,-3.087083E-2,-4.7754362E-1,7.7216136E-1,-5.222672E-1,2.258996E0,1.7265633E-1,-3.0670237E-2,1.1033212E-1,-4.1942757E-2,-1.6634706E-2,5.7483916E-3,-0E0,-4.127E-2,-2.5730964E-2,1.5636504E-1,-4.2310696E-2,-8.329736E-2,2.3479159E-1,-2.7444009E-2,-1.5068372E-2,4.0947083E-2,-3.7435345E-2,1.0138022E0,1.500087E-1,-3.680879E-2,-6.979649E-3,1.8236679E-1],"categories":[],"categories_nodes":[],"categories_segments":[],"categories_sizes":[],"default_left":[0,0,0,0,0,0,0,0,0,0,0,0,0,0,0,0,0,0,0,0,0,0,0,0,0,0,0,0,0,0,0,0,0,0,0,0,0,0,0,0,0,0,0,0,0,0,0,0,0],"id":44,"left_children":[1,3,5,7,9,11,13,15,17,-1,19,21,-1,-1,23,-1,-1,25,-1,27,29,-1,31,33,35,37,39,-1,-1,41,-1,-1,-1,43,-1,-1,-1,-1,45,-1,-1,-1,-1,-1,47,-1,-1,-1,-1],"loss_changes":[2.687482E5,2.572461E2,4.7732812E3,7.296875E0,1.0927034E3,2.6771875E2,1.26994095E2,1.9992914E1,5.4882812E0,0E0,2.9062424E1,4.515625E1,0E0,0E0,1.8396408E1,0E0,0E0,2.4730643E2,0E0,3.1312572E1,2.473297E0,0E0,4.5514545E-1,7.250389E0,1.8311127E1,3.4818115E0,6.0239594E1,0E0,0E0,1.6827437E0,0E0,0E0,0E0,1.8391155E1,0E0,0E0,0E0,0E0,2.1077335E1,0E0,0E0,0E0,0E0,0E0,1.7817268E1,0E0,0E0,0E0,0E0],"parents":[2147483647,0,0,1,1,2,2,3,3,4,4,5,5,6,6,7,7,8,8,10,10,11,11,14,14,17,17,19,19,20,20,22,22,23,23,24,24,25,25,26,26,29,29,33,33,38,38,44,44],"right_children":[2,4,6,8,10,12,14,16,18,-1,20,22,-1,-1,24,-1,-1,26,-1,28,30,-1,32,34,36,38,40,-1,-1,42,-1,-1,-1,44,-1,-1,-1,-1,46,-1,-1,-1,-1,-1,48,-1,-1,-1,-1],"split_conditions":[5.1566774E-1,3.1352037E-1,8.75288E-2,-9.774224E-1,-5.1667726E-1,7.878186E-1,-5.8576035E-1,-3.9636612E-1,-9.572728E-1,2.3081787E-1,1.3644318E-2,5.757325E-1,-3.721114E-2,2.025169E-1,1.2924649E0,-3.384698E-2,1.4093922E-1,2.5846082E-1,-4.212269E-2,-5.681839E-1,-4.1668597E-1,2.3765998E-1,-7.624647E-2,1.53262E-1,-2.2550075E-1,4.9348682E-2,5.3835315E-1,1.7265633E-1,-3.0670237E-2,-6.0454863E-1,-4.1942757E-2,-1.6634706E-2,5.7483916E-3,7.6130484E-3,-4.127E-2,-2.5730964E-2,1.5636504E-1,-4.2310696E-2,4.367042E-2,2.3479159E-1,-2.7444009E-2,-1.5068372E-2,4.0947083E-2,-3.7435345E-2,1.0633165E0,1.500087E-1,-3.680879E-2,-6.979649E-3,1.8236679E-1],"split_indices":[335,335,332,355,315,328,328,317,355,0,332,353,0,0,171,0,0,317,0,318,364,0,315,332,314,317,314,0,0,320,0,0,0,342,0,0,0,0,336,0,0,0,0,0,352,0,0,0,0],"split_type":[0,0,0,0,0,0,0,0,0,0,0,0,0,0,0,0,0,0,0,0,0,0,0,0,0,0,0,0,0,0,0,0,0,0,0,0,0,0,0,0,0,0,0,0,0,0,0,0,0],"sum_hessian":[1.7177014E5,1.4476214E5,2.7007998E4,1.4408189E5,6.8025854E2,2.656706E4,4.4093655E2,1.5676562E1,1.440662E5,1.1385454E2,5.66404E2,2.6545027E4,2.2033346E1,1.2522801E1,4.2841376E2,1.2635948E1,3.040614E0,1.4218851E3,1.4264433E5,1.5072448E1,5.5133154E2,2.6540225E4,4.8031144E0,4.1872327E2,9.690466E0,1.3914521E3,3.0433018E1,6.4003534E0,8.672094E0,4.6165895E0,5.4671497E2,2.7984943E0,2.0046198E0,3.2202415E1,3.8652087E2,5.570491E0,4.119975E0,1.3692648E3,2.2187277E1,2.4107304E1,6.325714E0,2.542004E0,2.0745854E0,2.3097195E1,9.105222E0,2.082825E0,2.010445E1,5.654104E0,3.4511178E0],"tree_param":{"num_deleted":"0","num_feature":"378","num_nodes":"49","size_leaf_vector":"1"}},{"base_weights":[-1.8575037E-2,-5.709475E-1,1.2283018E0,1.2135502E0,-6.0568273E-1,1.01654E-1,-5.143227E-2,-4.9574118E-2,1.01768285E-1,-6.09914E-1,1.2059565E0,-7.4774295E-2,-6.157937E-1,-4.5988344E-2,1.0144761E-1,1.2850317E0,-5.1396742E-2,-6.1782366E-1,6.2753344E-1,1.029845E-1,-0E0,3.6970136E-1,-6.1983055E-1,1.2535629E0,-4.9904503E-2,1.0116974E-1,-5.1114455E-2,-4.9623903E-2,9.9862725E-2,1.01375766E-1,-2.2098262E-2],"categories":[],"categories_nodes":[],"categories_segments":[],"categories_sizes":[],"default_left":[0,0,0,0,0,0,0,0,0,0,0,0,0,0,0,0,0,0,0,0,0,0,0,0,0,0,0,0,0,0,0],"id":45,"left_children":[1,3,5,7,9,-1,-1,-1,-1,11,13,15,17,-1,-1,19,-1,21,23,-1,-1,25,27,29,-1,-1,-1,-1,-1,-1,-1],"loss_changes":[3.9119903E5,2.440039E4,1.3828E4,8.0873535E2,2.9617969E3,0E0,0E0,0E0,0E0,1.2113594E3,1.01439575E2,3.2372083E3,9.6271875E2,0E0,0E0,3.244995E0,0E0,7.545469E2,4.8979974E2,0E0,0E0,7.003388E2,3.3425E2,9.520325E0,0E0,0E0,0E0,0E0,0E0,0E0,0E0],"parents":[2147483647,0,0,1,1,2,2,3,3,4,4,9,9,10,10,11,11,12,12,15,15,17,17,18,18,21,21,22,22,23,23],"right_children":[2,4,6,8,10,-1,-1,-1,-1,12,14,16,18,-1,-1,20,-1,22,24,-1,-1,26,28,30,-1,-1,-1,-1,-1,-1,-1],"split_conditions":[-2.059412E-1,-8.229199E-1,3.2259554E-1,-7.5858575E-1,5.1993375E0,1.01654E-1,-5.143227E-2,-4.9574118E-2,1.01768285E-1,-2.0860047E0,5.1993375E0,8.905023E-2,5.1993375E0,-4.5988344E-2,1.0144761E-1,4.6153966E-1,-5.1396742E-2,-8.396458E-1,8.905023E-2,1.029845E-1,-0E0,8.905023E-2,2.5117912E0,-2.2550075E-1,-4.9904503E-2,1.0116974E-1,-5.1114455E-2,-4.9623903E-2,9.9862725E-2,1.01375766E-1,-2.2098262E-2],"split_indices":[191,359,338,315,61,0,0,0,0,250,287,337,165,0,0,323,0,327,337,0,0,337,146,314,0,0,0,0,0,0,0],"split_type":[0,0,0,0,0,0,0,0,0,0,0,0,0,0,0,0,0,0,0,0,0,0,0,0,0,0,0,0,0,0,0],"sum_hessian":[5.679858E5,3.9361428E5,1.7437156E5,7.513831E3,3.8610044E5,1.7051125E5,3.8603127E3,2.3170665E2,7.282124E3,3.8520238E5,8.980864E2,4.187519E3,3.8101484E5,2.9453033E1,8.686334E2,1.232305E3,2.9552139E3,3.803952E5,6.1964923E2,1.2302914E3,2.0136163E0,7.702423E2,3.7962494E5,4.1328433E2,2.0636493E2,4.0812064E2,3.6212167E2,3.7953144E5,9.3529785E1,4.1029773E2,2.9865963E0],"tree_param":{"num_deleted":"0","num_feature":"378","num_nodes":"31","size_leaf_vector":"1"}},{"base_weights":[5.566363E-2,-4.0744923E-2,3E0,-3.9629795E-2,2.4E-1],"categories":[],"categories_nodes":[],"categories_segments":[],"categories_sizes":[],"default_left":[0,0,0,0,0],"id":46,"left_children":[1,-1,3,-1,-1],"loss_changes":[1.6725027E5,0E0,1.3410156E3,0E0,0E0],"parents":[2147483647,0,0,2,2],"right_children":[2,-1,4,-1,-1],"split_conditions":[4.636365E-1,-4.0744923E-2,8.623779E-1,-3.9629795E-2,2.4E-1],"split_indices":[329,0,341,0,0],"split_type":[0,0,0,0,0],"sum_hessian":[6.016634E4,5.5934113E4,4.232226E3,1.09070625E2,4.1231553E3],"tree_param":{"num_deleted":"0","num_feature":"378","num_nodes":"5","size_leaf_vector":"1"}},