{"learner":{"attributes":{"best_iteration":"71","best_score":"0.05314206775908335","scikit_learn":"{\"_estimator_type\": \"classifier\"}"},"feature_names":[],"feature_types":[],"gradient_booster":{"model":{"cats":{"enc":[],"feature_segments":[],"sorted_idx":[]},"gbtree_model_param":{"num_parallel_tree":"1","num_trees":"1232"},"iteration_indptr":[0,11,22,33,44,55,66,77,88,99,110,121,132,143,154,165,176,187,198,209,220,231,242,253,264,275,286,297,308,319,330,341,352,363,374,385,396,407,418,429,440,451,462,473,484,495,506,517,528,539,550,561,572,583,594,605,616,627,638,649,660,671,682,693,704,715,726,737,748,759,770,781,792,803,814,825,836,847,858,869,880,891,902,913,924,935,946,957,968,979,990,1001,1012,1023,1034,1045,1056,1067,1078,1089,1100,1111,1122,1133,1144,1155,1166,1177,1188,1199,1210,1221,1232],"tree_info":[0,1,2,3,4,5,6,7,8,9,10,0,1,2,3,4,5,6,7,8,9,10,0,1,2,3,4,5,6,7,8,9,10,0,1,2,3,4,5,6,7,8,9,10,0,1,2,3,4,5,6,7,8,9,10,0,1,2,3,4,5,6,7,8,9,10,0,1,2,3,4,5,6,7,8,9,10,0,1,2,3,4,5,6,7,8,9,10,0,1,2,3,4,5,6,7,8,9,10,0,1,2,3,4,5,6,7,8,9,10,0,1,2,3,4,5,6,7,8,9,10,0,1,2,3,4,5,6,7,8,9,10,0,1,2,3,4,5,6,7,8,9,10,0,1,2,3,4,5,6,7,8,9,10,0,1,2,3,4,5,6,7,8,9,10,0,1,2,3,4,5,6,7,8,9,10,0,1,2,3,4,5,6,7,8,9,10,0,1,2,3,4,5,6,7,8,9,10,0,1,2,3,4,5,6,7,8,9,10,0,1,2,3,4,5,6,7,8,9,10,0,1,2,3,4,5,6,7,8,9,10,0,1,2,3,4,5,6,7,8,9,10,0,1,2,3,4,5,6,7,8,9,10,0,1,2,3,4,5,6,7,8,9,10,0,1,2,3,4,5,6,7,8,9,10,0,1,2,3,4,5,6,7,8,9,10,0,1,2,3,4,5,6,7,8,9,10,0,1,2,3,4,5,6,7,8,9,10,0,1,2,3,4,5,6,7,8,9,10,0,1,2,3,4,5,6,7,8,9,10,0,1,2,3,4,5,6,7,8,9,10,0,1,2,3,4,5,6,7,8,9,10,0,1,2,3,4,5,6,7,8,9,10,0,1,2,3,4,5,6,7,8,9,10,0,1,2,3,4,5,6,7,8,9,10,0,1,2,3,4,5,6,7,8,9,10,0,1,2,3,4,5,6,7,8,9,10,0,1,2,3,4,5,6,7,8,9,10,0,1,2,3,4,5,6,7,8,9,10,0,1,2,3,4,5,6,7,8,9,10,0,1,2,3,4,5,6,7,8,9,10,0,1,2,3,4,5,6,7,8,9,10,0,1,2,3,4,5,6,7,8,9,10,0,1,2,3,4,5,6,7,8,9,10,0,1,2,3,4,5,6,7,8,9,10,0,1,2,3,4,5,6,7,8,9,10,0,1,2,3,4,5,6,7,8,9,10,0,1,2,3,4,5,6,7,8,9,10,0,1,2,3,4,5,6,7,8,9,10,0,1,2,3,4,5,6,7,8,9,10,0,1,2,3,4,5,6,7,8,9,10,0,1,2,3,4,5,6,7,8,9,10,0,1,2,3,4,5,6,7,8,9,10,0,1,2,3,4,5,6,7,8,9,10,0,1,2,3,4,5,6,7,8,9,10,0,1,2,3,4,5,6,7,8,9,10,0,1,2,3,4,5,6,7,8,9,10,0,1,2,3,4,5,6,7,8,9,10,0,1,2,3,4,5,6,7,8,9,10,0,1,2,3,4,5,6,7,8,9,10,0,1,2,3,4,5,6,7,8,9,10,0,1,2,3,4,5,6,7,8,9,10,0,1,2,3,4,5,6,7,8,9,10,0,1,2,3,4,5,6,7,8,9,10,0,1,2,3,4,5,6,7,8,9,10,0,1,2,3,4,5,6,7,8,9,10,0,1,2,3,4,5,6,7,8,9,10,0,1,2,3,4,5,6,7,8,9,10,0,1,2,3,4,5,6,7,8,9,10,0,1,2,3,4,5,6,7,8,9,10,0,1,2,3,4,5,6,7,8,9,10,0,1,2,3,4,5,6,7,8,9,10,0,1,2,3,4,5,6,7,8,9,10,0,1,2,3,4,5,6,7,8,9,10,0,1,2,3,4,5,6,7,8,9,10,0,1,2,3,4,5,6,7,8,9,10,0,1,2,3,4,5,6,7,8,9,10,0,1,2,3,4,5,6,7,8,9,10,0,1,2,3,4,5,6,7,8,9,10,0,1,2,3,4,5,6,7,8,9,10,0,1,2,3,4,5,6,7,8,9,10,0,1,2,3,4,5,6,7,8,9,10,0,1,2,3,4,5,6,7,8,9,10,0,1,2,3,4,5,6,7,8,9,10,0,1,2,3,4,5,6,7,8,9,10,0,1,2,3,4,5,6,7,8,9,10,0,1,2,3,4,5,6,7,8,9,10,0,1,2,3,4,5,6,7,8,9,10,0,1,2,3,4,5,6,7,8,9,10,0,1,2,3,4,5,6,7,8,9,10,0,1,2,3,4,5,6,7,8,9,10,0,1,2,3,4,5,6,7,8,9,10,0,1,2,3,4,5,6,7,8,9,10,0,1,2,3,4,5,6,7,8,9,10,0,1,2,3,4,5,6,7,8,9,10,0,1,2,3,4,5,6,7,8,9,10,0,1,2,3,4,5,6,7,8,9,10,0,1,2,3,4,5,6,7,8,9,10,0,1,2,3,4,5,6,7,8,9,10,0,1,2,3,4,5,6,7,8,9,10,0,1,2,3,4,5,6,7,8,9,10,0,1,2,3,4,5,6,7,8,9,10,0,1,2,3,4,5,6,7,8,9,10,0,1,2,3,4,5,6,7,8,9,10,0,1,2,3,4,5,6,7,8,9,10,0,1,2,3,4,5,6,7,8,9,10,0,1,2,3,4,5,6,7,8,9,10,0,1,2,3,4,5,6,7,8,9,10,0,1,2,3,4,5,6,7,8,9,10,0,1,2,3,4,5,6,7,8,9,10,0,1,2,3,4,5,6,7,8,9,10,0,1,2,3,4,5,6,7,8,9,10],"trees":[{"base_weights":[-4.0269244E-4,-5.283289E-1,3E0,-5.309889E-1,1.0786032E-1,3E0,-4.1280967E-1,-4.5927584E-1,-4.2544864E-2,3E0,-5.142357E-1,3E0,-3.3689804E-2,3.6336422E-1,-5.0422454E-1,-5.1969063E-1,2.6287234E0,2.4E-1,-2.5770444E-2,4.9248704E-1,-4.235907E-2,2.4E-1,4.1950746E-3,2.2972636E0,-3.8861264E-2,-1.7246157E-1,-4.143118E-2,-2.6433181E-4,-4.249486E-2,2.4E-1,-3.7014116E-2,1.4888914E-1,-2.5933865E-2,-2.7595762E-2,2.4E-1,-3.5570227E-2,7.969604E-2],"categories":[],"categories_nodes":[],"categories_segments":[],"categories_sizes":[],"default_left":[0,0,0,0,0,0,0,0,0,0,0,0,0,0,0,0,0,0,0,0,0,0,0,0,0,0,0,0,0,0,0,0,0,0,0,0,0],"id":0,"left_children":[1,3,5,7,9,11,13,15,-1,17,19,21,-1,23,25,27,29,-1,-1,31,-1,-1,-1,33,-1,35,-1,-1,-1,-1,-1,-1,-1,-1,-1,-1,-1],"loss_changes":[4.5259306E5,2.6922656E2,5.0571875E3,8.546875E0,1.9830186E3,1.4890625E2,3.1591087E1,3.428887E2,0E0,6.604553E1,1.0164581E1,1.36875E1,0E0,8.170405E1,1.1832886E0,1.0066498E1,2.4990533E2,0E0,0E0,1.4216562E1,0E0,0E0,0E0,7.115422E1,0E0,8.127519E0,0E0,0E0,0E0,0E0,0E0,0E0,0E0,0E0,0E0,0E0,0E0],"parents":[2147483647,0,0,1,1,2,2,3,3,4,4,5,5,6,6,7,7,9,9,10,10,11,11,13,13,14,14,15,15,16,16,19,19,23,23,25,25],"right_children":[2,4,6,8,10,12,14,16,-1,18,20,22,-1,24,26,28,30,-1,-1,32,-1,-1,-1,34,-1,36,-1,-1,-1,-1,-1,-1,-1,-1,-1,-1,-1],"split_conditions":[5.163999E-1,3.1352264E-1,6.0211176E-1,-9.547618E-1,-4.103657E-1,-2.3154596E-2,9.425296E-1,-3.068734E-1,-4.2544864E-2,2.3213094E-2,-6.1809987E-2,5.7639873E-1,-3.3689804E-2,-4.300946E-2,9.928978E-1,5.3503084E-1,5.511957E-2,2.4E-1,-2.5770444E-2,1.0506858E0,-4.235907E-2,2.4E-1,4.1950746E-3,-5.306799E-1,-3.8861264E-2,-4.4963202E-1,-4.143118E-2,-2.6433181E-4,-4.249486E-2,2.4E-1,-3.7014116E-2,1.4888914E-1,-2.5933865E-2,-2.7595762E-2,2.4E-1,-3.5570227E-2,7.969604E-2],"split_indices":[21,21,51,41,50,15,51,16,0,42,18,39,0,50,51,24,42,0,0,27,0,0,0,11,0,24,0,0,0,0,0,0,0,0,0,0,0],"split_type":[0,0,0,0,0,0,0,0,0,0,0,0,0,0,0,0,0,0,0,0,0,0,0,0,0,0,0,0,0,0,0,0,0,0,0,0,0],"sum_hessian":[1.6958384E5,1.5898878E5,1.0595059E4,1.5832792E5,6.60874E2,1.0161481E4,4.3357706E2,1.8137703E3,1.5651414E5,5.2400547E1,6.0847345E2,1.0149385E4,1.2096593E1,4.4481308E1,3.8909573E2,1.7807562E3,3.3014053E1,4.6950455E1,5.4500933E0,7.6580925E0,6.0081537E2,1.0147227E4,2.1579504E0,1.2710663E1,3.1770647E1,1.7917889E1,3.7117786E2,3.9780907E1,1.7409753E3,1.2477823E1,2.053623E1,2.1348004E0,5.523292E0,6.3584423E0,6.3522205E0,1.5885324E1,2.0325649E0],"tree_param":{"num_deleted":"0","num_feature":"64","num_nodes":"37","size_leaf_vector":"1"}},{"base_weights":[1.809902E-4,-5.886441E-1,1.882054E0,-9.388051E-2,-6.5539044E-1,2.0952535E0,-6.549073E-1,-6.561049E-1,2.0946956E0,-6.5620327E-1,-4.236358E-1,2.0983572E0,-5.109942E-1,-5.2481722E-2,9.8615855E-2,9.380315E-2,-5.2505698E-2,-4.114276E-2,2.0976427E0,-1.9772379E-1,-6.562149E-1,-5.238554E-2,1.7297779E0,-4.092914E-2,1.6788802E-1,1.2572642E-1,-5.144851E-2,1.6785373E-1,-5.8893585E-3,-3.7581977E-2,2.1340773E-2,-5.2506436E-2,-4.827575E-2,1.6446353E-1,-4.3969426E-2],"categories":[],"categories_nodes":[],"categories_segments":[],"categories_sizes":[],"default_left":[0,0,0,0,0,0,0,0,0,0,0,0,0,0,0,0,0,0,0,0,0,0,0,0,0,0,0,0,0,0,0,0,0,0,0],"id":1,"left_children":[1,3,5,7,9,11,13,15,17,19,21,23,25,-1,-1,-1,-1,-1,27,29,31,-1,33,-1,-1,-1,-1,-1,-1,-1,-1,-1,-1,-1,-1],"loss_changes":[6.0186694E5,1.36614375E4,7.001803E4,6.0519438E4,6.765625E1,9.6828125E2,2.334375E1,1.7603516E1,7.970703E1,1.125E0,6.416216E2,7.8125E1,4.2473484E1,0E0,0E0,0E0,0E0,0E0,1.18828125E1,2.4574184E0,1.078125E0,0E0,9.56257E1,0E0,0E0,0E0,0E0,0E0,0E0,0E0,0E0,0E0,0E0,0E0,0E0],"parents":[2147483647,0,0,1,1,2,2,3,3,4,4,5,5,6,6,7,7,8,8,9,9,10,10,11,11,12,12,18,18,19,19,20,20,22,22],"right_children":[2,4,6,8,10,12,14,16,18,20,22,24,26,-1,-1,-1,-1,-1,28,30,32,-1,34,-1,-1,-1,-1,-1,-1,-1,-1,-1,-1,-1,-1],"split_conditions":[1.6742218E-1,-4.5059983E-2,-1.0083658E-1,-1.9257064E-1,1.0559012E-1,3.0774128E-1,1.936209E-1,-6.367178E-1,-4.9967743E-2,-4.0903735E-1,5.207552E-1,-7.763715E-1,-7.884839E-1,-5.2481722E-2,9.8615855E-2,9.380315E-2,-5.2505698E-2,-4.114276E-2,1.3829991E0,-8.634617E-1,8.777697E-2,-5.238554E-2,-8.916138E-2,-4.092914E-2,1.6788802E-1,1.2572642E-1,-5.144851E-2,1.6785373E-1,-5.8893585E-3,-3.7581977E-2,2.1340773E-2,-5.2506436E-2,-4.827575E-2,1.6446353E-1,-4.3969426E-2],"split_indices":[50,47,0,53,50,27,15,0,62,52,48,5,13,0,0,0,0,0,12,2,50,0,0,0,0,0,0,0,0,0,0,0,0,0,0],"split_type":[0,0,0,0,0,0,0,0,0,0,0,0,0,0,0,0,0,0,0,0,0,0,0,0,0,0,0,0,0,0,0,0,0,0,0],"sum_hessian":[5.4314825E5,4.1370416E5,1.2944407E5,4.91782E4,3.6452597E5,1.1940974E5,1.0034331E4,3.912817E4,1.0050027E4,3.6324612E5,1.2798431E3,1.1926829E5,1.4145084E2,1.002998E4,4.3506923E0,3.072107E0,3.9125098E4,1.0757112E1,1.00392705E4,1.1178909E1,3.6323494E5,1.1572306E3,1.22612465E2,1.0521807E1,1.19257766E5,6.9122405E0,1.3453859E2,1.0037122E4,2.1480074E0,7.7142844E0,3.4646246E0,3.6240897E5,8.2596246E2,1.0763346E2,1.4979E1],"tree_param":{"num_deleted":"0","num_feature":"64","num_nodes":"35","size_leaf_vector":"1"}},{"base_weights":[1.8056543E-4,-4.0875018E-2,3E0,2.4E-1,-3.991196E-2],"categories":[],"categories_nodes":[],"categories_segments":[],"categories_sizes":[],"default_left":[0,0,0,0,0],"id":2,"left_children":[1,-1,3,-1,-1],"loss_changes":[1.9080208E5,0E0,1.5285469E3,0E0,0E0],"parents":[2147483647,0,0,2,2],"right_children":[2,-1,4,-1,-1],"split_conditions":[6.6828144E-1,-4.0875018E-2,-7.549766E-1,2.4E-1,-3.991196E-2],"split_indices":[53,0,54,0,0],"split_type":[0,0,0,0,0],"sum_hessian":[6.278963E4,6.1317836E4,1.471795E3,1.3476306E3,1.2416433E2],"tree_param":{"num_deleted":"0","num_feature":"64","num_nodes":"5","size_leaf_vector":"1"}},{"base_weights":[1.5932196E-4,3E0,-5.3434986E-1,-4.3258574E-2,2.4E-1,-5.364735E-1,2.453903E0,-4.299847E-2,-5.3980356E-1,2.4E-1,-4.1973293E-2,2.4E-1,-4.3449678E-2,-5.400331E-1,1.2675536E0,-4.328573E-2,-1.687531E-2,-3.693146E-2,2.4E-1],"categories":[],"categories_nodes":[],"categories_segments":[],"categories_sizes":[],"default_left":[0,0,0,0,0,0,0,0,0,0,0,0,0,0,0,0,0,0,0],"id":3,"left_children":[1,3,5,-1,-1,7,9,11,13,-1,-1,-1,-1,15,17,-1,-1,-1,-1],"loss_changes":[5.525155E5,5.46625E3,1.3083984E3,0E0,0E0,3.3701953E2,9.43184E2,3.2309624E3,8.666016E1,0E0,0E0,0E0,0E0,6.907031E1,1.3796315E2,0E0,0E0,0E0,0E0],"parents":[2147483647,0,0,1,1,2,2,5,5,6,6,7,7,8,8,13,13,14,14],"right_children":[2,4,6,-1,-1,8,10,12,14,-1,-1,-1,-1,16,18,-1,-1,-1,-1],"split_conditions":[-6.9351435E-1,-1.304418E-1,1.8118463E0,-4.3258574E-2,2.4E-1,-8.0843174E-1,2.2525111E-1,2.2525111E-1,1.5036141E0,2.4E-1,-4.1973293E-2,2.4E-1,-4.3449678E-2,1.6058309E0,-8.9848787E-1,-4.328573E-2,-1.687531E-2,-3.693146E-2,2.4E-1],"split_indices":[63,20,10,0,0,47,7,7,20,0,0,0,0,10,6,0,0,0,0],"split_type":[0,0,0,0,0,0,0,0,0,0,0,0,0,0,0,0,0,0,0],"sum_hessian":[2.2395522E5,1.8385326E4,2.0556989E5,4.3529044E2,1.7950035E4,2.0542572E5,1.4417871E2,1.3781436E3,2.0404756E5,6.552894E1,7.864977E1,1.0335795E2,1.2747856E3,2.0402333E5,2.4233988E1,2.033787E5,6.4463416E2,1.7205648E1,7.0283403E0],"tree_param":{"num_deleted":"0","num_feature":"64","num_nodes":"19","size_leaf_vector":"1"}},{"base_weights":[1.3182996E-4,-5.0906676E-1,3E0,-5.152085E-1,9.5062375E-1,2.4E-1,-4.1184258E-2,-5.1677084E-1,-1.21488616E-1,3E0,-4.1121457E-2,-4.142026E-2,-3.9667666E-1,3E0,-4.9248025E-1,3E0,-3.044219E-2,2.4E-1,-4.0022355E-2,-2.7692612E-2,2.4E-1,3.270216E-2,-4.1127615E-2,2.4E-1,-1.7776638E-2],"categories":[],"categories_nodes":[],"categories_segments":[],"categories_sizes":[],"default_left":[0,0,0,0,0,0,0,0,0,0,0,0,0,0,0,0,0,0,0,0,0,0,0,0,0],"id":4,"left_children":[1,3,5,7,9,-1,-1,11,13,15,-1,-1,17,19,21,23,-1,-1,-1,-1,-1,-1,-1,-1,-1],"loss_changes":[2.8959125E5,8.8212695E2,5.3547188E3,5.9591797E1,2.6497136E3,0E0,0E0,1.0763672E1,6.831266E2,1.1130957E2,0E0,0E0,3.029464E2,8.377527E1,7.8535767E0,3.7599854E1,0E0,0E0,0E0,0E0,0E0,0E0,0E0,0E0,0E0],"parents":[2147483647,0,0,1,1,2,2,3,3,4,4,7,7,8,8,9,9,12,12,13,13,14,14,15,15],"right_children":[2,4,6,8,10,-1,-1,12,14,16,-1,-1,18,20,22,24,-1,-1,-1,-1,-1,-1,-1,-1,-1],"split_conditions":[1.5886513E0,1.3831766E0,3.93322E-1,1.2278126E0,1.5184328E-1,2.4E-1,-4.1184258E-2,1.042021E0,-6.791235E-1,1.6293027E0,-4.1121457E-2,-4.142026E-2,-6.985595E-1,-8.889542E-1,-5.3977984E-1,-1.1779929E-1,-3.044219E-2,2.4E-1,-4.0022355E-2,-2.7692612E-2,2.4E-1,3.270216E-2,-4.1127615E-2,2.4E-1,-1.7776638E-2],"split_indices":[25,25,33,25,33,0,0,25,33,24,0,0,33,6,33,4,0,0,0,0,0,0,0,0,0],"split_type":[0,0,0,0,0,0,0,0,0,0,0,0,0,0,0,0,0,0,0,0,0,0,0,0,0],"sum_hessian":[1.0222758E5,9.823028E4,3.997294E3,9.782033E4,4.099508E2,3.564555E3,4.3273907E2,9.743181E4,3.8852017E2,5.62106E1,3.537402E2,9.663057E4,8.01243E2,2.1103933E1,3.6741623E2,4.7059963E1,9.15064E0,2.0642511E1,7.8060046E2,6.9248085E0,1.4179125E1,7.224584E0,3.6019165E2,4.387077E1,3.1891944E0],"tree_param":{"num_deleted":"0","num_feature":"64","num_nodes":"25","size_leaf_vector":"1"}},{"base_weights":[6.0723242E-3,-5.078136E-1,3E0,-5.097377E-1,-2.718772E-2,-4.006393E-2,2.4E-1,-2.8398532E-1,-4.0814113E-2,-4.0358294E-2,2.4E-1,-3.9866265E-2,2.4E-1],"categories":[],"categories_nodes":[],"categories_segments":[],"categories_sizes":[],"default_left":[0,0,0,0,0,0,0,0,0,0,0,0,0],"id":5,"left_children":[1,3,5,7,9,-1,-1,11,-1,-1,-1,-1,-1],"loss_changes":[1.8930838E5,5.5535156E1,1.8451719E3,5.323242E0,6.862377E2,0E0,0E0,1.3755948E2,0E0,0E0,0E0,0E0,0E0],"parents":[2147483647,0,0,1,1,2,2,3,3,4,4,7,7],"right_children":[2,4,6,8,10,-1,-1,12,-1,-1,-1,-1,-1],"split_conditions":[1.6661869E0,1.5105318E0,3.0120903E-1,-5.356523E-1,9.341976E-1,-4.006393E-2,2.4E-1,1.5279679E-1,-4.0814113E-2,-4.0358294E-2,2.4E-1,-3.9866265E-2,2.4E-1],"split_indices":[0,0,38,57,38,0,0,12,0,0,0,0,0],"split_type":[0,0,0,0,0,0,0,0,0,0,0,0,0],"sum_hessian":[6.2085703E4,6.0612723E4,1.4729788E3,6.0369883E4,2.4284209E2,1.4986224E2,1.3231166E3,1.2182608E2,6.0248055E4,2.3799551E2,4.8465805E0,1.19822205E2,2.0038724E0],"tree_param":{"num_deleted":"0","num_feature":"64","num_nodes":"13","size_leaf_vector":"1"}},{"base_weights":[-3.0487413E-3,-5.3172606E-1,3E0,-5.3441644E-1,1.1045162E-1,3E0,-4.2360272E-2,-3.3263144E-1,-5.354913E-1,3E0,-5.3002167E-1,-3.514456E-2,3E0,-4.9730885E-1,3E0,-5.367887E-1,-4.7622803E-1,2.4E-1,-1.8913873E-2,3.981929E-2,-4.2821653E-2,3E0,-2.2762913E-2,2.8537089E-2,-4.2864986E-2,2.4E-1,3.322987E-2,-4.000678E-2,-4.299583E-2,2.4E-1,-4.0859025E-2,2.4E-1,3.2177786E-4],"categories":[],"categories_nodes":[],"categories_segments":[],"categories_sizes":[],"default_left":[0,0,0,0,0,0,0,0,0,0,0,0,0,0,0,0,0,0,0,0,0,0,0,0,0,0,0,0,0,0,0,0,0],"id":6,"left_children":[1,3,5,7,9,11,-1,13,15,17,19,-1,21,23,25,27,29,-1,-1,-1,-1,31,-1,-1,-1,-1,-1,-1,-1,-1,-1,-1,-1],"loss_changes":[5.0241638E5,3.1278516E2,2.4189062E3,3.836328E1,2.269009E3,1.735625E2,0E0,7.809368E2,1.29765625E1,3.8523438E1,4.508835E0,0E0,5.09375E1,3.1505173E1,7.3484497E0,3.421875E0,6.091953E2,0E0,0E0,0E0,0E0,4.7125E1,0E0,0E0,0E0,0E0,0E0,0E0,0E0,0E0,0E0,0E0,0E0],"parents":[2147483647,0,0,1,1,2,2,3,3,4,4,5,5,7,7,8,8,9,9,10,10,12,12,13,13,14,14,15,15,16,16,21,21],"right_children":[2,4,6,8,10,12,-1,14,16,18,20,-1,22,24,26,28,30,-1,-1,-1,-1,32,-1,-1,-1,-1,-1,-1,-1,-1,-1,-1,-1],"split_conditions":[9.2441195E-1,4.982137E-1,3.7040305E-1,-9.063702E-1,-7.72842E-1,-1.2819621E-1,-4.2360272E-2,-3.941042E-1,8.096257E-2,-4.6025148E-1,-5.4057336E-1,-3.514456E-2,9.155115E-1,1.4479021E0,3.6073595E-1,-8.698484E-1,-8.507053E-1,2.4E-1,-1.8913873E-2,3.981929E-2,-4.2821653E-2,-2.593834E-1,-2.2762913E-2,2.8537089E-2,-4.2864986E-2,2.4E-1,3.322987E-2,-4.000678E-2,-4.299583E-2,2.4E-1,-4.0859025E-2,2.4E-1,3.2177786E-4],"split_indices":[41,41,2,5,48,17,0,41,57,9,9,0,11,39,31,5,48,0,0,0,0,5,0,0,0,0,0,0,0,0,0,0,0],"split_type":[0,0,0,0,0,0,0,0,0,0,0,0,0,0,0,0,0,0,0,0,0,0,0,0,0,0,0,0,0,0,0,0,0],"sum_hessian":[1.9454522E5,1.8094111E5,1.3604122E4,1.8018734E5,7.537624E2,1.3410669E4,1.9345303E2,9.604854E2,1.7922686E5,6.634431E1,6.874181E2,1.4030951E1,1.3396638E4,9.3729834E2,2.3187029E1,1.7536312E5,3.8637268E3,6.3113747E1,3.2305598E0,2.055431E0,6.853627E2,1.3392413E4,4.2251544E0,3.916168E1,8.981367E2,2.0781063E1,2.4059653E0,3.133925E3,1.722292E5,2.4721601E1,3.8390054E3,1.338666E4,5.752441E0],"tree_param":{"num_deleted":"0","num_feature":"64","num_nodes":"33","size_leaf_vector":"1"}},{"base_weights":[-2.8481198E-4,3E0,-5.7373244E-1,2.4E-1,-4.6341553E-2,9.652071E-1,-5.807071E-1,2.4E-1,-4.6376586E-2,-4.5384687E-1,-4.650771E-2,2.4E-1,-4.644018E-2],"categories":[],"categories_nodes":[],"categories_segments":[],"categories_sizes":[],"default_left":[0,0,0,0,0,0,0,0,0,0,0,0,0],"id":7,"left_children":[1,3,5,-1,-1,7,9,-1,-1,11,-1,-1,-1],"loss_changes":[7.137088E5,9.1286875E3,3.3360078E3,0E0,0E0,5.446205E3,2.4203125E1,0E0,0E0,7.624098E2,0E0,0E0,0E0],"parents":[2147483647,0,0,1,1,2,2,5,5,6,6,9,9],"right_children":[2,4,6,-1,-1,8,10,-1,-1,12,-1,-1,-1],"split_conditions":[-8.021809E-1,-8.342829E-1,-7.9456437E-1,2.4E-1,-4.6341553E-2,-8.149521E-1,-8.3115286E-1,2.4E-1,-4.6376586E-2,4.5421574E-1,-4.650771E-2,2.4E-1,-4.644018E-2],"split_indices":[53,1,53,0,0,1,17,0,0,6,0,0,0],"split_type":[0,0,0,0,0,0,0,0,0,0,0,0,0],"sum_hessian":[3.614625E5,5.0811508E4,3.10651E5,5.0099715E4,7.1179553E2,1.3999845E3,3.09251E5,5.229805E2,8.77004E2,1.5617188E3,3.0768928E5,4.7789932E1,1.5139288E3],"tree_param":{"num_deleted":"0","num_feature":"64","num_nodes":"13","size_leaf_vector":"1"}},{"base_weights":[-1.5270249E-3,-5.2241343E-1,3E0,-5.253957E-1,3E0,-4.230426E-2,3E0,-5.2690995E-1,3E0,-3.6001316E-1,3E0,3E0,-0E0,-5.2851945E-1,-1.7666262E-1,2.4E-1,-1.9857133E-2,8.8248804E-2,-3.713553E-2,-2.2485128E-2,2.4E-1,-2.3169687E-2,2.4E-1,-3.388145E-2,1.23062834E-1,-4.2333372E-2,-2.759308E-2,2.4E-1,-3.1417873E-2],"categories":[],"categories_nodes":[],"categories_segments":[],"categories_sizes":[],"default_left":[0,0,0,0,0,0,0,0,0,0,0,0,0,0,0,0,0,0,0,0,0,0,0,0,0,0,0,0,0],"id":8,"left_children":[1,3,5,7,9,-1,11,13,15,17,19,21,23,25,27,-1,-1,-1,-1,-1,-1,-1,-1,-1,-1,-1,-1,-1,-1],"loss_changes":[3.8819925E5,1.7078281E3,3.758378E4,1.1877344E3,6.296664E2,0E0,1.315625E2,8.101953E1,4.2249573E1,1.04514065E1,5.1369995E1,5.415625E1,1.4543812E1,1.6417969E1,5.7376874E2,0E0,0E0,0E0,0E0,0E0,0E0,0E0,0E0,0E0,0E0,0E0,0E0,0E0,0E0],"parents":[2147483647,0,0,1,1,2,2,3,3,4,4,6,6,7,7,8,8,9,9,10,10,11,11,12,12,13,13,14,14],"right_children":[2,4,6,8,10,-1,12,14,16,18,20,22,24,26,28,-1,-1,-1,-1,-1,-1,-1,-1,-1,-1,-1,-1,-1,-1],"split_conditions":[6.54001E-1,6.61003E-1,-8.727849E-2,1.5419133E-1,6.1579138E-2,-4.230426E-2,1.0179728E-1,2.4452095E-1,-5.1732785E-1,-9.232278E-1,1.9656879E-1,2.2525111E-1,-7.203448E-2,3.8361555E-1,-3.8774413E-1,2.4E-1,-1.9857133E-2,8.8248804E-2,-3.713553E-2,-2.2485128E-2,2.4E-1,-2.3169687E-2,2.4E-1,-3.388145E-2,1.23062834E-1,-4.2333372E-2,-2.759308E-2,2.4E-1,-3.1417873E-2],"split_indices":[11,1,51,32,11,0,55,1,42,37,18,7,57,11,8,0,0,0,0,0,0,0,0,0,0,0,0,0,0],"split_type":[0,0,0,0,0,0,0,0,0,0,0,0,0,0,0,0,0,0,0,0,0,0,0,0,0,0,0,0,0],"sum_hessian":[1.5654238E5,1.4495595E5,1.1586421E4,1.4484969E5,1.0626571E2,3.0174644E3,8.568957E3,1.4482228E5,2.7403286E1,5.5203213E1,5.10625E1,8.554024E3,1.4932192E1,1.4415738E5,6.649022E2,2.3858606E1,3.5446804E0,2.0757096E0,5.3127502E1,4.2783694E0,4.678413E1,4.5025005E0,8.549522E3,1.2731745E1,2.200447E0,1.4364416E5,5.132234E2,3.0836966E1,6.340653E2],"tree_param":{"num_deleted":"0","num_feature":"64","num_nodes":"29","size_leaf_vector":"1"}},{"base_weights":[-1.6794532E-3,-5.115405E-2,2.2822118E0,-5.075687E-2,2.2915704E0,2.2924078E0,-4.6936363E-2,-3.466668E-2,2.2925828E0,1.8340908E-1,2.384236E-2],"categories":[],"categories_nodes":[],"categories_segments":[],"categories_sizes":[],"default_left":[0,0,0,0,0,0,0,0,0,0,0],"id":9,"left_children":[1,-1,3,-1,5,7,-1,-1,9,-1,-1],"loss_changes":[7.4392575E5,0E0,3.046375E3,0E0,2.70875E2,5.51875E1,0E0,0E0,3.375E0,0E0,0E0],"parents":[2147483647,0,0,2,2,4,4,5,5,8,8],"right_children":[2,-1,4,-1,6,8,-1,-1,10,-1,-1],"split_conditions":[2.7722612E-1,-5.115405E-2,-9.8422356E-2,-5.075687E-2,2.7260023E-1,1.5234739E-1,-4.6936363E-2,-3.466668E-2,6.876543E-1,1.8340908E-1,2.384236E-2],"split_indices":[4,0,58,0,40,13,0,0,36,0,0],"split_type":[0,0,0,0,0,0,0,0,0,0,0],"sum_hessian":[5.1074212E5,3.992567E5,1.1148545E5,3.5597598E2,1.1112948E5,1.11097734E5,3.1738094E1,6.631195E0,1.1109111E5,1.11088836E5,2.2713494E0],"tree_param":{"num_deleted":"0","num_feature":"64","num_nodes":"11","size_leaf_vector":"1"}},{"base_weights":[7.3722866E-4,-5.277882E-1,3E0,2.4E-1,-5.2843654E-1,2.4E-1,-4.145446E-2,3E0,-5.287731E-1,2.4E-1,-2.3340618E-2,-5.301043E-1,-1.9697656E-1,-4.846031E-3,-4.2420343E-2,2.4E-1,-4.2269077E-2],"categories":[],"categories_nodes":[],"categories_segments":[],"categories_sizes":[],"default_left":[0,0,0,0,0,0,0,0,0,0,0,0,0,0,0,0,0],"id":10,"left_children":[1,3,5,-1,7,-1,-1,9,11,-1,-1,13,15,-1,-1,-1,-1],"loss_changes":[4.4676594E5,5.523281E2,1.4961562E3,0E0,2.2157812E2,0E0,0E0,5.4544235E1,6.769141E1,0E0,0E0,1.0285156E1,1.0880262E3,0E0,0E0,0E0,0E0],"parents":[2147483647,0,0,1,1,2,2,4,4,7,7,8,8,11,11,12,12],"right_children":[2,4,6,-1,8,-1,-1,10,12,-1,-1,14,16,-1,-1,-1,-1],"split_conditions":[2.126072E0,-9.323785E-1,5.6206214E-1,2.4E-1,-9.1119903E-1,2.4E-1,-4.145446E-2,2.895024E-2,1.8754902E0,2.4E-1,-2.3340618E-2,-8.7505096E-1,6.584512E-2,-4.846031E-3,-4.2420343E-2,2.4E-1,-4.2269077E-2],"split_indices":[59,30,37,0,15,0,0,10,59,0,0,30,10,0,0,0,0],"split_type":[0,0,0,0,0,0,0,0,0,0,0,0,0,0,0,0,0],"sum_hessian":[1.643863E5,1.5471878E5,9.667511E3,1.1020546E1,1.5470777E5,9.547344E3,1.2016739E2,1.0251797E1,1.5469752E5,5.722206E0,4.529591E0,1.5407667E5,6.208351E2,5.0543873E1,1.5402614E5,2.2676891E1,5.9815814E2],"tree_param":{"num_deleted":"0","num_feature":"64","num_nodes":"17","size_leaf_vector":"1"}},{"base_weights":[8.520269E-3,-5.2701724E-1,3E0,-5.297384E-1,1.0444788E-1,3E0,-4.09858E-1,2.128598E-1,-5.2981126E-1,3E0,-5.094893E-1,-2.729727E-1,3E0,1.3108338E-1,-5.163483E-1,-3.3446617E-2,1.9159877E-1,-4.573742E-1,-4.243747E-2,2.4E-1,-2.2381488E-2,-5.219333E-1,9.517088E-2,7.722714E-2,-3.763036E-2,2.4E-1,-2.270036E-2,-4.7244197E-1,2.914042E0,-4.21721E-2,3.882166E-2,-4.169788E-2,2.4E-1,-4.225072E-2,-1.5938556E-3,-4.029775E-2,5.311104E-3,2.4E-1,4.3327477E-2],"categories":[],"categories_nodes":[],"categories_segments":[],"categories_sizes":[],"default_left":[0,0,0,0,0,0,0,0,0,0,0,0,0,0,0,0,0,0,0,0,0,0,0,0,0,0,0,0,0,0,0,0,0,0,0,0,0,0,0],"id":11,"left_children":[1,3,5,7,9,11,13,15,17,19,21,23,25,27,29,-1,-1,31,-1,-1,-1,33,-1,-1,-1,-1,-1,35,37,-1,-1,-1,-1,-1,-1,-1,-1,-1,-1],"loss_changes":[4.1629478E5,2.6440625E2,4.7544688E3,8.6171875E0,1.8039443E3,2.8003125E2,2.3995628E1,2.7198687E1,6.5117188E0,5.040027E1,1.4482025E1,8.447966E0,5.125E1,1.21893936E2,4.492546E0,0E0,0E0,3.7508548E2,0E0,0E0,0E0,1.320694E0,0E0,0E0,0E0,0E0,0E0,1.1196423E0,1.2678932E1,0E0,0E0,0E0,0E0,0E0,0E0,0E0,0E0,0E0,0E0],"parents":[2147483647,0,0,1,1,2,2,3,3,4,4,5,5,6,6,7,7,8,8,9,9,10,10,11,11,12,12,13,13,14,14,17,17,21,21,27,27,28,28],"right_children":[2,4,6,8,10,12,14,16,18,20,22,24,26,28,30,-1,-1,32,-1,-1,-1,34,-1,-1,-1,-1,-1,36,38,-1,-1,-1,-1,-1,-1,-1,-1,-1,-1],"split_conditions":[5.163999E-1,3.1352264E-1,3.7613305E-1,-9.775021E-1,-4.1766667E-1,6.593756E-1,-4.300946E-2,-5.0235766E-1,-9.5745E-1,4.434587E-1,1.209067E0,-7.260671E-1,1.2032073E0,1.0647918E0,-5.87708E-1,-3.3446617E-2,1.9159877E-1,2.5705093E-1,-4.243747E-2,2.4E-1,-2.2381488E-2,9.341976E-1,9.517088E-2,7.722714E-2,-3.763036E-2,2.4E-1,-2.270036E-2,9.970724E-1,-6.5593526E-2,-4.21721E-2,3.882166E-2,-4.169788E-2,2.4E-1,-4.225072E-2,-1.5938556E-3,-4.029775E-2,5.311104E-3,2.4E-1,4.3327477E-2],"split_indices":[21,21,1,41,50,38,50,49,41,39,38,9,31,38,59,0,0,3,0,0,0,38,0,0,0,0,0,38,50,0,0,0,0,0,0,0,0,0,0],"split_type":[0,0,0,0,0,0,0,0,0,0,0,0,0,0,0,0,0,0,0,0,0,0,0,0,0,0,0,0,0,0,0,0,0,0,0,0,0,0,0],"sum_hessian":[1.6724544E5,1.5377761E5,1.3467827E4,1.5311889E5,6.587131E2,1.3059533E4,4.0829388E2,1.37713E1,1.5310512E5,6.353469E1,5.9517834E2,2.5658016E1,1.3033875E4,6.630841E1,3.4198547E2,1.1758972E1,2.0123281E0,1.3959017E3,1.5170922E5,5.93414E1,4.1932907E0,5.925188E2,2.6595664E0,2.1098847E0,2.354813E1,1.3029619E4,4.2560925E0,5.57081E1,1.0600308E1,3.3976752E2,2.21797E0,1.3773821E3,1.8519608E1,5.842029E2,8.315949E0,5.365179E1,2.0563118E0,6.875147E0,3.7251613E0],"tree_param":{"num_deleted":"0","num_feature":"64","num_nodes":"39","size_leaf_vector":"1"}},{"base_weights":[-7.963622E-3,-5.803334E-1,1.6187799E0,1.7224704E0,-6.128582E-1,1.7884145E0,-6.492849E-1,1.4324255E-1,-5.1133316E-2,-6.348552E-1,5.8830734E-2,1.790899E0,-5.1353586E-1,-5.204171E-2,9.398208E-2,-4.8554736E-1,-6.425433E-1,1.7400197E0,-5.2008703E-2,1.4329495E-1,-4.398728E-2,1.1159775E-1,-5.1139057E-2,1.0582627E-1,-5.19946E-2,-5.153695E-2,-2.7422832E-2,1.4308867E-1,-4.8781827E-2],"categories":[],"categories_nodes":[],"categories_segments":[],"categories_sizes":[],"default_left":[0,0,0,0,0,0,0,0,0,0,0,0,0,0,0,0,0,0,0,0,0,0,0,0,0,0,0,0,0],"id":12,"left_children":[1,3,5,7,9,11,13,-1,-1,15,17,19,21,-1,-1,23,25,27,-1,-1,-1,-1,-1,-1,-1,-1,-1,-1,-1],"loss_changes":[5.0877325E5,3.0277016E4,5.4720312E4,9.0761914E2,5.8891562E3,7.58875E2,2.4442383E1,0E0,0E0,4.42E2,1.5070287E4,9.1375E1,3.721558E1,0E0,0E0,5.6242275E3,1.8265625E2,4.3069922E2,0E0,0E0,0E0,0E0,0E0,0E0,0E0,0E0,0E0,0E0,0E0],"parents":[2147483647,0,0,1,1,2,2,3,3,4,4,5,5,6,6,9,9,10,10,11,11,12,12,15,15,16,16,17,17],"right_children":[2,4,6,8,10,12,14,-1,-1,16,18,20,22,-1,-1,24,26,28,-1,-1,-1,-1,-1,-1,-1,-1,-1,-1,-1],"split_conditions":[1.6742218E-1,-8.257355E-1,-1.0083658E-1,-4.231739E-1,1.0559012E-1,3.0774128E-1,1.936209E-1,1.4324255E-1,-5.1133316E-2,-2.252621E-1,-8.916138E-2,1.8837371E0,-7.884839E-1,-5.204171E-2,9.398208E-2,-3.772551E-1,9.611216E-2,1.9700475E-1,-5.2008703E-2,1.4329495E-1,-4.398728E-2,1.1159775E-1,-5.1139057E-2,1.0582627E-1,-5.19946E-2,-5.153695E-2,-2.7422832E-2,1.4308867E-1,-4.8781827E-2],"split_indices":[50,45,0,13,50,27,15,0,0,52,0,41,13,0,0,29,50,27,0,0,0,0,0,0,0,0,0,0,0],"split_type":[0,0,0,0,0,0,0,0,0,0,0,0,0,0,0,0,0,0,0,0,0,0,0,0,0,0,0,0,0],"sum_hessian":[5.4641656E5,4.0420025E5,1.422163E5,5.6277485E3,3.985725E5,1.3232034E5,9.895947E3,5.470778E3,1.5697061E2,3.8593447E5,1.2638041E4,1.3217834E5,1.4199973E2,9.890803E3,5.143978E0,1.8908744E4,3.6702572E5,3.7479343E3,8.890107E3,1.3216277E5,1.5576648E1,7.2810388E0,1.3471869E2,1.57419E3,1.7334553E4,3.649901E5,2.0356199E3,3.672682E3,7.52526E1],"tree_param":{"num_deleted":"0","num_feature":"64","num_nodes":"29","size_leaf_vector":"1"}},{"base_weights":[1.3351236E-2,-4.084528E-2,3E0,2.4E-1,-3.9892647E-2],"categories":[],"categories_nodes":[],"categories_segments":[],"categories_sizes":[],"default_left":[0,0,0,0,0],"id":13,"left_children":[1,-1,3,-1,-1],"loss_changes":[1.850892E5,0E0,1.5163281E3,0E0,0E0],"parents":[2147483647,0,0,2,2],"right_children":[2,-1,4,-1,-1],"split_conditions":[1.1918204E0,-4.084528E-2,-7.549766E-1,2.4E-1,-3.9892647E-2],"split_indices":[5,0,54,0,0],"split_type":[0,0,0,0,0],"sum_hessian":[6.1231996E4,5.9338145E4,1.8938517E3,1.7706675E3,1.23184135E2],"tree_param":{"num_deleted":"0","num_feature":"64","num_nodes":"5","size_leaf_vector":"1"}},{"base_weights":[4.279203E-3,3E0,-5.3201246E-1,-4.3095283E-2,2.4E-1,-5.370116E-1,-1.5386727E-1,-1.4054058E-1,-5.387358E-1,3E0,-4.345441E-2,2.4E-1,-4.3237213E-2,-4.9836978E-1,-5.4105866E-1,2.4E-1,-3.097367E-2,2.4E-1,-4.34752E-2,-4.3316558E-2,-3.7035618E-2],"categories":[],"categories_nodes":[],"categories_segments":[],"categories_sizes":[],"default_left":[0,0,0,0,0,0,0,0,0,0,0,0,0,0,0,0,0,0,0,0,0],"id":14,"left_children":[1,3,5,-1,-1,7,9,11,13,15,-1,-1,-1,17,19,-1,-1,-1,-1,-1,-1],"loss_changes":[4.8924956E5,5.2924688E3,3.753203E2,0E0,0E0,1.3355469E2,4.487273E3,1.4823782E3,1.7496094E1,1.001709E2,0E0,0E0,0E0,2.264711E3,4.9414062E0,0E0,0E0,0E0,0E0,0E0,0E0],"parents":[2147483647,0,0,1,1,2,2,5,5,6,6,7,7,8,8,9,9,13,13,14,14],"right_children":[2,4,6,-1,-1,8,10,12,14,16,-1,-1,-1,18,20,-1,-1,-1,-1,-1,-1],"split_conditions":[-6.9351435E-1,2.5476426E-1,3.5013944E-1,-4.3095283E-2,2.4E-1,-6.630797E-1,2.2525111E-1,-3.5270005E-1,-6.387155E-1,5.1408637E-2,-4.345441E-2,2.4E-1,-4.3237213E-2,2.2525111E-1,8.4631073E-1,2.4E-1,-3.097367E-2,2.4E-1,-4.34752E-2,-4.3316558E-2,-3.7035618E-2],"split_indices":[63,27,9,0,0,63,7,3,43,60,0,0,0,7,33,0,0,0,0,0,0],"split_type":[0,0,0,0,0,0,0,0,0,0,0,0,0,0,0,0,0,0,0,0,0],"sum_hessian":[2.2192172E5,2.305732E4,1.988644E5,4.2191367E2,2.2635406E4,1.9626755E5,2.59686E3,8.518121E2,1.9541573E5,1.808894E2,2.4159707E3,6.2326088E1,7.89486E2,1.0668319E4,1.847474E5,1.7275392E2,8.135476E0,8.789331E1,1.0580427E4,1.8379181E5,9.555947E2],"tree_param":{"num_deleted":"0","num_feature":"64","num_nodes":"21","size_leaf_vector":"1"}},{"base_weights":[1.1450903E-2,-5.141696E-1,3E0,-5.1599604E-1,2.2606938E-1,-4.9398226E-1,3E0,-5.167056E-1,-2.2943862E-1,-4.7107485E-1,3E0,5.35346E-2,-5.0701636E-1,3E0,-3.4189563E-2,-4.1364264E-2,-4.101899E-1,-3.980618E-1,3E0,1.1863221E-1,-4.085124E-2,2.4E-1,-2.619675E-1,-4.1084565E-2,-0E0,-3.038311E-1,3E0,1.806391E-1,-3.9310496E-2,2.4E-1,-3.8127508E-2,2.4E-1,-1.7693834E-2,3.7812676E-2,-3.449711E-2,1.4992673E-2,-3.381815E-2,-0E0,2.4E-1],"categories":[],"categories_nodes":[],"categories_segments":[],"categories_sizes":[],"default_left":[0,0,0,0,0,0,0,0,0,0,0,0,0,0,0,0,0,0,0,0,0,0,0,0,0,0,0,0,0,0,0,0,0,0,0,0,0,0,0],"id":15,"left_children":[1,3,5,7,9,11,13,15,17,19,21,-1,23,25,-1,-1,27,29,31,-1,-1,-1,33,-1,-1,35,37,-1,-1,-1,-1,-1,-1,-1,-1,-1,-1,-1,-1],"loss_changes":[2.790513E5,1.2867969E2,4.2499688E3,1.8613281E1,6.185529E2,6.3305664E0,3.3221875E2,2.765625E0,1.6664473E2,1.7931213E1,1.8831085E2,0E0,1.0225525E0,1.7648438E2,0E0,0E0,7.3163376E1,8.146304E1,3.7311096E1,0E0,0E0,0E0,3.2879727E0,0E0,0E0,1.4615157E0,2.725E1,0E0,0E0,0E0,0E0,0E0,0E0,0E0,0E0,0E0,0E0,0E0,0E0],"parents":[2147483647,0,0,1,1,2,2,3,3,4,4,5,5,6,6,7,7,8,8,9,9,10,10,12,12,13,13,16,16,17,17,18,18,22,22,25,25,26,26],"right_children":[2,4,6,8,10,12,14,16,18,20,22,-1,24,26,-1,-1,28,30,32,-1,-1,-1,34,-1,-1,36,38,-1,-1,-1,-1,-1,-1,-1,-1,-1,-1,-1,-1],"split_conditions":[7.3386914E-1,7.659428E-1,4.1838873E-2,6.0642105E-1,2.7331552E-1,-1.2595749E-1,-7.069656E-2,5.006095E-1,3.8301286E-1,-8.993993E-1,-5.87708E-1,5.35346E-2,7.256435E-1,-6.4240783E-1,-3.4189563E-2,-4.1364264E-2,-5.4139797E-2,-9.2928666E-1,-6.948091E-1,1.1863221E-1,-4.085124E-2,2.4E-1,-2.7054372E-1,-4.1084565E-2,-0E0,6.895795E-1,-1.1293275E-1,1.806391E-1,-3.9310496E-2,2.4E-1,-3.8127508E-2,2.4E-1,-1.7693834E-2,3.7812676E-2,-3.449711E-2,1.4992673E-2,-3.381815E-2,-0E0,2.4E-1],"split_indices":[31,46,51,46,31,12,15,46,31,4,59,0,20,26,0,0,27,4,9,0,0,0,22,0,0,54,42,0,0,0,0,0,0,0,0,0,0,0,0],"split_type":[0,0,0,0,0,0,0,0,0,0,0,0,0,0,0,0,0,0,0,0,0,0,0,0,0,0,0,0,0,0,0,0,0,0,0,0,0,0,0],"sum_hessian":[9.999652E4,9.4917055E4,5.079468E3,9.468471E4,2.3234761E2,3.4744418E2,4.732024E3,9.44475E4,2.372051E2,1.9999042E2,3.2357193E1,2.309409E0,3.4513477E2,4.7043726E3,2.7651215E1,9.412779E4,3.197126E2,2.3004012E2,7.164991E0,2.2703662E0,1.9772005E2,1.5133457E1,1.7223736E1,3.4116235E2,3.9724245E0,1.5652592E1,4.6887197E3,7.6760435E0,3.1203653E2,2.125517E0,2.279146E2,4.0001726E0,3.1648185E0,2.0005372E0,1.5223199E1,2.0061164E0,1.3646476E1,2.9396858E0,4.6857803E3],"tree_param":{"num_deleted":"0","num_feature":"64","num_nodes":"39","size_leaf_vector":"1"}},{"base_weights":[1.9010996E-2,-5.072539E-1,3E0,-5.093392E-1,3E0,-4.005705E-2,2.4E-1,-5.0997365E-1,3.69714E-1,-2.5169088E-2,2.4E-1,-4.0834088E-2,-3.9248392E-1,2.4E-1,-3.786933E-2,2.4E-1,-4.034301E-2],"categories":[],"categories_nodes":[],"categories_segments":[],"categories_sizes":[],"default_left":[0,0,0,0,0,0,0,0,0,0,0,0,0,0,0,0,0],"id":16,"left_children":[1,3,5,7,9,-1,-1,11,13,-1,-1,-1,15,-1,-1,-1,-1],"loss_changes":[1.83287E5,6.893867E2,1.8393281E3,3.323047E1,6.903522E1,0E0,0E0,2.3984375E0,1.8419522E2,0E0,0E0,0E0,1.4032584E2,0E0,0E0,0E0,0E0],"parents":[2147483647,0,0,1,1,2,2,3,3,4,4,7,7,8,8,12,12],"right_children":[2,4,6,8,10,-1,-1,12,14,-1,-1,-1,16,-1,-1,-1,-1],"split_conditions":[1.6661869E0,1.3873903E0,3.0120903E-1,1.2562205E0,2.2525111E-1,-4.005705E-2,2.4E-1,1.5105318E0,-3.016797E-1,-2.5169088E-2,2.4E-1,-4.0834088E-2,-1.6204722E-1,2.4E-1,-3.786933E-2,2.4E-1,-4.034301E-2],"split_indices":[0,33,38,33,7,0,0,0,14,0,0,0,51,0,0,0,0],"split_type":[0,0,0,0,0,0,0,0,0,0,0,0,0,0,0,0,0],"sum_hessian":[6.04677E4,5.8583492E4,1.8842104E3,5.8571348E4,1.2143993E1,1.49393E2,1.7348175E3,5.853051E4,4.0835426E1,5.756731E0,6.3872623E0,5.829506E4,2.3545213E2,2.0017078E0,3.8833717E1,2.0102065E0,2.3344193E2],"tree_param":{"num_deleted":"0","num_feature":"64","num_nodes":"17","size_leaf_vector":"1"}},{"base_weights":[5.840273E-3,-5.3018874E-1,3E0,-5.328416E-1,9.4584994E-2,3E0,-4.218401E-2,-4.3145877E-1,-5.3511983E-1,3E0,-5.280335E-1,-2.7274631E-2,3E0,-5.081924E-1,3E0,1.2776663E0,-5.352046E-1,-1.9716853E-2,2.4E-1,2.7503762E-2,-4.268032E-2,3E0,-2.3536736E-2,2.4E-1,-4.12657E-2,2.4E-1,-3.2286488E-2,2.3050426E-1,-2.1695703E-2,-4.2877883E-2,-3.84507E-2,2.4E-1,-2.0892816E-2],"categories":[],"categories_nodes":[],"categories_segments":[],"categories_sizes":[],"default_left":[0,0,0,0,0,0,0,0,0,0,0,0,0,0,0,0,0,0,0,0,0,0,0,0,0,0,0,0,0,0,0,0,0],"id":17,"left_children":[1,3,5,7,9,11,-1,13,15,17,19,-1,21,23,25,27,29,-1,-1,-1,-1,31,-1,-1,-1,-1,-1,-1,-1,-1,-1,-1,-1],"loss_changes":[4.564604E5,2.9009766E2,2.3267188E3,3.945703E1,1.9574851E3,7.34375E1,0E0,1.314417E3,2.8183594E1,4.0773438E1,3.6968079E0,0E0,5.2375E1,1.2577374E2,1.1831494E2,2.4670357E1,6.3359375E0,0E0,0E0,0E0,0E0,4.31875E1,0E0,0E0,0E0,0E0,0E0,0E0,0E0,0E0,0E0,0E0,0E0],"parents":[2147483647,0,0,1,1,2,2,3,3,4,4,5,5,7,7,8,8,9,9,10,10,12,12,13,13,14,14,15,15,16,16,21,21],"right_children":[2,4,6,8,10,12,-1,14,16,18,20,-1,22,24,26,28,30,-1,-1,-1,-1,32,-1,-1,-1,-1,-1,-1,-1,-1,-1,-1,-1],"split_conditions":[9.2441195E-1,4.982137E-1,3.851316E-1,-9.0510625E-1,-7.72842E-1,-1.2819621E-1,-4.218401E-2,-4.6931383E-1,-9.1307926E-1,2.2525111E-1,-8.6344045E-1,-2.7274631E-2,1.408788E-1,-7.7416736E-1,8.038005E-1,-7.372263E-1,1.6698046E-1,-1.9716853E-2,2.4E-1,2.7503762E-2,-4.268032E-2,6.272264E-2,-2.3536736E-2,2.4E-1,-4.12657E-2,2.4E-1,-3.2286488E-2,2.3050426E-1,-2.1695703E-2,-4.2877883E-2,-3.84507E-2,2.4E-1,-2.0892816E-2],"split_indices":[41,41,13,38,48,17,0,41,5,7,16,0,61,61,55,1,57,0,0,0,0,48,0,0,0,0,0,0,0,0,0,0,0],"split_type":[0,0,0,0,0,0,0,0,0,0,0,0,0,0,0,0,0,0,0,0,0,0,0,0,0,0,0,0,0,0,0,0,0],"sum_hessian":[1.9225794E5,1.7493302E5,1.7324926E4,1.7419445E5,7.3855707E2,1.7138635E4,1.8629028E2,3.8415981E3,1.7035286E5,8.0120735E1,6.5843634E2,6.0270314E0,1.713261E4,3.7835698E3,5.8028244E1,6.280214E0,1.7034658E5,3.4107964E0,7.670994E1,2.7645187E0,6.556718E2,1.7128285E4,4.324301E0,4.759429E0,3.7788105E3,4.8425415E1,9.60283E0,2.398829E0,3.8813848E0,1.6795317E5,2.3934116E3,1.71247E4,3.5840802E0],"tree_param":{"num_deleted":"0","num_feature":"64","num_nodes":"33","size_leaf_vector":"1"}},{"base_weights":[-4.5058527E-3,2.7890353E0,-5.776334E-1,-4.56197E-2,2.2386825E-1,-5.3095037E-1,-4.6229918E-2,2.0423086E-1,-4.639003E-2],"categories":[],"categories_nodes":[],"categories_segments":[],"categories_sizes":[],"default_left":[0,0,0,0,0,0,0,0,0],"id":18,"left_children":[1,3,5,-1,-1,7,-1,-1,-1],"loss_changes":[5.799024E5,1.9335625E3,2.453125E0,0E0,0E0,2.4219409E2,0E0,0E0,0E0],"parents":[2147483647,0,0,1,1,2,2,5,5],"right_children":[2,4,6,-1,-1,8,-1,-1,-1],"split_conditions":[-8.923174E-1,-9.1765426E-2,-8.3115286E-1,-4.56197E-2,2.2386825E-1,4.5421574E-1,-4.6229918E-2,2.0423086E-1,-4.639003E-2],"split_indices":[12,3,17,0,0,6,0,0,0],"split_type":[0,0,0,0,0,0,0,0,0],"sum_hessian":[3.6219472E5,6.1657043E4,3.0053766E5,1.700718E2,6.148697E4,1.5746748E3,2.98963E5,2.283387E1,1.551841E3],"tree_param":{"num_deleted":"0","num_feature":"64","num_nodes":"9","size_leaf_vector":"1"}},{"base_weights":[8.902926E-3,-5.210771E-1,2.4E-1,-5.2819663E-1,1.0596985E0,3.4546547E-2,-4.225801E-2,3E0,-2.3507154E-1,3E0,-1.5513827E-1,-3.5996097E-1,3E0,2.4E-1,-3.766294E-2,-4.0891998E-2,2.0223601E-1,-3.7236873E-2,4.5107093E-2,2.4E-1,-2.2057543E-2],"categories":[],"categories_nodes":[],"categories_segments":[],"categories_sizes":[],"default_left":[0,0,0,0,0,0,0,0,0,0,0,0,0,0,0,0,0,0,0,0,0],"id":19,"left_children":[1,3,-1,5,7,-1,-1,9,11,13,15,17,19,-1,-1,-1,-1,-1,-1,-1,-1],"loss_changes":[3.9579484E5,1.6140586E3,0E0,4.5742188E0,1.6657932E3,0E0,0E0,9.4363086E2,1.8401277E2,3.0678418E2,9.64957E1,3.8093945E1,4.9176407E1,0E0,0E0,0E0,0E0,0E0,0E0,0E0,0E0],"parents":[2147483647,0,0,1,1,3,3,4,4,7,7,8,8,9,9,10,10,11,11,12,12],"right_children":[2,4,-1,6,8,-1,-1,10,12,14,16,18,20,-1,-1,-1,-1,-1,-1,-1,-1],"split_conditions":[1.5795196E0,3.7882015E-2,2.4E-1,-8.7693435E-1,-4.1749556E-2,3.4546547E-2,-4.225801E-2,5.6186974E-1,1.5419133E-1,-4.870645E-1,4.311778E-1,1.0609563E-1,-1.4489824E-1,2.4E-1,-3.766294E-2,-4.0891998E-2,2.0223601E-1,-3.7236873E-2,4.5107093E-2,2.4E-1,-2.2057543E-2],"split_indices":[19,19,0,9,36,0,0,59,32,16,1,32,5,0,0,0,0,0,0,0,0],"split_type":[0,0,0,0,0,0,0,0,0,0,0,0,0,0,0,0,0,0,0,0,0],"sum_hessian":[1.5429402E5,1.432665E5,1.1027515E4,1.4262578E5,6.407105E2,2.808992E0,1.4262297E5,2.5106834E2,3.8964218E2,1.5663583E2,9.44325E1,3.7896213E2,1.0680043E1,1.3183823E2,2.4797617E1,8.496417E1,9.468329E0,3.4149606E2,3.7466076E1,6.585109E0,4.094934E0],"tree_param":{"num_deleted":"0","num_feature":"64","num_nodes":"21","size_leaf_vector":"1"}},{"base_weights":[-7.5123715E-3,-6.3272583E-1,1.9168806E0,-5.039207E-2,-5.0825194E-2,1.9244874E0,-5.2159274E-1,1.9247128E0,-4.014503E-2,-5.0100274E-2,1.365328E-1,1.5398365E-1,-2.8145446E-2],"categories":[],"categories_nodes":[],"categories_segments":[],"categories_sizes":[],"default_left":[0,0,0,0,0,0,0,0,0,0,0,0,0],"id":20,"left_children":[1,3,5,-1,-1,7,9,11,-1,-1,-1,-1,-1],"loss_changes":[6.187475E5,1.71875E0,2.3414688E3,0E0,0E0,7.09375E1,9.49242E1,2.521875E1,0E0,0E0,0E0,0E0,0E0],"parents":[2147483647,0,0,1,1,2,2,5,5,6,6,7,7],"right_children":[2,4,6,-1,-1,8,10,12,-1,-1,-1,-1,-1],"split_conditions":[2.7722612E-1,-3.4821588E-1,1.0559012E-1,-5.039207E-2,-5.0825194E-2,1.075933E0,6.6733605E-1,-4.9573055E-1,-4.014503E-2,-5.0100274E-2,1.365328E-1,1.5398365E-1,-2.8145446E-2],"split_indices":[4,45,50,0,0,11,4,54,0,0,0,0,0],"split_type":[0,0,0,0,0,0,0,0,0,0,0,0,0],"sum_hessian":[5.142646E5,3.8815803E5,1.2610654E5,1.8595092E5,2.0220711E5,1.2571501E5,3.9153427E2,1.25703945E5,1.1061344E1,3.755567E2,1.5977543E1,1.2569991E5,4.0420527E0],"tree_param":{"num_deleted":"0","num_feature":"64","num_nodes":"13","size_leaf_vector":"1"}},{"base_weights":[9.185538E-3,-5.262092E-1,3E0,2.4E-1,-5.2691716E-1,2.4E-1,-4.1368354E-2,3E0,-5.272904E-1,2.4E-1,-2.3341155E-2,-5.2885526E-1,-1.6117357E-1,-2.982323E-2,-4.2347703E-2,2.4E-1,-4.2225465E-2],"categories":[],"categories_nodes":[],"categories_segments":[],"categories_sizes":[],"default_left":[0,0,0,0,0,0,0,0,0,0,0,0,0,0,0,0,0],"id":21,"left_children":[1,3,5,-1,7,-1,-1,9,11,-1,-1,13,15,-1,-1,-1,-1],"loss_changes":[4.1140984E5,5.4277734E2,1.4260938E3,0E0,2.2182422E2,0E0,0E0,5.454628E1,8.5078125E1,0E0,0E0,1.06796875E1,1.1411252E3,0E0,0E0,0E0,0E0],"parents":[2147483647,0,0,1,1,2,2,4,4,7,7,8,8,11,11,12,12],"right_children":[2,4,6,-1,8,-1,-1,10,12,-1,-1,14,16,-1,-1,-1,-1],"split_conditions":[2.126072E0,-9.323785E-1,3.8353547E-1,2.4E-1,-9.1119903E-1,2.4E-1,-4.1368354E-2,1.06072225E-1,1.8754902E0,2.4E-1,-2.3341155E-2,-4.7216183E-1,6.584512E-2,-2.982323E-2,-4.2347703E-2,2.4E-1,-4.2225465E-2],"split_indices":[59,30,10,0,15,0,0,10,59,0,0,22,10,0,0,0,0],"split_type":[0,0,0,0,0,0,0,0,0,0,0,0,0,0,0,0,0],"sum_hessian":[1.6195642E5,1.4959686E5,1.2359572E4,1.4948622E1,1.495819E5,1.2244994E4,1.1457822E2,1.2358929E1,1.4956955E5,7.8291774E0,4.529751E0,1.4893072E5,6.3882385E2,4.750529E2,1.4845567E5,3.3166275E1,6.056576E2],"tree_param":{"num_deleted":"0","num_feature":"64","num_nodes":"17","size_leaf_vector":"1"}},{"base_weights":[1.5614233E-2,-5.2567065E-1,3E0,-5.2849954E-1,1.1264333E-1,3E0,-3.974132E-1,-3.3387527E-1,-5.28761E-1,3E0,-5.2045053E-1,3E0,-3.2642804E-2,4.32022E-1,-4.059675E-2,-4.1865256E-2,2.4E-1,-4.2354487E-2,-5.056651E-1,2.4E-1,-3.1096982E-2,6.0198076E-2,-4.2155232E-2,3E0,7.6106406E-4,1.8348426E0,-3.8591098E-2,2.4E-1,-4.2005148E-2,-1.8377597E-2,4.177579E-2,4.0286187E-2,2.4E-1,-1.5841696E-2,2.4E-1],"categories":[],"categories_nodes":[],"categories_segments":[],"categories_sizes":[],"default_left":[0,0,0,0,0,0,0,0,0,0,0,0,0,0,0,0,0,0,0,0,0,0,0,0,0,0,0,0,0,0,0,0,0,0,0],"id":22,"left_children":[1,3,5,7,9,11,13,15,17,19,21,23,-1,25,-1,-1,-1,-1,27,-1,-1,29,-1,31,-1,33,-1,-1,-1,-1,-1,-1,-1,-1,-1],"loss_changes":[3.7088388E5,2.6755078E2,4.9235312E3,6.7890625E0,1.58396E3,1.3303125E2,3.9881584E1,1.6365857E2,1.46875E0,1.08231445E2,2.246704E0,1.75E1,0E0,6.912117E1,0E0,0E0,0E0,0E0,3.4182434E2,0E0,0E0,2.016258E0,0E0,3.71875E0,0E0,6.131269E1,0E0,0E0,0E0,0E0,0E0,0E0,0E0,0E0,0E0],"parents":[2147483647,0,0,1,1,2,2,3,3,4,4,5,5,6,6,7,7,8,8,9,9,10,10,11,11,13,13,18,18,21,21,23,23,25,25],"right_children":[2,4,6,8,10,12,14,16,18,20,22,24,-1,26,-1,-1,-1,-1,28,-1,-1,30,-1,32,-1,34,-1,-1,-1,-1,-1,-1,-1,-1,-1],"split_conditions":[5.163999E-1,3.1352264E-1,6.0211176E-1,-8.8850266E-1,1.5276165E-2,-2.3154596E-2,9.425296E-1,-2.6708493E-1,-1.4286686E-1,-2.7351737E-1,-4.1766667E-1,5.7639873E-1,-3.2642804E-2,-4.300946E-2,-4.059675E-2,-4.1865256E-2,2.4E-1,-4.2354487E-2,-5.2706635E-1,2.4E-1,-3.1096982E-2,-6.269083E-2,-4.2155232E-2,-4.2366856E-1,7.6106406E-4,-7.87239E-2,-3.8591098E-2,2.4E-1,-4.2005148E-2,-1.8377597E-2,4.177579E-2,4.0286187E-2,2.4E-1,-1.5841696E-2,2.4E-1],"split_indices":[21,21,51,33,18,15,51,21,49,15,50,39,0,50,0,0,0,0,50,0,0,28,0,44,0,5,0,0,0,0,0,0,0,0,0],"split_type":[0,0,0,0,0,0,0,0,0,0,0,0,0,0,0,0,0,0,0,0,0,0,0,0,0,0,0,0,0,0,0,0,0,0,0],"sum_hessian":[1.6500658E5,1.4806733E5,1.6939264E4,1.4741512E5,6.521986E2,1.6513309E4,4.2595422E2,2.037795E2,1.4721134E5,8.539164E1,5.6680695E2,1.650247E4,1.0839017E1,4.8676525E1,3.772777E2,1.9687767E2,6.901825E0,1.42997E5,4.2143384E3,7.6563576E1,8.828065E0,5.2306013E0,5.6157635E2,1.6499998E4,2.4722297E0,1.8629765E1,3.0046762E1,1.730315E1,4.197035E3,3.166695E0,2.0639064E0,2.1197672E0,1.6497879E4,8.156476E0,1.04732895E1],"tree_param":{"num_deleted":"0","num_feature":"64","num_nodes":"35","size_leaf_vector":"1"}},{"base_weights":[-1.2792287E-2,-5.718679E-1,1.4264792E0,1.5159197E0,-6.0451007E-1,1.5670115E0,-6.4301544E-1,-5.053776E-2,1.2549688E-1,-6.265901E-1,4.8419863E-2,1.5690111E0,-5.03151E-1,-5.1532798E-2,6.1936338E-2,-4.8194385E-1,-6.4004546E-1,1.5221417E0,-5.144011E-2,1.2553512E-1,-4.1094802E-2,1.0140611E-1,-5.0646108E-2,-5.141185E-2,1.3325712E-1,-5.0740298E-2,-5.1705975E-2,1.2536658E-1,-4.8483748E-2],"categories":[],"categories_nodes":[],"categories_segments":[],"categories_sizes":[],"default_left":[0,0,0,0,0,0,0,0,0,0,0,0,0,0,0,0,0,0,0,0,0,0,0,0,0,0,0,0,0],"id":23,"left_children":[1,3,5,7,9,11,13,-1,-1,15,17,19,21,-1,-1,23,25,27,-1,-1,-1,-1,-1,-1,-1,-1,-1,-1,-1],"loss_changes":[4.3875803E5,2.6766406E4,4.436853E4,6.878408E2,5.574703E3,5.9321875E2,1.712207E1,0E0,0E0,7.269531E2,1.2893877E4,5.475E1,3.444055E1,0E0,0E0,1.0993555E4,1.13125E1,3.8869824E2,0E0,0E0,0E0,0E0,0E0,0E0,0E0,0E0,0E0,0E0,0E0],"parents":[2147483647,0,0,1,1,2,2,3,3,4,4,5,5,6,6,9,9,10,10,11,11,12,12,15,15,16,16,17,17],"right_children":[2,4,6,8,10,12,14,-1,-1,16,18,20,22,-1,-1,24,26,28,-1,-1,-1,-1,-1,-1,-1,-1,-1,-1,-1],"split_conditions":[1.6742218E-1,-8.257355E-1,-1.0083658E-1,-7.5981283E-1,1.0559012E-1,3.0774128E-1,1.936209E-1,-5.053776E-2,1.2549688E-1,-4.5059983E-2,-8.916138E-2,1.0503094E0,-7.884839E-1,-5.1532798E-2,6.1936338E-2,-1.9257064E-1,3.9713472E-1,1.9700475E-1,-5.144011E-2,1.2553512E-1,-4.1094802E-2,1.0140611E-1,-5.0646108E-2,-5.141185E-2,1.3325712E-1,-5.0740298E-2,-5.1705975E-2,1.2536658E-1,-4.8483748E-2],"split_indices":[50,45,0,1,50,27,15,0,0,47,0,37,13,0,0,53,7,27,0,0,0,0,0,0,0,0,0,0,0],"split_type":[0,0,0,0,0,0,0,0,0,0,0,0,0,0,0,0,0,0,0,0,0,0,0,0,0,0,0,0,0],"sum_hessian":[5.4526425E5,3.927173E5,1.5254692E5,6.0438994E3,3.866734E5,1.4284738E5,9.699549E3,1.4424768E2,5.8996514E3,3.740259E5,1.26475205E4,1.4271025E5,1.3712276E2,9.693165E3,6.3841505E0,3.1841346E4,3.4218456E5,4.0383489E3,8.609172E3,1.426988E5,1.1453528E1,7.9132953E0,1.2920946E2,2.9626127E4,2.2152195E3,1.781499E5,1.6403464E5,3.9555815E3,8.276736E1],"tree_param":{"num_deleted":"0","num_feature":"64","num_nodes":"29","size_leaf_vector":"1"}},{"base_weights":[3.3416297E-2,-4.0813632E-2,3E0,-3.974859E-2,2.4E-1],"categories":[],"categories_nodes":[],"categories_segments":[],"categories_sizes":[],"default_left":[0,0,0,0,0],"id":24,"left_children":[1,-1,3,-1,-1],"loss_changes":[1.7978889E5,0E0,1.4052344E3,0E0,0E0],"parents":[2147483647,0,0,2,2],"right_children":[2,-1,4,-1,-1],"split_conditions":[4.636365E-1,-4.0813632E-2,6.0211176E-1,-3.974859E-2,2.4E-1],"split_indices":[15,0,51,0,0],"split_type":[0,0,0,0,0],"sum_hessian":[5.9664914E4,5.720839E4,2.4565222E3,1.1422847E2,2.342294E3],"tree_param":{"num_deleted":"0","num_feature":"64","num_nodes":"5","size_leaf_vector":"1"}},{"base_weights":[7.700461E-3,3E0,-5.256003E-1,-4.327534E-2,2.4E-1,-5.292221E-1,2.616631E0,-4.4726986E-3,-5.364701E-1,2.4E-1,-4.1343085E-2,-5.383449E-1,3E0,-5.3939855E-1,-3.110138E-1,-4.3310285E-2,6.322597E-2,-3.9429594E-2,2.4E-1,-4.316947E-2,1.2091567E-2,-4.1041635E-2,2.4E-1],"categories":[],"categories_nodes":[],"categories_segments":[],"categories_sizes":[],"default_left":[0,0,0,0,0,0,0,0,0,0,0,0,0,0,0,0,0,0,0,0,0,0,0],"id":25,"left_children":[1,3,5,-1,-1,7,9,11,13,-1,-1,15,17,19,21,-1,-1,-1,-1,-1,-1,-1,-1],"loss_changes":[4.107829E5,7.0599062E3,2.1860273E3,0E0,0E0,7.278672E2,6.962927E2,4.716878E3,1.2400391E2,0E0,0E0,1.037085E1,3.6260815E2,2.8546875E1,2.078001E3,0E0,0E0,0E0,0E0,0E0,0E0,0E0,0E0],"parents":[2147483647,0,0,1,1,2,2,5,5,6,6,7,7,8,8,11,11,12,12,13,13,14,14],"right_children":[2,4,6,-1,-1,8,10,12,14,-1,-1,16,18,20,22,-1,-1,-1,-1,-1,-1,-1,-1],"split_conditions":[-8.060721E-1,1.3028908E-1,1.8118463E0,-4.327534E-2,2.4E-1,-7.1278983E-1,9.1674703E-1,-3.8470986E-1,3.5013944E-1,2.4E-1,-4.1343085E-2,5.796282E-1,1.3028908E-1,1.4510212E0,9.795586E-2,-4.3310285E-2,6.322597E-2,-3.9429594E-2,2.4E-1,-4.316947E-2,1.2091567E-2,-4.1041635E-2,2.4E-1],"split_indices":[34,27,10,0,0,34,37,1,9,0,0,14,27,20,14,0,0,0,0,0,0,0,0],"split_type":[0,0,0,0,0,0,0,0,0,0,0,0,0,0,0,0,0,0,0,0,0,0,0],"sum_hessian":[2.2027916E5,2.855247E4,1.9172667E5,5.623386E2,2.7990133E4,1.9150777E5,2.1891026E2,2.6101223E3,1.8889764E5,1.6074046E2,5.8169792E1,2.2594902E3,3.5063193E2,1.864706E5,2.4270525E3,2.255901E3,3.589298E0,2.9033655E1,3.2159827E2,1.864124E5,5.819021E1,2.3255645E3,1.01488014E2],"tree_param":{"num_deleted":"0","num_feature":"64","num_nodes":"23","size_leaf_vector":"1"}},{"base_weights":[2.1747338E-2,-5.134556E-1,3E0,-5.1538557E-1,2.188284E-1,-4.8981115E-1,3E0,-4.131537E-2,-3.396968E-1,-4.4490558E-1,3E0,-4.104643E-2,1.5236823E-1,3E0,-3.693284E-2,-4.5180273E-1,3E0,1.707387E-1,-4.9397254E-1,2.4E-1,-1.3775702E-1,-2.994966E-2,1.2633131E-1,-3.0250663E-1,3E0,2.4E-1,-3.916354E-2,2.4E-1,-1.9375576E-2,-4.082445E-2,2.6076527E-3,6.0090832E-2,-3.2849442E-2,-3.3770632E-2,1.5027009E-2,2.4E-1,-1.5045401E-2],"categories":[],"categories_nodes":[],"categories_segments":[],"categories_sizes":[],"default_left":[0,0,0,0,0,0,0,0,0,0,0,0,0,0,0,0,0,0,0,0,0,0,0,0,0,0,0,0,0,0,0,0,0,0,0,0,0],"id":26,"left_children":[1,3,5,7,9,11,13,-1,15,17,19,-1,21,23,-1,25,27,-1,29,-1,31,-1,-1,33,35,-1,-1,-1,-1,-1,-1,-1,-1,-1,-1,-1,-1],"loss_changes":[2.6083262E5,1.2961328E2,4.147203E3,1.6238281E1,5.999957E2,5.375572E0,3.1526562E2,0E0,2.653999E2,2.9666119E1,1.408017E2,0E0,1.308737E1,1.7501562E2,0E0,7.9190544E1,4.1943512E1,0E0,1.8514748E0,0E0,5.273447E0,0E0,0E0,1.4602616E0,3.096875E1,0E0,0E0,0E0,0E0,0E0,0E0,0E0,0E0,0E0,0E0,0E0,0E0],"parents":[2147483647,0,0,1,1,2,2,3,3,4,4,5,5,6,6,8,8,9,9,10,10,12,12,13,13,15,15,16,16,18,18,20,20,23,23,24,24],"right_children":[2,4,6,8,10,12,14,-1,16,18,20,-1,22,24,-1,26,28,-1,30,-1,32,-1,-1,34,36,-1,-1,-1,-1,-1,-1,-1,-1,-1,-1,-1,-1],"split_conditions":[7.3386914E-1,7.659428E-1,4.1838873E-2,5.006095E-1,3.3527097E-1,6.6065764E-1,1.1148917E-2,-4.131537E-2,3.4614363E-1,-9.67683E-1,-5.87708E-1,-4.104643E-2,-8.5021067E-1,-6.4240783E-1,-3.693284E-2,-9.732648E-1,6.220566E-1,1.707387E-1,6.581121E-1,2.4E-1,9.6634173E-1,-2.994966E-2,1.2633131E-1,8.679988E-1,1.5795196E0,2.4E-1,-3.916354E-2,2.4E-1,-1.9375576E-2,-4.082445E-2,2.6076527E-3,6.0090832E-2,-3.2849442E-2,-3.3770632E-2,1.5027009E-2,2.4E-1,-1.5045401E-2],"split_indices":[31,46,51,46,31,20,48,0,31,2,59,0,4,26,0,2,34,0,63,0,0,0,0,47,19,0,0,0,0,0,0,0,0,0,0,0,0],"split_type":[0,0,0,0,0,0,0,0,0,0,0,0,0,0,0,0,0,0,0,0,0,0,0,0,0,0,0,0,0,0,0,0,0,0,0,0,0],"sum_hessian":[9.7894336E4,9.147156E4,6.422773E3,9.12324E4,2.3916446E2,3.3984088E2,6.082932E3,9.0680336E4,5.520579E2,2.067459E2,3.2418556E1,3.2909677E2,1.0744088E1,6.0572856E3,2.5646313E1,5.404436E2,1.1614334E1,2.082812E0,2.0466309E2,1.8455568E1,1.3962989E1,8.668583E0,2.0755055E0,1.5530727E1,6.041755E3,3.6732686E0,5.367703E2,8.077586E0,3.5367477E0,1.9948671E2,5.1763716E0,2.0257366E0,1.1937252E1,1.3528237E1,2.0024908E0,6.0391035E3,2.6517296E0],"tree_param":{"num_deleted":"0","num_feature":"64","num_nodes":"37","size_leaf_vector":"1"}},{"base_weights":[2.6612716E-2,-4.6138975E-1,3E0,-4.8659816E-1,3E0,2.4E-1,-4.065212E-2,-4.957205E-1,1.0835341E0,2.4E-1,-3.8095575E-2,7.315853E-1,-5.00454E-1,-4.0363774E-2,2.4E-1,-4.0205944E-2,2.4E-1,-4.0414486E-2,-9.5800655E-3],"categories":[],"categories_nodes":[],"categories_segments":[],"categories_sizes":[],"default_left":[0,0,0,0,0,0,0,0,0,0,0,0,0,0,0,0,0,0,0],"id":27,"left_children":[1,3,5,7,9,-1,-1,11,13,-1,-1,15,17,-1,-1,-1,-1,-1,-1],"loss_changes":[1.5173928E5,8.0547266E3,8.678406E3,8.031846E2,5.298823E2,0E0,0E0,3.2434473E2,2.3217244E3,0E0,0E0,1.2486509E3,9.918848E1,0E0,0E0,0E0,0E0,0E0,0E0],"parents":[2147483647,0,0,1,1,2,2,3,3,4,4,7,7,8,8,11,11,12,12],"right_children":[2,4,6,8,10,-1,-1,12,14,-1,-1,16,18,-1,-1,-1,-1,-1,-1],"split_conditions":[1.0908544E0,1.9303709E0,-2.0605506E-1,1.6126335E0,-4.6164927E-1,2.4E-1,-4.065212E-2,-1.621492E-1,4.0665284E-1,2.4E-1,-3.8095575E-2,3.213801E-1,1.0516003E0,-4.0363774E-2,2.4E-1,-4.0205944E-2,2.4E-1,-4.0414486E-2,-9.5800655E-3],"split_indices":[33,13,27,13,15,0,0,28,33,0,0,33,33,0,0,0,0,0,0],"split_type":[0,0,0,0,0,0,0,0,0,0,0,0,0,0,0,0,0,0,0],"sum_hessian":[5.8867312E4,5.610384E4,2.7634739E3,5.5959562E4,1.4427658E2,2.0590217E3,7.0445215E2,5.5637996E4,3.2156552E2,1.0110037E2,4.3176212E1,2.1217604E2,5.542582E4,2.8486636E2,3.6699154E1,1.9064162E2,2.1534437E1,5.474412E4,6.817003E2],"tree_param":{"num_deleted":"0","num_feature":"64","num_nodes":"19","size_leaf_vector":"1"}},{"base_weights":[1.383013E-2,-5.0550675E-1,3E0,2.5416162E0,-5.100496E-1,-2.1544749E-1,3E0,2.4E-1,-4.1457105E-2,-5.218584E-1,3.162681E-1,-3.9595395E-1,3E0,3E0,-3.6776444E-1,-5.2745223E-1,-2.8097987E-1,-4.309127E-1,3E0,2.5136893E0,-4.6200785E-1,-3.6146604E-2,2.4E-1,3E0,-3.6581367E-2,2.3103046E-1,-4.2026963E-2,-3.6661718E-2,-4.2697452E-2,-3.994757E-2,2.4E-1,1.760115E-1,-3.9682787E-2,2.4E-1,-2.8625226E-2,2.4E-1,-2.5944602E-2,7.1449645E-2,-4.0179685E-2,2.4E-1,-2.2296362E-2],"categories":[],"categories_nodes":[],"categories_segments":[],"categories_sizes":[],"default_left":[0,0,0,0,0,0,0,0,0,0,0,0,0,0,0,0,0,0,0,0,0,0,0,0,0,0,0,0,0,0,0,0,0,0,0,0,0,0,0,0,0],"id":28,"left_children":[1,3,5,7,9,11,13,-1,-1,15,17,19,21,23,25,27,29,31,33,35,37,-1,-1,39,-1,-1,-1,-1,-1,-1,-1,-1,-1,-1,-1,-1,-1,-1,-1,-1,-1],"loss_changes":[3.506764E5,2.3102773E3,2.9920062E4,1.0248167E3,1.6239219E3,1.9811692E3,1.5439375E3,0E0,0E0,2.2033984E2,6.216019E3,5.358935E2,2.0591797E2,2.2925E2,7.5277176E1,6.870703E1,3.3140793E3,3.3985245E2,8.08042E1,2.3994415E2,1.4915045E2,0E0,0E0,4.88125E1,0E0,0E0,0E0,0E0,0E0,0E0,0E0,0E0,0E0,0E0,0E0,0E0,0E0,0E0,0E0,0E0,0E0],"parents":[2147483647,0,0,1,1,2,2,3,3,4,4,5,5,6,6,9,9,10,10,11,11,12,12,13,13,14,14,15,15,16,16,17,17,18,18,19,19,20,20,23,23],"right_children":[2,4,6,8,10,12,14,-1,-1,16,18,20,22,24,26,28,30,32,34,36,38,-1,-1,40,-1,-1,-1,-1,-1,-1,-1,-1,-1,-1,-1,-1,-1,-1,-1,-1,-1],"split_conditions":[6.83979E-1,-9.787493E-1,4.137921E-1,-4.7558883E-1,6.127179E-1,9.755863E-1,6.0355514E-1,2.4E-1,-4.1457105E-2,5.4387885E-1,5.6186974E-1,-6.737024E-1,5.511957E-2,3.7040305E-1,6.393236E-1,-5.983253E-1,4.4007814E-1,-3.4696376E-1,3.5502586E-1,8.234166E-1,-8.855318E-1,-3.6146604E-2,2.4E-1,3.1266367E-1,-3.6581367E-2,2.3103046E-1,-4.2026963E-2,-3.6661718E-2,-4.2697452E-2,-3.994757E-2,2.4E-1,1.760115E-1,-3.9682787E-2,2.4E-1,-2.8625226E-2,2.4E-1,-2.5944602E-2,7.1449645E-2,-4.0179685E-2,2.4E-1,-2.2296362E-2],"split_indices":[58,31,59,20,58,10,31,0,0,58,59,13,42,2,45,56,59,34,20,36,5,0,0,1,0,0,0,0,0,0,0,0,0,0,0,0,0,0,0,0,0],"split_type":[0,0,0,0,0,0,0,0,0,0,0,0,0,0,0,0,0,0,0,0,0,0,0,0,0,0,0,0,0,0,0,0,0,0,0,0,0,0,0,0,0],"sum_hessian":[1.9028105E5,1.6661467E5,2.3666373E4,2.4620293E2,1.6636847E5,2.893445E3,2.0772928E4,1.5995947E2,8.624345E1,1.6402573E5,2.3427368E3,2.7671646E3,1.2628044E2,2.0637379E4,1.355489E2,1.6029873E5,3.7269949E3,1.9617683E3,3.809685E2,5.961183E1,2.7075527E3,1.6628891E1,1.0965155E2,2.0618855E4,1.852328E1,4.511337E0,1.3103757E2,1.333198E4,1.4696675E5,3.5482268E3,1.7876807E2,4.561436E1,1.9161539E3,3.743701E2,6.598433E0,3.718319E1,2.2428642E1,7.649702E1,2.6310557E3,2.0614805E4,4.051893E0],"tree_param":{"num_deleted":"0","num_feature":"64","num_nodes":"41","size_leaf_vector":"1"}},{"base_weights":[-9.167303E-3,2.2468855E0,-5.741474E-1,-4.540405E-2,1.802507E-1,-5.715209E-1,-4.61936E-2,1.7236441E0,-5.721417E-1,1.9493034E-1,-3.5501476E-2,1.3101968E-1,-5.721762E-1,-2.617323E-2,7.157913E-2,-4.577608E-2,3.6963604E-2],"categories":[],"categories_nodes":[],"categories_segments":[],"categories_sizes":[],"default_left":[0,0,0,0,0,0,0,0,0,0,0,0,0,0,0,0,0],"id":29,"left_children":[1,3,5,-1,-1,7,-1,9,11,-1,-1,13,15,-1,-1,-1,-1],"loss_changes":[4.626343E5,1.2810938E3,1.5546875E0,0E0,0E0,2.3266406E2,0E0,7.1290375E1,4.1289062E0,0E0,0E0,4.9831605E0,4.9023438E0,0E0,0E0,0E0,0E0],"parents":[2147483647,0,0,1,1,2,2,5,5,7,7,8,8,11,11,12,12],"right_children":[2,4,6,-1,-1,8,-1,10,12,-1,-1,14,16,-1,-1,-1,-1],"split_conditions":[-8.923174E-1,-9.1765426E-2,8.4367526E-1,-4.540405E-2,1.802507E-1,-6.8300915E-1,-4.61936E-2,2.0813046E-1,-8.101664E-1,1.9493034E-1,-3.5501476E-2,-2.9738548E-1,3.3338016E-1,-2.617323E-2,7.157913E-2,-4.577608E-2,3.6963604E-2],"split_indices":[12,3,45,0,0,18,0,35,12,0,0,3,28,0,0,0,0],"split_type":[0,0,0,0,0,0,0,0,0,0,0,0,0,0,0,0,0],"sum_hessian":[3.6295162E5,7.268848E4,2.9026316E5,1.6043738E2,7.252804E4,1.6130786E5,1.28955305E5,4.189759E1,1.6126595E5,3.151333E1,1.0384258E1,6.8263044E0,1.6125912E5,4.571953E0,2.2543519E0,1.6125664E5,2.4924433E0],"tree_param":{"num_deleted":"0","num_feature":"64","num_nodes":"17","size_leaf_vector":"1"}},{"base_weights":[1.44733805E-2,-5.193852E-1,2.4E-1,-4.216405E-2,1.0278182E0,-1.8337756E-1,3E0,-4.0284723E-1,9.030069E-1,-3.9446406E-2,3E0,2.4E-1,-3.793667E-2,2.4E-1,-8.437422E-3,-2.0619096E-2,2.4E-1],"categories":[],"categories_nodes":[],"categories_segments":[],"categories_sizes":[],"default_left":[0,0,0,0,0,0,0,0,0,0,0,0,0,0,0,0,0],"id":30,"left_children":[1,3,-1,-1,5,7,9,11,13,-1,15,-1,-1,-1,-1,-1,-1],"loss_changes":[3.5471003E5,1.6372188E3,0E0,0E0,1.780456E3,1.0596317E2,5.1057983E2,1.105267E2,2.0363353E2,0E0,3.567168E2,0E0,0E0,0E0,0E0,0E0,0E0],"parents":[2147483647,0,0,1,1,4,4,5,5,6,6,7,7,8,8,10,10],"right_children":[2,4,-1,-1,6,8,10,12,14,-1,16,-1,-1,-1,-1,-1,-1],"split_conditions":[1.5795196E0,3.7882015E-2,2.4E-1,-4.216405E-2,3.8361555E-1,3.2462355E-1,2.4080293E-1,-9.358235E-1,2.7557987E-1,-3.9446406E-2,-6.2928194E-1,2.4E-1,-3.793667E-2,2.4E-1,-8.437422E-3,-2.0619096E-2,2.4E-1],"split_indices":[19,19,0,0,11,50,18,37,44,0,6,0,0,0,0,0,0],"split_type":[0,0,0,0,0,0,0,0,0,0,0,0,0,0,0,0,0],"sum_hessian":[1.5184298E5,1.379087E5,1.3934282E4,1.3723045E5,6.782465E2,4.3609753E2,2.4214896E2,3.6423416E2,7.1863396E1,4.1157143E1,2.009918E2,4.231464E0,3.600027E2,1.7694593E1,5.41688E1,3.3142155E1,1.6784966E2],"tree_param":{"num_deleted":"0","num_feature":"64","num_nodes":"17","size_leaf_vector":"1"}},{"base_weights":[-1.3194089E-2,-6.2580395E-1,1.6606032E0,-4.9654912E-2,-5.043177E-2,1.6664758E0,-5.0876254E-1,1.6666607E0,-4.000645E-2,-4.9378693E-2,1.2094227E-1,1.333378E-1,-2.666146E-2],"categories":[],"categories_nodes":[],"categories_segments":[],"categories_sizes":[],"default_left":[0,0,0,0,0,0,0,0,0,0,0,0,0],"id":31,"left_children":[1,3,5,-1,-1,7,9,11,-1,-1,-1,-1,-1],"loss_changes":[5.258792E5,7.734375E0,1.752625E3,0E0,0E0,5.68125E1,8.437957E1,1.81875E1,0E0,0E0,0E0,0E0,0E0],"parents":[2147483647,0,0,1,1,2,2,5,5,6,6,7,7],"right_children":[2,4,6,-1,-1,8,10,12,-1,-1,-1,-1,-1],"split_conditions":[2.7722612E-1,-3.4821588E-1,1.0559012E-1,-4.9654912E-2,-5.043177E-2,1.075933E0,6.6733605E-1,-4.9573055E-1,-4.000645E-2,-4.9378693E-2,1.2094227E-1,1.333378E-1,-2.666146E-2],"split_indices":[4,45,50,0,0,11,4,54,0,0,0,0,0],"split_type":[0,0,0,0,0,0,0,0,0,0,0,0,0],"sum_hessian":[5.1285472E5,3.754438E5,1.374109E5,1.7776503E5,1.9767878E5,1.3704061E5,3.7028888E2,1.3702961E5,1.1000904E1,3.5297614E2,1.7312754E1,1.3702597E5,3.6528764E0],"tree_param":{"num_deleted":"0","num_feature":"64","num_nodes":"13","size_leaf_vector":"1"}},{"base_weights":[1.50434505E-2,3E0,-4.9654824E-1,2.4E-1,-4.2092666E-2,-5.224147E-1,3E0,-5.2706754E-1,8.720457E-1,2.4E-1,-4.1957583E-2,-3.3804107E-1,-5.28138E-1,2.4E-1,-4.2020306E-2,2.4E-1,-4.2174544E-2,-4.2274468E-2,-3.599938E-2],"categories":[],"categories_nodes":[],"categories_segments":[],"categories_sizes":[],"default_left":[0,0,0,0,0,0,0,0,0,0,0,0,0,0,0,0,0,0,0],"id":32,"left_children":[1,3,5,-1,-1,7,9,11,13,-1,-1,15,17,-1,-1,-1,-1,-1,-1],"loss_changes":[3.4271716E5,6.5555938E3,1.4119727E4,0E0,0E0,9.3185547E2,3.7683047E3,2.8203125E1,2.2784485E3,0E0,0E0,7.2854376E2,2.4726562E0,0E0,0E0,0E0,0E0,0E0,0E0],"parents":[2147483647,0,0,1,1,2,2,5,5,6,6,7,7,8,8,11,11,12,12],"right_children":[2,4,6,-1,-1,8,10,12,14,-1,-1,16,18,-1,-1,-1,-1,-1,-1],"split_conditions":[-7.7056926E-1,5.1408637E-2,5.2134854E-1,2.4E-1,-4.2092666E-2,4.5789543E-1,2.749738E-3,-4.558398E-1,-2.8434187E-1,2.4E-1,-4.1957583E-2,-2.112642E-1,4.0394172E-1,2.4E-1,-4.2020306E-2,2.4E-1,-4.2174544E-2,-4.2274468E-2,-3.599938E-2],"split_indices":[30,60,52,0,0,52,14,22,30,0,0,23,52,0,0,0,0,0,0],"split_type":[0,0,0,0,0,0,0,0,0,0,0,0,0,0,0,0,0,0,0],"sum_hessian":[1.5964964E5,1.5267457E4,1.4438219E5,1.4740932E4,5.2652545E2,1.434089E5,9.7327167E2,1.4293358E5,4.753251E2,6.7062555E2,3.026461E2,8.110254E2,1.4212256E5,1.19032585E2,3.562925E2,2.485204E1,7.861734E2,1.4157402E5,5.4855096E2],"tree_param":{"num_deleted":"0","num_feature":"64","num_nodes":"19","size_leaf_vector":"1"}},{"base_weights":[1.890454E-2,-4.8486188E-1,3E0,1.164075E0,-5.120914E-1,3E0,-4.2435635E-2,3E0,-4.5803204E-1,-5.2580243E-1,4.9773946E-2,-2.0981336E-2,2.4E-1,3E0,-3.87051E-2,-4.9080554E-1,2.4033995E0,-3.614352E-1,-5.2687436E-1,3E0,-4.6253997E-1,2.4E-1,-1.6595226E-2,-4.137661E-2,2.5825815E-2,2.4E-1,-1.8734332E-2,2.1220309E-1,-4.0248208E-2,-3.7947692E-2,-4.2217135E-2,2.4E-1,-2.0299936E-2,2.4E-1,-4.164189E-2],"categories":[],"categories_nodes":[],"categories_segments":[],"categories_sizes":[],"default_left":[0,0,0,0,0,0,0,0,0,0,0,0,0,0,0,0,0,0,0,0,0,0,0,0,0,0,0,0,0,0,0,0,0,0,0],"id":33,"left_children":[1,3,5,7,9,11,-1,13,15,17,19,-1,-1,21,-1,23,25,27,29,31,33,-1,-1,-1,-1,-1,-1,-1,-1,-1,-1,-1,-1,-1,-1],"loss_changes":[2.7646162E5,6.3784062E3,2.1485219E4,8.855391E3,1.0764219E3,4.55625E1,0E0,3.871504E2,1.3415515E2,2.3296875E1,6.059241E3,0E0,0E0,3.3174805E1,0E0,3.0138977E1,3.409871E1,3.8552386E2,5.1875E0,4.350586E1,6.525616E2,0E0,0E0,0E0,0E0,0E0,0E0,0E0,0E0,0E0,0E0,0E0,0E0,0E0,0E0],"parents":[2147483647,0,0,1,1,2,2,3,3,4,4,5,5,7,7,8,8,9,9,10,10,13,13,15,15,16,16,17,17,18,18,19,19,20,20],"right_children":[2,4,6,8,10,12,-1,14,16,18,20,-1,-1,22,-1,24,26,28,30,32,34,-1,-1,-1,-1,-1,-1,-1,-1,-1,-1,-1,-1,-1,-1],"split_conditions":[9.703958E-1,-9.5745E-1,-3.9838457E-1,3.5941273E-1,1.2063213E-1,4.717301E-1,-4.2435635E-2,1.5938272E-1,7.916595E-2,-9.517436E-1,-4.417498E-1,-2.0981336E-2,2.4E-1,9.6634173E-1,-3.87051E-2,-1.7280029E-1,6.4882463E-1,2.7386495E-1,-9.3644565E-1,9.6634173E-1,-2.8388697E-1,2.4E-1,-1.6595226E-2,-4.137661E-2,2.5825815E-2,2.4E-1,-1.8734332E-2,2.1220309E-1,-4.0248208E-2,-3.7947692E-2,-4.2217135E-2,2.4E-1,-2.0299936E-2,2.4E-1,-4.164189E-2],"split_indices":[56,41,26,63,5,3,0,42,5,41,15,0,0,0,0,5,0,63,41,0,32,0,0,0,0,0,0,0,0,0,0,0,0,0,0],"split_type":[0,0,0,0,0,0,0,0,0,0,0,0,0,0,0,0,0,0,0,0,0,0,0,0,0,0,0,0,0,0,0,0,0,0,0],"sum_hessian":[1.6296053E5,1.4201648E5,2.0944041E4,2.3054172E3,1.3971106E5,1.9220986E4,1.7230549E3,9.153678E2,1.3900494E3,1.3638394E5,3.3271304E3,3.806391E0,1.921718E4,8.841497E2,3.12181E1,1.3761198E3,1.3929733E1,8.9104987E2,1.3549289E5,4.059078E2,2.9212227E3,8.813414E2,2.8083384E0,1.3341693E3,4.19504E1,1.0658225E1,3.271508E0,3.8252445E1,8.527974E2,2.1593992E3,1.3333348E5,4.0226385E2,3.6439567E0,4.13818E1,2.8798408E3],"tree_param":{"num_deleted":"0","num_feature":"64","num_nodes":"35","size_leaf_vector":"1"}},{"base_weights":[-1.6762972E-2,1.1815445E0,-5.73073E-1,1.3989362E0,-5.162163E-2,-6.232903E-1,-3.9296214E-2,1.12152375E-1,-5.132125E-2,-5.256268E-1,-6.280049E-1,1.3968767E0,-6.260749E-1,1.3750063E0,-6.27637E-1,-5.102485E-2,-6.1838156E-1,1.4090636E0,-5.0197333E-1,-3.2848382E-1,-5.1079214E-2,1.1347945E-1,-4.416563E-2,-5.0240405E-2,4.9294997E-2,8.736481E-2,-5.0008196E-2,-3.2434527E-2,1.1281272E-1,-4.8849035E-2,6.475256E-2,-4.9453426E-2,1.0981894E-1],"categories":[],"categories_nodes":[],"categories_segments":[],"categories_sizes":[],"default_left":[0,0,0,0,0,0,0,0,0,0,0,0,0,0,0,0,0,0,0,0,0,0,0,0,0,0,0,0,0,0,0,0,0],"id":34,"left_children":[1,3,5,7,-1,9,11,-1,-1,13,15,17,19,21,23,-1,25,27,29,31,-1,-1,-1,-1,-1,-1,-1,-1,-1,-1,-1,-1,-1],"loss_changes":[3.6027438E5,6.8050766E4,9.8928125E3,9.29625E2,0E0,1.543125E2,2.6751809E4,0E0,0E0,3.01794E3,2.9265625E1,2.1474414E2,8.2387695E1,6.8328E1,7.840332E0,0E0,1.8700078E3,1.9533203E1,1.0093901E1,4.504205E2,0E0,0E0,0E0,0E0,0E0,0E0,0E0,0E0,0E0,0E0,0E0,0E0,0E0],"parents":[2147483647,0,0,1,1,2,2,3,3,5,5,6,6,9,9,10,10,11,11,12,12,13,13,14,14,16,16,17,17,18,18,19,19],"right_children":[2,4,6,8,-1,10,12,-1,-1,14,16,18,20,22,24,-1,26,28,30,32,-1,-1,-1,-1,-1,-1,-1,-1,-1,-1,-1,-1,-1],"split_conditions":[-2.1936004E-1,-4.5059983E-2,-1.3152632E-1,4.8970897E-2,-5.162163E-2,-1.9606975E-1,-4.5059983E-2,1.12152375E-1,-5.132125E-2,-4.5059983E-2,-3.11712E-1,5.941312E-1,1.0498278E-1,-1.1170244E-1,7.1296346E-1,-5.102485E-2,1.0498278E-1,-6.3584894E-1,7.2812194E-1,2.7005369E-2,-5.1079214E-2,1.1347945E-1,-4.416563E-2,-5.0240405E-2,4.9294997E-2,8.736481E-2,-5.0008196E-2,-3.2434527E-2,1.1281272E-1,-4.8849035E-2,6.475256E-2,-4.9453426E-2,1.0981894E-1],"split_indices":[52,47,43,0,0,52,47,0,0,47,15,10,47,0,59,0,47,11,12,28,0,0,0,0,0,0,0,0,0,0,0,0,0],"split_type":[0,0,0,0,0,0,0,0,0,0,0,0,0,0,0,0,0,0,0,0,0,0,0,0,0,0,0,0,0,0,0,0,0],"sum_hessian":[5.404346E5,1.7134644E5,3.690882E5,1.5312523E5,1.8221209E4,3.3734938E5,3.173881E4,1.5290364E5,2.2158511E2,1.5550458E4,3.217989E5,9.205132E3,2.2533678E4,7.905851E2,1.4759873E4,1.5929822E5,1.625007E5,9.147204E3,5.79277E1,9.0625385E2,2.1627424E4,7.739082E2,1.6676878E1,1.4756898E4,2.9744794E0,6.34466E2,1.6186623E5,4.7979794E0,9.142406E3,5.483499E1,3.0927086E0,7.7572974E2,1.3052414E2],"tree_param":{"num_deleted":"0","num_feature":"64","num_nodes":"33","size_leaf_vector":"1"}},{"base_weights":[4.174364E-2,-4.07802E-2,3E0,-3.9665032E-2,2.4E-1],"categories":[],"categories_nodes":[],"categories_segments":[],"categories_sizes":[],"default_left":[0,0,0,0,0],"id":35,"left_children":[1,-1,3,-1,-1],"loss_changes":[1.6857536E5,0E0,1.3472031E3,0E0,0E0],"parents":[2147483647,0,0,2,2],"right_children":[2,-1,4,-1,-1],"split_conditions":[4.636365E-1,-4.07802E-2,6.0211176E-1,-3.9665032E-2,2.4E-1],"split_indices":[15,0,51,0,0],"split_type":[0,0,0,0,0],"sum_hessian":[5.801863E4,5.4903164E4,3.1154644E3,1.0954991E2,3.0059143E3],"tree_param":{"num_deleted":"0","num_feature":"64","num_nodes":"5","size_leaf_vector":"1"}},{"base_weights":[6.5976037E-3,2.839776E0,-5.2699345E-1,-4.2414486E-2,2.3043612E-1,-1.9811262E-1,-5.34262E-1,3E0,-4.3358464E-2,-5.3632355E-1,-9.57358E-2,-2.1969363E-2,2.4E-1,-5.3653467E-1,8.5069984E-1,2.4E-1,-4.3153886E-2,-4.3050252E-2,-3.9865546E-2,-3.6215555E-2,2.0685817E-1],"categories":[],"categories_nodes":[],"categories_segments":[],"categories_sizes":[],"default_left":[0,0,0,0,0,0,0,0,0,0,0,0,0,0,0,0,0,0,0,0,0],"id":36,"left_children":[1,3,5,-1,-1,7,9,11,-1,13,15,-1,-1,17,19,-1,-1,-1,-1,-1,-1],"loss_changes":[3.313431E5,4.7649062E3,4.4026562E2,0E0,0E0,4.4383296E3,1.6254297E2,4.669214E1,0E0,5.3929688E1,1.3802239E3,0E0,0E0,1.0113281E1,6.791921E1,0E0,0E0,0E0,0E0,0E0,0E0],"parents":[2147483647,0,0,1,1,2,2,5,5,6,6,7,7,9,9,10,10,13,13,14,14],"right_children":[2,4,6,-1,-1,8,10,12,-1,14,16,-1,-1,18,20,-1,-1,-1,-1,-1,-1],"split_conditions":[-8.3660257E-1,3.5511672E-1,-6.905649E-1,-4.2414486E-2,2.3043612E-1,2.2525111E-1,6.61003E-1,4.9328662E-2,-4.3358464E-2,1.5036141E0,2.2525111E-1,-2.1969363E-2,2.4E-1,7.995301E-2,-8.9848787E-1,2.4E-1,-4.3153886E-2,-4.3050252E-2,-3.9865546E-2,-3.6215555E-2,2.0685817E-1],"split_indices":[47,27,34,0,0,7,1,20,0,20,7,0,0,1,6,0,0,0,0,0,0],"split_type":[0,0,0,0,0,0,0,0,0,0,0,0,0,0,0,0,0,0,0,0,0],"sum_hessian":[2.1917028E5,3.473454E4,1.8443575E5,4.1381387E2,3.4320727E4,3.9907788E3,1.8044497E5,3.824434E2,3.6083354E3,1.7959908E5,8.4589044E2,3.8674762E0,3.7857593E2,1.7957333E5,2.574765E1,8.767177E1,7.582187E2,1.7234777E5,7.225558E3,1.5382179E1,1.0365472E1],"tree_param":{"num_deleted":"0","num_feature":"64","num_nodes":"21","size_leaf_vector":"1"}},{"base_weights":[3.485477E-2,-5.126095E-1,3E0,-5.139568E-1,6.18606E-1,-4.9933487E-1,3E0,-5.141648E-1,2.0561545E-1,-4.4458136E-1,3E0,-4.0747765E-2,3.2585774E-2,3E0,-3.2962665E-2,-5.151073E-1,-1.4112438E-1,-3.990322E-2,5.4305978E-2,3E0,-1.784502E-2,-1.778959E-2,3.7466474E-2,3E0,-2.4827825E-2,-4.126507E-2,-3.3191755E-2,2.4E-1,-3.9189413E-2,3.5435844E-2,2.4E-1,2.4E-1,5.726169E-2],"categories":[],"categories_nodes":[],"categories_segments":[],"categories_sizes":[],"default_left":[0,0,0,0,0,0,0,0,0,0,0,0,0,0,0,0,0,0,0,0,0,0,0,0,0,0,0,0,0,0,0,0,0],"id":37,"left_children":[1,3,5,7,9,11,13,15,-1,17,19,-1,21,23,-1,25,27,-1,-1,29,-1,-1,-1,31,-1,-1,-1,-1,-1,-1,-1,-1,-1],"loss_changes":[2.3974184E5,1.3473047E2,4.1148594E3,6.0189453E1,3.8515857E2,1.8610764E0,2.814375E2,3.0234375E1,0E0,6.191786E0,3.708954E1,0E0,1.7718116E0,1.2365625E2,0E0,5.453125E0,3.7340955E2,0E0,0E0,4.82016E0,0E0,0E0,0E0,3.3375E1,0E0,0E0,0E0,0E0,0E0,0E0,0E0,0E0,0E0],"parents":[2147483647,0,0,1,1,2,2,3,3,4,4,5,5,6,6,7,7,9,9,10,10,12,12,13,13,15,15,16,16,19,19,23,23],"right_children":[2,4,6,8,10,12,14,16,-1,18,20,-1,22,24,-1,26,28,-1,-1,30,-1,-1,-1,32,-1,-1,-1,-1,-1,-1,-1,-1,-1],"split_conditions":[7.3386914E-1,1.5498132E0,4.1838873E-2,2.1246195E0,1.1349889E0,7.256435E-1,-7.069656E-2,1.5886513E0,2.0561545E-1,-2.2130843E-1,6.61003E-1,-4.0747765E-2,-9.980549E-2,1.0647918E0,-3.2962665E-2,5.006095E-1,-8.4157336E-1,-3.990322E-2,5.4305978E-2,3.4614363E-1,-1.784502E-2,-1.778959E-2,3.7466474E-2,1.5419133E-1,-2.4827825E-2,-4.126507E-2,-3.3191755E-2,2.4E-1,-3.9189413E-2,3.5435844E-2,2.4E-1,2.4E-1,5.726169E-2],"split_indices":[31,39,51,25,25,20,15,25,0,57,1,0,51,38,0,46,37,0,0,31,0,0,0,32,0,0,0,0,0,0,0,0,0],"split_type":[0,0,0,0,0,0,0,0,0,0,0,0,0,0,0,0,0,0,0,0,0,0,0,0,0,0,0,0,0,0,0,0,0],"sum_hessian":[9.591351E4,8.777669E4,8.136819E3,8.7673805E4,1.0288747E2,3.3534143E2,7.801477E3,8.766972E4,4.0853267E0,8.1645256E1,2.1242216E1,3.3015195E2,5.1895103E0,7.77792E3,2.3557178E1,8.744669E4,2.2302727E2,7.93723E1,2.272956E0,1.810496E1,3.1372566E0,3.167876E0,2.021634E0,7.7671577E3,1.0762416E1,8.682162E4,6.250681E2,1.0612159E1,2.124151E2,2.1106055E0,1.5994353E1,7.7585854E3,8.572259E0],"tree_param":{"num_deleted":"0","num_feature":"64","num_nodes":"33","size_leaf_vector":"1"}},{"base_weights":[4.358882E-2,-5.057158E-1,3E0,-5.083491E-1,7.29249E-2,2.4E-1,-4.0013764E-2,-2.1164434E-1,-4.0715035E-2,-4.031626E-2,2.4E-1,-3.9642144E-2,2.4E-1],"categories":[],"categories_nodes":[],"categories_segments":[],"categories_sizes":[],"default_left":[0,0,0,0,0,0,0,0,0,0,0,0,0],"id":38,"left_children":[1,3,5,7,9,-1,-1,11,-1,-1,-1,-1,-1],"loss_changes":[1.6570017E5,8.270996E1,1.7868281E3,8.810547E0,7.4104626E2,0E0,0E0,1.5933003E2,0E0,0E0,0E0,0E0,0E0],"parents":[2147483647,0,0,1,1,2,2,3,3,4,4,7,7],"right_children":[2,4,6,8,10,-1,-1,12,-1,-1,-1,-1,-1],"split_conditions":[1.6661869E0,1.5105318E0,1.0044364E0,-5.356523E-1,5.1408637E-2,2.4E-1,-4.0013764E-2,6.160351E-1,-4.0715035E-2,-4.031626E-2,2.4E-1,-3.9642144E-2,2.4E-1],"split_indices":[0,0,39,57,60,0,0,0,0,0,0,0,0],"split_type":[0,0,0,0,0,0,0,0,0,0,0,0,0],"sum_hessian":[5.7258855E4,5.4203883E4,3.0549734E3,5.3959426E4,2.4445697E2,2.9098179E3,1.451554E2,1.099858E2,5.3849438E4,2.3128804E2,1.3168927E1,1.0703341E2,2.9523926E0],"tree_param":{"num_deleted":"0","num_feature":"64","num_nodes":"13","size_leaf_vector":"1"}},{"base_weights":[1.3410909E-2,-5.2693176E-1,3E0,-5.2965957E-1,7.717421E-2,3E0,-4.1823458E-2,-4.2956963E-1,-5.320573E-1,3E0,-5.0709045E-1,-3.386971E-2,3E0,-5.048522E-1,3E0,-5.321928E-1,-3.0147985E-1,2.4E-1,3.583995E-2,8.471544E-1,-5.2430916E-1,3E0,7.754805E-1,2.3550367E-1,-4.1006926E-2,2.4E-1,-2.988636E-2,-4.2621687E-2,-3.9756082E-2,2.4E-1,-4.1517384E-2,1.5167427E-1,-2.0171225E-2,3.7712783E-2,-4.2411722E-2,-1.8539743E-2,2.4E-1,2.4E-1,-3.674385E-2],"categories":[],"categories_nodes":[],"categories_segments":[],"categories_sizes":[],"default_left":[0,0,0,0,0,0,0,0,0,0,0,0,0,0,0,0,0,0,0,0,0,0,0,0,0,0,0,0,0,0,0,0,0,0,0,0,0,0,0],"id":39,"left_children":[1,3,5,7,9,11,-1,13,15,17,19,-1,21,23,25,27,29,-1,-1,31,33,35,37,-1,-1,-1,-1,-1,-1,-1,-1,-1,-1,-1,-1,-1,-1,-1,-1],"loss_changes":[3.3172166E5,2.6696094E2,2.128375E3,3.791797E1,1.4158197E3,1.4734375E2,0E0,1.0578629E3,4.21875E0,5.3928223E0,1.5847488E1,0E0,8.79375E1,1.0354651E2,9.227411E1,2.390625E0,8.040768E1,0E0,0E0,1.2123374E1,4.324936E0,3.65E1,7.228773E1,0E0,0E0,0E0,0E0,0E0,0E0,0E0,0E0,0E0,0E0,0E0,0E0,0E0,0E0,0E0,0E0],"parents":[2147483647,0,0,1,1,2,2,3,3,4,4,5,5,7,7,8,8,9,9,10,10,12,12,13,13,14,14,15,15,16,16,19,19,20,20,21,21,22,22],"right_children":[2,4,6,8,10,12,-1,14,16,18,20,-1,22,24,26,28,30,-1,-1,32,34,36,38,-1,-1,-1,-1,-1,-1,-1,-1,-1,-1,-1,-1,-1,-1,-1,-1],"split_conditions":[9.2441195E-1,4.982137E-1,3.7040305E-1,-9.0510625E-1,-7.2287184E-1,-1.2819621E-1,-4.1823458E-2,-4.5575175E-1,2.1873174E0,-9.3298376E-2,-4.8636308E-1,-3.386971E-2,3.1266367E-1,-7.7416736E-1,2.1246195E0,6.533534E-1,-8.023871E-1,2.4E-1,3.583995E-2,2.48467E-1,-8.6673045E-1,-5.8550483E-1,-4.40631E-1,2.3550367E-1,-4.1006926E-2,2.4E-1,-2.988636E-2,-4.2621687E-2,-3.9756082E-2,2.4E-1,-4.1517384E-2,1.5167427E-1,-2.0171225E-2,3.7712783E-2,-4.2411722E-2,-1.8539743E-2,2.4E-1,2.4E-1,-3.674385E-2],"split_indices":[41,41,2,38,56,17,0,41,7,32,6,0,1,61,25,58,38,0,0,52,16,30,23,0,0,0,0,0,0,0,0,0,0,0,0,0,0,0,0],"split_type":[0,0,0,0,0,0,0,0,0,0,0,0,0,0,0,0,0,0,0,0,0,0,0,0,0,0,0,0,0,0,0,0,0,0,0,0,0,0,0],"sum_hessian":[1.8862422E5,1.61923E5,2.6701219E4,1.611962E5,7.2679114E2,2.6530428E4,1.7079079E2,3.7845825E3,1.5741162E5,1.0654537E2,6.202457E2,1.1939617E1,2.6518488E4,3.7112554E3,7.3327E1,1.5731436E5,9.726899E1,1.0433134E2,2.21404E0,6.2123065E0,6.1403345E2,2.6498326E4,2.0162052E1,6.461201E0,3.7047942E3,6.5802345E1,7.5246587E0,1.5473308E5,2.5812688E3,3.949802E0,9.331919E1,2.6702535E0,3.5420532E0,2.1498606E0,6.1188354E2,3.0523293E0,2.6495273E4,5.895281E0,1.426677E1],"tree_param":{"num_deleted":"0","num_feature":"64","num_nodes":"39","size_leaf_vector":"1"}},{"base_weights":[-1.3012766E-2,1.8932375E0,-5.70562E-1,-4.4988483E-2,1.5180853E-1,-5.6732893E-1,-4.596781E-2,1.2908578E0,-5.6773674E-1,-3.2906726E-2,1.4932595E-1,3.400151E-1,-5.677825E-1,9.534553E-2,-2.4599375E-2,-4.542588E-2,4.341513E-2],"categories":[],"categories_nodes":[],"categories_segments":[],"categories_sizes":[],"default_left":[0,0,0,0,0,0,0,0,0,0,0,0,0,0,0,0,0],"id":40,"left_children":[1,3,5,-1,-1,7,-1,9,11,-1,-1,13,15,-1,-1,-1,-1],"loss_changes":[3.8333384E5,8.7809375E2,2.7109375E0,0E0,0E0,1.1969531E2,0E0,3.630524E1,7.0039062E0,0E0,0E0,6.867665E0,7.9453125E0,0E0,0E0,0E0,0E0],"parents":[2147483647,0,0,1,1,2,2,5,5,7,7,8,8,11,11,12,12],"right_children":[2,4,6,-1,-1,8,-1,10,12,-1,-1,14,16,-1,-1,-1,-1],"split_conditions":[-8.587397E-1,-7.2237146E-1,8.6016816E-1,-4.4988483E-2,1.5180853E-1,-7.1028423E-1,-4.596781E-2,-9.2262304E-1,-8.3600444E-1,-3.2906726E-2,1.4932595E-1,-2.2854869E-1,3.5080397E-1,9.534553E-2,-2.4599375E-2,-4.542588E-2,4.341513E-2],"split_indices":[20,5,45,0,0,18,0,2,12,0,0,0,28,0,0,0,0],"split_type":[0,0,0,0,0,0,0,0,0,0,0,0,0,0,0,0,0],"sum_hessian":[3.6066756E5,8.161653E4,2.7905103E5,1.443008E2,8.147223E4,1.5515562E5,1.2389542E5,3.2388893E1,1.5512323E5,8.110769E0,2.4278122E1,6.527367E0,1.551167E5,2.4263768E0,4.1009903E0,1.551124E5,4.2996135E0],"tree_param":{"num_deleted":"0","num_feature":"64","num_nodes":"17","size_leaf_vector":"1"}},{"base_weights":[2.0784987E-2,-5.1698905E-1,3E0,-5.258203E-1,1.0678785E0,-2.8167993E-2,3E0,7.369347E-1,-4.207054E-2,-2.146043E-1,2.9148726E0,-1.2252396E-2,2.4E-1,-1.6702164E-2,1.3121969E-1,-4.6229923E-1,8.892654E-1,3E0,-3.898116E-2,1.2077798E-1,-3.9225794E-2,-3.164804E-2,1.7461881E-1,-3.2213096E-2,2.4E-1],"categories":[],"categories_nodes":[],"categories_segments":[],"categories_sizes":[],"default_left":[0,0,0,0,0,0,0,0,0,0,0,0,0,0,0,0,0,0,0,0,0,0,0,0,0],"id":41,"left_children":[1,3,5,7,9,-1,11,13,-1,15,17,-1,-1,-1,-1,19,21,23,-1,-1,-1,-1,-1,-1,-1],"loss_changes":[3.0788203E5,1.8568516E3,8.040625E1,1.1378906E1,1.7447655E3,0E0,2.415625E1,7.99945E0,0E0,1.2068634E2,4.4107935E2,0E0,0E0,0E0,0E0,2.2022163E1,1.3699866E2,3.0763794E2,0E0,0E0,0E0,0E0,0E0,0E0,0E0],"parents":[2147483647,0,0,1,1,2,2,3,3,4,4,6,6,7,7,9,9,10,10,15,15,16,16,17,17],"right_children":[2,4,6,8,10,-1,12,14,-1,16,18,-1,-1,-1,-1,20,22,24,-1,-1,-1,-1,-1,-1,-1],"split_conditions":[1.4685951E0,2.7260023E-1,-2.4672472E-1,-8.7693435E-1,3.8361555E-1,-2.8167993E-2,-7.7006984E-1,-9.164265E-1,-4.207054E-2,-1.0077383E-2,-3.8747877E-1,-1.2252396E-2,2.4E-1,-1.6702164E-2,1.3121969E-1,-6.1336737E-2,-8.470564E-3,-6.037681E-1,-3.898116E-2,1.2077798E-1,-3.9225794E-2,-3.164804E-2,1.7461881E-1,-3.2213096E-2,2.4E-1],"split_indices":[40,40,47,9,11,0,6,6,0,50,33,0,0,0,0,17,32,6,0,0,0,0,0,0,0],"split_type":[0,0,0,0,0,0,0,0,0,0,0,0,0,0,0,0,0,0,0,0,0,0,0,0,0],"sum_hessian":[1.500263E5,1.325451E5,1.748121E4,1.3181225E5,7.328372E2,6.591506E0,1.747462E4,4.8540244E0,1.318074E5,4.333986E2,2.9943866E2,2.0733025E0,1.7472547E4,2.8521893E0,2.0018349E0,3.5529095E2,7.810761E1,2.6368286E2,3.57558E1,3.246417E0,3.5204456E2,3.968668E1,3.8420937E1,2.5960953E1,2.3772191E2],"tree_param":{"num_deleted":"0","num_feature":"64","num_nodes":"25","size_leaf_vector":"1"}},{"base_weights":[-1.5465559E-2,-6.002984E-1,1.463856E0,-6.156087E-1,7.253107E-2,1.4757559E0,-4.9798567E-2,-6.175527E-1,-1.2681101E-1,-4.9597554E-2,1.1800616E0,-3.139662E-2,1.4758414E0,-6.1844695E-1,-5.5821395E-1,-4.9984183E-2,1.1726459E-1,1.4617999E0,-5.0094932E-2,7.575741E-1,1.18075065E-1,-4.8956193E-2,-4.993233E-2,-4.9033444E-2,1.02084346E-1,1.1761772E-1,-4.6354216E-2,1.0276704E-1,-4.0913206E-2],"categories":[],"categories_nodes":[],"categories_segments":[],"categories_sizes":[],"default_left":[0,0,0,0,0,0,0,0,0,0,0,0,0,0,0,0,0,0,0,0,0,0,0,0,0,0,0,0,0],"id":42,"left_children":[1,3,5,7,9,11,-1,13,15,-1,17,-1,19,21,23,-1,-1,25,-1,27,-1,-1,-1,-1,-1,-1,-1,-1,-1],"loss_changes":[4.396673E5,3.7519219E3,3.5769688E3,3.376875E2,6.2191113E3,2.41875E1,0E0,1.7796875E1,1.1249236E3,0E0,1.58969E3,0E0,6.65625E0,1.1875E1,5.335559E2,0E0,0E0,4.8399902E1,0E0,1.8486137E1,0E0,0E0,0E0,0E0,0E0,0E0,0E0,0E0,0E0],"parents":[2147483647,0,0,1,1,2,2,3,3,4,4,5,5,7,7,8,8,10,10,12,12,13,13,14,14,17,17,19,19],"right_children":[2,4,6,8,10,12,-1,14,16,-1,18,-1,20,22,24,-1,-1,26,-1,28,-1,-1,-1,-1,-1,-1,-1,-1,-1],"split_conditions":[6.986153E-1,3.5233027E-1,-4.8594695E-2,1.4738699E0,-9.8422356E-2,-2.7673614E-1,-4.9798567E-2,1.7465591E-1,-6.0211736E-1,-4.9597554E-2,3.244258E-1,-3.139662E-2,2.5730403E-2,-5.2048016E-1,4.982137E-1,-4.9984183E-2,1.1726459E-1,2.640147E-1,-5.0094932E-2,-9.280873E-2,1.18075065E-1,-4.8956193E-2,-4.993233E-2,-4.9033444E-2,1.02084346E-1,1.1761772E-1,-4.6354216E-2,1.0276704E-1,-4.0913206E-2],"split_indices":[48,48,57,58,58,0,0,48,16,0,35,0,58,45,41,0,0,9,0,27,0,0,0,0,0,0,0,0,0],"split_type":[0,0,0,0,0,0,0,0,0,0,0,0,0,0,0,0,0,0,0,0,0,0,0,0,0,0,0,0,0],"sum_hessian":[5.0818844E5,3.642055E5,1.4398295E5,3.5610325E5,8.1022466E3,1.4316719E5,8.157716E2,3.5469106E5,1.4121946E3,4.9854478E3,3.116799E3,5.859475E0,1.4316133E5,3.4939844E5,5.292611E3,1.0769695E3,3.3522516E2,2.6968093E3,4.1998965E2,2.2112728E1,1.431392E5,1.6356931E5,1.8582912E5,5.140896E3,1.5171465E2,2.6865298E3,1.0279636E1,1.5885057E1,6.2276707E0],"tree_param":{"num_deleted":"0","num_feature":"64","num_nodes":"29","size_leaf_vector":"1"}},{"base_weights":[2.0255359E-2,-5.233847E-1,3E0,2.4E-1,-5.2423984E-1,2.4E-1,-4.115139E-2,2.6497405E0,-5.246815E-1,2.4E-1,-2.1765057E-2,-5.2632964E-1,-1.4995947E-1,8.01677E-3,-4.2124223E-2,2.4E-1,-4.206396E-2],"categories":[],"categories_nodes":[],"categories_segments":[],"categories_sizes":[],"default_left":[0,0,0,0,0,0,0,0,0,0,0,0,0,0,0,0,0],"id":43,"left_children":[1,3,5,-1,7,-1,-1,9,11,-1,-1,13,15,-1,-1,-1,-1],"loss_changes":[3.1639356E5,4.8429297E2,1.3270625E3,0E0,1.9802344E2,0E0,0E0,4.662697E1,8.482031E1,0E0,0E0,1.9410156E1,8.8203375E2,0E0,0E0,0E0,0E0],"parents":[2147483647,0,0,1,1,2,2,4,4,7,7,8,8,11,11,12,12],"right_children":[2,4,6,-1,8,-1,-1,10,12,-1,-1,14,16,-1,-1,-1,-1],"split_conditions":[2.126072E0,-9.323785E-1,3.8353547E-1,2.4E-1,-9.1119903E-1,2.4E-1,-4.115139E-2,1.4622484E-1,1.8754902E0,2.4E-1,-2.1765057E-2,-8.7505096E-1,6.584512E-2,8.01677E-3,-4.2124223E-2,2.4E-1,-4.206396E-2],"split_indices":[59,30,10,0,15,0,0,10,59,0,0,30,10,0,0,0,0],"split_type":[0,0,0,0,0,0,0,0,0,0,0,0,0,0,0,0,0],"sum_hessian":[1.5782111E5,1.3836308E5,1.9458031E4,2.667673E1,1.383364E5,1.935129E4,1.0674214E2,1.7420212E1,1.3831898E5,1.3375974E1,4.0442376E0,1.3771114E5,6.078412E2,4.792345E1,1.3766322E5,5.0708393E1,5.571328E2],"tree_param":{"num_deleted":"0","num_feature":"64","num_nodes":"17","size_leaf_vector":"1"}},{"base_weights":[1.7809777E-2,-5.0019443E-1,2.9521933E0,7.252845E-1,-5.2032226E-1,-3.912091E-1,2.9686494E0,-4.505536E-1,2.7676969E0,-1.19095996E-1,-5.232364E-1,-4.9830368E-1,1.8418287E-1,-3.48162E-2,2.376616E-1,-5.2192265E-1,7.7594894E-1,-2.7457845E-1,2.9571753E0,-5.1106846E-1,2.518491E0,-4.1172656E-1,-5.251204E-1,2.9029043E-3,-4.1105114E-2,-4.219564E-2,-7.29321E-3,2.2427794E-1,-3.995404E-2,1.175232E-1,-3.970941E-2,2.3744015E-1,-0E0,-4.191947E-2,1.5866812E-2,-3.537176E-2,2.3658888E-1,-4.1366983E-2,1.4258558E-1,-4.211102E-2,-3.7481453E-2],"categories":[],"categories_nodes":[],"categories_segments":[],"categories_sizes":[],"default_left":[0,0,0,0,0,0,0,0,0,0,0,0,0,0,0,0,0,0,0,0,0,0,0,0,0,0,0,0,0,0,0,0,0,0,0,0,0,0,0,0,0],"id":44,"left_children":[1,3,5,7,9,11,13,15,17,19,21,23,-1,-1,-1,25,27,29,31,33,35,37,39,-1,-1,-1,-1,-1,-1,-1,-1,-1,-1,-1,-1,-1,-1,-1,-1,-1,-1],"loss_changes":[2.4485775E5,3.3783438E3,1.3323594E3,5.320079E3,1.5691406E2,3.8220856E1,1.7645312E2,1.2437167E2,4.6835547E2,1.0125807E3,2.7347656E1,1.0507412E0,0E0,0E0,0E0,2.5948486E0,2.0708917E2,2.1514736E1,2.2108887E1,8.12738E0,1.6765051E2,5.1967615E2,8.6484375E0,0E0,0E0,0E0,0E0,0E0,0E0,0E0,0E0,0E0,0E0,0E0,0E0,0E0,0E0,0E0,0E0,0E0,0E0],"parents":[2147483647,0,0,1,1,2,2,3,3,4,4,5,5,6,6,7,7,8,8,9,9,10,10,11,11,15,15,16,16,17,17,18,18,19,19,20,20,21,21,22,22],"right_children":[2,4,6,8,10,12,14,16,18,20,22,24,-1,-1,-1,26,28,30,32,34,36,38,40,-1,-1,-1,-1,-1,-1,-1,-1,-1,-1,-1,-1,-1,-1,-1,-1,-1,-1],"split_conditions":[5.565266E-1,-9.5745E-1,2.5181037E-1,-1.6463864E-1,-9.517436E-1,6.876543E-1,7.400268E-1,-4.8636308E-1,-2.1502776E-1,-1.5129499E-1,-9.3644565E-1,8.866158E-2,1.8418287E-1,-3.48162E-2,2.376616E-1,-6.037681E-1,9.795586E-2,-8.020323E-1,4.79688E-1,-2.4150556E-1,-2.7833635E-1,-1.0827877E-1,6.585527E-2,2.9029043E-3,-4.1105114E-2,-4.219564E-2,-7.29321E-3,2.2427794E-1,-3.995404E-2,1.175232E-1,-3.970941E-2,2.3744015E-1,-0E0,-4.191947E-2,1.5866812E-2,-3.537176E-2,2.3658888E-1,-4.1366983E-2,1.4258558E-1,-4.211102E-2,-3.7481453E-2],"split_indices":[16,41,56,5,41,36,38,6,12,5,41,18,0,0,0,6,14,33,39,5,12,5,22,0,0,0,0,0,0,0,0,0,0,0,0,0,0,0,0,0,0],"split_type":[0,0,0,0,0,0,0,0,0,0,0,0,0,0,0,0,0,0,0,0,0,0,0,0,0,0,0,0,0,0,0,0,0,0,0,0,0,0,0,0,0],"sum_hessian":[1.610812E5,1.3691347E5,2.4167729E4,2.2108643E3,1.3470261E5,1.1799844E2,2.404973E4,1.4039243E3,8.069399E2,9.7313947E2,1.3372947E5,1.1523238E2,2.7660642E0,1.4573608E1,2.4035156E4,1.3281945E3,7.5729805E1,4.7103672E1,7.5983624E2,8.4880096E2,1.24338486E2,2.2335503E3,1.3149592E5,2.2645462E0,1.12967834E2,1.3097916E3,1.8402834E1,2.8468214E1,4.7261593E1,3.7918768E0,4.3311794E1,7.5696454E2,2.87169E0,8.348186E2,1.3982367E1,1.590285E1,1.0843564E2,2.1328833E3,1.0066704E2,1.2859132E5,2.904599E3],"tree_param":{"num_deleted":"0","num_feature":"64","num_nodes":"41","size_leaf_vector":"1"}},{"base_weights":[-1.886251E-2,-5.5466866E-1,1.1646098E0,1.0160951E-2,-6.028898E-1,1.2689291E0,-6.2762994E-1,1.154025E0,-6.384272E-1,-6.1807626E-1,-2.028627E-1,1.2703801E0,-5.9887284E-1,-5.0301127E-2,6.036832E-1,1.020697E-1,-5.193009E-2,-5.114823E-2,-4.022046E-1,-6.222383E-1,-5.824242E-1,-6.232874E-1,1.2423298E0,1.2706021E0,-4.438856E-2,-4.95064E-2,1.1535488E-2,7.601814E-2,-1.2764497E-2,-4.9492363E-2,7.967958E-2,-5.0504856E-2,-4.9206704E-2,7.0026204E-2,-5.014599E-2,6.025732E-2,-5.008255E-2,1.0280159E-1,-3.5039645E-2,-3.3767365E-2,1.01654194E-1],"categories":[],"categories_nodes":[],"categories_segments":[],"categories_sizes":[],"default_left":[0,0,0,0,0,0,0,0,0,0,0,0,0,0,0,0,0,0,0,0,0,0,0,0,0,0,0,0,0,0,0,0,0,0,0,0,0,0,0,0,0],"id":45,"left_children":[1,3,5,7,9,11,13,15,17,19,21,23,25,-1,27,-1,-1,-1,29,31,33,35,37,39,-1,-1,-1,-1,-1,-1,-1,-1,-1,-1,-1,-1,-1,-1,-1,-1,-1],"loss_changes":[3.3768244E5,9.984172E3,3.1030719E4,2.1395664E4,2.0509922E3,4.2682812E2,1.3812012E1,2.294708E3,3.0722656E0,4.7242188E1,7.5107603E3,6.5171875E1,2.1020012E0,0E0,3.2875109E0,0E0,0E0,0E0,2.60633E1,1.7820312E1,2.2059785E3,3.7491455E1,2.0119043E2,2.128125E1,0E0,0E0,0E0,0E0,0E0,0E0,0E0,0E0,0E0,0E0,0E0,0E0,0E0,0E0,0E0,0E0,0E0],"parents":[2147483647,0,0,1,1,2,2,3,3,4,4,5,5,6,6,7,7,8,8,9,9,10,10,11,11,12,12,14,14,18,18,19,19,20,20,21,21,22,22,23,23],"right_children":[2,4,6,8,10,12,14,16,18,20,22,24,26,-1,28,-1,-1,-1,30,32,34,36,38,40,-1,-1,-1,-1,-1,-1,-1,-1,-1,-1,-1,-1,-1,-1,-1,-1,-1],"split_conditions":[1.6742218E-1,-2.1479554E-1,-1.0083658E-1,-1.1925923E-1,9.611216E-2,-1.0988562E-2,1.936209E-1,-1.7296124E-1,1.0559012E-1,4.2385635E-1,-1.18172005E-1,1.0552204E0,7.9522884E-1,-5.0301127E-2,2.4910197E-2,1.020697E-1,-5.193009E-2,-5.114823E-2,-9.878932E-2,-2.0914087E-1,-2.9153478E-1,-4.3352002E-1,3.7202865E-1,-7.8944117E-1,-4.438856E-2,-4.95064E-2,1.1535488E-2,7.601814E-2,-1.2764497E-2,-4.9492363E-2,7.967958E-2,-5.0504856E-2,-4.9206704E-2,7.0026204E-2,-5.014599E-2,6.025732E-2,-5.008255E-2,1.0280159E-1,-3.5039645E-2,-3.3767365E-2,1.01654194E-1],"split_indices":[50,52,0,29,50,52,15,0,50,33,15,15,33,0,0,0,0,0,1,60,29,0,26,1,0,0,0,0,0,0,0,0,0,0,0,0,0,0,0,0,0],"split_type":[0,0,0,0,0,0,0,0,0,0,0,0,0,0,0,0,0,0,0,0,0,0,0,0,0,0,0,0,0,0,0,0,0,0,0,0,0,0,0,0,0],"sum_hessian":[5.32522E5,3.6656472E5,1.659573E5,2.8832416E4,3.3773228E5,1.5682972E5,9.127591E3,1.0432553E4,1.8399863E4,3.2537744E5,1.2354857E4,1.5670889E5,1.2082943E2,9.120574E3,7.01598E0,9.773013E3,6.5953986E2,1.8322533E4,7.732942E1,2.9132194E5,3.405548E4,9.571788E3,2.78307E3,1.5669072E5,1.817092E1,1.1865002E2,2.1794136E0,4.938711E0,2.0772686E0,6.823837E1,9.091053E0,1.2833611E5,1.6298584E5,1.00517474E3,3.305031E4,1.7595592E1,9.554192E3,2.7148647E3,6.820529E1,6.181298E0,1.5668453E5],"tree_param":{"num_deleted":"0","num_feature":"64","num_nodes":"41","size_leaf_vector":"1"}},{"base_weights":[5.6235656E-2,-4.0744737E-2,3E0,-3.9537836E-2,2.4E-1],"categories":[],"categories_nodes":[],"categories_segments":[],"categories_sizes":[],"default_left":[0,0,0,0,0],"id":46,"left_children":[1,-1,3,-1,-1],"loss_changes":[1.5690322E5,0E0,1.2428438E3,0E0,0E0],"parents":[2147483647,0,0,2,2],"right_children":[2,-1,4,-1,-1],"split_conditions":[4.636365E-1,-4.0744737E-2,6.0211176E-1,-3.9537836E-2,2.4E-1],"split_indices":[15,0,51,0,0],"split_type":[0,0,0,0,0],"sum_hessian":[5.6388734E4,5.2419402E4,3.9693335E3,1.01103905E2,3.8682295E3],"tree_param":{"num_deleted":"0","num_feature":"64","num_nodes":"5","size_leaf_vector":"1"}},{"base_weights":[4.364045E-3,2.2789295E0,-5.254524E-1,-4.253344E-2,2.3040724E0,-5.279715E-1,1.4503695E0,1.8433265E-1,1.896923E-2,1.9212533E-3,-5.318496E-1,1.9898109E-1,-4.1717477E-2,-4.2679086E-2,1.8713625E-1,-5.332747E-1,-2.0614538E-1,-4.292647E-2,-3.935053E-2,2.4E-1,-4.2879112E-2],"categories":[],"categories_nodes":[],"categories_segments":[],"categories_sizes":[],"default_left":[0,0,0,0,0,0,0,0,0,0,0,0,0,0,0,0,0,0,0,0,0],"id":47,"left_children":[1,3,5,-1,7,9,11,-1,-1,13,15,-1,-1,-1,-1,17,19,-1,-1,-1,-1],"loss_changes":[2.6204444E5,2.9057969E3,8.800664E2,0E0,3.953125E0,3.6196484E2,4.641374E2,0E0,0E0,1.6090579E3,8.051172E1,0E0,0E0,0E0,0E0,2.3011719E1,8.621591E2,0E0,0E0,0E0,0E0],"parents":[2147483647,0,0,1,1,2,2,4,4,5,5,6,6,9,9,10,10,15,15,16,16],"right_children":[2,4,6,-1,8,10,12,-1,-1,14,16,-1,-1,-1,-1,18,20,-1,-1,-1,-1],"split_conditions":[-6.9351435E-1,8.148452E-1,1.8118463E0,-4.253344E-2,-5.0298953E-1,-8.0843174E-1,8.273417E-1,1.8433265E-1,1.896923E-2,4.3273818E-1,1.5852226E0,1.9898109E-1,-4.1717477E-2,-4.2679086E-2,1.8713625E-1,1.0389775E0,8.273417E-1,-4.292647E-2,-3.935053E-2,2.4E-1,-4.2879112E-2],"split_indices":[63,10,10,0,58,47,37,0,0,10,10,0,0,0,0,10,37,0,0,0,0],"split_type":[0,0,0,0,0,0,0,0,0,0,0,0,0,0,0,0,0,0,0,0,0],"sum_hessian":[2.1743881E5,4.1078453E4,1.7636036E5,3.63686E2,4.0714766E4,1.7613752E5,2.2285089E2,4.07126E4,2.1633072E0,1.2787933E3,1.7485872E5,1.4587373E2,7.697716E1,1.0415347E3,2.3725862E2,1.7409419E5,7.6454126E2,1.6118384E5,1.2910339E4,6.596223E1,6.9857904E2],"tree_param":{"num_deleted":"0","num_feature":"64","num_nodes":"21","size_leaf_vector":"1"}},{"base_weights":[4.305304E-2,-5.1166517E-1,3E0,-5.1447153E-1,-1.2106578E-2,-4.9462467E-1,3E0,-4.1187704E-2,-4.0714815E-1,-4.311808E-1,3E0,-4.0970277E-2,4.8347805E-2,3E0,-3.312627E-2,1.9742851E-1,-4.5887607E-1,2.4E-1,-4.8005396E-1,2.4E-1,-1.7117177E-1,-2.776588E-2,8.174983E-2,-3.081001E-1,3E0,-3.9728515E-2,1.5578039E-1,1.6894648E-2,-4.0365785E-2,6.912797E-2,-3.4983907E-2,1.44438585E-2,-3.397845E-2,4.221299E-2,2.4E-1],"categories":[],"categories_nodes":[],"categories_segments":[],"categories_sizes":[],"default_left":[0,0,0,0,0,0,0,0,0,0,0,0,0,0,0,0,0,0,0,0,0,0,0,0,0,0,0,0,0,0,0,0,0,0,0],"id":48,"left_children":[1,3,5,7,9,11,13,-1,15,17,19,-1,21,23,-1,-1,25,-1,27,-1,29,-1,-1,31,33,-1,-1,-1,-1,-1,-1,-1,-1,-1,-1],"loss_changes":[2.1223875E5,1.1708008E2,3.9354531E3,2.6289062E0,6.06628E2,3.1751022E0,2.9076562E2,0E0,4.8859493E1,7.968391E1,1.9199481E2,0E0,6.593131E0,1.8054688E2,0E0,0E0,3.0287155E1,0E0,7.3539505E0,0E0,7.2944326E0,0E0,0E0,1.4431572E0,4.6890625E1,0E0,0E0,0E0,0E0,0E0,0E0,0E0,0E0,0E0,0E0],"parents":[2147483647,0,0,1,1,2,2,3,3,4,4,5,5,6,6,8,8,9,9,10,10,12,12,13,13,16,16,18,18,20,20,23,23,24,24],"right_children":[2,4,6,8,10,12,14,-1,16,18,20,-1,22,24,-1,-1,26,-1,28,-1,30,-1,-1,32,34,-1,-1,-1,-1,-1,-1,-1,-1,-1,-1],"split_conditions":[7.3386914E-1,6.0642105E-1,2.3891062E-2,5.006095E-1,3.3527097E-1,5.755151E-2,-7.069656E-2,-4.1187704E-2,-8.909603E-1,-9.519477E-1,-5.87708E-1,-4.0970277E-2,-5.2638775E-1,-6.4240783E-1,-3.312627E-2,1.9742851E-1,3.3527097E-1,2.4E-1,-6.2974554E-1,2.4E-1,5.4999363E-1,-2.776588E-2,8.174983E-2,3.153704E-1,4.434587E-1,-3.9728515E-2,1.5578039E-1,1.6894648E-2,-4.0365785E-2,6.912797E-2,-3.4983907E-2,1.44438585E-2,-3.397845E-2,4.221299E-2,2.4E-1],"split_indices":[31,46,51,46,31,43,15,0,4,4,59,0,27,26,0,0,31,0,3,0,18,0,0,18,39,0,0,0,0,0,0,0,0,0,0],"split_type":[0,0,0,0,0,0,0,0,0,0,0,0,0,0,0,0,0,0,0,0,0,0,0,0,0,0,0,0,0,0,0,0,0,0,0],"sum_hessian":[9.4027234E4,8.387861E4,1.0148627E4,8.3408984E4,4.6962225E2,3.2156082E2,9.827065E3,8.310649E4,3.0248947E2,4.1447345E2,5.5148796E1,3.1252054E2,9.040262E0,9.802738E3,2.4327227E1,3.5243742E0,2.989651E2,3.5359616E0,4.109375E2,3.6433125E1,1.871567E1,6.9789624E0,2.0613E0,1.5977626E1,9.786761E3,2.9611673E2,2.8483706E0,1.2856603E1,3.980809E2,2.524055E0,1.6191616E1,2.0414455E0,1.393618E1,9.264868E0,9.777496E3],"tree_param":{"num_deleted":"0","num_feature":"64","num_nodes":"35","size_leaf_vector":"1"}},{"base_weights":[5.5594575E-2,-5.05717E-1,3E0,-5.081695E-1,3E0,2.4E-1,-3.998086E-2,-4.071082E-2,4.6287033E-1,-2.346049E-2,2.4E-1,2.4E-1,-3.729105E-2],"categories":[],"categories_nodes":[],"categories_segments":[],"categories_sizes":[],"default_left":[0,0,0,0,0,0,0,0,0,0,0,0,0],"id":49,"left_children":[1,3,5,7,9,-1,-1,-1,11,-1,-1,-1,-1],"loss_changes":[1.5404894E5,6.31208E2,1.7527656E3,3.6725586E1,5.99169E1,0E0,0E0,0E0,1.593511E2,0E0,0E0,0E0,0E0],"parents":[2147483647,0,0,1,1,2,2,3,3,4,4,8,8],"right_children":[2,4,6,8,10,-1,-1,-1,12,-1,-1,-1,-1],"split_conditions":[1.6661869E0,1.3873903E0,7.5259626E-1,1.2562205E0,2.2525111E-1,2.4E-1,-3.998086E-2,-4.071082E-2,-2.4341778E-1,-2.346049E-2,2.4E-1,2.4E-1,-3.729105E-2],"split_indices":[0,33,30,33,7,0,0,0,57,0,0,0,0],"split_type":[0,0,0,0,0,0,0,0,0,0,0,0,0],"sum_hessian":[5.5721395E4,5.1841215E4,3.8801807E3,5.1821527E4,1.96888E1,3.7377722E3,1.4240836E2,5.178482E4,3.6707024E1,5.018893E0,1.4669909E1,3.6867604E0,3.3020264E1],"tree_param":{"num_deleted":"0","num_feature":"64","num_nodes":"13","size_leaf_vector":"1"}},{"base_weights":[1.0872772E-2,-5.2458656E-1,2.5978806E0,-5.275163E-1,8.9370854E-2,2.6139827E0,-4.1683998E-2,-4.1609964E-1,-5.3053844E-1,2.7134864E0,-5.107918E-1,-2.79885E-2,2.614624E0,3E0,-4.9729875E-1,-4.2500246E-2,-4.8248482E-1,2.1950851E-1,3.336047E-2,7.621007E-2,-5.2260125E-1,2.6152506E0,-2.4403038E-3,2.4E-1,-2.1005556E-2,-4.0631752E-2,1.5909494E-1,1.8207958E-1,-4.2343248E-2,-4.228587E-2,-0E0,2.4E-1,2.0883335E-1,-2.6818879E-2,3.9045453E-2],"categories":[],"categories_nodes":[],"categories_segments":[],"categories_sizes":[],"default_left":[0,0,0,0,0,0,0,0,0,0,0,0,0,0,0,0,0,0,0,0,0,0,0,0,0,0,0,0,0,0,0,0,0,0,0],"id":50,"left_children":[1,3,5,7,9,11,-1,13,15,17,19,-1,21,23,25,-1,27,-1,-1,-1,29,31,33,-1,-1,-1,-1,-1,-1,-1,-1,-1,-1,-1,-1],"loss_changes":[2.5904719E5,2.7882812E2,1.6135312E3,5.1160156E1,1.1672275E3,6.2625E1,0E0,1.142502E3,4.3515625E0,4.8188477E0,1.1878342E1,0E0,5.23125E1,4.442108E1,1.0823657E2,0E0,2.917743E2,0E0,0E0,0E0,1.7887115E0,5.2109375E1,2.6120403E0,0E0,0E0,0E0,0E0,0E0,0E0,0E0,0E0,0E0,0E0,0E0,0E0],"parents":[2147483647,0,0,1,1,2,2,3,3,4,4,5,5,7,7,8,8,9,9,10,10,12,12,13,13,14,14,16,16,20,20,21,21,22,22],"right_children":[2,4,6,8,10,12,-1,14,16,18,20,-1,22,24,26,-1,28,-1,-1,-1,30,32,34,-1,-1,-1,-1,-1,-1,-1,-1,-1,-1,-1,-1],"split_conditions":[9.2441195E-1,4.982137E-1,3.851316E-1,-8.9812714E-1,-5.4057336E-1,-1.2819621E-1,-4.1683998E-2,4.1320896E-1,1.6698046E-1,2.3112833E-1,-7.2287184E-1,-2.79885E-2,-2.593834E-1,7.697546E-1,-3.3230996E-1,-4.2500246E-2,-6.263193E-1,2.1950851E-1,3.336047E-2,7.621007E-2,2.1873174E0,5.4387885E-1,2.1166536E-1,2.4E-1,-2.1005556E-2,-4.0631752E-2,1.5909494E-1,1.8207958E-1,-4.2343248E-2,-4.228587E-2,-0E0,2.4E-1,2.0883335E-1,-2.6818879E-2,3.9045453E-2],"split_indices":[41,41,13,38,9,17,0,20,57,11,56,0,5,36,41,0,9,0,0,0,7,58,44,0,0,0,0,0,0,0,0,0,0,0,0],"split_type":[0,0,0,0,0,0,0,0,0,0,0,0,0,0,0,0,0,0,0,0,0,0,0,0,0,0,0,0,0,0,0,0,0,0,0],"sum_hessian":[1.8699867E5,1.5493217E5,3.2066488E4,1.5419745E5,7.34724E2,3.1902271E4,1.6421696E2,4.083753E3,1.501137E5,1.3560469E2,5.991193E2,6.4967904E0,3.1895773E4,9.26292E1,3.9911235E3,1.4788388E5,2.2298198E3,1.3323537E2,2.3693216E0,3.1816316E0,5.959377E2,3.188833E4,7.4436746E0,8.893056E1,3.6986482E0,3.975966E3,1.5157643E1,3.5436733E1,2.194383E3,5.8981824E2,6.1194468E0,3.1593744E2,3.1572393E4,5.4192977E0,2.0243766E0],"tree_param":{"num_deleted":"0","num_feature":"64","num_nodes":"35","size_leaf_vector":"1"}},{"base_weights":[-1.499126E-2,1.6429548E0,-5.6665003E-1,-4.4860702E-2,1.3173643E-1,-5.62954E-1,-4.5689654E-2,1.3112189E0,-5.636407E-1,1.4488573E-1,-3.5978526E-2,-5.636837E-1,1.8140611E-1,-2.5009867E-2,-4.510143E-2,-2.790521E-2,9.3364686E-2],"categories":[],"categories_nodes":[],"categories_segments":[],"categories_sizes":[],"default_left":[0,0,0,0,0,0,0,0,0,0,0,0,0,0,0,0,0],"id":51,"left_children":[1,3,5,-1,-1,7,-1,9,11,-1,-1,13,15,-1,-1,-1,-1],"loss_changes":[3.259486E5,7.3753125E2,3.5E0,0E0,0E0,1.9079297E2,0E0,5.0157425E1,4.984375E0,0E0,0E0,2.34375E0,7.319823E0,0E0,0E0,0E0,0E0],"parents":[2147483647,0,0,1,1,2,2,5,5,7,7,8,8,11,11,12,12],"right_children":[2,4,6,-1,-1,8,-1,10,12,-1,-1,14,16,-1,-1,-1,-1],"split_conditions":[-8.923174E-1,-8.4539E-1,8.4367526E-1,-4.4860702E-2,1.3173643E-1,-6.8300915E-1,-4.5689654E-2,2.3160154E-1,3.3338016E-1,1.4488573E-1,-3.5978526E-2,-6.21333E-1,-2.7954698E-1,-2.5009867E-2,-4.510143E-2,-2.790521E-2,9.3364686E-2],"split_indices":[12,11,45,0,0,18,0,35,28,0,0,18,8,0,0,0,0],"split_type":[0,0,0,0,0,0,0,0,0,0,0,0,0,0,0,0,0],"sum_hessian":[3.5636997E5,8.897154E4,2.6739844E5,1.504331E2,8.88211E4,1.4658061E5,1.2081783E5,5.2025135E1,1.4652858E5,4.0699448E1,1.1325688E1,1.465213E5,7.285557E0,5.363229E1,1.4646766E5,5.247602E0,2.0379548E0],"tree_param":{"num_deleted":"0","num_feature":"64","num_nodes":"17","size_leaf_vector":"1"}},{"base_weights":[2.5149308E-2,-5.163067E-1,2.4E-1,-5.2460307E-1,8.429938E-1,7.442393E-1,-4.197338E-2,-1.51407E-1,2.1744628E0,-1.6472774E-2,1.3093518E-1,6.0536635E-1,-4.7781557E-1,2.790307E0,3.9592206E-1,-3.9049488E-2,2.3120283E-1,1.5850675E-1,-4.0826797E-2,2.4E-1,-3.0647283E-2,-2.853118E-2,2.028482E-1],"categories":[],"categories_nodes":[],"categories_segments":[],"categories_sizes":[],"default_left":[0,0,0,0,0,0,0,0,0,0,0,0,0,0,0,0,0,0,0,0,0,0,0],"id":52,"left_children":[1,3,-1,5,7,9,-1,11,13,-1,-1,15,17,19,21,-1,-1,-1,-1,-1,-1,-1,-1],"loss_changes":[2.5433188E5,1.4299688E3,0E0,1.140625E1,1.02078937E3,7.8854485E0,0E0,1.1051049E2,3.5657324E2,0E0,0E0,3.4016574E2,2.7873833E1,2.2015588E2,1.4558069E2,0E0,0E0,0E0,0E0,0E0,0E0,0E0,0E0],"parents":[2147483647,0,0,1,1,3,3,4,4,5,5,7,7,8,8,11,11,12,12,13,13,14,14],"right_children":[2,4,-1,6,8,10,-1,12,14,-1,-1,16,18,20,22,-1,-1,-1,-1,-1,-1,-1,-1],"split_conditions":[1.5795196E0,3.7882015E-2,2.4E-1,-8.7693435E-1,3.8361555E-1,-2.5313812E-1,-4.197338E-2,7.531856E-1,-3.1976882E-1,-1.6472774E-2,1.3093518E-1,1.3186833E0,-4.1590482E-1,8.867657E-1,1.5157233E0,-3.9049488E-2,2.3120283E-1,1.5850675E-1,-4.0826797E-2,2.4E-1,-3.0647283E-2,-2.853118E-2,2.028482E-1],"split_indices":[19,19,0,9,11,32,0,47,36,0,0,30,43,37,30,0,0,0,0,0,0,0,0],"split_type":[0,0,0,0,0,0,0,0,0,0,0,0,0,0,0,0,0,0,0,0,0,0,0],"sum_hessian":[1.4825488E5,1.2668236E5,2.1572516E4,1.2591544E5,7.669179E2,4.804324E0,1.2591063E5,4.398301E2,3.270878E2,2.8007727E0,2.0035515E0,1.3156276E2,3.0826733E2,2.4190573E2,8.5182076E1,8.9892426E1,4.167033E1,2.2583406E0,3.06009E2,2.223525E2,1.9553247E1,6.40778E1,2.110428E1],"tree_param":{"num_deleted":"0","num_feature":"64","num_nodes":"23","size_leaf_vector":"1"}},{"base_weights":[-1.8655643E-2,-6.115803E-1,1.3246394E0,-6.059303E-1,-6.186683E-1,1.3286623E0,-4.958294E-1,-4.8307315E-2,-4.9090695E-2,-4.930055E-2,-5.009316E-2,1.3287915E0,-3.8838647E-2,-4.8037056E-2,9.87206E-2,-2.6398866E-2,1.0630696E-1],"categories":[],"categories_nodes":[],"categories_segments":[],"categories_sizes":[],"default_left":[0,0,0,0,0,0,0,0,0,0,0,0,0,0,0,0,0],"id":53,"left_children":[1,3,5,7,9,11,13,-1,-1,-1,-1,15,-1,-1,-1,-1,-1],"loss_changes":[3.9905222E5,1.28828125E1,1.1252188E3,2.078125E0,1.703125E0,3.740625E1,6.370098E1,0E0,0E0,0E0,0E0,1.259375E1,0E0,0E0,0E0,0E0,0E0],"parents":[2147483647,0,0,1,1,2,2,3,3,4,4,5,5,6,6,11,11],"right_children":[2,4,6,8,10,12,14,-1,-1,-1,-1,16,-1,-1,-1,-1,-1],"split_conditions":[2.7722612E-1,7.5856996E-1,1.0559012E-1,1.4495918E-1,2.2183777E-1,1.075933E0,6.6733605E-1,-4.8307315E-2,-4.9090695E-2,-4.930055E-2,-5.009316E-2,1.5234739E-1,-3.8838647E-2,-4.8037056E-2,9.87206E-2,-2.6398866E-2,1.0630696E-1],"split_indices":[4,7,50,20,25,11,4,0,0,0,0,13,0,0,0,0,0],"split_type":[0,0,0,0,0,0,0,0,0,0,0,0,0,0,0,0,0],"sum_hessian":[5.0101834E5,3.4759353E5,1.5342483E5,1.9355136E5,1.5404216E5,1.5308734E5,3.374767E2,1.5243948E5,4.1111867E4,1.167262E5,3.7315957E4,1.5307727E5,1.0086637E1,3.197317E2,1.7745016E1,3.5001612E0,1.5307377E5],"tree_param":{"num_deleted":"0","num_feature":"64","num_nodes":"17","size_leaf_vector":"1"}},{"base_weights":[2.3194253E-2,3E0,-4.8122782E-1,-4.0064752E-2,2.4E-1,-5.14524E-1,1.303093E0,-5.182271E-1,2.2372785E0,-4.996785E-1,2.9886806E0,-5.243689E-1,-1.6047956E-1,2.4E-1,-3.9165314E-2,2.1347374E-1,-5.188872E-1,2.4E-1,-3.858373E-2,-4.1968264E-2,1.9412902E-1,2.4E-1,-4.2114284E-2,-4.2157266E-2,1.4686725E-2],"categories":[],"categories_nodes":[],"categories_segments":[],"categories_sizes":[],"default_left":[0,0,0,0,0,0,0,0,0,0,0,0,0,0,0,0,0,0,0,0,0,0,0,0,0],"id":54,"left_children":[1,3,5,-1,-1,7,9,11,13,15,17,19,21,-1,-1,-1,23,-1,-1,-1,-1,-1,-1,-1,-1],"loss_changes":[2.3842044E5,7.8065625E2,7.956172E3,0E0,0E0,1.3427617E3,7.459277E3,2.8778906E2,3.8206482E2,7.6354614E1,3.9626367E2,9.304297E1,2.6490066E3,0E0,0E0,0E0,7.0022583E0,0E0,0E0,0E0,0E0,0E0,0E0,0E0,0E0],"parents":[2147483647,0,0,1,1,2,2,5,5,6,6,7,7,8,8,9,9,10,10,11,11,12,12,16,16],"right_children":[2,4,6,-1,-1,8,10,12,14,16,18,20,22,-1,-1,-1,24,-1,-1,-1,-1,-1,-1,-1,-1],"split_conditions":[-7.250405E-1,-9.67683E-1,1.4388292E-1,-4.0064752E-2,2.4E-1,1.7036905E0,5.5905706E-1,7.442906E-1,2.186516E-1,-2.4398923E-1,3.8353547E-1,5.6303203E-1,6.584512E-2,2.4E-1,-3.9165314E-2,2.1347374E-1,4.455602E-1,2.4E-1,-3.858373E-2,-4.1968264E-2,1.9412902E-1,2.4E-1,-4.2114284E-2,-4.2157266E-2,1.4686725E-2],"split_indices":[23,2,43,0,0,44,35,35,10,10,10,28,10,0,0,0,35,0,0,0,0,0,0,0,0],"split_type":[0,0,0,0,0,0,0,0,0,0,0,0,0,0,0,0,0,0,0,0,0,0,0,0,0],"sum_hessian":[1.5619155E5,2.2310531E4,1.3388102E5,6.3002922E1,2.2247527E4,1.3143017E5,2.4508389E3,1.3125534E5,1.7482523E2,1.1847908E3,1.2660481E3,1.2903772E5,2.21763E3,1.3578104E2,3.9044197E1,5.3210735E0,1.1794696E3,1.2340374E3,3.2010666E1,1.2902927E5,8.438199E0,2.223328E2,1.9952972E3,1.1672573E3,1.2212348E1],"tree_param":{"num_deleted":"0","num_feature":"64","num_nodes":"25","size_leaf_vector":"1"}},{"base_weights":[1.9792724E-2,-5.210456E-1,2.324417E0,-5.2427065E-1,1.20205626E-1,2.360209E0,-4.2167303E-1,-4.167517E-1,-4.1978884E-2,2.3041039E0,-5.08245E-1,2.361457E0,-2.0436426E-1,1.6147141E-1,-4.1086886E-2,-4.1992225E-2,1.929168E-1,1.9586946E-1,-2.871007E-2,4.8318735E-1,-5.191157E-1,2.3618286E0,-2.1368988E-2,4.243679E-2,-3.344235E-2,1.2841021E0,-3.8755752E-2,7.904395E-2,-1.1192304E-2,2.5732508E-3,-4.1817427E-2,1.889659E-1,-1.493248E-2,-1.4521217E-2,1.7749824E-1],"categories":[],"categories_nodes":[],"categories_segments":[],"categories_sizes":[],"default_left":[0,0,0,0,0,0,0,0,0,0,0,0,0,0,0,0,0,0,0,0,0,0,0,0,0,0,0,0,0,0,0,0,0,0,0],"id":55,"left_children":[1,3,5,7,9,11,13,15,-1,17,19,21,23,25,-1,-1,-1,-1,-1,27,29,31,-1,-1,-1,33,-1,-1,-1,-1,-1,-1,-1,-1,-1],"loss_changes":[1.9937072E5,2.6810547E2,2.9904219E3,5.6953125E0,8.96769E2,9.7109375E1,2.1431229E1,1.7823036E2,0E0,5.8085693E1,6.207901E0,3.06875E1,3.5794144E0,4.2505436E1,0E0,0E0,0E0,0E0,0E0,2.9973786E0,1.0510101E0,1.971875E1,0E0,0E0,0E0,3.0574306E1,0E0,0E0,0E0,0E0,0E0,0E0,0E0,0E0,0E0],"parents":[2147483647,0,0,1,1,2,2,3,3,4,4,5,5,6,6,7,7,9,9,10,10,11,11,12,12,13,13,19,19,20,20,21,21,25,25],"right_children":[2,4,6,8,10,12,14,16,-1,18,20,22,24,26,-1,-1,-1,-1,-1,28,30,32,-1,-1,-1,34,-1,-1,-1,-1,-1,-1,-1,-1,-1],"split_conditions":[5.163999E-1,3.1352264E-1,6.817632E-1,-8.837785E-1,-6.1809987E-2,9.611216E-2,9.928978E-1,-5.715903E-1,-4.1978884E-2,-6.669054E-1,-9.341205E-1,5.7639873E-1,-1.0720022E-1,-4.300946E-2,-4.1086886E-2,-4.1992225E-2,1.929168E-1,1.9586946E-1,-2.871007E-2,1.5220836E-1,-8.789864E-1,9.155115E-1,-2.1368988E-2,4.243679E-2,-3.344235E-2,9.970724E-1,-3.8755752E-2,7.904395E-2,-1.1192304E-2,2.5732508E-3,-4.1817427E-2,1.889659E-1,-1.493248E-2,-1.4521217E-2,1.7749824E-1],"split_indices":[21,21,51,33,18,50,51,16,0,2,37,39,32,50,0,0,0,0,0,18,60,11,0,0,0,38,0,0,0,0,0,0,0,0,0],"split_type":[0,0,0,0,0,0,0,0,0,0,0,0,0,0,0,0,0,0,0,0,0,0,0,0,0,0,0,0,0,0,0,0,0,0,0],"sum_hessian":[1.5994656E5,1.2954653E5,3.0400037E4,1.28899414E5,6.4711835E2,3.0009363E4,3.906737E2,5.6794275E2,1.2833147E5,1.4359193E2,5.0352643E2,2.9995121E4,1.4242604E1,5.224576E1,3.3842795E2,5.4876355E2,1.9179178E1,1.3654376E2,7.0481825E0,4.0197725E0,4.9950665E2,2.9991277E4,3.8446283E0,2.013263E0,1.22293415E1,1.8642473E1,3.360329E1,2.0167222E0,2.00305E0,2.2386618E0,4.97268E2,2.9988732E4,2.5446906E0,7.678372E0,1.0964101E1],"tree_param":{"num_deleted":"0","num_feature":"64","num_nodes":"35","size_leaf_vector":"1"}},{"base_weights":[-1.8379876E-2,-5.613362E-1,1.0419452E0,1.1298397E0,-5.940094E-1,1.1651374E0,-6.147138E-1,9.330107E-2,-4.9032487E-2,-4.0898374E-1,-6.1575794E-1,9.327583E-2,-4.7961935E-2,2.6050795E-2,-6.196138E-1,1.1876534E0,-6.1473936E-1,-6.245271E-1,-6.083758E-1,9.036124E-2,-4.9005773E-2,9.138265E-4,-4.95815E-2,