{"learner":{"attributes":{"best_iteration":"276","best_score":"0.0004907642662201","scikit_learn":"{\"_estimator_type\": \"classifier\"}"},"feature_names":[],"feature_types":[],"gradient_booster":{"model":{"cats":{"enc":[],"feature_segments":[],"sorted_idx":[]},"gbtree_model_param":{"num_parallel_tree":"1","num_trees":"4901"},"iteration_indptr":[0,13,26,39,52,65,78,91,104,117,130,143,156,169,182,195,208,221,234,247,260,273,286,299,312,325,338,351,364,377,390,403,416,429,442,455,468,481,494,507,520,533,546,559,572,585,598,611,624,637,650,663,676,689,702,715,728,741,754,767,780,793,806,819,832,845,858,871,884,897,910,923,936,949,962,975,988,1001,1014,1027,1040,1053,1066,1079,1092,1105,1118,1131,1144,1157,1170,1183,1196,1209,1222,1235,1248,1261,1274,1287,1300,1313,1326,1339,1352,1365,1378,1391,1404,1417,1430,1443,1456,1469,1482,1495,1508,1521,1534,1547,1560,1573,1586,1599,1612,1625,1638,1651,1664,1677,1690,1703,1716,1729,1742,1755,1768,1781,1794,1807,1820,1833,1846,1859,1872,1885,1898,1911,1924,1937,1950,1963,1976,1989,2002,2015,2028,2041,2054,2067,2080,2093,2106,2119,2132,2145,2158,2171,2184,2197,2210,2223,2236,2249,2262,2275,2288,2301,2314,2327,2340,2353,2366,2379,2392,2405,2418,2431,2444,2457,2470,2483,2496,2509,2522,2535,2548,2561,2574,2587,2600,2613,2626,2639,2652,2665,2678,2691,2704,2717,2730,2743,2756,2769,2782,2795,2808,2821,2834,2847,2860,2873,2886,2899,2912,2925,2938,2951,2964,2977,2990,3003,3016,3029,3042,3055,3068,3081,3094,3107,3120,3133,3146,3159,3172,3185,3198,3211,3224,3237,3250,3263,3276,3289,3302,3315,3328,3341,3354,3367,3380,3393,3406,3419,3432,3445,3458,3471,3484,3497,3510,3523,3536,3549,3562,3575,3588,3601,3614,3627,3640,3653,3666,3679,3692,3705,3718,3731,3744,3757,3770,3783,3796,3809,3822,3835,3848,3861,3874,3887,3900,3913,3926,3939,3952,3965,3978,3991,4004,4017,4030,4043,4056,4069,4082,4095,4108,4121,4134,4147,4160,4173,4186,4199,4212,4225,4238,4251,4264,4277,4290,4303,4316,4329,4342,4355,4368,4381,4394,4407,4420,4433,4446,4459,4472,4485,4498,4511,4524,4537,4550,4563,4576,4589,4602,4615,4628,4641,4654,4667,4680,4693,4706,4719,4732,4745,4758,4771,4784,4797,4810,4823,4836,4849,4862,4875,4888,4901],"tree_info":[0,1,2,3,4,5,6,7,8,9,10,11,12,0,1,2,3,4,5,6,7,8,9,10,11,12,0,1,2,3,4,5,6,7,8,9,10,11,12,0,1,2,3,4,5,6,7,8,9,10,11,12,0,1,2,3,4,5,6,7,8,9,10,11,12,0,1,2,3,4,5,6,7,8,9,10,11,12,0,1,2,3,4,5,6,7,8,9,10,11,12,0,1,2,3,4,5,6,7,8,9,10,11,12,0,1,2,3,4,5,6,7,8,9,10,11,12,0,1,2,3,4,5,6,7,8,9,10,11,12,0,1,2,3,4,5,6,7,8,9,10,11,12,0,1,2,3,4,5,6,7,8,9,10,11,12,0,1,2,3,4,5,6,7,8,9,10,11,12,0,1,2,3,4,5,6,7,8,9,10,11,12,0,1,2,3,4,5,6,7,8,9,10,11,12,0,1,2,3,4,5,6,7,8,9,10,11,12,0,1,2,3,4,5,6,7,8,9,10,11,12,0,1,2,3,4,5,6,7,8,9,10,11,12,0,1,2,3,4,5,6,7,8,9,10,11,12,0,1,2,3,4,5,6,7,8,9,10,11,12,0,1,2,3,4,5,6,7,8,9,10,11,12,0,1,2,3,4,5,6,7,8,9,10,11,12,0,1,2,3,4,5,6,7,8,9,10,11,12,0,1,2,3,4,5,6,7,8,9,10,11,12,0,1,2,3,4,5,6,7,8,9,10,11,12,0,1,2,3,4,5,6,7,8,9,10,11,12,0,1,2,3,4,5,6,7,8,9,10,11,12,0,1,2,3,4,5,6,7,8,9,10,11,12,0,1,2,3,4,5,6,7,8,9,10,11,12,0,1,2,3,4,5,6,7,8,9,10,11,12,0,1,2,3,4,5,6,7,8,9,10,11,12,0,1,2,3,4,5,6,7,8,9,10,11,12,0,1,2,3,4,5,6,7,8,9,10,11,12,0,1,2,3,4,5,6,7,8,9,10,11,12,0,1,2,3,4,5,6,7,8,9,10,11,12,0,1,2,3,4,5,6,7,8,9,10,11,12,0,1,2,3,4,5,6,7,8,9,10,11,12,0,1,2,3,4,5,6,7,8,9,10,11,12,0,1,2,3,4,5,6,7,8,9,10,11,12,0,1,2,3,4,5,6,7,8,9,10,11,12,0,1,2,3,4,5,6,7,8,9,10,11,12,0,1,2,3,4,5,6,7,8,9,10,11,12,0,1,2,3,4,5,6,7,8,9,10,11,12,0,1,2,3,4,5,6,7,8,9,10,11,12,0,1,2,3,4,5,6,7,8,9,10,11,12,0,1,2,3,4,5,6,7,8,9,10,11,12,0,1,2,3,4,5,6,7,8,9,10,11,12,0,1,2,3,4,5,6,7,8,9,10,11,12,0,1,2,3,4,5,6,7,8,9,10,11,12,0,1,2,3,4,5,6,7,8,9,10,11,12,0,1,2,3,4,5,6,7,8,9,10,11,12,0,1,2,3,4,5,6,7,8,9,10,11,12,0,1,2,3,4,5,6,7,8,9,10,11,12,0,1,2,3,4,5,6,7,8,9,10,11,12,0,1,2,3,4,5,6,7,8,9,10,11,12,0,1,2,3,4,5,6,7,8,9,10,11,12,0,1,2,3,4,5,6,7,8,9,10,11,12,0,1,2,3,4,5,6,7,8,9,10,11,12,0,1,2,3,4,5,6,7,8,9,10,11,12,0,1,2,3,4,5,6,7,8,9,10,11,12,0,1,2,3,4,5,6,7,8,9,10,11,12,0,1,2,3,4,5,6,7,8,9,10,11,12,0,1,2,3,4,5,6,7,8,9,10,11,12,0,1,2,3,4,5,6,7,8,9,10,11,12,0,1,2,3,4,5,6,7,8,9,10,11,12,0,1,2,3,4,5,6,7,8,9,10,11,12,0,1,2,3,4,5,6,7,8,9,10,11,12,0,1,2,3,4,5,6,7,8,9,10,11,12,0,1,2,3,4,5,6,7,8,9,10,11,12,0,1,2,3,4,5,6,7,8,9,10,11,12,0,1,2,3,4,5,6,7,8,9,10,11,12,0,1,2,3,4,5,6,7,8,9,10,11,12,0,1,2,3,4,5,6,7,8,9,10,11,12,0,1,2,3,4,5,6,7,8,9,10,11,12,0,1,2,3,4,5,6,7,8,9,10,11,12,0,1,2,3,4,5,6,7,8,9,10,11,12,0,1,2,3,4,5,6,7,8,9,10,11,12,0,1,2,3,4,5,6,7,8,9,10,11,12,0,1,2,3,4,5,6,7,8,9,10,11,12,0,1,2,3,4,5,6,7,8,9,10,11,12,0,1,2,3,4,5,6,7,8,9,10,11,12,0,1,2,3,4,5,6,7,8,9,10,11,12,0,1,2,3,4,5,6,7,8,9,10,11,12,0,1,2,3,4,5,6,7,8,9,10,11,12,0,1,2,3,4,5,6,7,8,9,10,11,12,0,1,2,3,4,5,6,7,8,9,10,11,12,0,1,2,3,4,5,6,7,8,9,10,11,12,0,1,2,3,4,5,6,7,8,9,10,11,12,0,1,2,3,4,5,6,7,8,9,10,11,12,0,1,2,3,4,5,6,7,8,9,10,11,12,0,1,2,3,4,5,6,7,8,9,10,11,12,0,1,2,3,4,5,6,7,8,9,10,11,12,0,1,2,3,4,5,6,7,8,9,10,11,12,0,1,2,3,4,5,6,7,8,9,10,11,12,0,1,2,3,4,5,6,7,8,9,10,11,12,0,1,2,3,4,5,6,7,8,9,10,11,12,0,1,2,3,4,5,6,7,8,9,10,11,12,0,1,2,3,4,5,6,7,8,9,10,11,12,0,1,2,3,4,5,6,7,8,9,10,11,12,0,1,2,3,4,5,6,7,8,9,10,11,12,0,1,2,3,4,5,6,7,8,9,10,11,12,0,1,2,3,4,5,6,7,8,9,10,11,12,0,1,2,3,4,5,6,7,8,9,10,11,12,0,1,2,3,4,5,6,7,8,9,10,11,12,0,1,2,3,4,5,6,7,8,9,10,11,12,0,1,2,3,4,5,6,7,8,9,10,11,12,0,1,2,3,4,5,6,7,8,9,10,11,12,0,1,2,3,4,5,6,7,8,9,10,11,12,0,1,2,3,4,5,6,7,8,9,10,11,12,0,1,2,3,4,5,6,7,8,9,10,11,12,0,1,2,3,4,5,6,7,8,9,10,11,12,0,1,2,3,4,5,6,7,8,9,10,11,12,0,1,2,3,4,5,6,7,8,9,10,11,12,0,1,2,3,4,5,6,7,8,9,10,11,12,0,1,2,3,4,5,6,7,8,9,10,11,12,0,1,2,3,4,5,6,7,8,9,10,11,12,0,1,2,3,4,5,6,7,8,9,10,11,12,0,1,2,3,4,5,6,7,8,9,10,11,12,0,1,2,3,4,5,6,7,8,9,10,11,12,0,1,2,3,4,5,6,7,8,9,10,11,12,0,1,2,3,4,5,6,7,8,9,10,11,12,0,1,2,3,4,5,6,7,8,9,10,11,12,0,1,2,3,4,5,6,7,8,9,10,11,12,0,1,2,3,4,5,6,7,8,9,10,11,12,0,1,2,3,4,5,6,7,8,9,10,11,12,0,1,2,3,4,5,6,7,8,9,10,11,12,0,1,2,3,4,5,6,7,8,9,10,11,12,0,1,2,3,4,5,6,7,8,9,10,11,12,0,1,2,3,4,5,6,7,8,9,10,11,12,0,1,2,3,4,5,6,7,8,9,10,11,12,0,1,2,3,4,5,6,7,8,9,10,11,12,0,1,2,3,4,5,6,7,8,9,10,11,12,0,1,2,3,4,5,6,7,8,9,10,11,12,0,1,2,3,4,5,6,7,8,9,10,11,12,0,1,2,3,4,5,6,7,8,9,10,11,12,0,1,2,3,4,5,6,7,8,9,10,11,12,0,1,2,3,4,5,6,7,8,9,10,11,12,0,1,2,3,4,5,6,7,8,9,10,11,12,0,1,2,3,4,5,6,7,8,9,10,11,12,0,1,2,3,4,5,6,7,8,9,10,11,12,0,1,2,3,4,5,6,7,8,9,10,11,12,0,1,2,3,4,5,6,7,8,9,10,11,12,0,1,2,3,4,5,6,7,8,9,10,11,12,0,1,2,3,4,5,6,7,8,9,10,11,12,0,1,2,3,4,5,6,7,8,9,10,11,12,0,1,2,3,4,5,6,7,8,9,10,11,12,0,1,2,3,4,5,6,7,8,9,10,11,12,0,1,2,3,4,5,6,7,8,9,10,11,12,0,1,2,3,4,5,6,7,8,9,10,11,12,0,1,2,3,4,5,6,7,8,9,10,11,12,0,1,2,3,4,5,6,7,8,9,10,11,12,0,1,2,3,4,5,6,7,8,9,10,11,12,0,1,2,3,4,5,6,7,8,9,10,11,12,0,1,2,3,4,5,6,7,8,9,10,11,12,0,1,2,3,4,5,6,7,8,9,10,11,12,0,1,2,3,4,5,6,7,8,9,10,11,12,0,1,2,3,4,5,6,7,8,9,10,11,12,0,1,2,3,4,5,6,7,8,9,10,11,12,0,1,2,3,4,5,6,7,8,9,10,11,12,0,1,2,3,4,5,6,7,8,9,10,11,12,0,1,2,3,4,5,6,7,8,9,10,11,12,0,1,2,3,4,5,6,7,8,9,10,11,12,0,1,2,3,4,5,6,7,8,9,10,11,12,0,1,2,3,4,5,6,7,8,9,10,11,12,0,1,2,3,4,5,6,7,8,9,10,11,12,0,1,2,3,4,5,6,7,8,9,10,11,12,0,1,2,3,4,5,6,7,8,9,10,11,12,0,1,2,3,4,5,6,7,8,9,10,11,12,0,1,2,3,4,5,6,7,8,9,10,11,12,0,1,2,3,4,5,6,7,8,9,10,11,12,0,1,2,3,4,5,6,7,8,9,10,11,12,0,1,2,3,4,5,6,7,8,9,10,11,12,0,1,2,3,4,5,6,7,8,9,10,11,12,0,1,2,3,4,5,6,7,8,9,10,11,12,0,1,2,3,4,5,6,7,8,9,10,11,12,0,1,2,3,4,5,6,7,8,9,10,11,12,0,1,2,3,4,5,6,7,8,9,10,11,12,0,1,2,3,4,5,6,7,8,9,10,11,12,0,1,2,3,4,5,6,7,8,9,10,11,12,0,1,2,3,4,5,6,7,8,9,10,11,12,0,1,2,3,4,5,6,7,8,9,10,11,12,0,1,2,3,4,5,6,7,8,9,10,11,12,0,1,2,3,4,5,6,7,8,9,10,11,12,0,1,2,3,4,5,6,7,8,9,10,11,12,0,1,2,3,4,5,6,7,8,9,10,11,12,0,1,2,3,4,5,6,7,8,9,10,11,12,0,1,2,3,4,5,6,7,8,9,10,11,12,0,1,2,3,4,5,6,7,8,9,10,11,12,0,1,2,3,4,5,6,7,8,9,10,11,12,0,1,2,3,4,5,6,7,8,9,10,11,12,0,1,2,3,4,5,6,7,8,9,10,11,12,0,1,2,3,4,5,6,7,8,9,10,11,12,0,1,2,3,4,5,6,7,8,9,10,11,12,0,1,2,3,4,5,6,7,8,9,10,11,12,0,1,2,3,4,5,6,7,8,9,10,11,12,0,1,2,3,4,5,6,7,8,9,10,11,12,0,1,2,3,4,5,6,7,8,9,10,11,12,0,1,2,3,4,5,6,7,8,9,10,11,12,0,1,2,3,4,5,6,7,8,9,10,11,12,0,1,2,3,4,5,6,7,8,9,10,11,12,0,1,2,3,4,5,6,7,8,9,10,11,12,0,1,2,3,4,5,6,7,8,9,10,11,12,0,1,2,3,4,5,6,7,8,9,10,11,12,0,1,2,3,4,5,6,7,8,9,10,11,12,0,1,2,3,4,5,6,7,8,9,10,11,12,0,1,2,3,4,5,6,7,8,9,10,11,12,0,1,2,3,4,5,6,7,8,9,10,11,12,0,1,2,3,4,5,6,7,8,9,10,11,12,0,1,2,3,4,5,6,7,8,9,10,11,12,0,1,2,3,4,5,6,7,8,9,10,11,12,0,1,2,3,4,5,6,7,8,9,10,11,12,0,1,2,3,4,5,6,7,8,9,10,11,12,0,1,2,3,4,5,6,7,8,9,10,11,12,0,1,2,3,4,5,6,7,8,9,10,11,12,0,1,2,3,4,5,6,7,8,9,10,11,12,0,1,2,3,4,5,6,7,8,9,10,11,12,0,1,2,3,4,5,6,7,8,9,10,11,12,0,1,2,3,4,5,6,7,8,9,10,11,12,0,1,2,3,4,5,6,7,8,9,10,11,12,0,1,2,3,4,5,6,7,8,9,10,11,12,0,1,2,3,4,5,6,7,8,9,10,11,12,0,1,2,3,4,5,6,7,8,9,10,11,12,0,1,2,3,4,5,6,7,8,9,10,11,12,0,1,2,3,4,5,6,7,8,9,10,11,12,0,1,2,3,4,5,6,7,8,9,10,11,12,0,1,2,3,4,5,6,7,8,9,10,11,12,0,1,2,3,4,5,6,7,8,9,10,11,12,0,1,2,3,4,5,6,7,8,9,10,11,12,0,1,2,3,4,5,6,7,8,9,10,11,12,0,1,2,3,4,5,6,7,8,9,10,11,12,0,1,2,3,4,5,6,7,8,9,10,11,12,0,1,2,3,4,5,6,7,8,9,10,11,12,0,1,2,3,4,5,6,7,8,9,10,11,12,0,1,2,3,4,5,6,7,8,9,10,11,12,0,1,2,3,4,5,6,7,8,9,10,11,12,0,1,2,3,4,5,6,7,8,9,10,11,12,0,1,2,3,4,5,6,7,8,9,10,11,12,0,1,2,3,4,5,6,7,8,9,10,11,12,0,1,2,3,4,5,6,7,8,9,10,11,12,0,1,2,3,4,5,6,7,8,9,10,11,12,0,1,2,3,4,5,6,7,8,9,10,11,12,0,1,2,3,4,5,6,7,8,9,10,11,12,0,1,2,3,4,5,6,7,8,9,10,11,12,0,1,2,3,4,5,6,7,8,9,10,11,12,0,1,2,3,4,5,6,7,8,9,10,11,12,0,1,2,3,4,5,6,7,8,9,10,11,12,0,1,2,3,4,5,6,7,8,9,10,11,12,0,1,2,3,4,5,6,7,8,9,10,11,12,0,1,2,3,4,5,6,7,8,9,10,11,12,0,1,2,3,4,5,6,7,8,9,10,11,12,0,1,2,3,4,5,6,7,8,9,10,11,12,0,1,2,3,4,5,6,7,8,9,10,11,12,0,1,2,3,4,5,6,7,8,9,10,11,12,0,1,2,3,4,5,6,7,8,9,10,11,12,0,1,2,3,4,5,6,7,8,9,10,11,12,0,1,2,3,4,5,6,7,8,9,10,11,12,0,1,2,3,4,5,6,7,8,9,10,11,12,0,1,2,3,4,5,6,7,8,9,10,11,12,0,1,2,3,4,5,6,7,8,9,10,11,12,0,1,2,3,4,5,6,7,8,9,10,11,12,0,1,2,3,4,5,6,7,8,9,10,11,12,0,1,2,3,4,5,6,7,8,9,10,11,12,0,1,2,3,4,5,6,7,8,9,10,11,12,0,1,2,3,4,5,6,7,8,9,10,11,12,0,1,2,3,4,5,6,7,8,9,10,11,12,0,1,2,3,4,5,6,7,8,9,10,11,12,0,1,2,3,4,5,6,7,8,9,10,11,12,0,1,2,3,4,5,6,7,8,9,10,11,12,0,1,2,3,4,5,6,7,8,9,10,11,12,0,1,2,3,4,5,6,7,8,9,10,11,12,0,1,2,3,4,5,6,7,8,9,10,11,12,0,1,2,3,4,5,6,7,8,9,10,11,12,0,1,2,3,4,5,6,7,8,9,10,11,12,0,1,2,3,4,5,6,7,8,9,10,11,12,0,1,2,3,4,5,6,7,8,9,10,11,12,0,1,2,3,4,5,6,7,8,9,10,11,12,0,1,2,3,4,5,6,7,8,9,10,11,12,0,1,2,3,4,5,6,7,8,9,10,11,12,0,1,2,3,4,5,6,7,8,9,10,11,12,0,1,2,3,4,5,6,7,8,9,10,11,12,0,1,2,3,4,5,6,7,8,9,10,11,12,0,1,2,3,4,5,6,7,8,9,10,11,12,0,1,2,3,4,5,6,7,8,9,10,11,12,0,1,2,3,4,5,6,7,8,9,10,11,12,0,1,2,3,4,5,6,7,8,9,10,11,12,0,1,2,3,4,5,6,7,8,9,10,11,12,0,1,2,3,4,5,6,7,8,9,10,11,12,0,1,2,3,4,5,6,7,8,9,10,11,12,0,1,2,3,4,5,6,7,8,9,10,11,12,0,1,2,3,4,5,6,7,8,9,10,11,12,0,1,2,3,4,5,6,7,8,9,10,11,12,0,1,2,3,4,5,6,7,8,9,10,11,12,0,1,2,3,4,5,6,7,8,9,10,11,12,0,1,2,3,4,5,6,7,8,9,10,11,12,0,1,2,3,4,5,6,7,8,9,10,11,12,0,1,2,3,4,5,6,7,8,9,10,11,12,0,1,2,3,4,5,6,7,8,9,10,11,12,0,1,2,3,4,5,6,7,8,9,10,11,12,0,1,2,3,4,5,6,7,8,9,10,11,12,0,1,2,3,4,5,6,7,8,9,10,11,12,0,1,2,3,4,5,6,7,8,9,10,11,12,0,1,2,3,4,5,6,7,8,9,10,11,12,0,1,2,3,4,5,6,7,8,9,10,11,12,0,1,2,3,4,5,6,7,8,9,10,11,12,0,1,2,3,4,5,6,7,8,9,10,11,12,0,1,2,3,4,5,6,7,8,9,10,11,12,0,1,2,3,4,5,6,7,8,9,10,11,12,0,1,2,3,4,5,6,7,8,9,10,11,12,0,1,2,3,4,5,6,7,8,9,10,11,12,0,1,2,3,4,5,6,7,8,9,10,11,12,0,1,2,3,4,5,6,7,8,9,10,11,12,0,1,2,3,4,5,6,7,8,9,10,11,12,0,1,2,3,4,5,6,7,8,9,10,11,12,0,1,2,3,4,5,6,7,8,9,10,11,12,0,1,2,3,4,5,6,7,8,9,10,11,12,0,1,2,3,4,5,6,7,8,9,10,11,12,0,1,2,3,4,5,6,7,8,9,10,11,12,0,1,2,3,4,5,6,7,8,9,10,11,12,0,1,2,3,4,5,6,7,8,9,10,11,12,0,1,2,3,4,5,6,7,8,9,10,11,12,0,1,2,3,4,5,6,7,8,9,10,11,12,0,1,2,3,4,5,6,7,8,9,10,11,12,0,1,2,3,4,5,6,7,8,9,10,11,12,0,1,2,3,4,5,6,7,8,9,10,11,12,0,1,2,3,4,5,6,7,8,9,10,11,12,0,1,2,3,4,5,6,7,8,9,10,11,12,0,1,2,3,4,5,6,7,8,9,10,11,12,0,1,2,3,4,5,6,7,8,9,10,11,12,0,1,2,3,4,5,6,7,8,9,10,11,12,0,1,2,3,4,5,6,7,8,9,10,11,12,0,1,2,3,4,5,6,7,8,9,10,11,12,0,1,2,3,4,5,6,7,8,9,10,11,12,0,1,2,3,4,5,6,7,8,9,10,11,12,0,1,2,3,4,5,6,7,8,9,10,11,12,0,1,2,3,4,5,6,7,8,9,10,11,12,0,1,2,3,4,5,6,7,8,9,10,11,12,0,1,2,3,4,5,6,7,8,9,10,11,12,0,1,2,3,4,5,6,7,8,9,10,11,12,0,1,2,3,4,5,6,7,8,9,10,11,12,0,1,2,3,4,5,6,7,8,9,10,11,12,0,1,2,3,4,5,6,7,8,9,10,11,12,0,1,2,3,4,5,6,7,8,9,10,11,12,0,1,2,3,4,5,6,7,8,9,10,11,12,0,1,2,3,4,5,6,7,8,9,10,11,12,0,1,2,3,4,5,6,7,8,9,10,11,12,0,1,2,3,4,5,6,7,8,9,10,11,12,0,1,2,3,4,5,6,7,8,9,10,11,12,0,1,2,3,4,5,6,7,8,9,10,11,12,0,1,2,3,4,5,6,7,8,9,10,11,12,0,1,2,3,4,5,6,7,8,9,10,11,12,0,1,2,3,4,5,6,7,8,9,10,11,12,0,1,2,3,4,5,6,7,8,9,10,11,12,0,1,2,3,4,5,6,7,8,9,10,11,12,0,1,2,3,4,5,6,7,8,9,10,11,12,0,1,2,3,4,5,6,7,8,9,10,11,12,0,1,2,3,4,5,6,7,8,9,10,11,12,0,1,2,3,4,5,6,7,8,9,10,11,12,0,1,2,3,4,5,6,7,8,9,10,11,12,0,1,2,3,4,5,6,7,8,9,10,11,12,0,1,2,3,4,5,6,7,8,9,10,11,12,0,1,2,3,4,5,6,7,8,9,10,11,12,0,1,2,3,4,5,6,7,8,9,10,11,12,0,1,2,3,4,5,6,7,8,9,10,11,12,0,1,2,3,4,5,6,7,8,9,10,11,12,0,1,2,3,4,5,6,7,8,9,10,11,12,0,1,2,3,4,5,6,7,8,9,10,11,12,0,1,2,3,4,5,6,7,8,9,10,11,12,0,1,2,3,4,5,6,7,8,9,10,11,12,0,1,2,3,4,5,6,7,8,9,10,11,12,0,1,2,3,4,5,6,7,8,9,10,11,12,0,1,2,3,4,5,6,7,8,9,10,11,12,0,1,2,3,4,5,6,7,8,9,10,11,12,0,1,2,3,4,5,6,7,8,9,10,11,12,0,1,2,3,4,5,6,7,8,9,10,11,12,0,1,2,3,4,5,6,7,8,9,10,11,12,0,1,2,3,4,5,6,7,8,9,10,11,12,0,1,2,3,4,5,6,7,8,9,10,11,12],"trees":[{"base_weights":[5.5157975E-4,-5.3683025E-1,2E0,-5.4247355E-1,2E0,-2.7364263E-2,2E0,-5.440683E-1,-4.983922E-5,1E-1,-2.6647195E-2,-9.073851E-3,1E-1,-5.4592997E-1,-3.0755487E-1,1E-1,-2.7284121E-2,-2.7358854E-2,-4.5043588E-1,1E-1,-2.7336765E-2,-2.7348608E-2,1E-1],"categories":[],"categories_nodes":[],"categories_segments":[],"categories_sizes":[],"default_left":[0,0,0,0,0,0,0,0,0,0,0,0,0,0,0,0,0,0,0,0,0,0,0],"id":0,"left_children":[1,3,5,7,9,-1,11,13,15,-1,-1,-1,-1,17,19,-1,-1,-1,21,-1,-1,-1,-1],"loss_changes":[4.6095412E5,6.287664E3,2.3683881E5,2.590078E2,5.850054E2,0E0,1.2375E1,1.3109375E2,1.6893488E3,0E0,0E0,0E0,0E0,3.465625E1,2.1393428E3,0E0,0E0,0E0,1.4666399E3,0E0,0E0,0E0,0E0],"parents":[2147483647,0,0,1,1,2,2,3,3,4,4,6,6,7,7,8,8,13,13,14,14,18,18],"right_children":[2,4,6,8,10,-1,12,14,16,-1,-1,-1,-1,18,20,-1,-1,-1,22,-1,-1,-1,-1],"split_conditions":[7.4395204E-1,1.4347748E0,3.1292495E-1,1.3503014E0,7.19218E-1,-2.7364263E-2,2.4870245E-1,6.983136E-1,7.19218E-1,1E-1,-2.6647195E-2,-9.073851E-3,1E-1,2.4565337E0,4.9937382E-1,1E-1,-2.7284121E-2,-2.7358854E-2,3.8209915E-1,1E-1,-2.7336765E-2,-2.7348608E-2,1E-1],"split_indices":[220,336,357,336,324,0,346,220,324,0,0,0,0,188,351,0,0,0,366,0,0,0,0],"split_type":[0,0,0,0,0,0,0,0,0,0,0,0,0,0,0,0,0,0,0,0,0,0,0],"sum_hessian":[3.6828975E5,3.004112E5,6.787856E4,3.0005272E5,3.5846237E2,3.6499598E4,3.1378967E4,2.9917225E5,8.804843E2,2.6808423E2,9.037816E1,2.1107755E0,3.1376855E4,2.968317E5,2.340556E3,7.604079E1,8.044435E2,2.9299284E5,3.8388406E3,8.8498535E1,2.2520574E3,3.780273E3,5.8567585E1],"tree_param":{"num_deleted":"0","num_feature":"387","num_nodes":"23","size_leaf_vector":"1"}},{"base_weights":[-1.8951828E-4,-5.015992E-1,2E0,1.4141792E-1,-2.7895022E-2,-2.7890867E-2,2E0,-2.7892604E-2,2E0,2.718439E-3,1E-1,1E-1,-4.0637666E-1,3.2536379E-1,-2.6409691E-2,6.7474745E-2,-1.5964048E-2],"categories":[],"categories_nodes":[],"categories_segments":[],"categories_sizes":[],"default_left":[0,0,0,0,0,0,0,0,0,0,0,0,0,0,0,0,0],"id":1,"left_children":[1,3,5,7,-1,-1,9,-1,11,-1,-1,-1,13,15,-1,-1,-1],"loss_changes":[5.540822E5,1.3239633E4,1.7457194E5,6.554383E4,0E0,0E0,5.375E0,0E0,2.9151562E2,0E0,0E0,0E0,5.1614227E0,7.3863907E0,0E0,0E0,0E0],"parents":[2147483647,0,0,1,1,2,2,3,3,6,6,8,8,12,12,13,13],"right_children":[2,4,6,8,-1,-1,10,-1,12,-1,-1,-1,14,16,-1,-1,-1],"split_conditions":[1.2284598E0,1.4477961E-1,4.6484607E-1,2.1480839E-1,-2.7895022E-2,-2.7890867E-2,2.4855784E-1,-2.7892604E-2,-2.0890566E-2,2.718439E-3,1E-1,1E-1,8.7738156E-1,9.5427585E-1,-2.6409691E-2,6.7474745E-2,-1.5964048E-2],"split_indices":[365,83,382,379,0,0,341,0,343,0,0,0,372,330,0,0,0],"split_type":[0,0,0,0,0,0,0,0,0,0,0,0,0,0,0,0,0],"sum_hessian":[4.3353456E5,3.657002E5,6.783437E4,2.9441164E4,3.3625903E5,2.668222E4,4.115215E4,2.5561717E4,3.8794465E3,2.2723348E0,4.114988E4,3.82981E3,4.9636486E1,6.1404834E0,4.3496002E1,2.038114E0,4.1023693E0],"tree_param":{"num_deleted":"0","num_feature":"387","num_nodes":"17","size_leaf_vector":"1"}},{"base_weights":[2.8764628E-4,-5.2496415E-1,2E0,2E0,-5.2750075E-1,-2.6692161E-2,1E-1,1E-1,-2.4553651E-2,2E0,-5.3048927E-1,1E-1,-2.6608204E-2,-5.3381807E-1,2.9998118E-1,-5.342571E-1,1.3044158E-1,-2.6847614E-2,1E-1,-5.3651905E-1,-4.2415902E-1,-2.6531903E-2,1E-1,-5.3666395E-1,2E0,-5.364127E-1,2E0,-2.6864007E-2,-1.953954E-2,-1.9308766E-2,1E-1,-2.690034E-2,5.138207E-3,-2.2510927E-2,1E-1],"categories":[],"categories_nodes":[],"categories_segments":[],"categories_sizes":[],"default_left":[0,0,0,0,0,0,0,0,0,0,0,0,0,0,0,0,0,0,0,0,0,0,0,0,0,0,0,0,0,0,0,0,0,0,0],"id":2,"left_children":[1,3,5,7,9,-1,-1,-1,-1,11,13,-1,-1,15,17,19,21,-1,-1,23,25,-1,-1,27,29,31,33,-1,-1,-1,-1,-1,-1,-1,-1],"loss_changes":[5.9395875E5,2.883375E3,1.904875E3,1.674939E2,2.227789E3,0E0,0E0,0E0,0E0,1.3753314E3,7.9096875E2,0E0,0E0,8.324219E1,3.2349517E3,7.021875E1,4.4059595E2,0E0,0E0,1.1877344E2,2.505278E3,0E0,0E0,2.4421875E1,4.433847E1,5.878296E0,8.462024E1,0E0,0E0,0E0,0E0,0E0,0E0,0E0,0E0],"parents":[2147483647,0,0,1,1,2,2,3,3,4,4,9,9,10,10,13,13,14,14,15,15,16,16,19,19,20,20,23,23,24,24,25,25,26,26],"right_children":[2,4,6,8,10,-1,-1,-1,-1,12,14,-1,-1,16,18,20,22,-1,-1,24,26,-1,-1,28,30,32,34,-1,-1,-1,-1,-1,-1,-1,-1],"split_conditions":[1.665165E0,-2.934889E0,8.6522835E-1,3.4297052E-1,-7.6664656E-1,-2.6692161E-2,1E-1,1E-1,-2.4553651E-2,9.5427585E-1,1.5525117E0,1E-1,-2.6608204E-2,2.0950277E0,6.9689E-1,2.3652477E0,2.2796531E-1,-2.6847614E-2,1E-1,2.923827E0,8.8512935E-2,-2.6531903E-2,1E-1,1.4887648E0,1.1140325E0,-1.6486108E-1,2.4728224E-1,-2.6864007E-2,-1.953954E-2,-1.9308766E-2,1E-1,-2.690034E-2,5.138207E-3,-2.2510927E-2,1E-1],"split_indices":[370,290,360,338,329,0,0,0,0,330,370,0,0,378,340,66,360,0,0,102,360,0,0,370,4,346,380,0,0,0,0,0,0,0,0],"split_type":[0,0,0,0,0,0,0,0,0,0,0,0,0,0,0,0,0,0,0,0,0,0,0,0,0,0,0,0,0,0,0,0,0,0,0],"sum_hessian":[3.0812225E5,2.8642572E5,2.1696541E4,1.2229282E2,2.8630344E5,2.958883E2,2.1400652E4,9.607476E1,2.6218067E1,3.2696832E2,2.8597647E5,1.1327332E2,2.13695E2,2.8483588E5,1.1405778E3,2.8464878E5,1.8709657E2,1.01425726E3,1.2632051E2,2.789084E5,5.74039E3,1.7049106E2,1.6605515E1,2.7889597E5,1.2434912E1,5.6337666E3,1.0662365E2,2.7771544E5,1.1805209E3,7.097425E0,5.3374863E0,5.6207686E3,1.2998093E1,1.3352838E1,9.327081E1],"tree_param":{"num_deleted":"0","num_feature":"387","num_nodes":"35","size_leaf_vector":"1"}},{"base_weights":[-6.2435295E-4,-5.5387443E-1,1.5918404E0,-5.542202E-1,2E0,2E0,-2.7827699E-2,-5.5628616E-1,-1.6021456E-1,-2.1431005E-2,1E-1,-1.9407377E-2,1E-1,-5.2781314E-1,-2.78216E-2,-2.778546E-2,2E0,-2.7788399E-2,1E-1,-1.1576219E-2,1E-1],"categories":[],"categories_nodes":[],"categories_segments":[],"categories_sizes":[],"default_left":[0,0,0,0,0,0,0,0,0,0,0,0,0,0,0,0,0,0,0,0,0],"id":3,"left_children":[1,3,5,7,9,11,-1,13,15,-1,-1,-1,-1,17,-1,-1,19,-1,-1,-1,-1],"loss_changes":[3.7508178E5,3.632422E2,4.1758362E5,2.565547E2,5.6957428E1,4.05625E1,0E0,5.703125E-1,2.277951E3,0E0,0E0,0E0,0E0,1.7301556E2,0E0,0E0,1.5681152E1,0E0,0E0,0E0,0E0],"parents":[2147483647,0,0,1,1,2,2,3,3,4,4,5,5,7,7,8,8,13,13,16,16],"right_children":[2,4,6,8,10,12,-1,14,16,-1,-1,-1,-1,18,-1,-1,20,-1,-1,-1,-1],"split_conditions":[6.339521E-1,2.8067114E0,2.5615388E-1,4.102034E-2,-2.2476134E0,6.2013704E-1,-2.7827699E-2,-8.746168E-1,2.3333423E-2,-2.1431005E-2,1E-1,-1.9407377E-2,1E-1,-1.9063993E-1,-2.78216E-2,-2.778546E-2,-2.999369E-1,-2.7788399E-2,1E-1,-1.1576219E-2,1E-1],"split_indices":[325,262,356,325,0,337,0,354,371,0,0,0,0,332,0,0,324,0,0,0,0],"split_type":[0,0,0,0,0,0,0,0,0,0,0,0,0,0,0,0,0,0,0,0,0],"sum_hessian":[4.257256E5,3.1595766E5,1.0976792E5,3.1592878E5,2.8897814E1,4.3080848E4,6.668708E4,3.1427894E5,1.6498287E3,8.931801E0,1.9966013E1,6.4251776E0,4.307442E4,1.6467307E3,3.1263222E5,1.5279154E3,1.2191329E2,1.6383137E3,8.417045E0,2.6065736E0,1.1930672E2],"tree_param":{"num_deleted":"0","num_feature":"387","num_nodes":"21","size_leaf_vector":"1"}},{"base_weights":[1.2755597E-5,-5.471713E-1,2E0,-2.7410904E-2,-3.0203468E-1,-2.731863E-2,1E-1,-2.7378326E-2,1E-1],"categories":[],"categories_nodes":[],"categories_segments":[],"categories_sizes":[],"default_left":[0,0,0,0,0,0,0,0,0],"id":4,"left_children":[1,3,5,-1,7,-1,-1,-1,-1],"loss_changes":[7.155638E5,8.7078125E1,4.00725E3,0E0,1.3564647E3,0E0,0E0,0E0,0E0],"parents":[2147483647,0,0,1,1,2,2,4,4],"right_children":[2,4,6,-1,8,-1,-1,-1,-1],"split_conditions":[2.4632711E0,1.9809383E0,7.19218E-1,-2.7410904E-2,1.2094097E0,-2.731863E-2,1E-1,-2.7378326E-2,1E-1],"split_indices":[346,346,324,0,328,0,0,0,0],"split_type":[0,0,0,0,0,0,0,0,0],"sum_hessian":[3.7563862E5,3.4187253E5,3.376611E4,3.40415E5,1.4575208E3,6.172095E2,3.31489E4,1.399751E3,5.7769875E1],"tree_param":{"num_deleted":"0","num_feature":"387","num_nodes":"9","size_leaf_vector":"1"}},{"base_weights":[5.798882E-4,-5.448031E-1,1E-1,-5.461827E-1,1E-1,-4.489648E-1,-2.734012E-2,-2.7308673E-2,2E0,-2.1001367E-2,1E-1],"categories":[],"categories_nodes":[],"categories_segments":[],"categories_sizes":[],"default_left":[0,0,0,0,0,0,0,0,0,0,0],"id":5,"left_children":[1,3,-1,5,-1,7,-1,-1,9,-1,-1],"loss_changes":[7.0258056E5,1.8681406E3,0E0,1.940625E1,0E0,7.5907837E2,0E0,0E0,5.640686E1,0E0,0E0],"parents":[2147483647,0,0,1,1,3,3,5,5,8,8],"right_children":[2,4,-1,6,-1,8,-1,-1,10,-1,-1],"split_conditions":[1.6205924E0,5.1993375E0,1E-1,-1.0124743E0,1E-1,6.752096E-2,-2.734012E-2,-2.7308673E-2,-2.1618917E0,-2.1001367E-2,1E-1],"split_indices":[134,190,0,270,0,341,0,0,0,0,0],"split_type":[0,0,0,0,0,0,0,0,0,0,0],"sum_hessian":[3.649261E5,3.3375984E5,3.1166252E4,3.3368738E5,7.246431E1,2.1256257E3,3.3156175E5,2.0843386E3,4.1287052E1,8.913466E0,3.2373585E1],"tree_param":{"num_deleted":"0","num_feature":"387","num_nodes":"11","size_leaf_vector":"1"}},{"base_weights":[-2.3402841E-4,2E0,-5.438095E-1,-2.796734E-2,2E0,2.4364632E-1,-5.5092824E-1,-2.4350896E-2,1E-1,-2.7948746E-2,1E-1,-2.79706E-2,-4.7089323E-1,1E-1,-5.5926347E-1,-2.7970163E-2,4.272177E-2],"categories":[],"categories_nodes":[],"categories_segments":[],"categories_sizes":[],"default_left":[0,0,0,0,0,0,0,0,0,0,0,0,0,0,0,0,0],"id":6,"left_children":[1,3,5,-1,7,9,11,-1,-1,-1,-1,-1,13,-1,15,-1,-1],"loss_changes":[6.7463406E5,1.24162375E5,2.1208828E3,0E0,1.098125E2,8.353115E3,2.5384375E2,0E0,0E0,0E0,0E0,0E0,1.2020754E4,0E0,8.12793E0,0E0,0E0],"parents":[2147483647,0,0,1,1,2,2,4,4,5,5,6,6,12,12,14,14],"right_children":[2,4,6,-1,8,10,12,-1,-1,-1,-1,-1,14,-1,16,-1,-1],"split_conditions":[-7.446945E-1,1.2230049E0,-7.2578925E-1,-2.796734E-2,-2.9139626E-1,7.8579265E-1,7.4215525E-1,-2.4350896E-2,1E-1,-2.7948746E-2,1E-1,-2.79706E-2,-5.3814256E-1,1E-1,1.3306586E0,-2.7970163E-2,4.272177E-2],"split_indices":[194,357,194,0,328,334,371,0,0,0,0,0,385,0,334,0,0],"split_type":[0,0,0,0,0,0,0,0,0,0,0,0,0,0,0,0,0],"sum_hessian":[4.432047E5,6.491972E4,3.7828497E5,1.8954535E4,4.5965184E4,3.3880425E3,3.748969E5,1.6990791E1,4.5948195E4,2.871117E3,5.169254E2,3.3895247E5,3.5944445E4,6.033213E2,3.5341125E4,3.533889E4,2.2335894E0],"tree_param":{"num_deleted":"0","num_feature":"387","num_nodes":"17","size_leaf_vector":"1"}},{"base_weights":[-9.812273E-4,-5.3136384E-1,1E-1,-5.334516E-1,1E-1,-5.343763E-1,2E0,1E-1,-5.346673E-1,-1.665236E-2,1E-1,-5.34844E-1,1E-1,-5.3494793E-1,2E0,-5.358937E-1,-2.7883717E-1,1E-1,-1.1667933E-2,-2.6795207E-2,-0E0,-2.673011E-2,1E-1],"categories":[],"categories_nodes":[],"categories_segments":[],"categories_sizes":[],"default_left":[0,0,0,0,0,0,0,0,0,0,0,0,0,0,0,0,0,0,0,0,0,0,0],"id":7,"left_children":[1,3,-1,5,-1,7,9,-1,11,-1,-1,13,-1,15,17,19,21,-1,-1,-1,-1,-1,-1],"loss_changes":[5.771949E5,2.4170234E3,0E0,1.0358203E3,0E0,3.289922E2,3.031372E1,0E0,1.9891406E2,0E0,0E0,9.636719E1,0E0,6.53125E1,1.67276E1,1.1328125E0,1.0265054E3,0E0,0E0,0E0,0E0,0E0,0E0],"parents":[2147483647,0,0,1,1,3,3,5,5,6,6,8,8,11,11,13,13,14,14,15,15,16,16],"right_children":[2,4,-1,6,-1,8,10,-1,12,-1,-1,14,-1,16,18,20,22,-1,-1,-1,-1,-1,-1],"split_conditions":[2.7498417E0,3.460525E0,1E-1,2.301654E0,1E-1,-7.22538E-1,-3.0573934E-1,1E-1,3.6969612E0,-1.665236E-2,1E-1,2.8954358E0,1E-1,1.6972742E0,-5.224992E-1,5.1993375E0,1.5851667E0,1E-1,-1.1667933E-2,-2.6795207E-2,-0E0,-2.673011E-2,1E-1],"split_indices":[369,364,0,132,0,367,327,0,348,0,0,327,0,364,324,181,344,0,0,0,0,0,0],"split_type":[0,0,0,0,0,0,0,0,0,0,0,0,0,0,0,0,0,0,0,0,0,0,0],"sum_hessian":[2.917523E5,2.7237906E5,1.9373252E4,2.723079E5,7.117572E1,2.7227144E5,3.6442207E1,1.0326881E1,2.7226112E5,4.926591E0,3.1515617E1,2.722551E5,6.019837E0,2.7224875E5,6.350366E0,2.7124353E5,1.0052356E3,3.5410807E0,2.8092852E0,2.712379E5,5.625875E0,9.730118E2,3.2223835E1],"tree_param":{"num_deleted":"0","num_feature":"387","num_nodes":"23","size_leaf_vector":"1"}},{"base_weights":[2.5225396E-4,-5.4184127E-1,2E0,-1.21834084E-1,-5.422265E-1,-2.7084926E-2,1E-1,-2.6903257E-2,1E-1,-5.422689E-1,1E-1,-5.4230183E-1,1E-1,-4.7396085E-1,-2.7123278E-2,-2.7059123E-2,1E-1],"categories":[],"categories_nodes":[],"categories_segments":[],"categories_sizes":[],"default_left":[0,0,0,0,0,0,0,0,0,0,0,0,0,0,0,0,0],"id":8,"left_children":[1,3,5,7,9,-1,-1,-1,-1,11,-1,13,-1,15,-1,-1,-1],"loss_changes":[6.550619E5,4.9789062E1,6.9295E3,4.3883392E2,3.95E1,0E0,0E0,0E0,0E0,2.9351562E1,0E0,2.78125E0,0E0,2.0269643E2,0E0,0E0,0E0],"parents":[2147483647,0,0,1,1,2,2,3,3,4,4,9,9,11,11,13,13],"right_children":[2,4,6,8,10,-1,-1,-1,-1,12,-1,14,-1,16,-1,-1,-1],"split_conditions":[1.3385313E0,-1.9858764E0,8.893807E-1,4.6484607E-1,2.342007E0,-2.7084926E-2,1E-1,-2.6903257E-2,1E-1,2.696511E0,1E-1,-1.8517338E0,1E-1,-1.0752359E-1,-2.7123278E-2,-2.7059123E-2,1E-1],"split_indices":[352,182,347,382,115,0,0,0,0,180,0,182,0,353,0,0,0],"split_type":[0,0,0,0,0,0,0,0,0,0,0,0,0,0,0,0,0],"sum_hessian":[3.3915594E5,3.11307E5,2.7848924E4,2.8689996E2,3.1102012E5,1.0718313E3,2.6777092E4,2.690632E2,1.7836775E1,3.110168E5,3.2891529E0,3.1101428E5,2.5544386E0,7.6106744E2,3.1025322E5,7.53601E2,7.466406E0],"tree_param":{"num_deleted":"0","num_feature":"387","num_nodes":"17","size_leaf_vector":"1"}},{"base_weights":[-6.5975976E-3,-5.146067E-1,2E0,-2.5849817E-2,2E0,1E-1,-2.5675064E-2,1E-1,-7.7802497E-3],"categories":[],"categories_nodes":[],"categories_segments":[],"categories_sizes":[],"default_left":[0,0,0,0,0,0,0,0,0],"id":9,"left_children":[1,3,5,-1,7,-1,-1,-1,-1],"loss_changes":[3.0823503E5,1.5652734E3,2.2952812E3,0E0,1.1555176E1,0E0,0E0,0E0,0E0],"parents":[2147483647,0,0,1,1,2,2,4,4],"right_children":[2,4,6,-1,8,-1,-1,-1,-1],"split_conditions":[2.6361778E0,2.810188E0,-2.1288618E-1,-2.5849817E-2,-8.397985E-1,1E-1,-2.5675064E-2,1E-1,-7.7802497E-3],"split_indices":[332,363,328,0,325,0,0,0,0],"split_type":[0,0,0,0,0,0,0,0,0],"sum_hessian":[1.484076E5,1.4324769E5,5.1599204E3,1.4322388E5,2.3806965E1,4.797399E3,3.625213E2,2.1777615E1,2.0293498E0],"tree_param":{"num_deleted":"0","num_feature":"387","num_nodes":"9","size_leaf_vector":"1"}},{"base_weights":[4.495913E-3,-2.578773E-2,2E0,-2.5129555E-2,1E-1],"categories":[],"categories_nodes":[],"categories_segments":[],"categories_sizes":[],"default_left":[0,0,0,0,0],"id":10,"left_children":[1,-1,3,-1,-1],"loss_changes":[2.9670562E5,0E0,6.010469E2,0E0,0E0],"parents":[2147483647,0,0,2,2],"right_children":[2,-1,4,-1,-1],"split_conditions":[1.642281E0,-2.578773E-2,2.386876E0,-2.5129555E-2,1E-1],"split_indices":[349,0,324,0,0],"split_type":[0,0,0,0,0],"sum_hessian":[1.381628E5,1.3380789E5,4.3549106E3,9.518618E1,4.259724E3],"tree_param":{"num_deleted":"0","num_feature":"387","num_nodes":"5","size_leaf_vector":"1"}},{"base_weights":[-3.0003204E-3,-5.0994027E-1,2E0,-5.153518E-1,2E0,-2.6451966E-2,1E-1,-5.1708466E-1,1E-1,-2.5685547E-2,1E-1,-5.2155226E-1,3.467935E-1,-5.248287E-1,3.8455492E-1,-2.6396558E-2,1E-1,-5.2494156E-1,1E-1,1E-1,-2.6368974E-2,-5.2787423E-1,-4.0935546E-1,-2.6432155E-2,-2.4825426E-2,-2.6447112E-2,1E-1],"categories":[],"categories_nodes":[],"categories_segments":[],"categories_sizes":[],"default_left":[0,0,0,0,0,0,0,0,0,0,0,0,0,0,0,0,0,0,0,0,0,0,0,0,0,0,0],"id":11,"left_children":[1,3,5,7,9,-1,-1,11,-1,-1,-1,13,15,17,19,-1,-1,21,-1,-1,-1,23,25,-1,-1,-1,-1],"loss_changes":[4.185333E5,4.69584E3,5.743953E4,1.6558789E3,5.238733E2,0E0,0E0,8.5358203E2,0E0,0E0,0E0,6.533672E2,3.4913225E3,9.715234E1,2.5105833E3,0E0,0E0,7.363672E1,0E0,0E0,0E0,4.4765625E0,2.7692803E3,0E0,0E0,0E0,0E0],"parents":[2147483647,0,0,1,1,2,2,3,3,4,4,7,7,11,11,12,12,13,13,14,14,17,17,21,21,22,22],"right_children":[2,4,6,8,10,-1,-1,12,-1,-1,-1,14,16,18,20,-1,-1,22,-1,-1,-1,24,26,-1,-1,-1,-1],"split_conditions":[1.7050751E0,3.0900507E0,6.4940333E-1,2.894385E0,5.543438E-1,-2.6451966E-2,1E-1,2.2818031E0,1E-1,-2.5685547E-2,1E-1,3.089935E0,6.4940333E-1,3.5256524E0,6.339521E-1,-2.6396558E-2,1E-1,1.3554298E0,1E-1,1E-1,-2.6368974E-2,5.1993375E0,1.308389E0,-2.6432155E-2,-2.4825426E-2,-2.6447112E-2,1E-1],"split_indices":[326,27,350,148,326,0,0,212,0,0,0,14,350,330,325,0,0,326,0,0,0,36,338,0,0,0,0],"split_type":[0,0,0,0,0,0,0,0,0,0,0,0,0,0,0,0,0,0,0,0,0,0,0,0,0,0,0],"sum_hessian":[2.4316794E5,2.2129711E5,2.1870822E4,2.2108912E5,2.0798692E2,8.979678E3,1.2891145E4,2.2104714E5,4.1976696E1,8.211782E1,1.2586911E2,2.1991103E5,1.136112E3,2.191199E5,7.911348E2,1.0316866E3,1.0442546E2,2.1911653E5,3.3724482E0,7.544701E1,7.156878E2,2.1368517E5,5.4313555E3,2.08534E5,5.151179E3,5.3636465E3,6.7708855E1],"tree_param":{"num_deleted":"0","num_feature":"387","num_nodes":"27","size_leaf_vector":"1"}},{"base_weights":[1.0747939E-3,2E0,-5.5062634E-1,1E-1,-2.702511E-2,-5.506354E-1,1.6820192E-2,-5.506489E-1,-2.1988317E-2,-2.7532673E-2,-0E0,4.500607E-2,-2.058277E-2],"categories":[],"categories_nodes":[],"categories_segments":[],"categories_sizes":[],"default_left":[0,0,0,0,0,0,0,0,0,0,0,0,0],"id":12,"left_children":[1,3,5,-1,-1,7,-1,9,11,-1,-1,-1,-1],"loss_changes":[7.4345644E5,8.364375E2,3.2578125E0,0E0,0E0,1.96875E0,0E0,5.703125E-1,5.7448425E0,0E0,0E0,0E0,0E0],"parents":[2147483647,0,0,1,1,2,2,5,5,7,7,8,8],"right_children":[2,4,6,-1,-1,8,-1,10,12,-1,-1,-1,-1],"split_conditions":[8.541442E-2,6.7055744E-1,5.1993375E0,1E-1,-2.702511E-2,5.1993375E0,1.6820192E-2,1.5969753E0,2.71428E0,-2.7532673E-2,-0E0,4.500607E-2,-2.058277E-2],"split_indices":[315,136,180,0,0,44,0,357,196,0,0,0,0],"split_type":[0,0,0,0,0,0,0,0,0,0,0,0,0],"sum_hessian":[3.896522E5,3.605611E4,3.5359606E5,3.592732E4,1.2878853E2,3.535936E5,2.4649267E0,3.5358353E5,1.0062173E1,3.5358056E5,2.9749968E0,2.024137E0,8.038036E0],"tree_param":{"num_deleted":"0","num_feature":"387","num_nodes":"13","size_leaf_vector":"1"}},{"base_weights":[-3.0838652E-4,-5.360796E-1,2E0,-5.4178745E-1,2E0,-2.7330322E-2,2E0,-5.432056E-1,6.453047E-2,1E-1,-2.6603902E-2,-9.183479E-3,1E-1,-5.4521066E-1,-2.969831E-1,1E-1,-2.7223423E-2,-2.733022E-2,-4.390062E-1,1E-1,-2.7301753E-2,-2.7320882E-2,1E-1],"categories":[],"categories_nodes":[],"categories_segments":[],"categories_sizes":[],"default_left":[0,0,0,0,0,0,0,0,0,0,0,0,0,0,0,0,0,0,0,0,0,0,0],"id":13,"left_children":[1,3,5,7,9,-1,11,13,15,-1,-1,-1,-1,17,19,-1,-1,-1,21,-1,-1,-1,-1],"loss_changes":[4.3929662E5,6.1089844E3,2.33933E5,2.5542969E2,5.770864E2,0E0,1.25E1,1.4563281E2,1.4092695E3,0E0,0E0,0E0,0E0,4.2820312E1,2.2073152E3,0E0,0E0,0E0,1.5719851E3,0E0,0E0,0E0,0E0],"parents":[2147483647,0,0,1,1,2,2,3,3,4,4,6,6,7,7,8,8,13,13,14,14,18,18],"right_children":[2,4,6,8,10,-1,12,14,16,-1,-1,-1,-1,18,20,-1,-1,-1,22,-1,-1,-1,-1],"split_conditions":[7.4395204E-1,1.4347748E0,3.1292495E-1,1.3597387E0,7.19218E-1,-2.7330322E-2,4.8924693E-1,6.983136E-1,1.6699971E-1,1E-1,-2.6603902E-2,-9.183479E-3,1E-1,2.4565337E0,4.9937382E-1,1E-1,-2.7223423E-2,-2.733022E-2,3.8209915E-1,1E-1,-2.7301753E-2,-2.7320882E-2,1E-1],"split_indices":[220,336,357,336,324,0,332,220,324,0,0,0,0,188,351,0,0,0,366,0,0,0,0],"split_type":[0,0,0,0,0,0,0,0,0,0,0,0,0,0,0,0,0,0,0,0,0,0,0],"sum_hessian":[3.6815794E5,2.973373E5,7.082062E4,2.9694994E5,3.8737894E2,3.6070984E4,3.474963E4,2.9625797E5,6.919671E2,2.9817288E2,8.920604E1,2.1284919E0,3.47475E4,2.9386112E5,2.396843E3,7.431649E1,6.176506E2,2.9004397E5,3.8171636E3,1.04836105E2,2.2920068E3,3.745179E3,7.198455E1],"tree_param":{"num_deleted":"0","num_feature":"387","num_nodes":"23","size_leaf_vector":"1"}},{"base_weights":[-1.0856709E-4,-5.0043744E-1,2E0,-5.5612147E-1,3.2573158E-1,2E0,-5.567759E-1,-5.1829123E-1,-2.785786E-2,-5.491204E-1,2E0,-9.229398E-3,1E-1,2.6676763E-2,-2.7849091E-2,-2.782979E-2,2E0,-2.7853215E-2,2.0071309E-2,-2.5496667E-2,1E-1,1E-1,-2.3098724E-2,-2.73542E-2,1E-1],"categories":[],"categories_nodes":[],"categories_segments":[],"categories_sizes":[],"default_left":[0,0,0,0,0,0,0,0,0,0,0,0,0,0,0,0,0,0,0,0,0,0,0,0,0],"id":14,"left_children":[1,3,5,7,9,11,13,15,-1,17,19,-1,-1,-1,-1,-1,21,-1,23,-1,-1,-1,-1,-1,-1],"loss_changes":[5.2792475E5,1.6655766E4,1.7192975E5,1.25546875E1,5.7497605E4,1.225E1,6.616699E0,1.2081018E3,0E0,8.464111E1,1.7426953E2,0E0,0E0,0E0,0E0,0E0,8.045886E1,0E0,4.640343E2,0E0,0E0,0E0,0E0,0E0,0E0],"parents":[2147483647,0,0,1,1,2,2,3,3,4,4,5,5,6,6,7,7,9,9,10,10,16,16,18,18],"right_children":[2,4,6,8,10,12,14,16,-1,18,20,-1,-1,-1,-1,-1,22,-1,24,-1,-1,-1,-1,-1,-1],"split_conditions":[1.2284598E0,5.1993375E0,1.5849529E-1,1.4477961E-1,9.791772E-1,-1.7663895E-1,3.8008583E-1,9.791772E-1,-2.785786E-2,2.1480839E-1,3.9908683E-1,-9.229398E-3,1E-1,2.6676763E-2,-2.7849091E-2,-2.782979E-2,4.5914823E-1,-2.7853215E-2,-9.020187E-2,-2.5496667E-2,1E-1,1E-1,-2.3098724E-2,-2.73542E-2,1E-1],"split_indices":[365,179,370,83,379,327,355,379,0,379,327,0,0,0,0,0,330,0,341,0,0,0,0,0,0],"split_type":[0,0,0,0,0,0,0,0,0,0,0,0,0,0,0,0,0,0,0,0,0,0,0,0,0],"sum_hessian":[4.3384812E5,3.6203453E5,7.1813586E4,3.3917512E5,2.2859402E4,4.551381E4,2.6299777E4,9.071647E3,3.3010347E5,1.8709236E4,4.1501646E3,2.0830255E0,4.5511727E4,3.773544E0,2.6296004E4,8.98759E3,8.40583E1,1.8452615E4,2.5662234E2,2.6875574E1,4.123289E3,7.153547E1,1.2522827E1,2.262235E2,3.0398855E1],"tree_param":{"num_deleted":"0","num_feature":"387","num_nodes":"25","size_leaf_vector":"1"}},{"base_weights":[8.558294E-4,-5.2411985E-1,2E0,-5.28E-1,2E0,-2.666433E-2,1E-1,2E0,-5.304522E-1,1E-1,-2.5044307E-2,-2.4281213E-2,1E-1,6.007532E-1,-5.3263706E-1,-2.6753986E-2,1E-1,-5.3434724E-1,-8.364151E-2,-5.3629965E-1,-4.3871844E-1,-2.681972E-2,1E-1,-5.364053E-1,1.6312307E0,-5.364509E-1,1E-1,1.5949192E-2,-2.6826361E-2,-1.9903054E-2,1E-1,-2.6882995E-2,6.9838774E-4],"categories":[],"categories_nodes":[],"categories_segments":[],"categories_sizes":[],"default_left":[0,0,0,0,0,0,0,0,0,0,0,0,0,0,0,0,0,0,0,0,0,0,0,0,0,0,0,0,0,0,0,0,0],"id":15,"left_children":[1,3,5,7,9,-1,-1,11,13,-1,-1,-1,-1,15,17,-1,-1,19,21,23,25,-1,-1,27,29,31,-1,-1,-1,-1,-1,-1,-1],"loss_changes":[5.7698256E5,4.3099297E3,1.8946562E3,2.702836E3,2.1698755E2,0E0,0E0,1.49724E2,7.008672E2,0E0,0E0,0E0,0E0,1.8508236E3,2.1653906E2,0E0,0E0,5.1929688E1,1.7830646E3,6.534375E1,2.170994E3,0E0,0E0,2.91875E1,4.7760975E1,3.7199707E0,0E0,0E0,0E0,0E0,0E0,0E0,0E0],"parents":[2147483647,0,0,1,1,2,2,3,3,4,4,7,7,8,8,13,13,14,14,17,17,18,18,19,19,20,20,23,23,24,24,25,25],"right_children":[2,4,6,8,10,-1,-1,12,14,-1,-1,-1,-1,16,18,-1,-1,20,22,24,26,-1,-1,28,30,32,-1,-1,-1,-1,-1,-1,-1],"split_conditions":[1.665165E0,1.6756263E0,3.9372045E-1,-2.934889E0,1.0432576E0,-2.666433E-2,1E-1,-1.073555E-1,-7.413764E-1,1E-1,-2.5044307E-2,-2.4281213E-2,1E-1,2.3998833E-1,1.5525117E0,-2.6753986E-2,1E-1,2.3652477E0,6.9689E-1,2.9494507E0,4.8394668E-1,-2.681972E-2,1E-1,-3.2790065E0,1.8627827E0,2.5615388E-1,1E-1,1.5949192E-2,-2.6826361E-2,-1.9903054E-2,1E-1,-2.6882995E-2,6.9838774E-4],"split_indices":[370,325,356,290,364,0,0,325,332,0,0,0,0,344,370,0,0,66,340,104,356,0,0,13,319,356,0,0,0,0,0,0,0],"split_type":[0,0,0,0,0,0,0,0,0,0,0,0,0,0,0,0,0,0,0,0,0,0,0,0,0,0,0,0,0,0,0,0,0],"sum_hessian":[3.076922E5,2.835732E5,2.4119004E4,2.8337875E5,1.9444318E2,2.9443045E2,2.3824574E4,1.2588533E2,2.8325284E5,1.6053043E2,3.3912743E1,2.3464424E1,1.02420906E2,5.448078E2,2.8270803E5,4.5329538E2,9.151239E1,2.8163394E5,1.0741072E3,2.759871E5,5.6468354E3,1.0024127E3,7.16944E1,2.75975E5,1.2093962E1,5.558345E3,8.8489876E1,3.817715E1,2.7593684E5,7.830766E0,4.263196E0,5.5471045E3,1.1240694E1],"tree_param":{"num_deleted":"0","num_feature":"387","num_nodes":"33","size_leaf_vector":"1"}},{"base_weights":[-5.080738E-5,-5.5313236E-1,1.5200655E0,-5.534937E-1,2E0,2E0,-5.558467E-1,-5.555529E-1,-1.639139E-1,-2.143708E-2,1E-1,-1.7615942E-2,1E-1,-2.7793149E-2,-0E0,-5.2763295E-1,-2.778486E-2,-2.7742123E-2,2E0,-2.776452E-2,1E-1,1E-1,-1.057463E-2],"categories":[],"categories_nodes":[],"categories_segments":[],"categories_sizes":[],"default_left":[0,0,0,0,0,0,0,0,0,0,0,0,0,0,0,0,0,0,0,0,0,0,0],"id":16,"left_children":[1,3,5,7,9,11,13,15,17,-1,-1,-1,-1,-1,-1,19,-1,-1,21,-1,-1,-1,-1],"loss_changes":[3.579155E5,3.6266406E2,4.0432412E5,2.4978125E2,5.700125E1,3.15625E1,2.2460938E-1,5.15625E-1,2.1638772E3,0E0,0E0,0E0,0E0,0E0,0E0,1.6485251E2,0E0,0E0,1.4123169E1,0E0,0E0,0E0,0E0],"parents":[2147483647,0,0,1,1,2,2,3,3,4,4,5,5,6,6,7,7,8,8,15,15,18,18],"right_children":[2,4,6,8,10,12,14,16,18,-1,-1,-1,-1,-1,-1,20,-1,-1,22,-1,-1,-1,-1],"split_conditions":[6.339521E-1,2.8067114E0,2.5615388E-1,4.102034E-2,1.2781367E0,6.2013704E-1,2.696511E0,-8.746168E-1,2.3333423E-2,-2.143708E-2,1E-1,-1.7615942E-2,1E-1,-2.7793149E-2,-0E0,-6.064949E-1,-2.778486E-2,-2.7742123E-2,1.0820806E0,-2.776452E-2,1E-1,1E-1,-1.057463E-2],"split_indices":[325,316,356,325,3,337,5,354,371,0,0,0,0,0,0,325,0,0,331,0,0,0,0],"split_type":[0,0,0,0,0,0,0,0,0,0,0,0,0,0,0,0,0,0,0,0,0,0,0],"sum_hessian":[4.2570575E5,3.121382E5,1.1356756E5,3.1210644E5,3.1752117E1,4.7668297E4,6.5899266E4,3.1046347E5,1.6429441E3,8.9381695E0,2.2813948E1,5.0420556E0,4.7663258E4,6.589704E4,2.2286704E0,1.6423557E3,3.0882112E5,1.5105857E3,1.3235838E2,1.6331658E3,9.189906E0,1.299915E2,2.3668747E0],"tree_param":{"num_deleted":"0","num_feature":"387","num_nodes":"23","size_leaf_vector":"1"}},{"base_weights":[8.22847E-5,-5.472168E-1,2E0,-2.7382467E-2,-4.481375E-1,-2.727895E-2,1E-1,-2.7349448E-2,1E-1],"categories":[],"categories_nodes":[],"categories_segments":[],"categories_sizes":[],"default_left":[0,0,0,0,0,0,0,0,0],"id":17,"left_children":[1,3,5,-1,7,-1,-1,-1,-1],"loss_changes":[6.92338E5,1.38046875E1,3.6949375E3,0E0,5.560886E2,0E0,0E0,0E0,0E0],"parents":[2147483647,0,0,1,1,2,2,4,4],"right_children":[2,4,6,-1,8,-1,-1,-1,-1],"split_conditions":[2.1412663E0,1.9809383E0,9.866586E-1,-2.7382467E-2,9.272174E-1,-2.727895E-2,1E-1,-2.7349448E-2,1E-1],"split_indices":[368,346,327,0,327,0,0,0,0],"split_type":[0,0,0,0,0,0,0,0,0],"sum_hessian":[3.7566547E5,3.3828112E5,3.738434E4,3.36799E5,1.4821221E3,5.693795E2,3.6814957E4,1.4558605E3,2.6261496E1],"tree_param":{"num_deleted":"0","num_feature":"387","num_nodes":"9","size_leaf_vector":"1"}},{"base_weights":[2.737226E-4,-5.441548E-1,1E-1,-5.4560107E-1,1E-1,-4.4769698E-1,-2.7311122E-2,-2.7282763E-2,2E0,1E-1,-2.1203531E-2],"categories":[],"categories_nodes":[],"categories_segments":[],"categories_sizes":[],"default_left":[0,0,0,0,0,0,0,0,0,0,0],"id":18,"left_children":[1,3,-1,5,-1,7,-1,-1,9,-1,-1],"loss_changes":[6.79323E5,1.8852109E3,0E0,1.940625E1,0E0,7.282084E2,0E0,0E0,5.8614685E1,0E0,0E0],"parents":[2147483647,0,0,1,1,3,3,5,5,8,8],"right_children":[2,4,-1,6,-1,8,-1,-1,10,-1,-1],"split_conditions":[1.6205924E0,5.1993375E0,1E-1,-1.0124743E0,1E-1,6.752096E-2,-2.7311122E-2,-2.7282763E-2,-1.6209276E-1,1E-1,-2.1203531E-2],"split_indices":[134,190,0,270,0,341,0,0,326,0,0],"split_type":[0,0,0,0,0,0,0,0,0,0,0],"sum_hessian":[3.651044E5,3.3051597E5,3.458843E4,3.3043244E5,8.354828E1,2.0958833E3,3.2833656E5,2.050889E3,4.4994465E1,3.574067E1,9.253796E0],"tree_param":{"num_deleted":"0","num_feature":"387","num_nodes":"11","size_leaf_vector":"1"}},{"base_weights":[-1.140395E-3,2E0,-5.4282796E-1,-2.7929902E-2,2E0,2.4480289E-1,-5.5007625E-1,1E-1,-2.4005843E-2,-2.791113E-2,1E-1,-2.7930034E-2,-4.694468E-1,-5.5878544E-1,1E-1,-2.794765E-2,5.5212177E-2],"categories":[],"categories_nodes":[],"categories_segments":[],"categories_sizes":[],"default_left":[0,0,0,0,0,0,0,0,0,0,0,0,0,0,0,0,0],"id":19,"left_children":[1,3,5,-1,7,9,11,-1,-1,-1,-1,-1,13,15,-1,-1,-1],"loss_changes":[6.4234606E5,1.23066E5,2.1356953E3,0E0,9.98125E1,8.0473647E3,2.5403906E2,0E0,0E0,0E0,0E0,0E0,1.1565063E4,1.1170898E1,0E0,0E0,0E0],"parents":[2147483647,0,0,1,1,2,2,4,4,5,5,6,6,12,12,13,13],"right_children":[2,4,6,-1,8,10,12,-1,-1,-1,-1,-1,14,16,-1,-1,-1],"split_conditions":[-7.446945E-1,1.2230049E0,-7.2578925E-1,-2.7929902E-2,-3.296078E-1,2.776383E-1,7.4215525E-1,1E-1,-2.4005843E-2,-2.791113E-2,1E-1,-2.7930034E-2,3.8375694E-1,1.3732731E0,1E-1,-2.794765E-2,5.5212177E-2],"split_indices":[194,357,194,0,323,334,371,0,0,0,0,0,377,334,0,0,0],"split_type":[0,0,0,0,0,0,0,0,0,0,0,0,0,0,0,0,0],"sum_hessian":[4.4353147E5,6.949695E4,3.740345E5,1.8798145E4,5.069881E4,3.4096223E3,3.7062488E5,5.068334E4,1.5466756E1,2.8341433E3,5.754789E2,3.35174E5,3.545088E4,3.4785797E4,6.650821E2,3.4783586E4,2.2075484E0],"tree_param":{"num_deleted":"0","num_feature":"387","num_nodes":"17","size_leaf_vector":"1"}},{"base_weights":[2.08995E-3,-5.3091896E-1,1E-1,-5.3305775E-1,1E-1,-5.337919E-1,2E0,-5.340227E-1,2E0,-2.0127354E-2,1E-1,-5.3416955E-1,1E-1,1E-1,-1.1273393E-2,-5.3430593E-1,1E-1,-5.3546023E-1,-2.2495139E-1,-2.677354E-2,-0E0,-2.670425E-2,1E-1],"categories":[],"categories_nodes":[],"categories_segments":[],"categories_sizes":[],"default_left":[0,0,0,0,0,0,0,0,0,0,0,0,0,0,0,0,0,0,0,0,0,0,0],"id":20,"left_children":[1,3,-1,5,-1,7,9,11,13,-1,-1,15,-1,-1,-1,17,-1,19,21,-1,-1,-1,-1],"loss_changes":[5.6424244E5,2.397125E3,0E0,7.657344E2,0E0,2.3580469E2,5.1859314E1,1.5884375E2,1.6021255E1,0E0,0E0,1.4705469E2,0E0,0E0,0E0,9.564844E1,0E0,1.28125E0,1.1953193E3,0E0,0E0,0E0,0E0],"parents":[2147483647,0,0,1,1,3,3,5,5,6,6,7,7,8,8,11,11,15,15,17,17,18,18],"right_children":[2,4,-1,6,-1,8,10,12,14,-1,-1,16,-1,-1,-1,18,-1,20,22,-1,-1,-1,-1],"split_conditions":[2.7498417E0,3.460525E0,1E-1,2.298708E0,1E-1,2.8954358E0,-3.0573934E-1,3.9390547E0,-3.5074753E-1,-2.0127354E-2,1E-1,5.1993375E0,1E-1,1E-1,-1.1273393E-2,1.6972742E0,1E-1,5.1993375E0,1.5851667E0,-2.677354E-2,-0E0,-2.670425E-2,1E-1],"split_indices":[369,364,0,138,0,327,327,355,324,0,0,162,0,0,0,364,0,181,344,0,0,0,0],"split_type":[0,0,0,0,0,0,0,0,0,0,0,0,0,0,0,0,0,0,0,0,0,0,0],"sum_hessian":[2.9133447E5,2.6963238E5,2.1702074E4,2.695518E5,8.0572624E1,2.6951588E5,3.592869E1,2.695045E5,1.1387216E1,8.280741E0,2.7647953E1,2.6949897E5,5.5283666E0,8.688343E0,2.6988726E0,2.6949384E5,5.133972E0,2.6848925E5,1.00456525E3,2.6848412E5,5.1436014E0,9.611214E2,4.3443836E1],"tree_param":{"num_deleted":"0","num_feature":"387","num_nodes":"23","size_leaf_vector":"1"}},{"base_weights":[-5.507769E-4,-5.413255E-1,2E0,-1.5716547E-1,-5.416994E-1,-2.7057746E-2,1E-1,-2.6890058E-2,2E0,-5.417421E-1,1E-1,1E-1,-1.0304122E-2,-5.4178476E-1,1E-1,-4.844211E-1,-2.7096078E-2,-2.7025938E-2,1E-1],"categories":[],"categories_nodes":[],"categories_segments":[],"categories_sizes":[],"default_left":[0,0,0,0,0,0,0,0,0,0,0,0,0,0,0,0,0,0,0],"id":21,"left_children":[1,3,5,7,9,-1,-1,-1,11,13,-1,-1,-1,15,-1,17,-1,-1,-1],"loss_changes":[6.3469144E5,4.3742188E1,6.8619375E3,4.0049554E2,3.9367188E1,0E0,0E0,0E0,1.4201355E1,3.7664062E1,0E0,0E0,0E0,1.734375E0,0E0,1.626176E2,0E0,0E0,0E0],"parents":[2147483647,0,0,1,1,2,2,3,3,4,4,8,8,9,9,13,13,15,15],"right_children":[2,4,6,8,10,-1,-1,-1,12,14,-1,-1,-1,16,-1,18,-1,-1,-1],"split_conditions":[1.3385313E0,-1.9858764E0,8.893807E-1,1.3781856E-2,2.696511E0,-2.7057746E-2,1E-1,-2.6890058E-2,7.7798706E-1,2.342007E0,1E-1,1E-1,-1.0304122E-2,-1.8517338E0,1E-1,-7.443379E-2,-2.7096078E-2,-2.7025938E-2,1E-1],"split_indices":[352,182,347,353,180,0,0,0,348,115,0,0,0,182,0,353,0,0,0],"split_type":[0,0,0,0,0,0,0,0,0,0,0,0,0,0,0,0,0,0,0],"sum_hessian":[3.394403E5,3.0862478E5,3.0815516E4,3.0198074E2,3.083228E5,1.0618247E3,2.9753691E4,2.808411E2,2.1139624E1,3.083195E5,3.2943578E0,1.8736599E1,2.4030254E0,3.0831594E5,3.5575528E0,7.54816E2,3.0756112E5,7.47938E2,6.8779917E0],"tree_param":{"num_deleted":"0","num_feature":"387","num_nodes":"19","size_leaf_vector":"1"}},{"base_weights":[3.3651001E-3,-2.5840927E-2,2E0,-2.5652556E-2,1E-1],"categories":[],"categories_nodes":[],"categories_segments":[],"categories_sizes":[],"default_left":[0,0,0,0,0],"id":22,"left_children":[1,-1,3,-1,-1],"loss_changes":[3.0948997E5,0E0,2.1272812E3,0E0,0E0],"parents":[2147483647,0,0,2,2],"right_children":[2,-1,4,-1,-1],"split_conditions":[1.0282422E0,-2.5840927E-2,2.1215408E0,-2.5652556E-2,1E-1],"split_indices":[341,0,367,0,0],"split_type":[0,0,0,0,0],"sum_hessian":[1.4756189E5,1.4172684E5,5.835061E3,3.3604248E2,5.4990186E3],"tree_param":{"num_deleted":"0","num_feature":"387","num_nodes":"5","size_leaf_vector":"1"}},{"base_weights":[7.688737E-3,-2.5779555E-2,2E0,1E-1,-2.5094328E-2],"categories":[],"categories_nodes":[],"categories_segments":[],"categories_sizes":[],"default_left":[0,0,0,0,0],"id":23,"left_children":[1,-1,3,-1,-1],"loss_changes":[2.9303566E5,0E0,5.748906E2,0E0,0E0],"parents":[2147483647,0,0,2,2],"right_children":[2,-1,4,-1,-1],"split_conditions":[1.642281E0,-2.5779555E-2,-6.941704E-1,1E-1,-2.5094328E-2],"split_indices":[349,0,331,0,0],"split_type":[0,0,0,0,0],"sum_hessian":[1.373418E5,1.3245239E5,4.889414E3,4.7983467E3,9.1067215E1],"tree_param":{"num_deleted":"0","num_feature":"387","num_nodes":"5","size_leaf_vector":"1"}},{"base_weights":[3.3424562E-3,-5.155182E-1,2E0,-5.2086407E-1,2E0,-2.6124239E-2,2E0,-5.224159E-1,2E0,-2.6180109E-2,1E-1,1E-1,-1.37412045E-2,-5.2545863E-1,4.973659E-1,-1.9458972E-2,1E-1,1E-1,-5.256499E-1,-2.63307E-2,1E-1,-5.258681E-1,7.569603E-1,-5.261404E-1,9.554008E-2,-2.4478756E-2,1E-1,-2.6311114E-2,6.251886E-2,1E-1,-2.5745189E-2],"categories":[],"categories_nodes":[],"categories_segments":[],"categories_sizes":[],"default_left":[0,0,0,0,0,0,0,0,0,0,0,0,0,0,0,0,0,0,0,0,0,0,0,0,0,0,0,0,0,0,0],"id":24,"left_children":[1,3,5,7,9,-1,11,13,15,-1,-1,-1,-1,17,19,-1,-1,-1,21,-1,-1,23,25,27,29,-1,-1,-1,-1,-1,-1],"loss_changes":[4.728717E5,3.7207695E3,1.289E3,1.4591445E3,1.497675E3,0E0,2.159375E1,7.047422E2,4.8084595E1,0E0,0E0,0E0,0E0,1.8010938E2,2.2675056E3,0E0,0E0,0E0,6.430078E1,0E0,0E0,3.8390625E1,1.4167581E2,3.453125E1,2.2119168E2,0E0,0E0,0E0,0E0,0E0,0E0],"parents":[2147483647,0,0,1,1,2,2,3,3,4,4,6,6,7,7,8,8,13,13,14,14,18,18,21,21,22,22,23,23,24,24],"right_children":[2,4,6,8,10,-1,12,14,16,-1,-1,-1,-1,18,20,-1,-1,-1,22,-1,-1,24,26,28,30,-1,-1,-1,-1,-1,-1],"split_conditions":[1.8654507E0,3.0901406E0,7.8579265E-1,2.933682E0,-1.02121376E-1,-2.6124239E-2,9.239788E-1,2.368538E0,7.8579265E-1,-2.6180109E-2,1E-1,1E-1,-1.37412045E-2,-3.597193E0,6.4940333E-1,-1.9458972E-2,1E-1,1E-1,2.9913332E0,-2.63307E-2,1E-1,3.1086507E0,1.7822385E0,2.5646594E0,7.5414515E-1,-2.4478756E-2,1E-1,-2.6311114E-2,6.251886E-2,1E-1,-2.5745189E-2],"split_indices":[345,306,334,148,345,0,365,316,334,0,0,0,0,313,350,0,0,0,350,0,0,313,0,337,0,0,0,0,0,0,0],"split_type":[0,0,0,0,0,0,0,0,0,0,0,0,0,0,0,0,0,0,0,0,0,0,0,0,0,0,0,0,0,0,0],"sum_hessian":[2.4222712E5,2.2733575E5,1.4891381E4,2.2695906E5,3.766864E2,2.0178E2,1.4689602E4,2.269102E5,4.8860497E1,2.3436955E2,1.4231685E2,1.4686017E4,3.5843716E0,2.2623639E5,6.738109E2,7.731557E0,4.112894E1,5.0510545E0,2.2623134E5,5.9289966E2,8.091124E1,2.2619412E5,3.720768E1,2.2609612E5,9.8011E1,3.1435026E1,5.7726536E0,2.2608703E5,9.092018E0,7.2157984E0,9.0795204E1],"tree_param":{"num_deleted":"0","num_feature":"387","num_nodes":"31","size_leaf_vector":"1"}},{"base_weights":[-7.911541E-4,2E0,-5.4999954E-1,-2.696086E-2,1E-1,-5.5000633E-1,3.1308457E-3,-2.7500886E-2,-1.7365669E-1,-2.2032863E-2,3.3181455E-2],"categories":[],"categories_nodes":[],"categories_segments":[],"categories_sizes":[],"default_left":[0,0,0,0,0,0,0,0,0,0,0],"id":25,"left_children":[1,3,5,-1,-1,7,-1,-1,9,-1,-1],"loss_changes":[7.154369E5,7.57375E2,1.5390625E0,0E0,0E0,8.984375E-1,0E0,0E0,4.3193836E0,0E0,0E0],"parents":[2147483647,0,0,1,1,2,2,5,5,8,8],"right_children":[2,4,6,-1,-1,8,-1,-1,10,-1,-1],"split_conditions":[8.541442E-2,-5.7903945E-1,5.1993375E0,-2.696086E-2,1E-1,5.1993375E0,3.1308457E-3,-2.7500886E-2,9.473563E-3,-2.2032863E-2,3.3181455E-2],"split_indices":[315,135,180,0,0,34,0,0,355,0,0],"split_type":[0,0,0,0,0,0,0,0,0,0,0],"sum_hessian":[3.8983516E5,3.9813773E4,3.5002138E5,1.1665521E2,3.9697117E4,3.5001847E5,2.9276767E0,3.5000588E5,1.258337E1,1.0532431E1,2.050939E0],"tree_param":{"num_deleted":"0","num_feature":"387","num_nodes":"11","size_leaf_vector":"1"}},{"base_weights":[-5.449499E-4,-5.353327E-1,2E0,-5.410176E-1,2E0,-2.7293056E-2,2E0,-5.424885E-1,7.58063E-2,1E-1,-2.6548926E-2,-9.40678E-3,1E-1,-5.4453945E-1,-2.910848E-1,1E-1,-2.7183121E-2,-2.7298061E-2,-4.4008073E-1,1E-1,-2.7262283E-2,-2.7290119E-2,1E-1],"categories":[],"categories_nodes":[],"categories_segments":[],"categories_sizes":[],"default_left":[0,0,0,0,0,0,0,0,0,0,0,0,0,0,0,0,0,0,0,0,0,0,0],"id":26,"left_children":[1,3,5,7,9,-1,11,13,15,-1,-1,-1,-1,17,19,-1,-1,-1,21,-1,-1,-1,-1],"loss_changes":[4.1671303E5,5.8118594E3,2.3061094E5,2.663672E2,5.6296387E2,0E0,1.275E1,1.5032031E2,1.3861617E3,0E0,0E0,0E0,0E0,4.2445312E1,2.1521138E3,0E0,0E0,0E0,1.5320522E3,0E0,0E0,0E0,0E0],"parents":[2147483647,0,0,1,1,2,2,3,3,4,4,6,6,7,7,8,8,13,13,14,14,18,18],"right_children":[2,4,6,8,10,-1,12,14,16,-1,-1,-1,-1,18,20,-1,-1,-1,22,-1,-1,-1,-1],"split_conditions":[7.4395204E-1,1.4347748E0,3.1292495E-1,1.3597387E0,7.19218E-1,-2.7293056E-2,2.4870245E-1,6.983136E-1,7.19218E-1,1E-1,-2.6548926E-2,-9.40678E-3,1E-1,2.4085503E0,4.9937382E-1,1E-1,-2.7183121E-2,-2.7298061E-2,4.236699E-1,1E-1,-2.7262283E-2,-2.7290119E-2,1E-1],"split_indices":[220,336,357,336,324,0,346,220,324,0,0,0,0,185,351,0,0,0,372,0,0,0,0],"split_type":[0,0,0,0,0,0,0,0,0,0,0,0,0,0,0,0,0,0,0,0,0,0,0],"sum_hessian":[3.678738E5,2.938765E5,7.399733E4,2.934641E5,4.1240347E2,3.5579562E4,3.841776E4,2.927669E5,6.9718097E2,3.2532312E2,8.708037E1,2.1681406E0,3.8415594E4,2.903942E5,2.3727275E3,8.438752E1,6.1279346E2,2.8648384E5,3.910352E3,1.17378395E2,2.255349E3,3.8295278E3,8.082434E1],"tree_param":{"num_deleted":"0","num_feature":"387","num_nodes":"23","size_leaf_vector":"1"}},{"base_weights":[-2.2292729E-3,-4.990739E-1,2E0,-5.553181E-1,3.2160118E-1,-2.7805349E-2,2E0,-5.177915E-1,-2.7817238E-2,-5.5596954E-1,2E0,1E-1,-9.323969E-3,-5.560142E-1,2E0,-2.7807916E-2,1.6829493E-2,1E-1,-2.755656E-2,-2.7811795E-2,-0E0,-2.608166E-2,1E-1],"categories":[],"categories_nodes":[],"categories_segments":[],"categories_sizes":[],"default_left":[0,0,0,0,0,0,0,0,0,0,0,0,0,0,0,0,0,0,0,0,0,0,0],"id":27,"left_children":[1,3,5,7,9,-1,11,13,-1,15,17,-1,-1,19,21,-1,-1,-1,-1,-1,-1,-1,-1],"loss_changes":[4.9790053E5,1.65705E4,1.698379E5,1.221875E1,5.4153113E4,0E0,1.2375E1,9.8989185E2,0E0,3.5185547E0,1.4256055E3,0E0,0E0,1.0454102E0,2.35258E2,0E0,0E0,0E0,0E0,0E0,0E0,0E0,0E0],"parents":[2147483647,0,0,1,1,2,2,3,3,4,4,6,6,7,7,9,9,10,10,13,13,14,14],"right_children":[2,4,6,8,10,-1,12,14,-1,16,18,-1,-1,20,22,-1,-1,-1,-1,-1,-1,-1,-1],"split_conditions":[1.2284598E0,5.1993375E0,4.6484607E-1,1.4477961E-1,1.1939264E-1,-2.7805349E-2,4.8924693E-1,1.1939264E-1,-2.7817238E-2,-7.296266E-2,4.8924693E-1,1E-1,-9.323969E-3,-2.7340093E-1,1.4638269E-1,-2.7807916E-2,1.6829493E-2,1E-1,-2.755656E-2,-2.7811795E-2,-0E0,-2.608166E-2,1E-1],"split_indices":[365,179,382,83,362,0,332,362,0,362,332,0,0,362,351,0,0,0,0,0,0,0,0],"split_type":[0,0,0,0,0,0,0,0,0,0,0,0,0,0,0,0,0,0,0,0,0,0,0],"sum_hessian":[4.3504594E5,3.5898078E5,7.606515E4,3.3595734E5,2.3023447E4,2.599338E4,5.0071766E4,8.979182E3,3.2697816E5,1.8216346E4,4.8071E3,5.0069668E4,2.0987017E0,8.865064E3,1.14117355E2,1.8213621E4,2.7255123E0,4.5888706E3,2.1822975E2,8.862274E3,2.7903748E0,3.620251E1,7.791485E1],"tree_param":{"num_deleted":"0","num_feature":"387","num_nodes":"23","size_leaf_vector":"1"}},{"base_weights":[2.975597E-3,-5.2388847E-1,2E0,-5.2757376E-1,2E0,-2.6633332E-2,1E-1,2E0,-5.299103E-1,-2.4925241E-2,1E-1,-2.453057E-2,1E-1,6.0680187E-1,-5.3221667E-1,-2.6739705E-2,1E-1,-5.3401244E-1,-6.782936E-2,-5.3577656E-1,-4.460181E-1,-2.6789172E-2,1E-1,-5.359081E-1,1.7390301E0,-2.686368E-2,2E0,1.8927343E-3,-2.6805658E-2,-2.0399267E-2,1E-1,1E-1,7.3277988E-3],"categories":[],"categories_nodes":[],"categories_segments":[],"categories_sizes":[],"default_left":[0,0,0,0,0,0,0,0,0,0,0,0,0,0,0,0,0,0,0,0,0,0,0,0,0,0,0,0,0,0,0,0,0],"id":28,"left_children":[1,3,5,7,9,-1,-1,11,13,-1,-1,-1,-1,15,17,-1,-1,19,21,23,25,-1,-1,27,29,-1,31,-1,-1,-1,-1,-1,-1],"loss_changes":[5.5986675E5,3.9287734E3,1.881625E3,2.4453672E3,2.0540723E2,0E0,0E0,1.6767444E2,7.3390625E2,0E0,0E0,0E0,0E0,1.8564669E3,2.3215625E2,0E0,0E0,4.2484375E1,1.7849222E3,8.3828125E1,1.9023123E3,0E0,0E0,3.2117188E1,5.299596E1,0E0,3.9398193E0,0E0,0E0,0E0,0E0,0E0,0E0],"parents":[2147483647,0,0,1,1,2,2,3,3,4,4,7,7,8,8,13,13,14,14,17,17,18,18,19,19,20,20,23,23,24,24,26,26],"right_children":[2,4,6,8,10,-1,-1,12,14,-1,-1,-1,-1,16,18,-1,-1,20,22,24,26,-1,-1,28,30,-1,32,-1,-1,-1,-1,-1,-1],"split_conditions":[1.665165E0,1.6756263E0,3.9372045E-1,-2.934889E0,1.0820806E0,-2.6633332E-2,1E-1,-1.073555E-1,-7.413764E-1,-2.4925241E-2,1E-1,-2.453057E-2,1E-1,-2.0783734E-1,1.5525117E0,-2.6739705E-2,1E-1,5.1993375E0,6.9689E-1,2.9494507E0,2.86846E-1,-2.6789172E-2,1E-1,-3.0934908E0,1.8603829E0,-2.686368E-2,8.812708E-1,1.8927343E-3,-2.6805658E-2,-2.0399267E-2,1E-1,1E-1,7.3277988E-3],"split_indices":[370,325,356,290,331,0,0,325,332,0,0,0,0,370,370,0,0,36,340,104,380,0,0,13,318,0,366,0,0,0,0,0,0],"split_type":[0,0,0,0,0,0,0,0,0,0,0,0,0,0,0,0,0,0,0,0,0,0,0,0,0,0,0,0,0,0,0,0,0],"sum_hessian":[3.0679144E5,2.7996516E5,2.6826291E4,2.7976528E5,1.9985768E2,2.925427E2,2.6533748E4,1.3348918E2,2.7963178E5,3.2125572E1,1.677321E2,2.625748E1,1.07231705E2,5.6498694E2,2.790668E5,4.5893744E2,1.0604951E2,2.7799056E5,1.0762588E3,2.7251388E5,5.4766733E3,9.936322E2,8.262659E1,2.7249947E5,1.4391891E1,5.3861494E3,9.052384E1,9.6399055E1,2.724031E5,8.550861E0,5.841029E0,8.829975E1,2.22409E0],"tree_param":{"num_deleted":"0","num_feature":"387","num_nodes":"33","size_leaf_vector":"1"}},{"base_weights":[-1.9474035E-3,-5.361952E-1,1.4064983E0,-5.371296E-1,2E0,1E-1,-2.7738476E-2,-5.4191965E-1,-9.190881E-2,-2.1438524E-2,1E-1,-2.7755717E-2,-4.5728764E-1,1E-1,-2.7717432E-2,-2.7741862E-2,2E0,-2.5422363E-2,2E0,1.8540133E-2,1E-1],"categories":[],"categories_nodes":[],"categories_segments":[],"categories_sizes":[],"default_left":[0,0,0,0,0,0,0,0,0,0,0,0,0,0,0,0,0,0,0,0,0],"id":29,"left_children":[1,3,5,7,9,-1,-1,11,13,-1,-1,-1,15,-1,-1,-1,17,-1,19,-1,-1],"loss_changes":[3.2102762E5,9.8577344E2,3.8924675E5,6.589219E2,5.7011658E1,0E0,0E0,3.4095312E2,4.8544087E3,0E0,0E0,0E0,1.4051518E4,0E0,0E0,0E0,2.4709863E2,0E0,1.5068359E0,0E0,0E0],"parents":[2147483647,0,0,1,1,2,2,3,3,4,4,7,7,8,8,12,12,16,16,18,18],"right_children":[2,4,6,8,10,-1,-1,12,14,-1,-1,-1,16,-1,-1,-1,18,-1,20,-1,-1],"split_conditions":[1.1337034E0,2.8067114E0,7.898305E-1,1.1083499E0,-3.6952773E-1,1E-1,-2.7738476E-2,2.1480839E-1,-9.230524E-2,-2.1438524E-2,1E-1,-2.7755717E-2,2.0254125E-1,1E-1,-2.7717432E-2,-2.7741862E-2,1.5285101E-2,-2.5422363E-2,3.139889E-1,1.8540133E-2,1E-1],"split_indices":[365,262,336,365,324,0,0,379,336,0,0,0,328,0,0,0,372,0,348,0,0],"split_type":[0,0,0,0,0,0,0,0,0,0,0,0,0,0,0,0,0,0,0,0,0],"sum_hessian":[4.26633E5,3.093083E5,1.173247E5,3.0923462E5,7.366981E1,5.1355953E4,6.596875E4,3.0594162E5,3.2930088E3,8.939685E0,6.473012E1,2.6466444E5,4.127718E4,3.4003683E2,2.952972E3,4.0338836E4,9.383454E2,3.8483894E1,8.998615E2,2.3184862E0,8.97543E2],"tree_param":{"num_deleted":"0","num_feature":"387","num_nodes":"21","size_leaf_vector":"1"}},{"base_weights":[1.9284706E-4,-5.4655063E-1,2E0,-2.7348233E-2,-4.510394E-1,-2.7243698E-2,1E-1,-2.7314672E-2,1E-1],"categories":[],"categories_nodes":[],"categories_segments":[],"categories_sizes":[],"default_left":[0,0,0,0,0,0,0,0,0],"id":30,"left_children":[1,3,5,-1,7,-1,-1,-1,-1],"loss_changes":[6.667735E5,1.25390625E1,3.6515E3,0E0,5.095152E2,0E0,0E0,0E0,0E0],"parents":[2147483647,0,0,1,1,2,2,4,4],"right_children":[2,4,6,-1,8,-1,-1,-1,-1],"split_conditions":[2.1412663E0,1.9809383E0,9.866586E-1,-2.7348233E-2,7.19218E-1,-2.7243698E-2,1E-1,-2.7314672E-2,1E-1],"split_indices":[368,346,327,0,324,0,0,0,0],"split_type":[0,0,0,0,0,0,0,0,0],"sum_hessian":[3.761217E5,3.3477172E5,4.134997E4,3.333146E5,1.4571112E3,5.630141E2,4.0786957E4,1.429553E3,2.7558243E1],"tree_param":{"num_deleted":"0","num_feature":"387","num_nodes":"9","size_leaf_vector":"1"}},{"base_weights":[5.780084E-4,-5.435286E-1,1E-1,-5.449906E-1,1E-1,-4.510542E-1,-2.7279127E-2,2E0,-2.7253954E-2,1E-1,-2.336011E-2],"categories":[],"categories_nodes":[],"categories_segments":[],"categories_sizes":[],"default_left":[0,0,0,0,0,0,0,0,0,0,0],"id":31,"left_children":[1,3,-1,5,-1,7,-1,9,-1,-1,-1],"loss_changes":[6.538241E5,1.8232656E3,0E0,1.7445312E1,0E0,6.192195E2,0E0,9.810809E1,0E0,0E0,0E0],"parents":[2147483647,0,0,1,1,3,3,5,5,7,7],"right_children":[2,4,-1,6,-1,8,-1,10,-1,-1,-1],"split_conditions":[1.6205924E0,5.1993375E0,1E-1,-1.0124743E0,1E-1,-1.5810336E0,-2.7279127E-2,4.5914823E-1,-2.7253954E-2,1E-1,-2.336011E-2],"split_indices":[134,190,0,270,0,203,0,330,0,0,0],"split_type":[0,0,0,0,0,0,0,0,0,0,0],"sum_hessian":[3.6468434E5,3.2640912E5,3.827521E4,3.263167E5,9.244382E1,2.0557747E3,3.242609E5,5.265606E1,2.0031185E3,3.729399E1,1.536207E1],"tree_param":{"num_deleted":"0","num_feature":"387","num_nodes":"11","size_leaf_vector":"1"}},{"base_weights":[-2.6863199E-3,2E0,-5.417949E-1,-2.7889973E-2,2E0,2.2615622E-1,-5.4904085E-1,1E-1,-2.4583152E-2,-2.7870089E-2,1E-1,-2.7885893E-2,-4.675878E-1,-5.583288E-1,1E-1,-2.7922919E-2,2.548188E-2],"categories":[],"categories_nodes":[],"categories_segments":[],"categories_sizes":[],"default_left":[0,0,0,0,0,0,0,0,0,0,0,0,0,0,0,0,0],"id":32,"left_children":[1,3,5,-1,7,9,11,-1,-1,-1,-1,-1,13,15,-1,-1,-1],"loss_changes":[6.079073E5,1.2190775E5,2.0586719E3,0E0,1.203125E2,7.6289155E3,2.5828906E2,0E0,0E0,0E0,0E0,0E0,1.1237176E4,5.463867E0,0E0,0E0,0E0],"parents":[2147483647,0,0,1,1,2,2,4,4,5,5,6,6,12,12,13,13],"right_children":[2,4,6,-1,8,10,12,-1,-1,-1,-1,-1,14,16,-1,-1,-1],"split_conditions":[-7.446945E-1,1.2230049E0,-7.2578925E-1,-2.7889973E-2,1.2264677E0,7.8579265E-1,7.4215525E-1,1E-1,-2.4583152E-2,-2.7870089E-2,1E-1,-2.7885893E-2,3.8375694E-1,1.2029209E0,1E-1,-2.7922919E-2,2.548188E-2],"split_indices":[194,357,194,0,332,334,371,0,0,0,0,0,377,334,0,0,0],"split_type":[0,0,0,0,0,0,0,0,0,0,0,0,0,0,0,0,0],"sum_hessian":[4.442919E5,7.438679E4,3.6990512E5,1.8632857E4,5.5753934E4,3.456533E3,3.664486E5,5.5735324E4,1.8611124E1,2.8288691E3,6.27664E2,3.3115638E5,3.5292207E4,3.455079E4,7.414174E2,3.454778E4,3.0079176E0],"tree_param":{"num_deleted":"0","num_feature":"387","num_nodes":"17","size_leaf_vector":"1"}},{"base_weights":[1.567592E-3,-5.3030205E-1,1E-1,-5.324757E-1,1E-1,-5.333774E-1,2E0,-5.335896E-1,1E-1,-1.6654972E-2,1E-1,-5.350015E-1,-1.5966332E-1,-2.675061E-2,-0E0,-2.6675453E-2,1E-1,1.7453188E-2,-1.4443653E-2],"categories":[],"categories_nodes":[],"categories_segments":[],"categories_sizes":[],"default_left":[0,0,0,0,0,0,0,0,0,0,0,0,0,0,0,0,0,0,0],"id":33,"left_children":[1,3,-1,5,-1,7,9,11,-1,-1,-1,13,15,-1,17,-1,-1,-1,-1],"loss_changes":[5.454606E5,2.346711E3,0E0,9.386719E2,0E0,2.2353906E2,3.0322754E1,1.3995312E2,0E0,0E0,0E0,1.09375E0,1.3820499E3,0E0,1.5078912E0,0E0,0E0,0E0,0E0],"parents":[2147483647,0,0,1,1,3,3,5,5,6,6,7,7,11,11,12,12,14,14],"right_children":[2,4,-1,6,-1,8,10,12,-1,-1,-1,14,16,-1,18,-1,-1,-1,-1],"split_conditions":[2.7498417E0,3.460525E0,1E-1,2.301654E0,1E-1,3.6969612E0,-3.0573934E-1,1.6972742E0,1E-1,-1.6654972E-2,1E-1,5.1993375E0,1.5851667E0,-2.675061E-2,2.090849E0,-2.6675453E-2,1E-1,1.7453188E-2,-1.4443653E-2],"split_indices":[369,364,0,132,0,348,327,364,0,0,0,189,344,0,325,0,0,0,0],"split_type":[0,0,0,0,0,0,0,0,0,0,0,0,0,0,0,0,0,0,0],"sum_hessian":[2.9037003E5,2.6632372E5,2.4046316E4,2.662336E5,9.010386E1,2.6619134E5,4.224904E1,2.6618256E5,8.789211E0,4.9279585E0,3.732108E1,2.6517928E5,1.0033001E3,2.6517347E5,5.797212E0,9.448474E2,5.84527E1,2.0379026E0,3.7593095E0],"tree_param":{"num_deleted":"0","num_feature":"387","num_nodes":"19","size_leaf_vector":"1"}},{"base_weights":[7.588969E-4,-5.349348E-1,2E0,-5.4029214E-1,6.5668786E-1,1E-1,-1.5981592E-2,7.333535E-2,-5.408568E-1,1E-1,-2.7019177E-2,-2.6831416E-2,2E0,-5.4092383E-1,2E0,1E-1,-1.1752576E-2,-5.409813E-1,1.8584759E0,1E-1,-1.1207369E-2,-5.409957E-1,3.9944347E-2,1E-1,-1.2434032E-2,-4.5616022E-1,-5.412011E-1,-2.6988987E-2,1E-1,-2.706698E-2,-2.532563E-2],"categories":[],"categories_nodes":[],"categories_segments":[],"categories_sizes":[],"default_left":[0,0,0,0,0,0,0,0,0,0,0,0,0,0,0,0,0,0,0,0,0,0,0,0,0,0,0,0,0,0,0],"id":34,"left_children":[1,3,5,7,9,-1,-1,11,13,-1,-1,-1,15,17,19,-1,-1,21,23,-1,-1,25,-1,-1,-1,27,29,-1,-1,-1,-1],"loss_changes":[6.130982E5,1.9560391E3,2.7125E1,1.05734375E2,4.463853E3,0E0,0E0,5.4450995E2,5.7148438E1,0E0,0E0,0E0,1.6572205E1,4.44375E1,1.54254E1,0E0,0E0,6.9140625E0,1.7405699E1,0E0,0E0,4.6328125E0,0E0,0E0,0E0,2.342529E2,7.65625E-1,0E0,0E0,0E0,0E0],"parents":[2147483647,0,0,1,1,2,2,3,3,4,4,7,7,8,8,12,12,13,13,14,14,17,17,18,18,21,21,25,25,26,26],"right_children":[2,4,6,8,10,-1,-1,12,14,-1,-1,-1,16,18,20,-1,-1,22,24,-1,-1,26,-1,-1,-1,28,30,-1,-1,-1,-1],"split_conditions":[2.2740364E0,1.7361059E0,9.3213683E-1,-1.9858764E0,6.2013704E-1,1E-1,-1.5981592E-2,1.3781856E-2,2.696511E0,1E-1,-2.7019177E-2,-2.6831416E-2,1.0432576E0,2.1926599E0,5.1993375E0,1E-1,-1.1752576E-2,3.0910063E0,1.1140325E0,1E-1,-1.1207369E-2,-1.8517338E0,3.9944347E-2,1E-1,-1.2434032E-2,-2.377922E-1,1.5897442E0,-2.6988987E-2,1E-1,-2.706698E-2,-2.532563E-2],"split_indices":[373,373,332,182,337,0,0,353,182,0,0,0,364,115,182,0,0,141,4,0,0,182,0,0,0,384,373,0,0,0,0],"split_type":[0,0,0,0,0,0,0,0,0,0,0,0,0,0,0,0,0,0,0,0,0,0,0,0,0,0,0,0,0,0,0],"sum_hessian":[3.3898584E5,3.062625E5,3.2723338E4,3.04893E5,1.3695117E3,3.2718924E4,4.41495E0,2.79282E2,3.0461372E5,2.9559232E2,1.0739194E3,2.4535065E2,3.3931355E1,3.0460747E5,6.2650495E0,3.1160034E1,2.7713192E0,3.0460153E5,5.925899E0,3.6813743E0,2.5836754E0,3.0459953E5,2.0031857E0,3.056635E0,2.869264E0,7.497283E2,3.0384978E5,7.3834393E2,1.1384335E1,3.0260575E5,1.244055E3],"tree_param":{"num_deleted":"0","num_feature":"387","num_nodes":"31","size_leaf_vector":"1"}},{"base_weights":[4.3772124E-3,-5.138265E-1,2E0,2E0,-2.5830908E-2,1E-1,-2.5650745E-2,1E-1,-2.4448454E-2],"categories":[],"categories_nodes":[],"categories_segments":[],"categories_sizes":[],"default_left":[0,0,0,0,0,0,0,0,0],"id":35,"left_children":[1,3,5,7,-1,-1,-1,-1,-1],"loss_changes":[3.0155088E5,1.4792812E3,2.2298125E3,2.8066382E2,0E0,0E0,0E0,0E0,0E0],"parents":[2147483647,0,0,1,1,2,2,3,3],"right_children":[2,4,6,8,-1,-1,-1,-1,-1],"split_conditions":[2.6361778E0,-7.76396E-1,-2.1288618E-1,-8.79918E-1,-2.5830908E-2,1E-1,-2.5650745E-2,1E-1,-2.4448454E-2],"split_indices":[332,373,328,340,0,0,0,0,0],"split_type":[0,0,0,0,0,0,0,0,0],"sum_hessian":[1.4654466E5,1.4007266E5,6.4719956E3,7.603685E1,1.3999662E5,6.1197026E3,3.5229294E2,3.1503529E1,4.453332E1],"tree_param":{"num_deleted":"0","num_feature":"387","num_nodes":"9","size_leaf_vector":"1"}},{"base_weights":[-8.929764E-3,-2.5770357E-2,2E0,-2.5090247E-2,1E-1],"categories":[],"categories_nodes":[],"categories_segments":[],"categories_sizes":[],"default_left":[0,0,0,0,0],"id":36,"left_children":[1,-1,3,-1,-1],"loss_changes":[2.791998E5,0E0,5.771719E2,0E0,0E0],"parents":[2147483647,0,0,2,2],"right_children":[2,-1,4,-1,-1],"split_conditions":[1.642281E0,-2.5770357E-2,7.8438425E-1,-2.5090247E-2,1E-1],"split_indices":[349,0,323,0,0],"split_type":[0,0,0,0,0],"sum_hessian":[1.3643286E5,1.3114931E5,5.2835537E3,9.143374E1,5.1921196E3],"tree_param":{"num_deleted":"0","num_feature":"387","num_nodes":"5","size_leaf_vector":"1"}},{"base_weights":[4.083965E-3,-5.149394E-1,2E0,-5.2052855E-1,2E0,-2.6101122E-2,2E0,-5.221231E-1,2E0,1E-1,-2.6179304E-2,1E-1,-1.2985716E-2,-5.251137E-1,4.6806005E-1,-1.9078005E-2,1E-1,1E-1,-5.2536213E-1,-2.6307765E-2,1E-1,-5.2555496E-1,6.9434565E-1,-5.2580214E-1,6.363223E-3,-2.4269661E-2,1E-1,-2.6301095E-2,-5.336343E-3,1E-1,-2.5767192E-2],"categories":[],"categories_nodes":[],"categories_segments":[],"categories_sizes":[],"default_left":[0,0,0,0,0,0,0,0,0,0,0,0,0,0,0,0,0,0,0,0,0,0,0,0,0,0,0,0,0,0,0],"id":37,"left_children":[1,3,5,7,9,-1,11,13,15,-1,-1,-1,-1,17,19,-1,-1,-1,21,-1,-1,23,25,27,29,-1,-1,-1,-1,-1,-1],"loss_changes":[4.606949E5,3.7631875E3,1.2716562E3,1.4561016E3,1.5253416E3,0E0,1.978125E1,6.654844E2,4.5058594E1,0E0,0E0,0E0,0E0,2.2996484E2,2.165506E3,0E0,0E0,0E0,5.354297E1,0E0,0E0,2.9441406E1,1.2189436E2,2.0042969E1,1.9848167E2,0E0,0E0,0E0,0E0,0E0,0E0],"parents":[2147483647,0,0,1,1,2,2,3,3,4,4,6,6,7,7,8,8,13,13,14,14,18,18,21,21,22,22,23,23,24,24],"right_children":[2,4,6,8,10,-1,12,14,16,-1,-1,-1,-1,18,20,-1,-1,-1,22,-1,-1,24,26,28,30,-1,-1,-1,-1,-1,-1],"split_conditions":[1.8654507E0,3.0901406E0,7.8579265E-1,2.933682E0,2.513349E0,-2.6101122E-2,9.239788E-1,2.368538E0,5.902624E-2,1E-1,-2.6179304E-2,1E-1,-1.2985716E-2,-3.2535183E0,6.4940333E-1,-1.9078005E-2,1E-1,1E-1,2.9913332E0,-2.6307765E-2,1E-1,3.1052213E0,1.7822385E0,3.244338E0,6.1659086E-1,-2.4269661E-2,1E-1,-2.6301095E-2,-5.336343E-3,1E-1,-2.5767192E-2],"split_indices":[345,306,334,148,7,0,365,316,326,0,0,0,0,313,350,0,0,0,350,0,0,313,0,276,0,0,0,0,0,0,0],"split_type":[0,0,0,0,0,0,0,0,0,0,0,0,0,0,0,0,0,0,0,0,0,0,0,0,0,0,0,0,0,0,0],"sum_hessian":[2.4156388E5,2.2498406E5,1.6579812E4,2.2458072E5,4.0334903E2,1.991318E2,1.6380682E4,2.2452672E5,5.3995377E1,1.646322E2,2.3871684E2,1.6377381E4,3.299991E0,2.2385184E5,6.7487366E2,7.258538E0,4.673684E1,7.00203E0,2.2384484E5,5.869269E2,8.794676E1,2.2381072E5,3.411761E1,2.237077E5,1.0301842E2,2.8476309E1,5.641303E0,2.2358888E5,1.1882901E2,7.253063E0,9.576536E1],"tree_param":{"num_deleted":"0","num_feature":"387","num_nodes":"31","size_leaf_vector":"1"}},{"base_weights":[-1.3404101E-3,2E0,-5.492952E-1,1E-1,-2.703457E-2,-5.493021E-1,7.995764E-3,-2.7465561E-2,-1.9596933E-1,-2.1352906E-2,2.2555837E-2],"categories":[],"categories_nodes":[],"categories_segments":[],"categories_sizes":[],"default_left":[0,0,0,0,0,0,0,0,0,0,0],"id":38,"left_children":[1,3,5,-1,-1,7,-1,-1,9,-1,-1],"loss_changes":[6.865075E5,8.99375E2,1.8984375E0,0E0,0E0,5.15625E-1,0E0,0E0,2.7619672E0,0E0,0E0],"parents":[2147483647,0,0,1,1,2,2,5,5,8,8],"right_children":[2,4,6,-1,-1,8,-1,-1,10,-1,-1],"split_conditions":[8.541442E-2,6.7055744E-1,5.1993375E0,1E-1,-2.703457E-2,5.1993375E0,7.995764E-3,-2.7465561E-2,-4.2905736E-1,-2.1352906E-2,2.2555837E-2],"split_indices":[315,136,180,0,0,44,0,0,332,0,0],"split_type":[0,0,0,0,0,0,0,0,0,0,0],"sum_hessian":[3.8993894E5,4.3979734E4,3.459592E5,4.3841215E4,1.3851924E2,3.4595688E5,2.3210824E0,3.4594566E5,1.1211435E1,9.206373E0,2.005062E0],"tree_param":{"num_deleted":"0","num_feature":"387","num_nodes":"11","size_leaf_vector":"1"}},{"base_weights":[-5.2126157E-5,-5.34609E-1,2E0,-5.4034966E-1,2E0,-2.7252177E-2,2E0,-5.418279E-1,7.9760715E-2,1E-1,-2.6489874E-2,-9.566216E-3,1E-1,-5.438714E-1,-2.92399E-1,1E-1,-2.7136976E-2,-2.7262822E-2,-4.3889302E-1,1E-1,-2.7219197E-2,1E-1,-2.7256256E-2],"categories":[],"categories_nodes":[],"categories_segments":[],"categories_sizes":[],"default_left":[0,0,0,0,0,0,0,0,0,0,0,0,0,0,0,0,0,0,0,0,0,0,0],"id":39,"left_children":[1,3,5,7,9,-1,11,13,15,-1,-1,-1,-1,17,19,-1,-1,-1,21,-1,-1,-1,-1],"loss_changes":[3.943115E5,5.592508E3,2.2678212E5,2.6602344E2,5.491477E2,0E0,1.29375E1,1.4688281E2,1.3175518E3,0E0,0E0,0E0,0E0,4.10625E1,2.0400002E3,0E0,0E0,0E0,1.4246487E3,0E0,0E0,0E0,0E0],"parents":[2147483647,0,0,1,1,2,2,3,3,4,4,6,6,7,7,8,8,13,13,14,14,18,18],"right_children":[2,4,6,8,10,-1,12,14,16,-1,-1,-1,-1,18,20,-1,-1,-1,22,-1,-1,-1,-1],"split_conditions":[7.4395204E-1,1.4347748E0,3.1292495E-1,1.3597387E0,3.9908683E-1,-2.7252177E-2,4.8924693E-1,6.983136E-1,3.9908683E-1,1E-1,-2.6489874E-2,-9.566216E-3,1E-1,2.4565337E0,4.9937382E-1,1E-1,-2.7136976E-2,-2.7262822E-2,2.696511E0,1E-1,-2.7219197E-2,1E-1,-2.7256256E-2],"split_indices":[220,336,357,336,327,0,332,220,327,0,0,0,0,188,351,0,0,0,180,0,0,0,0],"split_type":[0,0,0,0,0,0,0,0,0,0,0,0,0,0,0,0,0,0,0,0,0,0,0],"sum_hessian":[3.680096E5,2.9052894E5,7.748065E4,2.9008494E5,4.440148E2,3.5011305E4,4.2469348E4,2.8939603E5,6.8888873E2,3.590104E2,8.500442E1,2.194846E0,4.2467152E4,2.870406E5,2.3554329E3,9.263178E1,5.9625696E2,2.83292E5,3.7486064E3,1.2770178E2,2.227731E3,8.564502E1,3.6629614E3],"tree_param":{"num_deleted":"0","num_feature":"387","num_nodes":"23","size_leaf_vector":"1"}},{"base_weights":[-3.9294087E-3,1.7330151E0,-2.7771974E-2,-5.5508184E-1,2E0,-2.7766114E-2,1.5847746E-1,-2.6471628E-2,1E-1,1.1851357E0,-2.1564396E-2,1E-1,-9.774021E-3],"categories":[],"categories_nodes":[],"categories_segments":[],"categories_sizes":[],"default_left":[0,0,0,0,0,0,0,0,0,0,0,0,0],"id":40,"left_children":[1,3,-1,5,7,-1,9,-1,-1,11,-1,-1,-1],"loss_changes":[4.1754984E5,2.8597988E5,0E0,7.9248047E0,3.088125E2,0E0,1.1972573E1,0E0,0E0,1.0021252E1,0E0,0E0,0E0],"parents":[2147483647,0,0,1,1,3,3,4,4,6,6,9,9],"right_children":[2,4,-1,6,8,-1,10,-1,-1,12,-1,-1,-1],"split_conditions":[1.4477961E-1,1.1939264E-1,-2.7771974E-2,-2.7340093E-1,-2.4488129E-1,-2.7766114E-2,6.665233E-1,-2.6471628E-2,1E-1,1.0418692E0,-2.1564396E-2,1E-1,-9.774021E-3],"split_indices":[83,362,0,362,369,0,330,0,0,323,0,0,0],"split_type":[0,0,0,0,0,0,0,0,0,0,0,0,0],"sum_hessian":[4.3587728E5,1.05044E5,3.3083328E5,4.4951277E4,6.0092727E4,4.4937168E4,1.4107655E1,4.7455463E1,6.0045273E4,4.9041295E0,9.203526E0,2.699701E0,2.2044282E0],"tree_param":{"num_deleted":"0","num_feature":"387","num_nodes":"13","size_leaf_vector":"1"}},{"base_weights":[3.1504184E-3,-5.1689076E-1,2E0,-5.2056015E-1,2E0,-2.6791409E-2,1E-1,2E0,-5.225295E-1,-2.2811687E-2,1E-1,-2.4556933E-2,1E-1,-5.312365E-1,5.47393E-2,1.0376402E0,-5.328342E-1,-2.684604E-2,1E-1,1E-1,-2.6529694E-2,4.012571E-1,-5.3324556E-1,1E-1,-2.6315836E-2,-5.352095E-1,-4.1123468E-1,-2.6804373E-2,-2.4639213E-2,-2.6810685E-2,1E-1],"categories":[],"categories_nodes":[],"categories_segments":[],"categories_sizes":[],"default_left":[0,0,0,0,0,0,0,0,0,0,0,0,0,0,0,0,0,0,0,0,0,0,0,0,0,0,0,0,0,0,0],"id":41,"left_children":[1,3,5,7,9,-1,-1,11,13,-1,-1,-1,-1,15,17,19,21,-1,-1,-1,-1,23,25,-1,-1,27,29,-1,-1,-1,-1],"loss_changes":[5.243133E5,3.8283125E3,1.0517469E4,1.9282031E3,9.324829E1,0E0,0E0,1.709668E2,1.3833047E3,0E0,0E0,0E0,0E0,6.808906E2,8.0724736E3,1.00343585E3,1.0458594E2,0E0,0E0,0E0,0E0,3.3730798E2,6.421875E1,0E0,0E0,9.2421875E0,2.0298635E3,0E0,0E0,0E0,0E0],"parents":[2147483647,0,0,1,1,2,2,3,3,4,4,7,7,8,8,13,13,14,14,15,15,16,16,21,21,22,22,25,25,26,26],"right_children":[2,4,6,8,10,-1,-1,12,14,-1,-1,-1,-1,16,18,20,22,-1,-1,-1,-1,24,26,-1,-1,28,30,-1,-1,-1,-1],"split_conditions":[1.3657018E0,1.6756263E0,-2.588517E-1,-2.934889E0,1.0820806E0,-2.6791409E-2,1E-1,-1.073555E-1,2.3664367E0,-2.2811687E-2,1E-1,-2.4556933E-2,1E-1,-7.6664656E-1,6.339521E-1,9.5427585E-1,-3.0934908E0,-2.684604E-2,1E-1,1E-1,-2.6529694E-2,1.218002E0,1.269572E0,1E-1,-2.6315836E-2,5.1993375E0,-2.1540308E-1,-2.6804373E-2,-2.4639213E-2,-2.6810685E-2,1E-1],"split_indices":[356,325,331,290,331,0,0,325,215,0,0,0,0,329,325,330,13,0,0,0,0,4,356,0,0,36,331,0,0,0,0],"split_type":[0,0,0,0,0,0,0,0,0,0,0,0,0,0,0,0,0,0,0,0,0,0,0,0,0,0,0,0,0,0,0],"sum_hessian":[3.062184E5,2.7551712E5,3.0701281E4,2.7531906E5,1.9804715E2,1.6347719E3,2.9066508E4,1.2569932E2,2.7519338E5,1.47093315E1,1.8333781E2,2.6776209E1,9.892311E1,2.7110522E5,4.088157E3,2.7448996E2,2.7083072E5,3.6575369E3,4.3062012E2,7.891239E1,1.9557756E2,1.1803479E2,2.707127E5,1.8487461E1,9.954733E1,2.6641516E5,4.297532E3,2.6098511E5,5.4300576E3,4.200793E3,9.673945E1],"tree_param":{"num_deleted":"0","num_feature":"387","num_nodes":"31","size_leaf_vector":"1"}},{"base_weights":[-4.3086275E-3,2E0,-5.3636783E-1,-5.524752E-1,2E0,-5.518984E-1,2E0,-2.7707133E-2,1E-1,-4.965946E-1,2E0,2E0,-5.530689E-1,-2.1419244E-2,1E-1,-2.6934078E-2,2.9871533E-2,-1.095278E-2,1E-1,1E-1,-2.5388304E-2,-5.532652E-1,1.7317827E0,-5.540165E-1,8.428719E-3,-2.2887703E-2,1E-1,-5.541139E-1,-1.802275E-1,-2.7570028E-2,1E-1,-1.7869627E-1,-2.7707098E-2,-2.6994413E-2,1E-1,-2.5386399E-2,1E-1],"categories":[],"categories_nodes":[],"categories_segments":[],"categories_sizes":[],"default_left":[0,0,0,0,0,0,0,0,0,0,0,0,0,0,0,0,0,0,0,0,0,0,0,0,0,0,0,0,0,0,0,0,0,0,0,0,0],"id":42,"left_children":[1,3,5,7,9,11,13,-1,-1,15,17,19,21,-1,-1,-1,-1,-1,-1,-1,-1,23,25,27,29,-1,-1,31,33,-1,-1,35,-1,-1,-1,-1,-1],"loss_changes":[6.0936006E5,6.2535E4,1.9530375E4,5.2240234E1,5.424375E2,1.2993438E3,5.6873047E1,0E0,0E0,4.885023E0,1.48125E1,1.7099274E2,1.639375E2,0E0,0E0,0E0,0E0,0E0,0E0,0E0,0E0,1.5199219E2,7.647567E1,1.24921875E1,7.9053406E2,0E0,0E0,3.1796875E0,1.0380346E2,0E0,0E0,2.547361E1,0E0,0E0,0E0,0E0,0E0],"parents":[2147483647,0,0,1,1,2,2,3,3,4,4,5,5,6,6,9,9,10,10,11,11,12,12,21,21,22,22,23,23,24,24,27,27,28,28,31,31],"right_children":[2,4,6,8,10,12,14,-1,-1,16,18,20,22,-1,-1,-1,-1,-1,-1,-1,-1,24,26,28,30,-1,-1,32,34,-1,-1,36,-1,-1,-1,-1,-1],"split_conditions":[-9.300285E-1,2.3414598E-1,2.8067114E0,1.460475E-1,4.8924693E-1,-3.1224513E0,-3.6952773E-1,-2.7707133E-2,1E-1,1.9381584E0,-7.742211E-2,-2.6759937E-1,2.5933785E0,-2.1419244E-2,1E-1,-2.6934078E-2,2.9871533E-2,-1.095278E-2,1E-1,1E-1,-2.5388304E-2,3.1384103E0,2.5126264E0,2.5771468E0,1.1257762E0,-2.2887703E-2,1E-1,-3.108742E0,-1.3739751E-1,-2.7570028E-2,1E-1,-3.5074753E-1,-2.7707098E-2,-2.6994413E-2,1E-1,-2.5386399E-2,1E-1],"split_indices":[91,364,262,141,332,248,324,0,0,335,371,0,214,0,0,0,0,0,0,0,0,162,318,262,4,0,0,248,324,0,0,324,0,0,0,0,0],"split_type":[0,0,0,0,0,0,0,0,0,0,0,0,0,0,0,0,0,0,0,0,0,0,0,0,0,0,0,0,0,0,0,0,0,0,0,0,0],"sum_hessian":[4.275851E5,6.5853266E4,3.6173184E5,9.5976045E3,5.6255656E4,3.6034234E5,1.3895161E3,9.594045E3,3.5595984E0,8.625129E1,5.6169406E4,1.300267E2,3.602123E5,8.919476E0,1.3805966E3,8.422945E1,2.0218425E0,2.4689329E0,5.6166938E4,1.03622734E2,2.6403973E1,3.601827E5,2.9599222E1,3.5970253E5,4.8017148E2,1.22161045E1,1.7383118E1,3.5960672E5,9.580062E1,4.1364954E2,6.652195E1,2.8876507E1,3.5957784E5,8.717448E1,8.626146E0,2.6394897E1,2.4816113E0],"tree_param":{"num_deleted":"0","num_feature":"387","num_nodes":"37","size_leaf_vector":"1"}},{"base_weights":[-9.4432663E-4,-5.4578096E-1,2E0,-2.731138E-2,-4.4434246E-1,-2.7206615E-2,1E-1,-2.7277252E-2,1E-1],"categories":[],"categories_nodes":[],"categories_segments":[],"categories_sizes":[],"default_left":[0,0,0,0,0,0,0,0,0],"id":43,"left_children":[1,3,5,-1,7,-1,-1,-1,-1],"loss_changes":[6.367475E5,1.42890625E1,3.6565E3,0E0,5.2193445E2,0E0,0E0,0E0,0E0],"parents":[2147483647,0,0,1,1,2,2,4,4],"right_children":[2,4,6,-1,8,-1,-1,-1,-1],"split_conditions":[2.1412663E0,1.9809383E0,9.866586E-1,-2.731138E-2,8.855078E-1,-2.7206615E-2,1E-1,-2.7277252E-2,1E-1],"split_indices":[368,346,327,0,327,0,0,0,0],"split_type":[0,0,0,0,0,0,0,0,0],"sum_hessian":[3.7593353E5,3.3048966E5,4.544387E4,3.290296E5,1.4600734E3,5.6411426E2,4.4879758E4,1.4276613E3,3.2412075E1],"tree_param":{"num_deleted":"0","num_feature":"387","num_nodes":"9","size_leaf_vector":"1"}},{"base_weights":[2.4553717E-4,-5.428267E-1,1E-1,-5.442787E-1,1E-1,-4.681917E-1,-2.7244035E-2,-5.3937536E-1,1E-1,-2.7222602E-2,3.1749943E-1,1E-1,-2.1935128E-2],"categories":[],"categories_nodes":[],"categories_segments":[],"categories_sizes":[],"default_left":[0,0,0,0,0,0,0,0,0,0,0,0,0],"id":44,"left_children":[1,3,-1,5,-1,7,-1,9,-1,-1,11,-1,-1],"loss_changes":[6.258677E5,1.7255391E3,0E0,1.40625E1,0E0,6.516922E2,0E0,1.1327942E1,0E0,0E0,2.8992517E1,0E0,0E0],"parents":[2147483647,0,0,1,1,3,3,5,5,7,7,10,10],"right_children":[2,4,-1,6,-1,8,-1,10,-1,-1,12,-1,-1],"split_conditions":[1.6205924E0,5.1993375E0,1E-1,-1.6205924E0,1E-1,5.760854E-1,-2.7244035E-2,-2.1036077E-1,1E-1,-2.7222602E-2,-6.14606E-1,1E-1,-2.1935128E-2],"split_indices":[134,192,0,2,0,349,0,349,0,0,323,0,0],"split_type":[0,0,0,0,0,0,0,0,0,0,0,0,0],"sum_hessian":[3.6428966E5,3.2209662E5,4.2193043E4,3.2199662E5,9.9994736E1,2.543401E3,3.1945322E5,2.5047415E3,3.8659374E1,2.491113E3,1.3628465E1,2.7100205E0,1.0918445E1],"tree_param":{"num_deleted":"0","num_feature":"387","num_nodes":"13","size_leaf_vector":"1"}},{"base_weights":[-3.4652296E-3,2E0,-5.407213E-1,-2.7843652E-2,2E0,2.2603877E-1,-5.4809386E-1,1E-1,-2.4464408E-2,-2.7824733E-2,1E-1,-2.783741E-2,-4.6674892E-1,-5.5779445E-1,1E-1,-2.7895002E-2,2.6699463E-2],"categories":[],"categories_nodes":[],"categories_segments":[],"categories_sizes":[],"default_left":[0,0,0,0,0,0,0,0,0,0,0,0,0,0,0,0,0],"id":45,"left_children":[1,3,5,-1,7,9,11,-1,-1,-1,-1,-1,13,15,-1,-1,-1],"loss_changes":[5.7190675E5,1.199665E5,2.0631094E3,0E0,1.17E2,7.246299E3,2.5375E2,0E0,0E0,0E0,0E0,0E0,1.0629447E4,4.626953E0,0E0,0E0,0E0],"parents":[2147483647,0,0,1,1,2,2,4,4,5,5,6,6,12,12,13,13],"right_children":[2,4,6,-1,8,10,12,-1,-1,-1,-1,-1,14,16,-1,-1,-1],"split_conditions":[-7.446945E-1,1.2230049E0,-7.2578925E-1,-2.7843652E-2,-3.296078E-1,3.3789475E-2,7.4215525E-1,1E-1,-2.4464408E-2,-2.7824733E-2,1E-1,-2.783741E-2,3.8375694E-1,2.0509868E0,1E-1,-2.7895002E-2,2.6699463E-2],"split_indices":[194,357,194,0,323,365,371,0,0,0,0,0,377,331,0,0,0],"split_type":[0,0,0,0,0,0,0,0,0,0,0,0,0,0,0,0,0],"sum_hessian":[4.4436812E5,7.94651E4,3.6490303E5,1.8349412E4,6.1115688E4,3.4741328E3,3.614289E5,6.109757E4,1.811908E1,2.78103E3,6.931028E2,3.266603E5,3.47686E4,3.396301E4,8.0558954E2,3.396092E4,2.0909677E0],"tree_param":{"num_deleted":"0","num_feature":"387","num_nodes":"17","size_leaf_vector":"1"}},{"base_weights":[3.4005905E-3,-5.2954304E-1,1E-1,-5.3180724E-1,1E-1,-5.3281647E-1,2E0,1E-1,-5.3310645E-1,-1.6300913E-2,1E-1,-2.6723573E-2,-1.7099848E-1,-2.6643535E-2,1E-1],"categories":[],"categories_nodes":[],"categories_segments":[],"categories_sizes":[],"default_left":[0,0,0,0,0,0,0,0,0,0,0,0,0,0,0],"id":46,"left_children":[1,3,-1,5,-1,7,9,-1,11,-1,-1,-1,13,-1,-1],"loss_changes":[5.274141E5,2.345289E3,0E0,1.01221875E3,0E0,2.9351562E2,2.8934631E1,0E0,1.2922656E2,0E0,0E0,0E0,1.2817496E3,0E0,0E0],"parents":[2147483647,0,0,1,1,3,3,5,5,6,6,8,8,12,12],"right_children":[2,4,-1,6,-1,8,10,-1,12,-1,-1,-1,14,-1,-1],"split_conditions":[2.7498417E0,3.460525E0,1E-1,2.301654E0,1E-1,-7.22538E-1,-4.2364678E-1,1E-1,1.6972742E0,-1.6300913E-2,1E-1,-2.6723573E-2,1.5851667E0,-2.6643535E-2,1E-1],"split_indices":[369,364,0,132,0,367,327,0,364,0,0,0,344,0,0],"split_type":[0,0,0,0,0,0,0,0,0,0,0,0,0,0,0],"sum_hessian":[2.8947894E5,2.6277572E5,2.6703232E4,2.6267278E5,1.02942726E2,2.6262225E5,5.0530266E1,1.3401325E1,2.6260884E5,4.711905E0,4.5818363E1,2.6162053E5,9.88316E2,9.26373E2,6.1942978E1],"tree_param":{"num_deleted":"0","num_feature":"387","num_nodes":"15","size_leaf_vector":"1"}},{"base_weights":[1.6077795E-3,-5.4007685E-1,2E0,-1.7278153E-1,-5.4042554E-1,-2.6993513E-2,1E-1,-2.6821425E-2,1E-1,-5.404644E-1,9.3859084E-2,-4.6953028E-1,-5.4063416E-1,-2.6947847E-2,1E-1,-2.7032679E-2,-3.693026E-1,5.8904823E-2,-2.5400514E-2],"categories":[],"categories_nodes":[],"categories_segments":[],"categories_sizes":[],"default_left":[0,0,0,0,0,0,0,0,0,0,0,0,0,0,0,0,0,0,0],"id":47,"left_children":[1,3,5,7,9,-1,-1,-1,-1,11,-1,13,15,-1,-1,-1,17,-1,-1],"loss_changes":[5.887297E5,3.7890625E1,6.6153125E3,3.5230048E2,3.0632812E1,0E0,0E0,0E0,0E0,2.9375E0,0E0,1.8382071E2,3.4375E-1,0E0,0E0,0E0,1.0632727E1,0E0,0E0],"parents":[2147483647,0,0,1,1,2,2,3,3,4,4,9,9,11,11,12,12,16,16],"right_children":[2,4,6,8,10,-1,-1,-1,-1,12,-1,14,16,-1,-1,-1,18,-1,-1],"split_conditions":[1.3385313E0,-1.9858764E0,8.380109E-1,4.6484607E-1,2.696511E0,-2.6993513E-2,1E-1,-2.6821425E-2,1E-1,-1.8517338E0,9.3859084E-2,-1.0752359E-1,2.5117912E0,-2.6947847E-2,1E-1,-2.7032679E-2,4.074416E-1,5.8904823E-2,-2.5400514E-2],"split_indices":[352,182,327,382,182,0,0,0,0,182,0,353,190,0,0,0,200,0,0],"split_type":[0,0,0,0,0,0,0,0,0,0,0,0,0,0,0,0,0,0,0],"sum_hessian":[3.379507E5,3.0042784E5,3.7522824E4,2.870243E2,3.0014084E5,1.0246666E3,3.649816E4,2.6587372E2,2.11506E1,3.0013738E5,3.4487698E0,7.3352783E2,2.9940384E5,7.233515E2,1.0176335E1,2.9936372E5,4.014207E1,2.0810838E0,3.8060986E1],"tree_param":{"num_deleted":"0","num_feature":"387","num_nodes":"19","size_leaf_vector":"1"}},{"base_weights":[7.746631E-3,-5.142758E-1,2E0,-5.160412E-1,1E-1,1E-1,-2.5637686E-2,4.4996974E-1,-2.5819717E-2,-2.445147E-2,1E-1],"categories":[],"categories_nodes":[],"categories_segments":[],"categories_sizes":[],"default_left":[0,0,0,0,0,0,0,0,0,0,0],"id":48,"left_children":[1,3,5,7,-1,-1,-1,9,-1,-1,-1],"loss_changes":[2.9686106E5,1.0827344E3,2.2088906E3,4.7773438E1,0E0,0E0,0E0,1.6325385E2,0E0,0E0,0E0],"parents":[2147483647,0,0,1,1,2,2,3,3,7,7],"right_children":[2,4,6,8,-1,-1,-1,10,-1,-1,-1],"split_conditions":[2.6361778E0,3.9603422E0,-2.1288618E-1,-7.76396E-1,1E-1,1E-1,-2.5637686E-2,3.0615695E0,-2.5819717E-2,-2.445147E-2,1E-1],"split_indices":[332,326,328,373,0,0,0,326,0,0,0],"split_type":[0,0,0,0,0,0,0,0,0,0,0],"sum_hessian":[1.456153E5,1.3838573E5,7.229569E3,1.3836362E5,2.210951E1,6.8805156E3,3.490536E2,4.9343987E1,1.3831428E5,4.492208E1,4.421902E0],"tree_param":{"num_deleted":"0","num_feature":"387","num_nodes":"11","size_leaf_vector":"1"}},{"base_weights":[2.653411E-3,-2.5760064E-2,2E0,-2.510995E-2,1E-1],"categories":[],"categories_nodes":[],"categories_segments":[],"categories_sizes":[],"default_left":[0,0,0,0,0],"id":49,"left_children":[1,-1,3,-1,-1],"loss_changes":[2.7863366E5,0E0,6.081719E2,0E0,0E0],"parents":[2147483647,0,0,2,2],"right_children":[2,-1,4,-1,-1],"split_conditions":[1.7750987E0,-2.5760064E-2,2.386876E0,-2.510995E-2,1E-1],"split_indices":[323,0,324,0,0],"split_type":[0,0,0,0,0],"sum_hessian":[1.355455E5,1.29520266E5,6.025238E3,9.635083E1,5.928887E3],"tree_param":{"num_deleted":"0","num_feature":"387","num_nodes":"5","size_leaf_vector":"1"}},{"base_weights":[6.7005157E-3,-5.139249E-1,2E0,-5.18442E-1,2E0,-2.608462E-2,1E-1,-5.201936E-1,2E0,-2.6056642E-2,1E-1,-5.2180696E-1,2E0,-1.8796561E-2,1E-1,-5.2494556E-1,4.9703416E-1,-1.981066E-2,1E-1,-5.2514064E-1,6.61166E-1,-2.6282353E-2,1E-1,-5.263222E-1,-4.4172347E-1,-2.427555E-2,1E-1,-2.6371688E-2,-2.4209391E-2,1E-1,-2.627185E-2],"categories":[],"categories_nodes":[],"categories_segments":[],"categories_sizes":[],"default_left":[0,0,0,0,0,0,0,0,0,0,0,0,0,0,0,0,0,0,0,0,0,0,0,0,0,0,0,0,0,0,0],"id":50,"left_children":[1,3,5,7,9,-1,-1,11,13,-1,-1,15,17,-1,-1,19,21,-1,-1,23,25,-1,-1,27,29,-1,-1,-1,-1,-1,-1],"loss_changes":[4.478705E5,3.0081445E3,1.2859375E3,1.5477031E3,1.1143435E3,0E0,0E0,1.4136953E3,4.312549E1,0E0,0E0,7.0948047E2,5.139795E1,0E0,0E0,5.1992188E1,2.1561348E3,0E0,0E0,2.1128906E1,1.19103516E2,0E0,0E0,9.5390625E0,1.01747894E3,0E0,0E0,0E0,0E0,0E0,0E0],"parents":[2147483647,0,0,1,1,2,2,3,3,4,4,7,7,8,8,11,11,12,12,15,15,16,16,19,19,20,20,23,23,24,24],"right_children":[2,4,6,8,10,-1,-1,12,14,-1,-1,16,18,-1,-1,20,22,-1,-1,24,26,-1,-1,28,30,-1,-1,-1,-1,-1,-1],"split_conditions":[1.8654507E0,3.3525178E0,4.9937382E-1,2.9997408E0,-1.02121376E-1,-2.608462E-2,1E-1,3.0983531E0,2.775962E0,-2.6056642E-2,1E-1,2.368538E0,1.4758071E-2,-1.8796561E-2,1E-1,2.9913332E0,6.4940333E-1,-1.981066E-2,1E-1,1.574761E0,1.7822385E0,-2.6282353E-2,1E-1,2.3500352E0,5.1993375E0,-2.427555E-2,1E-1,-2.6371688E-2,-2.4209391E-2,1E-1,-2.627185E-2],"split_indices":[345,175,351,3,345,0,0,307,119,0,0,316,334,0,0,350,350,0,0,337,0,0,0,37,137,0,0,0,0,0,0],"split_type":[0,0,0,0,0,0,0,0,0,0,0,0,0,0,0,0,0,0,0,0,0,0,0,0,0,0,0,0,0,0,0],"sum_hessian":[2.4057123E5,2.2211342E5,1.8457826E4,2.2179261E5,3.2079773E2,2.0143118E2,1.8256395E4,2.2172908E5,6.3531265E1,1.745231E2,1.4627461E2,2.2166873E5,6.0345448E1,6.9586716E0,5.6572594E1,2.2098919E5,6.795449E2,8.253297E0,5.209215E1,2.2095411E5,3.5087784E1,5.780318E2,1.0151314E2,2.1785438E5,3.0997341E3,2.8801004E1,6.286778E0,2.1222655E5,5.6278267E3,4.1696774E1,3.0580374E3],"tree_param":{"num_deleted":"0","num_feature":"387","num_nodes":"31","size_leaf_vector":"1"}},{"base_weights":[-1.565852E-3,2E0,-5.4851896E-1,-2.692431E-2,1E-1,-5.485329E-1,-8.5863166E-2,-5.485399E-1,1.410829E-3,-2.1574322E-2,4.5124546E-2,-2.7427226E-2,-0E0],"categories":[],"categories_nodes":[],"categories_segments":[],"categories_sizes":[],"default_left":[0,0,0,0,0,0,0,0,0,0,0,0,0],"id":51,"left_children":[1,3,5,-1,-1,7,9,11,-1,-1,-1,-1,-1],"loss_changes":[6.561337E5,7.486875E2,1.609375E0,0E0,0E0,1.3984375E0,6.0398574E0,3.671875E-1,0E0,0E0,0E0,0E0,0E0],"parents":[2147483647,0,0,1,1,2,2,5,5,6,6,7,7],"right_children":[2,4,6,-1,-1,8,10,12,-1,-1,-1,-1,-1],"split_conditions":[8.541442E-2,-5.7903945E-1,5.1993375E0,-2.692431E-2,1E-1,5.1993375E0,-8.5705906E-2,1.5969753E0,1.410829E-3,-2.1574322E-2,4.5124546E-2,-2.7427226E-2,-0E0],"split_indices":[315,135,1,0,0,180,331,357,0,0,0,0,0],"split_type":[0,0,0,0,0,0,0,0,0,0,0,0,0],"sum_hessian":[3.9001572E5,4.8420734E4,3.41595E5,1.15378685E2,4.830536E4,3.4158338E5,1.1632561E1,3.415802E5,3.1819105E0,9.619646E0,2.0129142E0,3.415765E5,3.685911E0],"tree_param":{"num_deleted":"0","num_feature":"387","num_nodes":"13","size_leaf_vector":"1"}},{"base_weights":[-1.2944554E-4,-5.3615475E-1,1.866941E0,-5.429472E-1,-2.5548345E-1,-2.720043E-2,1E-1,-2.7232757E-2,-3.0573636E-1,-2.7231473E-2,1E-1,-2.722972E-2,1E-1],"categories":[],"categories_nodes":[],"categories_segments":[],"categories_sizes":[],"default_left":[0,0,0,0,0,0,0,0,0,0,0,0,0],"id":52,"left_children":[1,3,5,7,9,-1,-1,-1,11,-1,-1,-1,-1],"loss_changes":[3.6791528E5,5.4389844E2,2.2603603E5,1.1234375E2,6.3662407E3,0E0,0E0,0E0,1.5753075E3,0E0,0E0,0E0,0E0],"parents":[2147483647,0,0,1,1,2,2,3,3,4,4,8,8],"right_children":[2,4,6,8,10,-1,-1,-1,12,-1,-1,-1,-1],"split_conditions":[5.1993375E0,1.6443685E0,3.1292495E-1,6.611619E-1,3.1292495E-1,-2.720043E-2,1E-1,-2.7232757E-2,3.1292495E-1,-2.7231473E-2,1E-1,-2.722972E-2,1E-1],"split_indices":[179,155,357,179,357,0,0,0,357,0,0,0,0],"split_type":[0,0,0,0,0,0,0,0,0,0,0,0,0],"sum_hessian":[3.6761753E5,2.8561922E5,8.199832E4,2.788673E5,6.7519087E3,3.51488E4,4.6849516E4,2.7686972E5,1.9976046E3,6.2884126E3,4.6349615E2,1.8841179E3,1.1348672E2],"tree_param":{"num_deleted":"0","num_feature":"387","num_nodes":"13","size_leaf_vector":"1"}},{"base_weights":[-5.3081163E-3,1.6228966E0,-2.772343E-2,-5.5409807E-1,2E0,-2.7715405E-2,9.775955E-2,-2.604181E-2,1E-1,-2.1307996E-2,1.0587777E0,-1.0212127E-2,1E-1],"categories":[],"categories_nodes":[],"categories_segments":[],"categories_sizes":[],"default_left":[0,0,0,0,0,0,0,0,0,0,0,0,0],"id":53,"left_children":[1,3,-1,5,7,-1,9,-1,-1,-1,11,-1,-1],"loss_changes":[3.895226E5,2.733824E5,0E0,6.1972656E0,2.35E2,0E0,9.771453E0,0E0,0E0,0E0,9.768478E0,0E0,0E0],"parents":[2147483647,0,0,1,1,3,3,4,4,6,6,10,10],"right_children":[2,4,-1,6,8,-1,10,-1,-1,-1,12,-1,-1],"split_conditions":[1.4477961E-1,1.1939264E-1,-2.772343E-2,-2.7340093E-1,4.9937382E-1,-2.7715405E-2,-7.239781E-2,-2.604181E-2,1E-1,-2.1307996E-2,6.3999516E-1,-1.0212127E-2,1E-1],"split_indices":[83,362,0,362,351,0,360,0,0,0,378,0,0],"split_type":[0,0,0,0,0,0,0,0,0,0,0,0,0],"sum_hessian":[4.3563175E5,1.0987116E5,3.257606E5,4.430211E4,6.556905E4,4.4288832E4,1.3276744E1,3.618795E1,6.553286E4,8.795978E0,4.4807653E0,2.2974799E0,2.1832857E0],"tree_param":{"num_deleted":"0","num_feature":"387","num_nodes":"13","size_leaf_vector":"1"}},{"base_weights":[3.1742167E-3,-5.220734E-1,2E0,-5.25906E-1,2E0,-2.655523E-2,1E-1,2E0,-5.2836853E-1,-2.47901E-2,1E-1,-2.4658142E-2,1E-1,1.2841892E0,-5.30584E-1,1E-1,-2.6530787E-2,-5.3240234E-1,-6.8249986E-2,-5.345779E-1,-4.2841297E-1,-2.671817E-2,1E-1,-5.3470415E-1,1.6342245E0,-5.343969E-1,2E0,-2.6744042E-2,-7.446588E-3,-1.9754808E-2,1E-1,-2.6822496E-2,-0E0,1E-1,-1.1120996E-2],"categories":[],"categories_nodes":[],"categories_segments":[],"categories_sizes":[],"default_left":[0,0,0,0,0,0,0,0,0,0,0,0,0,0,0,0,0,0,0,0,0,0,0,0,0,0,0,0,0,0,0,0,0,0,0],"id":54,"left_children":[1,3,5,7,9,-1,-1,11,13,-1,-1,-1,-1,15,17,-1,-1,19,21,23,25,-1,-1,27,29,31,33,-1,-1,-1,-1,-1,-1,-1,-1],"loss_changes":[5.171639E5,3.7413672E3,1.8022812E3,2.3391484E3,1.962373E2,0E0,0E0,1.8094263E2,1.0954844E3,0E0,0E0,0E0,0E0,1.1761956E3,2.2817188E2,0E0,0E0,6.0640625E1,1.6472369E3,7.480469E1,2.1009497E3,0E0,0E0,1.7507812E1,4.6532738E1,5.756714E0,1.5730469E1,0E0,0E0,0E0,0E0,0E0,0E0,0E0,0E0],"parents":[2147483647,0,0,1,1,2,2,3,3,4,4,7,7,8,8,13,13,14,14,17,17,18,18,19,19,20,20,23,23,24,24,25,25,26,26],"right_children":[2,4,6,8,10,-1,-1,12,14,-1,-1,-1,-1,16,18,-1,-1,20,22,24,26,-1,-1,28,30,32,34,-1,-1,-1,-1,-1,-1,-1,-1],"split_conditions":[1.665165E0,1.6756263E0,7.510546E-1,-2.934889E0,8.6522835E-1,-2.655523E-2,1E-1,-1.073555E-1,-7.6664656E-1,-2.47901E-2,1E-1,-2.4658142E-2,1E-1,9.5427585E-1,1.5525117E0,1E-1,-2.6530787E-2,2.3652477E0,1.0392538E0,2.9131277E0,-5.1172253E-2,-2.671817E-2,1E-1,5.1993375E0,1.8603829E0,-1.7563246E-1,1.0432576E0,-2.6744042E-2,-7.446588E-3,-1.9754808E-2,1E-1,-2.6822496E-2,-0E0,1E-1,-1.1120996E-2],"split_indices":[370,325,360,290,360,0,0,325,329,0,0,0,0,330,370,0,0,66,351,104,358,0,0,215,318,358,364,0,0,0,0,0,0,0,0],"split_type":[0,0,0,0,0,0,0,0,0,0,0,0,0,0,0,0,0,0,0,0,0,0,0,0,0,0,0,0,0,0,0,0,0,0,0],"sum_hessian":[3.0548228E5,2.7279597E5,3.2686312E4,2.7255612E5,2.3984087E2,2.8051495E2,3.2405799E4,1.6376544E2,2.7239238E5,3.072677E1,2.0911409E2,2.8334904E1,1.3543054E2,3.31197E2,2.720612E5,1.21882355E2,2.0931462E2,2.7099403E5,1.0671362E3,2.6543003E5,5.564025E3,9.6752814E2,9.960816E1,2.6541594E5,1.4092255E1,5.4363174E3,1.27707436E2,2.6529256E5,1.2334662E2,7.682466E0,6.4097886E0,5.4157017E3,2.0615713E1,1.250553E2,2.6521366E0],"tree_param":{"num_deleted":"0","num_feature":"387","num_nodes":"35","size_leaf_vector":"1"}},{"base_weights":[-5.069208E-3,2E0,-5.3506887E-1,-5.517169E-1,2E0,-5.509156E-1,1E-1,-2.7661527E-2,1E-1,-2.6868377E-2,2E0,-5.521591E-1,2E0,-1.4757507E-2,1E-1,-5.529273E-1,2.4027165E-2,-2.4279084E-2,1E-1,-5.531277E-1,1.4625245E0,-2.752377E-2,1E-1,-2.7660487E-2,-2.1700583E-1,-2.3653703E-2,1E-1,1E-1,-2.6912708E-2],"categories":[],"categories_nodes":[],"categories_segments":[],"categories_sizes":[],"default_left":[0,0,0,0,0,0,0,0,0,0,0,0,0,0,0,0,0,0,0,0,0,0,0,0,0,0,0,0,0],"id":55,"left_children":[1,3,5,7,9,11,-1,-1,-1,-1,13,15,17,-1,-1,19,21,-1,-1,23,25,-1,-1,-1,27,-1,-1,-1,-1],"loss_changes":[5.7231056E5,6.1820938E4,1.8809453E4,4.4666504E1,5.351875E2,1.3565859E3,0E0,0E0,0E0,0E0,2.21875E1,1.5709375E2,1.1387842E2,0E0,0E0,1.4502344E2,7.50017E2,0E0,0E0,9.15625E0,8.539787E1,0E0,0E0,0E0,8.164823E1,0E0,0E0,0E0,0E0],"parents":[2147483647,0,0,1,1,2,2,3,3,4,4,5,5,10,10,11,11,12,12,15,15,16,16,19,19,20,20,24,24],"right_children":[2,4,6,8,10,12,-1,-1,-1,-1,14,16,18,-1,-1,20,22,-1,-1,24,26,-1,-1,-1,28,-1,-1,-1,-1],"split_conditions":[-9.300285E-1,2.3414598E-1,2.8067114E0,1.460475E-1,6.2013704E-1,3.1046674E0,1E-1,-2.7661527E-2,1E-1,-2.6868377E-2,2.3333423E-2,3.1384103E0,4.5914823E-1,-1.4757507E-2,1E-1,2.5933785E0,1.1257762E0,-2.4279084E-2,1E-1,2.578639E0,2.513349E0,-2.752377E-2,1E-1,-2.7660487E-2,1.5230589E0,-2.3653703E-2,1E-1,1E-1,-2.6912708E-2],"split_indices":[91,364,262,141,337,17,0,0,0,0,371,162,330,0,0,214,4,0,0,316,7,0,0,0,326,0,0,0,0],"split_type":[0,0,0,0,0,0,0,0,0,0,0,0,0,0,0,0,0,0,0,0,0,0,0,0,0,0,0,0,0],"sum_hessian":[4.2743416E5,7.09881E4,3.5644603E5,9.49365E3,6.149445E4,3.5492272E5,1.5233252E3,9.49021E3,3.4401383E0,8.2312904E1,6.1412137E4,3.547862E5,1.3653558E2,3.6071017E0,6.140853E4,3.5431466E5,4.715219E2,1.766326E1,1.1887233E2,3.5428078E5,3.3883057E1,3.9795148E2,7.357043E1,3.541919E5,8.887494E1,1.4742395E1,1.9140663E1,7.8573794E0,8.101756E1],"tree_param":{"num_deleted":"0","num_feature":"387","num_nodes":"29","size_leaf_vector":"1"}},{"base_weights":[5.256001E-4,-5.449682E-1,2E0,-2.7270187E-2,-4.4633064E-1,-2.7162796E-2,1E-1,-2.723563E-2,1E-1],"categories":[],"categories_nodes":[],"categories_segments":[],"categories_sizes":[],"default_left":[0,0,0,0,0,0,0,0,0],"id":56,"left_children":[1,3,5,-1,7,-1,-1,-1,-1],"loss_changes":[6.062624E5,1.328125E1,3.5708125E3,0E0,4.80276E2,0E0,0E0,0E0,0E0],"parents":[2147483647,0,0,1,1,2,2,4,4],"right_children":[2,4,6,-1,8,-1,-1,-1,-1],"split_conditions":[2.1412663E0,1.9809383E0,9.866586E-1,-2.7270187E-2,7.19218E-1,-2.7162796E-2,1E-1,-2.723563E-2,1E-1],"split_indices":[368,346,327,0,324,0,0,0,0],"split_type":[0,0,0,0,0,0,0,0,0],"sum_hessian":[3.750187E5,3.2508738E5,4.99313E4,3.236466E5,1.4408005E3,5.512458E2,4.9380055E4,1.4065471E3,3.425344E1],"tree_param":{"num_deleted":"0","num_feature":"387","num_nodes":"9","size_leaf_vector":"1"}},{"base_weights":[1.5702855E-4,-5.420517E-1,1E-1,-5.434981E-1,1E-1,-4.486918E-1,-2.720548E-2,-2.7188206E-2,2E0,-2.1127801E-2,1E-1],"categories":[],"categories_nodes":[],"categories_segments":[],"categories_sizes":[],"default_left":[0,0,0,0,0,0,0,0,0,0,0],"id":57,"left_children":[1,3,-1,5,-1,7,-1,-1,9,-1,-1],"loss_changes":[5.9591275E5,1.6255859E3,0E0,1.7710938E1,0E0,6.100503E2,0E0,0E0,5.8150726E1,0E0,0E0],"parents":[2147483647,0,0,1,1,3,3,5,5,8,8],"right_children":[2,4,-1,6,-1,8,-1,-1,10,-1,-1],"split_conditions":[1.6205924E0,5.1993375E0,1E-1,-1.0124743E0,1E-1,6.752096E-2,-2.720548E-2,-2.7188206E-2,-6.2109894E-1,-2.1127801E-2,1E-1],"split_indices":[134,190,0,270,0,341,0,0,0,0,0],"split_type":[0,0,0,0,0,0,0,0,0,0,0],"sum_hessian":[3.636411E5,3.1727606E5,4.636501E4,3.1716756E5,1.08511856E2,2.0450051E3,3.1512256E5,1.9901145E3,5.4890614E1,9.1884575E0,4.5702156E1],"tree_param":{"num_deleted":"0","num_feature":"387","num_nodes":"11","size_leaf_vector":"1"}},{"base_weights":[-5.9978743E-3,2E0,-5.3959596E-1,-2.7794465E-2,2E0,2.1799403E-1,-5.470125E-1,1E-1,-2.455912E-2,-2.7775353E-2,1E-1,-2.7784979E-2,-4.672524E-1,-5.572127E-1,1E-1,-2.7866503E-2,3.0122414E-2],"categories":[],"categories_nodes":[],"categories_segments":[],"categories_sizes":[],"default_left":[0,0,0,0,0,0,0,0,0,0,0,0,0,0,0,0,0],"id":58,"left_children":[1,3,5,-1,7,9,11,-1,-1,-1,-1,-1,13,15,-1,-1,-1],"loss_changes":[5.327861E5,1.18578125E5,2.0252422E3,0E0,1.225625E2,6.7956406E3,2.4660156E2,0E0,0E0,0E0,0E0,0E0,1.0092521E4,5.4570312E0,0E0,0E0,0E0],"parents":[2147483647,0,0,1,1,2,2,4,4,5,5,6,6,12,12,13,13],"right_children":[2,4,6,-1,8,10,12,-1,-1,-1,-1,-1,14,16,-1,-1,-1],"split_conditions":[-7.446945E-1,1.2230049E0,-7.2578925E-1,-2.7794465E-2,-3.296078E-1,2.776383E-1,7.4215525E-1,1E-1,-2.455912E-2,-2.7775353E-2,1E-1,-2.7784979E-2,3.8375694E-1,1.3306586E0,1E-1,-2.7866503E-2,3.0122414E-2],"split_indices":[194,357,194,0,323,334,371,0,0,0,0,0,377,334,0,0,0],"split_type":[0,0,0,0,0,0,0,0,0,0,0,0,0,0,0,0,0],"sum_hessian":[4.4522178E5,8.482867E4,3.6039312E5,1.815101E4,6.667766E4,3.492842E3,3.5690028E5,6.665868E4,1.8979504E1,2.7384946E3,7.543474E2,3.2183247E5,3.5067812E4,3.4188098E4,8.7971423E2,3.4185848E4,2.249669E0],"tree_param":{"num_deleted":"0","num_feature":"387","num_nodes":"17","size_leaf_vector":"1"}},{"base_weights":[5.0378726E-3,-5.2887666E-1,1E-1,-5.312411E-1,1E-1,-5.321092E-1,2E0,1E-1,-5.325326E-1,-2.061939E-2,1E-1,-5.33891E-1,-1.7683594E-1,-2.6695097E-2,-0E0,-2.6609749E-2,1E-1,-1.3627208E-2,1.7219499E-2],"categories":[],"categories_nodes":[],"categories_segments":[],"categories_sizes":[],"default_left":[0,0,0,0,0,0,0,0,0,0,0,0,0,0,0,0,0,0,0],"id":59,"left_children":[1,3,-1,5,-1,7,9,-1,11,-1,-1,13,15,-1,17,-1,-1,-1,-1],"loss_changes":[5.088619E5,2.3442812E3,0E0,7.986875E2,0E0,4.1277344E2,5.693634E1,0E0,1.2471875E2,0E0,0E0,1.171875E0,1.2186516E3,0E0,1.4055694E0,0E0,0E0,0E0,0E0],"parents":[2147483647,0,0,1,1,3,3,5,5,6,6,8,8,11,11,12,12,14,14],"right_children":[2,4,-1,6,-1,8,10,-1,12,-1,-1,14,16,-1,18,-1,-1,-1,-1],"split_conditions":[2.7498417E0,3.460525E0,1E-1,2.298708E0,1E-1,-7.22538E-1,-3.0573934E-1,1E-1,1.6972742E0,-2.061939E-2,1E-1,5.1993375E0,1.5851667E0,-2.6695097E-2,-6.617041E-1,-2.6609749E-2,1E-1,-1.3627208E-2,1.7219499E-2],"split_indices":[369,364,0,138,0,367,327,0,364,0,0,181,344,0,336,0,0,0,0],"split_type":[0,0,0,0,0,0,0,0,0,0,0,0,0,0,0,0,0,0,0],"sum_hessian":[2.891346E5,2.5950314E5,2.9631443E4,2.5938542E5,1.17719376E2,2.5933314E5,5.227524E1,2.1363804E1,2.5931178E5,9.071825E0,4.3203415E1,2.5832305E5,9.8873895E2,2.5831755E5,5.495282E0,9.2125964E2,6.747926E1,3.4395864E0,2.0556958E0],"tree_param":{"num_deleted":"0","num_feature":"387","num_nodes":"19","size_leaf_vector":"1"}},{"base_weights":[1.6538436E-3,-5.334452E-1,2E0,-5.3896487E-1,6.2671506E-1,1E-1,-1.4847274E-2,3.5013802E-2,-5.395276E-1,1E-1,-2.693857E-2,-2.6782012E-2,1E-1,-5.3957665E-1,9.761729E-2,-5.3962076E-1,1.2476435E0,-4.6020585E-1,-5.3981197E-1,-1.3067282E-2,1E-1,-2.6903955E-2,1E-1,-5.398218E-1,1.5732057E-2,-2.7001176E-2,-2.575749E-2],"categories":[],"categories_nodes":[],"categories_segments":[],"categories_sizes":[],"default_left":[0,0,0,0,0,0,0,0,0,0,0,0,0,0,0,0,0,0,0,0,0,0,0,0,0,0,0],"id":60,"left_children":[1,3,5,7,9,-1,-1,11,13,-1,-1,-1,-1,15,-1,17,19,21,23,-1,-1,-1,-1,25,-1,-1,-1],"loss_changes":[5.6359506E5,1.9098438E3,2.36875E1,9.589844E1,4.0971504E3,0E0,0E0,5.0777527E2,3.8789062E1,0E0,0E0,0E0,0E0,2.4992188E1,0E0,3.8125E0,1.5721419E1,1.9683919E2,2.890625E0,0E0,0E0,0E0,0E0,7.734375E-1,0E0,0E0,0E0],"parents":[2147483647,0,0,1,1,2,2,3,3,4,4,7,7,8,8,13,13,15,15,16,16,17,17,18,18,23,23],"right_children":[2,4,6,8,10,-1,-1,12,14,-1,-1,-1,-1,16,-1,18,20,22,24,-1,-1,-1,-1,26,-1,-1,-1],"split_conditions":[2.2740364E0,1.7361059E0,6.2013704E-1,-1.9858764E0,6.2013704E-1,1E-1,-1.4847274E-2,4.6484607E-1,2.342007E0,1E-1,-2.693857E-2,-2.6782012E-2,1E-1,2.696511E0,9.761729E-2,-1.8517338E0,1.2094097E0,7.1729946E-1,3.091006E0,-1.3067282E-2,1E-1,-2.6903955E-2,1E-1,1.5262121E0,1.5732057E-2,-2.7001176E-2,-2.575749E-2],"split_indices":[373,373,337,182,337,0,0,382,115,0,0,0,0,180,0,182,328,343,135,0,0,0,0,373,0,0,0],"split_type":[0,0,0,0,0,0,0,0,0,0,0,0,0,0,0,0,0,0,0,0,0,0,0,0,0,0,0],"sum_hessian":[3.3800334E5,2.9810978E5,3.9893582E4,2.966994E5,1.410364E3,3.9889703E4,3.8794048E0,2.8965433E2,2.9640975E5,3.62706E2,1.0476581E3,2.5256267E2,3.7091652E1,2.9640528E5,4.459488E0,2.963993E5,5.9844046E0,7.268294E2,2.9567247E5,3.108813E0,2.8755913E0,7.143333E2,1.2496113E1,2.9567022E5,2.2655191E0,2.9322122E5,2.4489983E3],"tree_param":{"num_deleted":"0","num_feature":"387","num_nodes":"27","size_leaf_vector":"1"}},{"base_weights":[1.3830787E-2,-2.580728E-2,2E0,-2.561189E-2,1E-1],"categories":[],"categories_nodes":[],"categories_segments":[],"categories_sizes":[],"default_left":[0,0,0,0,0],"id":61,"left_children":[1,-1,3,-1,-1],"loss_changes":[2.935211E5,0E0,2.0476562E3,0E0,0E0],"parents":[2147483647,0,0,2,2],"right_children":[2,-1,4,-1,-1],"split_conditions":[1.0282422E0,-2.580728E-2,2.283338E0,-2.561189E-2,1E-1],"split_indices":[341,0,381,0,0],"split_type":[0,0,0,0,0],"sum_hessian":[1.4449838E5,1.3639988E5,8.0985015E3,3.2365305E2,7.7748486E3],"tree_param":{"num_deleted":"0","num_feature":"387","num_nodes":"5","size_leaf_vector":"1"}},{"base_weights":[5.79167E-3,-2.57486E-2,2E0,-2.506726E-2,1E-1],"categories":[],"categories_nodes":[],"categories_segments":[],"categories_sizes":[],"default_left":[0,0,0,0,0],"id":62,"left_children":[1,-1,3,-1,-1],"loss_changes":[2.729617E5,0E0,5.720625E2,0E0,0E0],"parents":[2147483647,0,0,2,2],"right_children":[2,-1,4,-1,-1],"split_conditions":[1.642281E0,-2.57486E-2,7.8438425E-1,-2.506726E-2,1E-1],"split_indices":[349,0,323,0,0],"split_type":[0,0,0,0,0],"sum_hessian":[1.3435694E5,1.2763138E5,6.725544E3,9.065125E1,6.6348926E3],"tree_param":{"num_deleted":"0","num_feature":"387","num_nodes":"5","size_leaf_vector":"1"}},{"base_weights":[9.065095E-3,-5.136325E-1,2E0,-5.1929975E-1,2E0,-2.6053512E-2,2E0,-5.2096206E-1,2E0,-2.6189325E-2,1E-1,-8.442801E-3,1E-1,-5.242254E-1,5.141955E-1,-1.7837968E-2,1E-1,1E-1,-5.2439517E-1,-2.625445E-2,1E-1,-5.245645E-1,5.195139E-1,-5.246493E-1,1.1875998E0,-2.4207087E-2,1E-1,-2.6245141E-2,-2.536617E-3,-1.8758394E-2,1E-1],"categories":[],"categories_nodes":[],"categories_segments":[],"categories_sizes":[],"default_left":[0,0,0,0,0,0,0,0,0,0,0,0,0,0,0,0,0,0,0,0,0,0,0,0,0,0,0,0,0,0,0],"id":63,"left_children":[1,3,5,7,9,-1,11,13,15,-1,-1,-1,-1,17,19,-1,-1,-1,21,-1,-1,23,25,27,29,-1,-1,-1,-1,-1,-1],"loss_changes":[4.3447103E5,3.2914219E3,1.2551562E3,1.4127695E3,1.6815793E3,0E0,1.2E1,7.389258E2,3.7154663E1,0E0,0E0,0E0,0E0,1.4226953E2,2.1229658E3,0E0,0E0,0E0,3.9183594E1,0E0,0E0,3.317578E1,1.0243771E2,2.5617188E1,3.6456657E1,0E0,0E0,0E0,0E0,0E0,0E0],"parents":[2147483647,0,0,1,1,2,2,3,3,4,4,6,6,7,7,8,8,13,13,14,14,18,18,21,21,22,22,23,23,24,24],"right_children":[2,4,6,8,10,-1,12,14,16,-1,-1,-1,-1,18,20,-1,-1,-1,22,-1,-1,24,26,28,30,-1,-1,-1,-1,-1,-1],"split_conditions":[1.8654507E0,3.0901406E0,4.9937382E-1,2.9997408E0,-1.02121376E-1,-2.6053512E-2,7.1673554E-1,2.368538E0,-2.3603016E-1,-2.6189325E-2,1E-1,-8.442801E-3,1E-1,-3.597193E0,6.4940333E-1,-1.7837968E-2,1E-1,