{"learner":{"attributes":{"best_iteration":"69","best_score":"0.0513833148433219","scikit_learn":"{\"_estimator_type\": \"classifier\"}"},"feature_names":[],"feature_types":[],"gradient_booster":{"model":{"cats":{"enc":[],"feature_segments":[],"sorted_idx":[]},"gbtree_model_param":{"num_parallel_tree":"1","num_trees":"1210"},"iteration_indptr":[0,11,22,33,44,55,66,77,88,99,110,121,132,143,154,165,176,187,198,209,220,231,242,253,264,275,286,297,308,319,330,341,352,363,374,385,396,407,418,429,440,451,462,473,484,495,506,517,528,539,550,561,572,583,594,605,616,627,638,649,660,671,682,693,704,715,726,737,748,759,770,781,792,803,814,825,836,847,858,869,880,891,902,913,924,935,946,957,968,979,990,1001,1012,1023,1034,1045,1056,1067,1078,1089,1100,1111,1122,1133,1144,1155,1166,1177,1188,1199,1210],"tree_info":[0,1,2,3,4,5,6,7,8,9,10,0,1,2,3,4,5,6,7,8,9,10,0,1,2,3,4,5,6,7,8,9,10,0,1,2,3,4,5,6,7,8,9,10,0,1,2,3,4,5,6,7,8,9,10,0,1,2,3,4,5,6,7,8,9,10,0,1,2,3,4,5,6,7,8,9,10,0,1,2,3,4,5,6,7,8,9,10,0,1,2,3,4,5,6,7,8,9,10,0,1,2,3,4,5,6,7,8,9,10,0,1,2,3,4,5,6,7,8,9,10,0,1,2,3,4,5,6,7,8,9,10,0,1,2,3,4,5,6,7,8,9,10,0,1,2,3,4,5,6,7,8,9,10,0,1,2,3,4,5,6,7,8,9,10,0,1,2,3,4,5,6,7,8,9,10,0,1,2,3,4,5,6,7,8,9,10,0,1,2,3,4,5,6,7,8,9,10,0,1,2,3,4,5,6,7,8,9,10,0,1,2,3,4,5,6,7,8,9,10,0,1,2,3,4,5,6,7,8,9,10,0,1,2,3,4,5,6,7,8,9,10,0,1,2,3,4,5,6,7,8,9,10,0,1,2,3,4,5,6,7,8,9,10,0,1,2,3,4,5,6,7,8,9,10,0,1,2,3,4,5,6,7,8,9,10,0,1,2,3,4,5,6,7,8,9,10,0,1,2,3,4,5,6,7,8,9,10,0,1,2,3,4,5,6,7,8,9,10,0,1,2,3,4,5,6,7,8,9,10,0,1,2,3,4,5,6,7,8,9,10,0,1,2,3,4,5,6,7,8,9,10,0,1,2,3,4,5,6,7,8,9,10,0,1,2,3,4,5,6,7,8,9,10,0,1,2,3,4,5,6,7,8,9,10,0,1,2,3,4,5,6,7,8,9,10,0,1,2,3,4,5,6,7,8,9,10,0,1,2,3,4,5,6,7,8,9,10,0,1,2,3,4,5,6,7,8,9,10,0,1,2,3,4,5,6,7,8,9,10,0,1,2,3,4,5,6,7,8,9,10,0,1,2,3,4,5,6,7,8,9,10,0,1,2,3,4,5,6,7,8,9,10,0,1,2,3,4,5,6,7,8,9,10,0,1,2,3,4,5,6,7,8,9,10,0,1,2,3,4,5,6,7,8,9,10,0,1,2,3,4,5,6,7,8,9,10,0,1,2,3,4,5,6,7,8,9,10,0,1,2,3,4,5,6,7,8,9,10,0,1,2,3,4,5,6,7,8,9,10,0,1,2,3,4,5,6,7,8,9,10,0,1,2,3,4,5,6,7,8,9,10,0,1,2,3,4,5,6,7,8,9,10,0,1,2,3,4,5,6,7,8,9,10,0,1,2,3,4,5,6,7,8,9,10,0,1,2,3,4,5,6,7,8,9,10,0,1,2,3,4,5,6,7,8,9,10,0,1,2,3,4,5,6,7,8,9,10,0,1,2,3,4,5,6,7,8,9,10,0,1,2,3,4,5,6,7,8,9,10,0,1,2,3,4,5,6,7,8,9,10,0,1,2,3,4,5,6,7,8,9,10,0,1,2,3,4,5,6,7,8,9,10,0,1,2,3,4,5,6,7,8,9,10,0,1,2,3,4,5,6,7,8,9,10,0,1,2,3,4,5,6,7,8,9,10,0,1,2,3,4,5,6,7,8,9,10,0,1,2,3,4,5,6,7,8,9,10,0,1,2,3,4,5,6,7,8,9,10,0,1,2,3,4,5,6,7,8,9,10,0,1,2,3,4,5,6,7,8,9,10,0,1,2,3,4,5,6,7,8,9,10,0,1,2,3,4,5,6,7,8,9,10,0,1,2,3,4,5,6,7,8,9,10,0,1,2,3,4,5,6,7,8,9,10,0,1,2,3,4,5,6,7,8,9,10,0,1,2,3,4,5,6,7,8,9,10,0,1,2,3,4,5,6,7,8,9,10,0,1,2,3,4,5,6,7,8,9,10,0,1,2,3,4,5,6,7,8,9,10,0,1,2,3,4,5,6,7,8,9,10,0,1,2,3,4,5,6,7,8,9,10,0,1,2,3,4,5,6,7,8,9,10,0,1,2,3,4,5,6,7,8,9,10,0,1,2,3,4,5,6,7,8,9,10,0,1,2,3,4,5,6,7,8,9,10,0,1,2,3,4,5,6,7,8,9,10,0,1,2,3,4,5,6,7,8,9,10,0,1,2,3,4,5,6,7,8,9,10,0,1,2,3,4,5,6,7,8,9,10,0,1,2,3,4,5,6,7,8,9,10,0,1,2,3,4,5,6,7,8,9,10,0,1,2,3,4,5,6,7,8,9,10,0,1,2,3,4,5,6,7,8,9,10,0,1,2,3,4,5,6,7,8,9,10,0,1,2,3,4,5,6,7,8,9,10,0,1,2,3,4,5,6,7,8,9,10,0,1,2,3,4,5,6,7,8,9,10,0,1,2,3,4,5,6,7,8,9,10,0,1,2,3,4,5,6,7,8,9,10,0,1,2,3,4,5,6,7,8,9,10,0,1,2,3,4,5,6,7,8,9,10,0,1,2,3,4,5,6,7,8,9,10,0,1,2,3,4,5,6,7,8,9,10,0,1,2,3,4,5,6,7,8,9,10,0,1,2,3,4,5,6,7,8,9,10,0,1,2,3,4,5,6,7,8,9,10,0,1,2,3,4,5,6,7,8,9,10,0,1,2,3,4,5,6,7,8,9,10,0,1,2,3,4,5,6,7,8,9,10],"trees":[{"base_weights":[-4.0269244E-4,-5.245446E-1,3E0,-5.314832E-1,1.1209882E0,2.4E-1,-5.2826154E-1,2.7126607E-2,-4.255813E-2,3E0,-4.6287248E-1,-4.2494874E-2,1.02369465E-1,-4.156876E-2,3E0,2.4E-1,-4.10009E-2,-4.9513045E-1,1.0689335E0,2.4E-1,-2.0876596E-2,-4.1207008E-2,-1.0164073E-2,2.4E-1,-2.593837E-2],"categories":[],"categories_nodes":[],"categories_segments":[],"categories_sizes":[],"default_left":[0,0,0,0,0,0,0,0,0,0,0,0,0,0,0,0,0,0,0,0,0,0,0,0,0],"id":0,"left_children":[1,3,5,7,9,-1,11,13,-1,15,17,-1,-1,-1,19,-1,-1,21,23,-1,-1,-1,-1,-1,-1],"loss_changes":[4.07159E5,1.7792109E3,4.763328E4,4.2773438E1,3.1222476E3,0E0,2.223999E1,3.2365353E2,0E0,9.700322E2,2.4076591E1,0E0,0E0,0E0,4.5109253E1,0E0,0E0,2.7263641E0,3.3791264E1,0E0,0E0,0E0,0E0,0E0,0E0],"parents":[2147483647,0,0,1,1,2,2,3,3,4,4,6,6,7,7,9,9,10,10,14,14,17,17,18,18],"right_children":[2,4,6,8,10,-1,12,14,-1,16,18,-1,-1,-1,20,-1,-1,22,24,-1,-1,-1,-1,-1,-1],"split_conditions":[7.1642935E-1,1.6305925E-1,-4.6568066E-3,-3.9848916E-2,-6.4532256E-1,2.4E-1,-2.9308125E-1,8.6261535E-1,-4.255813E-2,1.22071914E-1,1.4202471E0,-4.2494874E-2,1.02369465E-1,-4.156876E-2,4.7540583E-2,2.4E-1,-4.10009E-2,2.9475713E-1,5.154021E-1,2.4E-1,-2.0876596E-2,-4.1207008E-2,-1.0164073E-2,2.4E-1,-2.593837E-2],"split_indices":[62,62,54,18,61,0,47,8,0,9,53,0,0,0,19,0,0,57,0,0,0,0,0,0,0],"split_type":[0,0,0,0,0,0,0,0,0,0,0,0,0,0,0,0,0,0,0,0,0,0,0,0,0],"sum_hessian":[1.6958384E5,1.5567295E5,1.3910887E4,1.5502095E5,6.52007E2,1.0085218E4,3.8256692E3,1.3583777E2,1.5488511E5,1.9997162E2,4.5203537E2,3.8211772E3,4.49204E0,1.2339759E2,1.2440185E1,1.2205262E2,7.791901E1,4.443577E2,7.6776824E0,8.67103E0,3.7691548E0,4.194576E2,2.4900064E1,2.1523523E0,5.5253296E0],"tree_param":{"num_deleted":"0","num_feature":"64","num_nodes":"25","size_leaf_vector":"1"}},{"base_weights":[1.809902E-4,2.093461E0,-6.5519917E-1,2.0979662E0,-6.2138796E-1,-4.3738785E-1,-5.2504763E-2,2.0983405E0,-4.509676E-2,7.5892374E-2,-5.1832438E-2,1.6501863E-1,-5.243585E-2,-4.0818118E-2,2.0985622E0,1.6788825E-1,-1.0610879E-2],"categories":[],"categories_nodes":[],"categories_segments":[],"categories_sizes":[],"default_left":[0,0,0,0,0,0,0,0,0,0,0,0,0,0,0,0,0],"id":1,"left_children":[1,3,5,7,9,11,-1,13,-1,-1,-1,-1,-1,-1,15,-1,-1],"loss_changes":[7.451509E5,1.586875E3,9.903125E1,1.314375E2,1.0732773E1,1.1523755E3,0E0,7.7125E1,0E0,0E0,0E0,0E0,0E0,0E0,1.25E1,0E0,0E0],"parents":[2147483647,0,0,1,1,2,2,3,3,4,4,5,5,7,7,14,14],"right_children":[2,4,6,8,10,12,-1,14,-1,-1,-1,-1,-1,-1,16,-1,-1],"split_conditions":[-4.357044E-1,-3.5072735E-3,-3.7952858E-1,5.722641E-1,-5.643593E-2,-1.6954957E-2,-5.2504763E-2,-4.902778E-1,-4.509676E-2,7.5892374E-2,-5.1832438E-2,1.6501863E-1,-5.243585E-2,-4.0818118E-2,3.4121758E-1,1.6788825E-1,-1.0610879E-2],"split_indices":[33,12,33,50,15,34,0,13,0,0,0,0,0,0,1,0,0],"split_type":[0,0,0,0,0,0,0,0,0,0,0,0,0,0,0,0,0],"sum_hessian":[5.4314825E5,1.2950534E5,4.1364288E5,1.2929143E5,2.1391655E2,2.1043118E3,4.1153856E5,1.2927387E5,1.7560785E1,2.084644E0,2.118319E2,1.6727269E2,1.9370391E3,1.040291E1,1.2926346E5,1.2926142E5,2.0382893E0],"tree_param":{"num_deleted":"0","num_feature":"64","num_nodes":"17","size_leaf_vector":"1"}},{"base_weights":[1.8056543E-4,3E0,-4.0875018E-2,-3.9905213E-2,2.4E-1],"categories":[],"categories_nodes":[],"categories_segments":[],"categories_sizes":[],"default_left":[0,0,0,0,0],"id":2,"left_children":[1,3,-1,-1,-1],"loss_changes":[1.9081258E5,1.51775E3,0E0,0E0,0E0],"parents":[2147483647,0,0,1,1],"right_children":[2,4,-1,-1,-1],"split_conditions":[-7.6510555E-1,4.526346E-1,-4.0875018E-2,-3.9905213E-2,2.4E-1],"split_indices":[53,6,0,0,0],"split_type":[0,0,0,0,0],"sum_hessian":[6.278963E4,1.4709445E3,6.1318688E4,1.2328844E2,1.347656E3],"tree_param":{"num_deleted":"0","num_feature":"64","num_nodes":"5","size_leaf_vector":"1"}},{"base_weights":[1.5932196E-4,-5.4136854E-1,3E0,2.4E-1,-5.414961E-1,2.4E-1,-4.252534E-2,-5.431458E-1,-3.2884994E-1,-4.5220974E-1,-5.436495E-1,2.4E-1,-4.346662E-2,-4.3436293E-2,2.4E-1,-4.353697E-2,-4.061129E-2],"categories":[],"categories_nodes":[],"categories_segments":[],"categories_sizes":[],"default_left":[0,0,0,0,0,0,0,0,0,0,0,0,0,0,0,0,0],"id":3,"left_children":[1,3,5,-1,7,-1,-1,9,11,13,15,-1,-1,-1,-1,-1,-1],"loss_changes":[5.6258144E5,1.18203125E2,2.8776875E3,0E0,7.137891E1,0E0,0E0,8.535156E0,1.6832032E3,5.114882E2,3.2734375E0,0E0,0E0,0E0,0E0,0E0,0E0],"parents":[2147483647,0,0,1,1,2,2,4,4,7,7,8,8,9,9,10,10],"right_children":[2,4,6,-1,8,-1,-1,10,12,14,16,-1,-1,-1,-1,-1,-1],"split_conditions":[7.2295904E-1,-8.535614E-1,1.391797E-1,2.4E-1,4.034045E-1,2.4E-1,-4.252534E-2,-6.44002E-1,2.9595724E-1,4.943989E-1,3.462254E-1,2.4E-1,-4.346662E-2,-4.3436293E-2,2.4E-1,-4.353697E-2,-4.061129E-2],"split_indices":[55,27,44,0,31,0,0,27,60,8,0,0,0,0,0,0,0],"split_type":[0,0,0,0,0,0,0,0,0,0,0,0,0,0,0,0,0],"sum_hessian":[2.2395522E5,2.0555848E5,1.839674E4,3.927602E0,2.0555455E5,1.8166725E4,2.3001598E2,2.0396672E5,1.587823E3,1.1389421E3,2.0282778E5,5.1149338E1,1.5366737E3,1.1234385E3,1.5503693E1,1.9966592E5,3.161858E3],"tree_param":{"num_deleted":"0","num_feature":"64","num_nodes":"17","size_leaf_vector":"1"}},{"base_weights":[1.3182996E-4,-5.0117356E-1,3E0,-5.0823236E-1,3.6429006E-1,3E0,-4.1326743E-2,-5.149284E-1,-3.126187E-1,-4.1300833E-2,3E0,3E0,-3.417249E-2,-5.1569885E-1,-3.234518E-1,-4.5778462E-1,3E0,2.4E-1,-1.2375936E-2,-8.055551E-3,2.4E-1,-4.1418016E-2,-3.648459E-2,-4.1142605E-2,2.4E-1,2.4E-1,-3.7933886E-2,2.4E-1,-3.9343093E-2],"categories":[],"categories_nodes":[],"categories_segments":[],"categories_sizes":[],"default_left":[0,0,0,0,0,0,0,0,0,0,0,0,0,0,0,0,0,0,0,0,0,0,0,0,0,0,0,0,0],"id":4,"left_children":[1,3,5,7,9,11,-1,13,15,-1,17,19,-1,21,23,25,27,-1,-1,-1,-1,-1,-1,-1,-1,-1,-1,-1,-1],"loss_changes":[2.7914516E5,5.9818164E2,1.0820516E4,1.2642969E2,3.6315369E3,1.81875E2,0E0,1.3150391E1,2.0397106E3,0E0,2.5710693E1,4.534375E1,0E0,1.0535156E1,4.2122025E2,2.5889038E2,6.8970154E2,0E0,0E0,0E0,0E0,0E0,0E0,0E0,0E0,0E0,0E0,0E0,0E0],"parents":[2147483647,0,0,1,1,2,2,3,3,4,4,5,5,7,7,8,8,10,10,11,11,13,13,14,14,15,15,16,16],"right_children":[2,4,6,8,10,12,-1,14,16,-1,18,20,-1,22,24,26,28,-1,-1,-1,-1,-1,-1,-1,-1,-1,-1,-1,-1],"split_conditions":[1.0475638E0,9.431345E-1,3.277168E-3,1.2798477E0,6.866677E-1,1.5851E-1,-4.1326743E-2,1.9196451E0,6.736735E-1,-4.1300833E-2,1.5332205E0,3.6556938E-1,-3.417249E-2,8.793649E-1,-8.614438E-2,-1.8134981E-1,9.1106874E-1,2.4E-1,-1.2375936E-2,-8.055551E-3,2.4E-1,-4.1418016E-2,-3.648459E-2,-4.1142605E-2,2.4E-1,2.4E-1,-3.7933886E-2,2.4E-1,-3.9343093E-2],"split_indices":[50,50,37,63,3,54,0,3,50,0,19,34,0,15,50,33,40,0,0,0,0,0,0,0,0,0,0,0,0],"split_type":[0,0,0,0,0,0,0,0,0,0,0,0,0,0,0,0,0,0,0,0,0,0,0,0,0,0,0,0,0],"sum_hessian":[1.0222758E5,9.782153E4,4.4060464E3,9.703153E4,7.899947E2,3.5317612E3,8.7428534E2,9.381434E4,3.2171885E3,7.376848E2,5.230986E1,3.5169082E3,1.4852884E1,9.343242E4,3.8192627E2,3.124668E3,9.252038E1,5.008403E1,2.2258313E0,4.4211645E0,3.512487E3,9.0339305E4,3.0931143E3,3.7692432E2,5.0019665E0,6.4715242E0,3.1181965E3,3.664015E1,5.588023E1],"tree_param":{"num_deleted":"0","num_feature":"64","num_nodes":"29","size_leaf_vector":"1"}},{"base_weights":[6.0723242E-3,-4.0863506E-2,3E0,-4.0016565E-2,3E0,2.4E-1,-1.2695888E-2],"categories":[],"categories_nodes":[],"categories_segments":[],"categories_sizes":[],"default_left":[0,0,0,0,0,0,0],"id":5,"left_children":[1,-1,3,-1,5,-1,-1],"loss_changes":[1.905598E5,0E0,1.7407188E3,0E0,2.6765625E1,0E0,0E0],"parents":[2147483647,0,0,2,2,4,4],"right_children":[2,-1,4,-1,6,-1,-1],"split_conditions":[7.896425E-1,-4.0863506E-2,4.188172E-1,-4.0016565E-2,1.3193884E-1,2.4E-1,-1.2695888E-2],"split_indices":[58,0,60,0,25,0,0],"split_type":[0,0,0,0,0,0,0],"sum_hessian":[6.2085703E4,6.0611387E4,1.4743174E3,1.4138936E2,1.3329281E3,1.3306067E3,2.3213573E0],"tree_param":{"num_deleted":"0","num_feature":"64","num_nodes":"7","size_leaf_vector":"1"}},{"base_weights":[-3.0487413E-3,-4.8821002E-1,3E0,4.1880912E-1,-5.173672E-1,3E0,-4.8411947E-1,-5.025843E-1,3E0,-5.298483E-1,-1.4642045E-1,-4.16684E-2,3E0,3E0,-5.167545E-1,-5.2421427E-1,7.927724E-1,3E0,-3.9764434E-2,-3.605606E-1,-5.343703E-1,3E0,-4.392927E-1,3E0,-2.8355727E-2,2.4E-1,-2.486076E-2,-5.321093E-1,2.4E-1,-1.9552575E-2,-4.284966E-2,2.4E-1,-4.096409E-2,2.4E-1,-2.6731383E-2,2.4E-1,-4.283776E-2,-4.2894606E-2,-3.4959134E-2,2.4E-1,1.7344976E-2,2.4E-1,-4.133047E-2,2.4E-1,-1.3143282E-2,-4.2861603E-2,3.2264903E-2],"categories":[],"categories_nodes":[],"categories_segments":[],"categories_sizes":[],"default_left":[0,0,0,0,0,0,0,0,0,0,0,0,0,0,0,0,0,0,0,0,0,0,0,0,0,0,0,0,0,0,0,0,0,0,0,0,0,0,0,0,0,0,0,0,0,0,0],"id":6,"left_children":[1,3,5,7,9,11,13,15,17,19,21,-1,23,25,27,29,31,33,-1,35,37,39,41,43,-1,-1,-1,45,-1,-1,-1,-1,-1,-1,-1,-1,-1,-1,-1,-1,-1,-1,-1,-1,-1,-1,-1],"loss_changes":[4.0065916E5,4.6849023E3,6.0423906E4,2.224372E4,7.939219E2,1.1527188E3,7.815731E2,1.360387E2,4.5954297E2,1.2636719E2,5.8920654E3,0E0,8.065625E1,5.9934814E1,3.7724597E2,1.444751E1,3.6196494E2,6.991016E1,0E0,3.8580037E3,2.7753906E1,1.4718984E3,1.7447769E3,2.590625E1,0E0,0E0,0E0,1.7556763E1,0E0,0E0,0E0,0E0,0E0,0E0,0E0,0E0,0E0,0E0,0E0,0E0,0E0,0E0,0E0,0E0,0E0,0E0,0E0],"parents":[2147483647,0,0,1,1,2,2,3,3,4,4,5,5,6,6,7,7,8,8,9,9,10,10,12,12,13,13,14,14,15,15,16,16,17,17,19,19,20,20,21,21,22,22,23,23,27,27],"right_children":[2,4,6,8,10,12,14,16,18,20,22,-1,24,26,28,30,32,34,-1,36,38,40,42,44,-1,-1,-1,46,-1,-1,-1,-1,-1,-1,-1,-1,-1,-1,-1,-1,-1,-1,-1,-1,-1,-1,-1],"split_conditions":[8.0157566E-1,-8.8953745E-1,-2.7549306E-1,-5.893192E-1,6.0198414E-1,-1.9871661E-1,-5.802882E-1,-7.036876E-1,-7.678155E-1,-8.125536E-1,-6.380373E-1,-4.16684E-2,1.1421343E0,1.9428736E-1,9.0976506E-1,-4.919603E-1,-4.543865E-1,1.054055E0,-3.9764434E-2,-6.280966E-1,3.0812034E-1,-4.3068516E-1,5.8765125E-2,-1.1460047E-1,-2.8355727E-2,2.4E-1,-2.486076E-2,7.9600793E-1,2.4E-1,-1.9552575E-2,-4.284966E-2,2.4E-1,-4.096409E-2,2.4E-1,-2.6731383E-2,2.4E-1,-4.283776E-2,-4.2894606E-2,-3.4959134E-2,2.4E-1,1.7344976E-2,2.4E-1,-4.133047E-2,2.4E-1,-1.3143282E-2,-4.2861603E-2,3.2264903E-2],"split_indices":[37,49,49,37,44,8,60,37,16,60,60,0,61,28,29,58,54,1,0,54,5,58,28,16,0,0,0,29,0,0,0,0,0,0,0,0,0,0,0,0,0,0,0,0,0,0,0],"split_type":[0,0,0,0,0,0,0,0,0,0,0,0,0,0,0,0,0,0,0,0,0,0,0,0,0,0,0,0,0,0,0,0,0,0,0,0,0,0,0,0,0,0,0,0,0,0,0],"sum_hessian":[1.9454522E5,1.771209E5,1.7424324E4,5.5150596E3,1.7160584E5,1.2447373E4,4.976951E3,4.808323E3,7.067361E2,1.6601772E5,5.588126E3,9.22783E1,1.2355095E4,2.73115E1,4.9496396E3,4.730903E3,7.7420586E1,6.698505E2,3.6885506E1,4.326372E3,1.6169134E5,4.1189832E2,5.1762275E3,1.2348493E4,6.601804E0,2.2366589E1,4.9449105E0,4.938382E3,1.1257602E1,1.8877718E2,4.5421255E3,1.7677723E1,5.974286E1,6.6410736E2,5.7432175E0,1.0759186E2,4.2187803E3,1.5872336E5,2.967984E3,2.2100446E2,1.9089388E2,8.270226E1,5.0935254E3,1.2346273E4,2.2197857E0,4.9205146E3,1.7867186E1],"tree_param":{"num_deleted":"0","num_feature":"64","num_nodes":"47","size_leaf_vector":"1"}},{"base_weights":[-2.8481198E-4,3E0,-5.813643E-1,2.4E-1,-4.557809E-2,-3.992821E-1,-4.651657E-2,2.1703768E-1,-4.569909E-2],"categories":[],"categories_nodes":[],"categories_segments":[],"categories_sizes":[],"default_left":[0,0,0,0,0,0,0,0,0],"id":7,"left_children":[1,3,5,-1,-1,7,-1,-1,-1],"loss_changes":[7.3069544E5,1.769125E3,4.40625E0,0E0,0E0,9.435167E1,0E0,0E0,0E0],"parents":[2147483647,0,0,1,1,2,2,5,5],"right_children":[2,4,6,-1,-1,8,-1,-1,-1],"split_conditions":[-6.7743623E-1,-4.8486274E-1,-4.612478E-1,2.4E-1,-4.557809E-2,2.1607272E-1,-4.651657E-2,2.1703768E-1,-4.569909E-2],"split_indices":[55,1,57,0,0,2,0,0,0],"split_type":[0,0,0,0,0,0,0,0,0],"sum_hessian":[3.614625E5,5.0809723E4,3.1065278E5,5.0671645E4,1.3807913E2,1.6549329E2,3.1048728E5,6.965334E0,1.5852795E2],"tree_param":{"num_deleted":"0","num_feature":"64","num_nodes":"9","size_leaf_vector":"1"}},{"base_weights":[-1.5270249E-3,-5.0998247E-1,3E0,-5.176015E-1,1.4428252E0,-4.5740065E-1,3E0,-5.209181E-1,3.3919412E-1,-4.207141E-2,2.4E-1,-4.1723493E-2,2.4E-1,-1.4675508E-1,3E0,2.631685E0,-5.21417E-1,-5.096311E-1,3E0,2.4E-1,-3.9136997E-1,3E0,-1.6182369E-2,2.4E-1,-3.4383334E-2,-4.184974E-2,4.683704E-3,1.2843376E-1,-4.2091E-2,2.4E-1,-3.7587292E-2,1.2719923E-1,-4.0514767E-2,2.4E-1,5.326189E-2],"categories":[],"categories_nodes":[],"categories_segments":[],"categories_sizes":[],"default_left":[0,0,0,0,0,0,0,0,0,0,0,0,0,0,0,0,0,0,0,0,0,0,0,0,0,0,0,0,0,0,0,0,0,0,0],"id":8,"left_children":[1,3,5,7,9,11,13,15,17,-1,-1,-1,-1,19,21,23,25,27,29,-1,31,33,-1,-1,-1,-1,-1,-1,-1,-1,-1,-1,-1,-1,-1],"loss_changes":[4.053152E5,2.1949492E3,8.684656E3,4.176875E2,4.2513013E3,2.470291E2,7.075625E2,2.3410156E2,2.0348358E3,0E0,0E0,0E0,0E0,6.570676E1,9.628125E1,1.6553955E2,1.4464844E2,1.9690308E1,2.9947473E2,0E0,1.85839E1,8.5E0,0E0,0E0,0E0,0E0,0E0,0E0,0E0,0E0,0E0,0E0,0E0,0E0,0E0],"parents":[2147483647,0,0,1,1,2,2,3,3,4,4,5,5,6,6,7,7,8,8,13,13,14,14,15,15,16,16,17,17,18,18,20,20,21,21],"right_children":[2,4,6,8,10,12,14,16,18,-1,-1,-1,-1,20,22,24,26,28,30,-1,32,34,-1,-1,-1,-1,-1,-1,-1,-1,-1,-1,-1,-1,-1],"split_conditions":[6.579337E-1,2.4192114E0,-2.625501E-1,2.7041355E-1,-3.8464103E-2,2.2638598E-2,-3.0054405E-1,-9.5708054E-1,2.9741815E-1,-4.207141E-2,2.4E-1,-4.1723493E-2,2.4E-1,-9.461622E-1,4.5294335E-1,-7.9047704E-1,2.301018E0,-7.155024E-1,1.117913E-1,2.4E-1,2.4129026E-1,2.0538847E-1,-1.6182369E-2,2.4E-1,-3.4383334E-2,-4.184974E-2,4.683704E-3,1.2843376E-1,-4.2091E-2,2.4E-1,-3.7587292E-2,1.2719923E-1,-4.0514767E-2,2.4E-1,5.326189E-2],"split_indices":[46,42,20,11,46,54,13,39,46,0,0,0,0,37,25,2,42,4,2,0,35,4,0,0,0,0,0,0,0,0,0,0,0,0,0],"split_type":[0,0,0,0,0,0,0,0,0,0,0,0,0,0,0,0,0,0,0,0,0,0,0,0,0,0,0,0,0,0,0,0,0,0,0],"sum_hessian":[1.5654238E5,1.4737381E5,9.168555E3,1.4680278E5,5.710331E2,7.258702E2,8.442684E3,1.4623808E5,5.6471E2,4.5283136E2,1.1820172E2,7.209805E2,4.8896394E0,7.110893E1,8.371575E3,2.1313688E1,1.4621677E5,4.8990768E2,7.48023E1,2.9030628E0,6.820587E1,8.362598E3,8.977854E0,7.653349E0,1.366034E1,1.457893E5,4.2747162E2,2.068345E0,4.8783936E2,5.0597137E1,2.4205164E1,2.0979683E0,6.61079E1,8.35903E3,3.5671887E0],"tree_param":{"num_deleted":"0","num_feature":"64","num_nodes":"35","size_leaf_vector":"1"}},{"base_weights":[-1.6794532E-3,-5.114242E-2,2.2813075E0,-5.9723556E-1,2.2922678E0,1.2918602E-1,-5.0814655E-2,2.2928066E0,-4.480403E-2,1.8343563E-1,-4.0621787E-2,-2.867047E-2,2.8381025E-2],"categories":[],"categories_nodes":[],"categories_segments":[],"categories_sizes":[],"default_left":[0,0,0,0,0,0,0,0,0,0,0,0,0],"id":9,"left_children":[1,-1,3,5,7,-1,-1,9,-1,-1,11,-1,-1],"loss_changes":[7.434617E5,0E0,3.520875E3,3.8537506E1,1.735E2,0E0,0E0,3.6125E1,0E0,0E0,1.9582443E0,0E0,0E0],"parents":[2147483647,0,0,2,2,3,3,4,4,7,7,10,10],"right_children":[2,-1,4,6,8,-1,-1,10,-1,-1,12,-1,-1],"split_conditions":[1.8181345E-1,-5.114242E-2,2.1435417E-2,-3.8612032E-1,1.817994E-1,1.2918602E-1,-5.0814655E-2,3.283411E-1,-4.480403E-2,1.8343563E-1,1.9145124E-1,-2.867047E-2,2.8381025E-2],"split_indices":[47,0,56,3,48,0,0,14,0,0,4,0,0],"split_type":[0,0,0,0,0,0,0,0,0,0,0,0,0],"sum_hessian":[5.1074212E5,3.9924206E5,1.1150009E5,4.2235895E2,1.11077734E5,5.4994373E0,4.1685953E2,1.1105732E5,2.0409498E1,1.1105097E5,6.356961E0,4.329355E0,2.0276062E0],"tree_param":{"num_deleted":"0","num_feature":"64","num_nodes":"13","size_leaf_vector":"1"}},{"base_weights":[7.3722866E-4,-5.197868E-1,3E0,-5.2919734E-1,2.472086E0,2.4E-1,-4.233541E-2,3E0,-5.3023976E-1,-4.2091597E-2,2.4E-1,2.4E-1,-2.0515783E-2,2.3960297E0,-5.3036535E-1,-1.5690533E-2,2.4E-1,-4.808825E-3,-4.2439263E-2],"categories":[],"categories_nodes":[],"categories_segments":[],"categories_sizes":[],"default_left":[0,0,0,0,0,0,0,0,0,0,0,0,0,0,0,0,0,0,0],"id":10,"left_children":[1,3,5,7,9,-1,-1,11,13,-1,-1,-1,-1,15,17,-1,-1,-1,-1],"loss_changes":[4.303278E5,4.3425156E3,1.0954219E4,8.469844E2,3.8784688E3,0E0,0E0,4.4092712E1,6.0195312E1,0E0,0E0,0E0,0E0,2.9779411E1,8.5E0,0E0,0E0,0E0,0E0],"parents":[2147483647,0,0,1,1,2,2,3,3,4,4,7,7,8,8,13,13,14,14],"right_children":[2,4,6,8,10,-1,-1,12,14,-1,-1,-1,-1,16,18,-1,-1,-1,-1],"split_conditions":[1.2576799E0,1.5439743E-1,1.283915E-1,-9.89762E-1,-7.712122E-2,2.4E-1,-4.233541E-2,1.0148199E0,-9.731465E-1,-4.2091597E-2,2.4E-1,2.4E-1,-2.0515783E-2,5.29489E-1,-9.878075E-1,-1.5690533E-2,2.4E-1,-4.808825E-3,-4.2439263E-2],"split_indices":[23,18,24,29,1,0,0,4,26,0,0,0,0,1,29,0,0,0,0],"split_type":[0,0,0,0,0,0,0,0,0,0,0,0,0,0,0,0,0,0,0],"sum_hessian":[1.643863E5,1.5409619E5,1.02901045E4,1.5361483E5,4.8136133E2,9.411334E3,8.787707E2,2.1280197E1,1.5359355E5,3.2198727E2,1.5937404E2,1.7590487E1,3.6897104E0,4.7841263E0,1.5358877E5,2.6647909E0,2.1193357E0,4.229618E1,1.5354647E5],"tree_param":{"num_deleted":"0","num_feature":"64","num_nodes":"19","size_leaf_vector":"1"}},{"base_weights":[8.537405E-3,-5.282524E-1,3E0,-4.2466342E-2,6.580594E-2,3E0,-5.0506675E-1,3E0,-5.167531E-1,-0E0,2.4E-1,3.166141E-1,-4.1487325E-2,-2.0421404E-2,3E0,-4.2330895E-2,4.0725008E-1,7.836183E-2,-1.8410947E-2,-1.2825351E-2,2.4E-1,1.1615649E-1,-2.3313088E-2],"categories":[],"categories_nodes":[],"categories_segments":[],"categories_sizes":[],"default_left":[0,0,0,0,0,0,0,0,0,0,0,0,0,0,0,0,0,0,0,0,0,0,0],"id":11,"left_children":[1,3,5,-1,7,9,11,13,15,-1,-1,17,-1,-1,19,-1,21,-1,-1,-1,-1,-1,-1],"loss_changes":[4.1758962E5,2.355E2,5.0041562E3,0E0,1.6902804E3,3.659375E1,5.048065E0,4.3684082E1,7.5251465E0,0E0,0E0,4.1917095E0,0E0,0E0,2.5083862E1,0E0,8.791311E0,0E0,0E0,0E0,0E0,0E0,0E0],"parents":[2147483647,0,0,1,1,2,2,4,4,5,5,6,6,7,7,8,8,11,11,14,14,16,16],"right_children":[2,4,6,-1,8,10,12,14,16,-1,-1,18,-1,-1,20,-1,22,-1,-1,-1,-1,-1,-1],"split_conditions":[1.268623E0,6.444575E-1,1.4286059E0,-4.2466342E-2,2.8676292E-1,-3.8702148E-1,1.5544431E0,-2.3572992E-1,3.0532092E-1,-0E0,2.4E-1,1.7245822E-1,-4.1487325E-2,-2.0421404E-2,-7.475249E-1,-4.2330895E-2,7.579262E-1,7.836183E-2,-1.8410947E-2,-1.2825351E-2,2.4E-1,1.1615649E-1,-2.3313088E-2],"split_indices":[38,38,61,0,15,49,61,49,35,0,0,55,0,0,45,0,50,0,0,0,0,0,0],"split_type":[0,0,0,0,0,0,0,0,0,0,0,0,0,0,0,0,0,0,0,0,0,0,0],"sum_hessian":[1.6724042E5,1.53769E5,1.3471436E4,1.5310592E5,6.6307245E2,1.3064812E4,4.0662482E2,6.448472E1,5.985877E2,4.0405126E0,1.30607705E4,5.2601953E0,4.0136462E2,3.6553853E0,6.082933E1,5.9204913E2,6.538596E0,2.0753543E0,3.184841E0,2.1474884E0,5.8681843E1,2.0429943E0,4.4956017E0],"tree_param":{"num_deleted":"0","num_feature":"64","num_nodes":"23","size_leaf_vector":"1"}},{"base_weights":[-7.949085E-3,1.7870091E0,-6.47347E-1,1.7907602E0,-6.1806136E-1,-4.1741487E-1,-6.485077E-1,1.7909842E0,-4.0018898E-2,-5.1139392E-2,3.7703987E-2,1.4132993E-1,-5.1527176E-2,-5.210707E-2,-6.4516723E-1,1.7911949E0,-4.168444E-2,-5.161638E-2,7.69446E-2,1.4329696E-1,2.279154E-2],"categories":[],"categories_nodes":[],"categories_segments":[],"categories_sizes":[],"default_left":[0,0,0,0,0,0,0,0,0,0,0,0,0,0,0,0,0,0,0,0,0],"id":12,"left_children":[1,3,5,7,9,11,13,15,-1,-1,-1,-1,-1,-1,17,19,-1,-1,-1,-1,-1],"loss_changes":[6.271147E5,1.2972812E3,1.0653125E2,7.559375E1,6.056198E0,1.0091892E3,2.640625E0,7.1875E1,0E0,0E0,0E0,0E0,0E0,0E0,1.284375E1,1E0,0E0,0E0,0E0,0E0,0E0],"parents":[2147483647,0,0,1,1,2,2,3,3,4,4,5,5,6,6,7,7,14,14,15,15],"right_children":[2,4,6,8,10,12,14,16,-1,-1,-1,-1,-1,-1,18,20,-1,-1,-1,-1,-1],"split_conditions":[-4.357044E-1,-3.5072735E-3,-3.7952858E-1,1.9556986E-1,2.883356E-1,-1.6954957E-2,2.5104806E-1,5.722641E-1,-4.0018898E-2,-5.1139392E-2,3.7703987E-2,1.4132993E-1,-5.1527176E-2,-5.210707E-2,1.5189946E-1,6.1561483E-1,-4.168444E-2,-5.161638E-2,7.69446E-2,1.4329696E-1,2.279154E-2],"split_indices":[33,12,33,19,14,34,14,50,0,0,0,0,0,0,55,3,0,0,0,0,0],"split_type":[0,0,0,0,0,0,0,0,0,0,0,0,0,0,0,0,0,0,0,0,0],"sum_hessian":[5.464079E5,1.4351608E5,4.028918E5,1.4329331E5,2.2276631E2,2.029424E3,4.0086238E5,1.4327997E5,1.3354363E1,2.1977841E2,2.9878953E0,1.8933786E2,1.840086E3,2.166968E5,1.841656E5,1.4326758E5,1.2390039E1,1.841628E5,2.801107E0,1.4326523E5,2.3424206E0],"tree_param":{"num_deleted":"0","num_feature":"64","num_nodes":"21","size_leaf_vector":"1"}},{"base_weights":[1.3364732E-2,-5.100358E-1,3E0,-4.084528E-2,3E0,-3.9866038E-2,2.4E-1,2.4E-1,-1.7618045E-2],"categories":[],"categories_nodes":[],"categories_segments":[],"categories_sizes":[],"default_left":[0,0,0,0,0,0,0,0,0],"id":13,"left_children":[1,3,5,-1,7,-1,-1,-1,-1],"loss_changes":[1.849211E5,1.3785547E2,1.4899844E3,0E0,3.803035E1,0E0,0E0,0E0,0E0],"parents":[2147483647,0,0,1,1,2,2,4,4],"right_children":[2,4,6,-1,8,-1,-1,-1,-1],"split_conditions":[6.05113E-1,2.000979E0,3.436351E-1,-4.084528E-2,-8.231069E-1,-3.9866038E-2,2.4E-1,2.4E-1,-1.7618045E-2],"split_indices":[6,52,59,0,37,0,0,0,0],"split_type":[0,0,0,0,0,0,0,0,0],"sum_hessian":[6.123046E4,5.9340914E4,1.8895464E3,5.933566E4,5.2564373E0,1.210545E2,1.768492E3,2.0191278E0,3.2373095E0],"tree_param":{"num_deleted":"0","num_feature":"64","num_nodes":"9","size_leaf_vector":"1"}},{"base_weights":[4.3459036E-3,-5.39578E-1,3E0,-5.4138607E-1,-3.0867225E-1,-4.296024E-2,2.4E-1,-4.497611E-1,-5.419068E-1,2.4E-1,-4.3439116E-2,-4.337546E-2,2.4E-1,-5.4248124E-1,-5.1172084E-1,-4.3399643E-2,2.1464853E-2,2.4E-1,-4.3286543E-2],"categories":[],"categories_nodes":[],"categories_segments":[],"categories_sizes":[],"default_left":[0,0,0,0,0,0,0,0,0,0,0,0,0,0,0,0,0,0,0],"id":14,"left_children":[1,3,5,7,9,-1,-1,11,13,-1,-1,-1,-1,15,17,-1,-1,-1,-1],"loss_changes":[4.987075E5,8.225781E1,2.9275E3,8.605469E0,1.6068976E3,0E0,0E0,4.6418347E2,2.5585938E0,0E0,0E0,0E0,0E0,2.6640625E0,5.425393E2,0E0,0E0,0E0,0E0],"parents":[2147483647,0,0,1,1,2,2,3,3,4,4,7,7,8,8,13,13,14,14],"right_children":[2,4,6,8,10,-1,-1,12,14,-1,-1,-1,-1,16,18,-1,-1,-1,-1],"split_conditions":[7.2295904E-1,4.1728947E-1,5.157899E-2,-6.44002E-1,2.9595724E-1,-4.296024E-2,2.4E-1,4.943989E-1,2.4453847E-1,2.4E-1,-4.3439116E-2,-4.337546E-2,2.4E-1,1.5646893E0,3.207851E-1,-4.3399643E-2,2.1464853E-2,2.4E-1,-4.3286543E-2],"split_indices":[55,31,52,27,60,0,0,8,0,0,0,0,0,8,17,0,0,0,0],"split_type":[0,0,0,0,0,0,0,0,0,0,0,0,0,0,0,0,0,0,0],"sum_hessian":[2.21896E5,1.987446E5,2.3151408E4,1.9719567E5,1.5489122E3,2.3328276E2,2.2918125E4,1.1296401E3,1.9606603E5,6.8917694E1,1.4799945E3,1.1097916E3,1.9848516E1,1.9235508E5,3.7109587E3,1.9235295E5,2.123901E0,1.6596073E1,3.6943628E3],"tree_param":{"num_deleted":"0","num_feature":"64","num_nodes":"19","size_leaf_vector":"1"}},{"base_weights":[1.1395076E-2,-4.9990037E-1,3E0,-5.0702375E-1,3.5161173E-1,3E0,-4.124423E-2,-5.15054E-1,-3.03474E-1,3E0,-4.122304E-2,3E0,-3.48837E-2,-5.158918E-1,-3.3675852E-1,3E0,-4.7069559E-1,-2.8727805E-2,2.4E-1,-1.9187255E-2,2.4E-1,-4.132447E-2,-3.7506733E-2,2.4E-1,-4.118329E-2,-3.1974144E-2,2.4E-1,2.4E-1,-3.820271E-2],"categories":[],"categories_nodes":[],"categories_segments":[],"categories_sizes":[],"default_left":[0,0,0,0,0,0,0,0,0,0,0,0,0,0,0,0,0,0,0,0,0,0,0,0,0,0,0,0,0],"id":15,"left_children":[1,3,5,7,9,11,-1,13,15,17,-1,19,-1,21,23,25,27,-1,-1,-1,-1,-1,-1,-1,-1,-1,-1,-1,-1],"loss_changes":[2.65529E5,5.743594E2,1.0139203E4,1.5268555E2,3.3175066E3,2.0345312E2,0E0,1.27890625E1,3.2296646E3,9.293408E1,0E0,4.1625E1,0E0,2.0410156E0,4.1042657E2,1.3354028E2,1.2121582E2,0E0,0E0,0E0,0E0,0E0,0E0,0E0,0E0,0E0,0E0,0E0,0E0],"parents":[2147483647,0,0,1,1,2,2,3,3,4,4,5,5,7,7,8,8,9,9,11,11,13,13,14,14,15,15,16,16],"right_children":[2,4,6,8,10,12,-1,14,16,18,-1,20,-1,22,24,26,28,-1,-1,-1,-1,-1,-1,-1,-1,-1,-1,-1,-1],"split_conditions":[1.0475638E0,9.431345E-1,3.277168E-3,3.9985594E-1,-3.680433E-2,9.1106874E-1,-4.124423E-2,2.0189362E0,-7.792862E-1,3.6556938E-1,-4.122304E-2,3.6556938E-1,-3.48837E-2,1.6178535E0,1.2459967E-1,-5.1589906E-1,-9.710812E-1,-2.8727805E-2,2.4E-1,-1.9187255E-2,2.4E-1,-4.132447E-2,-3.7506733E-2,2.4E-1,-4.118329E-2,-3.1974144E-2,2.4E-1,2.4E-1,-3.820271E-2],"split_indices":[50,50,37,26,54,40,0,34,14,34,0,34,0,34,27,19,16,0,0,0,0,0,0,0,0,0,0,0,0],"split_type":[0,0,0,0,0,0,0,0,0,0,0,0,0,0,0,0,0,0,0,0,0,0,0,0,0,0,0,0,0],"sum_hessian":[1.00006836E5,9.459892E4,5.407907E3,9.38155E4,7.834241E2,4.58823E3,8.196775E2,9.0249555E4,3.5659453E3,7.0179794E1,7.1324426E2,4.5716353E3,1.6594624E1,8.98209E4,4.2865707E2,6.592156E1,3.5000237E3,7.6667376E0,6.2513058E1,3.5140252E0,4.568121E3,8.8540695E4,1.2802051E3,7.843625E0,4.2081345E2,1.0947163E1,5.4974396E1,2.228642E0,3.4977952E3],"tree_param":{"num_deleted":"0","num_feature":"64","num_nodes":"29","size_leaf_vector":"1"}},{"base_weights":[1.9049501E-2,-4.0834174E-2,3E0,-3.9971266E-2,2.4E-1],"categories":[],"categories_nodes":[],"categories_segments":[],"categories_sizes":[],"default_left":[0,0,0,0,0],"id":16,"left_children":[1,-1,3,-1,-1],"loss_changes":[1.8460494E5,0E0,1.6839375E3,0E0,0E0],"parents":[2147483647,0,0,2,2],"right_children":[2,-1,4,-1,-1],"split_conditions":[7.896425E-1,-4.0834174E-2,4.6765068E-1,-3.9971266E-2,2.4E-1],"split_indices":[58,0,60,0,0],"split_type":[0,0,0,0,0],"sum_hessian":[6.0463395E4,5.8580336E4,1.8830575E3,1.367977E2,1.7462599E3],"tree_param":{"num_deleted":"0","num_feature":"64","num_nodes":"5","size_leaf_vector":"1"}},{"base_weights":[5.740366E-3,-5.208851E-1,3E0,-5.2749366E-1,9.123964E-1,3E0,-4.2614963E-2,-5.31724E-1,-2.0828682E-1,3E0,-5.2844065E-1,3E0,-4.2952472E-1,-5.339689E-1,-3.8148805E-1,3E0,-4.8785153E-1,3E0,-0E0,4.0074386E-2,-4.276204E-2,2.4E-1,-3.8924124E-2,-4.151639E-2,1.1303949E-1,-4.2819943E-2,-3.959021E-2,2.4E-1,-3.6318053E-2,2.4E-1,-2.1326138E-2,1.4298993E-1,-4.2750325E-2,2.4E-1,-1.8421108E-2,-3.5256937E-2,7.5483985E-2],"categories":[],"categories_nodes":[],"categories_segments":[],"categories_sizes":[],"default_left":[0,0,0,0,0,0,0,0,0,0,0,0,0,0,0,0,0,0,0,0,0,0,0,0,0,0,0,0,0,0,0,0,0,0,0,0,0],"id":17,"left_children":[1,3,5,7,9,11,-1,13,15,17,19,21,23,25,27,29,31,33,35,-1,-1,-1,-1,-1,-1,-1,-1,-1,-1,-1,-1,-1,-1,-1,-1,-1,-1],"loss_changes":[4.4565812E5,1.6592305E3,4.166875E3,2.3460547E2,3.872072E3,9.3203125E2,0E0,5.7246094E1,2.9311084E3,1.7231104E2,4.5117493E0,3.7084375E2,1.55899935E1,7.65625E0,6.977016E2,4.5763428E1,2.3306915E2,3.7214355E1,1.1331258E1,0E0,0E0,0E0,0E0,0E0,0E0,0E0,0E0,0E0,0E0,0E0,0E0,0E0,0E0,0E0,0E0,0E0,0E0],"parents":[2147483647,0,0,1,1,2,2,3,3,4,4,5,5,7,7,8,8,9,9,10,10,11,11,12,12,13,13,14,14,15,15,16,16,17,17,18,18],"right_children":[2,4,6,8,10,12,-1,14,16,18,20,22,24,26,28,30,32,34,36,-1,-1,-1,-1,-1,-1,-1,-1,-1,-1,-1,-1,-1,-1,-1,-1,-1,-1],"split_conditions":[1.040392E0,6.5136194E-1,1.2457023E-1,1.6471747E-1,-3.782397E-1,1.4286059E0,-4.2614963E-2,1.981869E-3,-6.871123E-1,-2.6855433E-1,-7.9569197E-1,7.952705E-2,1.0575057E0,1.6552912E0,-7.7811587E-1,-1.473034E-1,-5.995257E-1,-2.4619019E-2,3.894123E-2,4.0074386E-2,-4.276204E-2,2.4E-1,-3.8924124E-2,-4.151639E-2,1.1303949E-1,-4.2819943E-2,-3.959021E-2,2.4E-1,-3.6318053E-2,2.4E-1,-2.1326138E-2,1.4298993E-1,-4.2750325E-2,2.4E-1,-1.8421108E-2,-3.5256937E-2,7.5483985E-2],"split_indices":[10,10,2,10,13,61,0,30,54,43,40,16,8,17,32,4,14,2,21,0,0,0,0,0,0,0,0,0,0,0,0,0,0,0,0,0,0],"split_type":[0,0,0,0,0,0,0,0,0,0,0,0,0,0,0,0,0,0,0,0,0,0,0,0,0,0,0,0,0,0,0,0,0,0,0,0,0],"sum_hessian":[1.9229086E5,1.7502042E5,1.7270424E4,1.7421875E5,8.016737E2,1.6937258E4,3.3316553E2,1.7193727E5,2.2814973E3,2.1030363E2,5.913701E2,1.6858648E4,7.8610886E1,1.693975E5,2.5397632E3,1.0898245E2,2.172515E3,1.9077509E2,1.9528555E1,2.036524E0,5.8933356E2,1.6828824E4,2.982426E1,7.6600975E1,2.0099165E0,1.6398833E5,5.40916E3,4.5565075E1,2.494198E3,1.05172356E2,3.8100922E0,4.1821842E1,2.130693E3,1.8764948E2,3.1256127E0,1.3803468E1,5.725087E0],"tree_param":{"num_deleted":"0","num_feature":"64","num_nodes":"37","size_leaf_vector":"1"}},{"base_weights":[-4.4927774E-3,2.7905817E0,-5.778605E-1,2.2386587E-1,-4.5555644E-2,-4.028918E-1,-4.6236537E-2,1.812431E-1,-4.5684952E-2],"categories":[],"categories_nodes":[],"categories_segments":[],"categories_sizes":[],"default_left":[0,0,0,0,0,0,0,0,0],"id":18,"left_children":[1,3,5,-1,-1,7,-1,-1,-1],"loss_changes":[5.8045256E5,1.6071562E3,4.21875E0,0E0,0E0,8.235335E1,0E0,0E0,0E0],"parents":[2147483647,0,0,1,1,2,2,5,5],"right_children":[2,4,6,-1,-1,8,-1,-1,-1],"split_conditions":[-6.7743623E-1,-4.8486274E-1,-4.612478E-1,2.2386587E-1,-4.5555644E-2,-3.3262798E-1,-4.6236537E-2,1.812431E-1,-4.5684952E-2],"split_indices":[55,1,57,0,0,3,0,0,0],"split_type":[0,0,0,0,0,0,0,0,0],"sum_hessian":[3.6218766E5,6.1649203E4,3.0053847E5,6.150797E4,1.412342E2,1.7266466E2,3.003658E5,8.581501E0,1.6408316E2],"tree_param":{"num_deleted":"0","num_feature":"64","num_nodes":"9","size_leaf_vector":"1"}},{"base_weights":[8.772126E-3,-5.2110726E-1,3E0,-4.2256944E-2,1.076248E0,2.4E-1,-3.038776E-2,-4.585892E-1,3E0,-4.9188712E-1,2.3640165E-1,3E0,-3.5708606E-2,1.3885763E-1,-4.103031E-2,2.4E-1,-0E0],"categories":[],"categories_nodes":[],"categories_segments":[],"categories_sizes":[],"default_left":[0,0,0,0,0,0,0,0,0,0,0,0,0,0,0,0,0],"id":19,"left_children":[1,3,5,-1,7,-1,-1,9,11,13,-1,15,-1,-1,-1,-1,-1],"loss_changes":[3.9604534E5,1.6281875E3,1.03E2,0E0,3.4296729E3,0E0,0E0,5.947985E1,2.0133594E2,2.5193268E1,0E0,5.8510254E1,0E0,0E0,0E0,0E0,0E0],"parents":[2147483647,0,0,1,1,2,2,4,4,7,7,8,8,9,9,11,11],"right_children":[2,4,6,-1,8,-1,-1,10,12,14,-1,16,-1,-1,-1,-1,-1],"split_conditions":[9.1106874E-1,1.8042192E-1,1.1586218E0,-4.2256944E-2,1.3308623E0,2.4E-1,-3.038776E-2,1.1421343E0,-4.5000565E-1,-1.8134981E-1,2.3640165E-1,8.2168686E-1,-3.5708606E-2,1.3885763E-1,-4.103031E-2,2.4E-1,-0E0],"split_indices":[40,40,23,0,42,0,0,61,4,33,0,50,0,0,0,0,0],"split_type":[0,0,0,0,0,0,0,0,0,0,0,0,0,0,0,0,0],"sum_hessian":[1.543302E5,1.4332011E5,1.1010096E4,1.4268712E5,6.3298285E2,1.1001665E4,8.431146E0,4.8227222E2,1.507106E2,4.794537E2,2.8185298E0,1.3440778E2,1.6302826E1,2.7284281E0,4.7672525E2,1.2749529E2,6.9124837E0],"tree_param":{"num_deleted":"0","num_feature":"64","num_nodes":"17","size_leaf_vector":"1"}},{"base_weights":[-7.4972534E-3,-6.325913E-1,1.9163725E0,-5.0421197E-2,-5.0812025E-2,-5.711296E-1,1.9245263E0,1.2585686E-1,-4.9992196E-2,1.9249448E0,-4.468253E-2,8.182697E-1,1.5400393E-1,-3.1342633E-2,1.21428624E-1],"categories":[],"categories_nodes":[],"categories_segments":[],"categories_sizes":[],"default_left":[0,0,0,0,0,0,0,0,0,0,0,0,0,0,0],"id":20,"left_children":[1,3,5,-1,-1,7,9,-1,-1,11,-1,13,-1,-1,-1],"loss_changes":[6.1845044E5,1.1875E0,2.560375E3,0E0,0E0,5.0499344E1,1.329375E2,0E0,0E0,9.875E0,0E0,1.5807214E1,0E0,0E0,0E0],"parents":[2147483647,0,0,1,1,2,2,5,5,6,6,9,9,11,11],"right_children":[2,4,6,-1,-1,8,10,-1,-1,12,-1,14,-1,-1,-1],"split_conditions":[1.8181345E-1,1.961453E-1,2.1435417E-2,-5.0421197E-2,-5.0812025E-2,1.872854E-1,8.196821E-1,1.2585686E-1,-4.9992196E-2,6.3960515E-2,-4.468253E-2,1.9370835E-1,1.5400393E-1,-3.1342633E-2,1.21428624E-1],"split_indices":[47,8,56,0,0,6,34,0,0,56,0,4,0,0,0],"split_type":[0,0,0,0,0,0,0,0,0,0,0,0,0,0,0],"sum_hessian":[5.1425572E5,3.8814366E5,1.2611207E5,2.0367619E5,1.8446747E5,4.113813E2,1.25700695E5,8.45374E0,4.0292755E2,1.2568017E5,2.0523912E1,1.3796801E1,1.25666375E5,5.1149344E0,8.681866E0],"tree_param":{"num_deleted":"0","num_feature":"64","num_nodes":"15","size_leaf_vector":"1"}},{"base_weights":[9.206306E-3,-5.1813704E-1,3E0,-5.276837E-1,2.260078E0,2.4E-1,-4.22877E-2,3E0,-5.2835804E-1,-4.1970693E-2,2.4E-1,-1.4626089E-2,2.4E-1,2.4E-1,-5.28851E-1,1.4465384E-2,-4.2317405E-2],"categories":[],"categories_nodes":[],"categories_segments":[],"categories_sizes":[],"default_left":[0,0,0,0,0,0,0,0,0,0,0,0,0,0,0,0,0],"id":21,"left_children":[1,3,5,7,9,-1,-1,11,13,-1,-1,-1,-1,-1,15,-1,-1],"loss_changes":[3.957217E5,3.9557383E3,1.0781906E4,4.8214062E2,3.5514473E3,0E0,0E0,2.910788E1,3.61875E2,0E0,0E0,0E0,0E0,0E0,1.2574219E1,0E0,0E0],"parents":[2147483647,0,0,1,1,2,2,3,3,4,4,7,7,8,8,14,14],"right_children":[2,4,6,8,10,-1,-1,12,14,-1,-1,-1,-1,-1,16,-1,-1],"split_conditions":[1.2576799E0,1.5439743E-1,1.2705536E-1,-9.731465E-1,-7.712122E-2,2.4E-1,-4.22877E-2,5.29489E-1,-9.7481096E-1,-4.1970693E-2,2.4E-1,-1.4626089E-2,2.4E-1,2.4E-1,-9.6499217E-1,1.4465384E-2,-4.2317405E-2],"split_indices":[23,18,24,26,1,0,0,1,54,0,0,0,0,0,26,0,0],"split_type":[0,0,0,0,0,0,0,0,0,0,0,0,0,0,0,0,0],"sum_hessian":[1.6195055E5,1.4901077E5,1.2939781E4,1.4850227E5,5.0849023E2,1.2074552E4,8.652293E2,1.6566774E1,1.484857E5,3.0756976E2,2.0092047E2,2.48404E0,1.4082734E1,1.0952577E1,1.4847475E5,2.318469E1,1.4845156E5],"tree_param":{"num_deleted":"0","num_feature":"64","num_nodes":"17","size_leaf_vector":"1"}},{"base_weights":[1.5652018E-2,3E0,-5.206402E-1,3E0,-4.2286005E-2,-5.258309E-1,1.9114783E-1,-2.552448E-2,2.4E-1,-2.3079434E-1,-5.276269E-1,-4.7734937E-1,3E0,-4.7081926E-1,3E0,-5.28268E-1,-2.5497195E-1,-5.229544E-1,1.71961E-1,3E0,1.8576755E-1,2.4E-1,-3.9569214E-2,3.078317E-3,2.4E-1,-4.2355075E-2,-3.8253155E-2,-4.212457E-2,2.4E-1,-4.235093E-2,2.0423455E-2,2.0831293E-1,-3.7086703E-2,2.4E-1,4.5461287E-3,-1.9375194E-2,1.1517612E-1],"categories":[],"categories_nodes":[],"categories_segments":[],"categories_sizes":[],"default_left":[0,0,0,0,0,0,0,0,0,0,0,0,0,0,0,0,0,0,0,0,0,0,0,0,0,0,0,0,0,0,0,0,0,0,0,0,0],"id":22,"left_children":[1,3,5,7,-1,9,11,-1,-1,13,15,17,19,21,23,25,27,29,31,33,35,-1,-1,-1,-1,-1,-1,-1,-1,-1,-1,-1,-1,-1,-1,-1,-1],"loss_changes":[3.6613822E5,6.5282812E3,5.474844E2,6.5625E1,0E0,7.725391E1,2.7265413E3,0E0,0E0,9.153949E2,2.4875E1,2.7770767E1,8.554932E1,7.707684E1,1.4789795E1,7.7539062E0,4.065161E2,4.7474365E0,1.014904E2,1.3187012E1,1.0007881E1,0E0,0E0,0E0,0E0,0E0,0E0,0E0,0E0,0E0,0E0,0E0,0E0,0E0,0E0,0E0,0E0],"parents":[2147483647,0,0,1,1,2,2,3,3,5,5,6,6,9,9,10,10,11,11,12,12,13,13,14,14,15,15,16,16,17,17,18,18,19,19,20,20],"right_children":[2,4,6,8,-1,10,12,-1,-1,14,16,18,20,22,24,26,28,30,32,34,36,-1,-1,-1,-1,-1,-1,-1,-1,-1,-1,-1,-1,-1,-1,-1,-1],"split_conditions":[-6.378658E-1,-9.675988E-2,8.073178E-1,-1.4446473E-1,-4.2286005E-2,-2.0885E-2,2.239271E-1,-2.552448E-2,2.4E-1,3.8731372E-1,7.3933184E-1,7.1642935E-1,2.6053974E-1,-6.379437E-1,3.754358E-1,1.6305925E-1,2.351177E-1,2.0063617E-3,5.773665E-1,-1.1585884E-2,-4.4827443E-1,2.4E-1,-3.9569214E-2,3.078317E-3,2.4E-1,-4.2355075E-2,-3.8253155E-2,-4.212457E-2,2.4E-1,-4.235093E-2,2.0423455E-2,2.0831293E-1,-3.7086703E-2,2.4E-1,4.5461287E-3,-1.9375194E-2,1.1517612E-1],"split_indices":[22,54,48,1,0,18,49,0,0,35,48,62,36,51,20,62,49,49,56,0,60,0,0,0,0,0,0,0,0,0,0,0,0,0,0,0,0],"split_type":[0,0,0,0,0,0,0,0,0,0,0,0,0,0,0,0,0,0,0,0,0,0,0,0,0,0,0,0,0,0,0,0,0,0,0,0,0],"sum_hessian":[1.6499552E5,1.6898584E4,1.4809694E5,1.6374977E4,5.23607E2,1.4702597E5,1.0709658E3,5.42912E0,1.6369548E4,8.9282227E2,1.4613314E5,9.245394E2,1.4642645E2,8.5081036E2,4.2011906E1,1.4578666E5,3.4649536E2,8.6494806E2,5.9591347E1,1.3480717E2,1.1619285E1,3.7718961E0,8.470385E2,2.2472982E0,3.976461E1,1.4243017E5,3.3564758E3,3.290088E2,1.7486586E1,8.5912933E2,5.8187428E0,1.1226174E1,4.8365173E1,1.3269388E2,2.113293E0,9.568575E0,2.0507097E0],"tree_param":{"num_deleted":"0","num_feature":"64","num_nodes":"37","size_leaf_vector":"1"}},{"base_weights":[-1.2789124E-2,1.5659115E0,-6.3932395E-1,1.5687863E0,-6.087498E-1,-4.135055E-1,-6.4048225E-1,1.5689871E0,-4.2056426E-2,-5.0415125E-2,4.092231E-2,-5.061688E-2,1.5358081E0,-5.1638927E-2,-6.34465E-1,-4.112831E-2,1.5691406E0,1.2451454E-1,-6.172549E-3,-5.0759893E-2,7.36436E-2,1.2553604E-1,-2.9120041E-2],"categories":[],"categories_nodes":[],"categories_segments":[],"categories_sizes":[],"default_left":[0,0,0,0,0,0,0,0,0,0,0,0,0,0,0,0,0,0,0,0,0,0,0],"id":23,"left_children":[1,3,5,7,9,11,13,15,-1,-1,-1,-1,17,-1,19,-1,21,-1,-1,-1,-1,-1,-1],"loss_changes":[5.392976E5,9.70625E2,1.01140625E2,6.696875E1,5.873665E0,8.575597E2,1.05625E1,5.134375E1,0E0,0E0,0E0,0E0,7.046051E0,0E0,1.0890625E1,0E0,1.928125E1,0E0,0E0,0E0,0E0,0E0,0E0],"parents":[2147483647,0,0,1,1,2,2,3,3,4,4,5,5,6,6,7,7,12,12,14,14,16,16],"right_children":[2,4,6,8,10,12,14,16,-1,-1,-1,-1,18,-1,20,-1,22,-1,-1,-1,-1,-1,-1],"split_conditions":[-4.357044E-1,-3.5072735E-3,-3.7952858E-1,5.722641E-1,4.5725667E-1,3.0519545E-1,2.5104806E-1,-4.4189408E-1,-4.2056426E-2,-5.0415125E-2,4.092231E-2,-5.061688E-2,1.8258554E-1,-5.1638927E-2,1.5189946E-1,-4.112831E-2,-2.5321501E-1,1.2451454E-1,-6.172549E-3,-5.0759893E-2,7.36436E-2,1.2553604E-1,-2.9120041E-2],"split_indices":[33,12,33,50,13,14,14,13,0,0,0,0,21,0,55,0,58,0,0,0,0,0,0],"split_type":[0,0,0,0,0,0,0,0,0,0,0,0,0,0,0,0,0,0,0,0,0,0,0],"sum_hessian":[5.45229E5,1.5490525E5,3.9032375E5,1.5470153E5,2.037224E2,1.9978105E3,3.8832594E5,1.5468745E5,1.4087607E1,2.0119334E2,2.5290635E0,1.797306E3,2.005045E2,2.1184697E5,1.7647895E5,1.066428E1,1.5467678E5,1.9834846E2,2.1560476E0,1.7647662E5,2.3217762E0,1.5467262E5,4.1564517E0],"tree_param":{"num_deleted":"0","num_feature":"64","num_nodes":"23","size_leaf_vector":"1"}},{"base_weights":[3.343764E-2,3E0,-4.0813625E-2,-3.9699398E-2,2.4E-1],"categories":[],"categories_nodes":[],"categories_segments":[],"categories_sizes":[],"default_left":[0,0,0,0,0],"id":24,"left_children":[1,3,-1,-1,-1],"loss_changes":[1.7986617E5,1.3434844E3,0E0,0E0,0E0],"parents":[2147483647,0,0,1,1],"right_children":[2,4,-1,-1,-1],"split_conditions":[-7.6510555E-1,7.1642935E-1,-4.0813625E-2,-3.9699398E-2,2.4E-1],"split_indices":[53,62,0,0,0],"split_type":[0,0,0,0,0],"sum_hessian":[5.966265E4,2.4502114E3,5.7212438E4,1.09217255E2,2.3409941E3],"tree_param":{"num_deleted":"0","num_feature":"64","num_nodes":"5","size_leaf_vector":"1"}},{"base_weights":[7.760604E-3,-5.376212E-1,3E0,2.169123E-1,-5.3775686E-1,-4.2863864E-2,2.4E-1,-5.394636E-1,-3.7736964E-1,-4.3220825E-2,-4.7780007E-1,3E0,-5.3892195E-1,-4.252353E-2,2.4E-1,2.4E-1,-0E0,-4.3338355E-2,5.051719E-2],"categories":[],"categories_nodes":[],"categories_segments":[],"categories_sizes":[],"default_left":[0,0,0,0,0,0,0,0,0,0,0,0,0,0,0,0,0,0,0],"id":25,"left_children":[1,3,5,-1,7,-1,-1,9,11,-1,13,15,17,-1,-1,-1,-1,-1,-1],"loss_changes":[4.2435444E5,8.867969E1,2.8315625E3,0E0,5.165625E1,0E0,0E0,8.4921875E0,1.2903201E3,0E0,5.3042377E2,1.8227966E1,7.409973E0,0E0,0E0,0E0,0E0,0E0,0E0],"parents":[2147483647,0,0,1,1,2,2,4,4,7,7,8,8,10,10,11,11,12,12],"right_children":[2,4,6,-1,8,-1,-1,10,12,-1,14,16,18,-1,-1,-1,-1,-1,-1],"split_conditions":[7.2295904E-1,-8.535614E-1,5.157899E-2,2.169123E-1,8.884905E-1,-4.2863864E-2,2.4E-1,7.92231E-1,-1.9818321E-1,-4.3220825E-2,6.1624575E-1,-2.7549306E-1,-2.8517824E-1,-4.252353E-2,2.4E-1,2.4E-1,-0E0,-4.3338355E-2,5.051719E-2],"split_indices":[55,27,52,0,1,0,0,1,27,0,51,49,12,0,0,0,0,0,0],"split_type":[0,0,0,0,0,0,0,0,0,0,0,0,0,0,0,0,0,0,0],"sum_hessian":[2.2025142E5,1.9148417E5,2.8767252E4,6.173164E0,1.91478E5,2.2576697E2,2.8541484E4,1.8945416E5,2.023841E3,1.8701406E5,2.4400986E3,7.6270706E1,1.9475703E3,2.4103232E3,2.9775597E1,7.39908E1,2.2799077E0,1.9444076E3,3.1626735E0],"tree_param":{"num_deleted":"0","num_feature":"64","num_nodes":"19","size_leaf_vector":"1"}},{"base_weights":[2.1612506E-2,-5.0039166E-1,3E0,-5.104245E-1,5.7527286E-1,-5.010925E-1,3E0,-5.134655E-1,-1.6765863E-1,-4.469828E-1,3E0,2.0500042E0,-5.115601E-1,3E0,-4.0093914E-2,-5.1529115E-1,-3.9712104E-1,-5.035911E-1,3E0,-4.750311E-1,2.4E-1,-2.0445365E-2,2.4E-1,-2.0731373E-2,2.4E-1,-5.144829E-1,8.0350414E-2,2.4E-1,-1.580587E-2,-4.1260216E-2,-3.2864094E-2,2.4E-1,-3.671708E-2,3.430791E-2,-4.0768664E-2,2.4E-1,-2.0195903E-2,1.404017E-1,-3.9250057E-2,-4.1392744E-2,-1.026221E-2],"categories":[],"categories_nodes":[],"categories_segments":[],"categories_sizes":[],"default_left":[0,0,0,0,0,0,0,0,0,0,0,0,0,0,0,0,0,0,0,0,0,0,0,0,0,0,0,0,0,0,0,0,0,0,0,0,0,0,0,0,0],"id":26,"left_children":[1,3,5,7,9,11,13,15,17,19,21,23,25,27,-1,29,31,33,35,37,-1,-1,-1,-1,-1,39,-1,-1,-1,-1,-1,-1,-1,-1,-1,-1,-1,-1,-1,-1,-1],"loss_changes":[2.3366995E5,9.7178516E2,2.4007688E4,9.231445E1,3.7706233E3,5.5474915E1,1.0929219E3,1.8041016E1,1.3437902E3,9.043855E1,4.5815186E1,3.990836E1,1.0196411E1,3.2703125E1,0E0,3.4667969E0,4.4661975E2,4.8980865E0,4.4698486E1,2.7914764E1,0E0,0E0,0E0,0E0,0E0,1.6240845E0,0E0,0E0,0E0,0E0,0E0,0E0,0E0,0E0,0E0,0E0,0E0,0E0,0E0,0E0,0E0],"parents":[2147483647,0,0,1,1,2,2,3,3,4,4,5,5,6,6,7,7,8,8,9,9,10,10,11,11,12,12,13,13,15,15,16,16,17,17,18,18,19,19,25,25],"right_children":[2,4,6,8,10,12,14,16,18,20,22,24,26,28,-1,30,32,34,36,38,-1,-1,-1,-1,-1,40,-1,-1,-1,-1,-1,-1,-1,-1,-1,-1,-1,-1,-1,-1,-1],"split_conditions":[7.193431E-1,5.4057616E-1,6.072765E-1,3.9985594E-1,1.2267556E0,-7.6238567E-1,9.1106874E-1,2.6053974E-1,1.1144665E0,-3.0964872E-1,-1.0561218E-1,1.2457023E-1,6.8043776E-2,-2.6138697E-2,-4.0093914E-2,2.0189362E0,-8.854162E-1,-7.893368E-1,-2.8396484E-1,-7.893368E-1,2.4E-1,-2.0445365E-2,2.4E-1,-2.0731373E-2,2.4E-1,2.7518082E0,8.0350414E-2,2.4E-1,-1.580587E-2,-4.1260216E-2,-3.2864094E-2,2.4E-1,-3.671708E-2,3.430791E-2,-4.0768664E-2,2.4E-1,-2.0195903E-2,1.404017E-1,-3.9250057E-2,-4.1392744E-2,-1.026221E-2],"split_indices":[26,26,34,26,3,29,40,36,3,32,8,2,58,4,0,34,31,14,43,14,0,0,0,0,0,22,0,0,0,0,0,0,0,0,0,0,0,0,0,0,0],"split_type":[0,0,0,0,0,0,0,0,0,0,0,0,0,0,0,0,0,0,0,0,0,0,0,0,0,0,0,0,0,0,0,0,0,0,0,0,0,0,0,0,0],"sum_hessian":[9.791814E4,8.9962414E4,7.95573E3,8.913258E4,8.2983405E2,1.957894E3,5.997836E3,8.834631E4,7.8626154E2,7.2800073E2,1.0183334E2,6.2131615E0,1.9516809E3,5.9093716E3,8.846426E1,8.6970445E4,1.3758691E3,7.5326587E2,3.299566E1,7.2526E2,2.7406921E0,3.8554049E0,9.797794E1,3.8497913E0,2.36337E0,1.9495731E3,2.1078057E0,5.9065796E3,2.7919047E0,8.657536E4,3.950836E2,9.984281E0,1.3658849E3,3.3958626E0,7.4987E2,2.92343E1,3.761358E0,3.2646632E0,7.2199536E2,1.9329521E3,1.6620895E1],"tree_param":{"num_deleted":"0","num_feature":"64","num_nodes":"41","size_leaf_vector":"1"}},{"base_weights":[2.6656179E-2,-4.0802855E-2,3E0,-3.992657E-2,3E0,-1.4655195E-2,2.4E-1],"categories":[],"categories_nodes":[],"categories_segments":[],"categories_sizes":[],"default_left":[0,0,0,0,0,0,0],"id":27,"left_children":[1,-1,3,-1,5,-1,-1],"loss_changes":[1.7538717E5,0E0,1.6377188E3,0E0,3.05E1,0E0,0E0],"parents":[2147483647,0,0,2,2,4,4],"right_children":[2,-1,4,-1,6,-1,-1],"split_conditions":[7.896425E-1,-4.0802855E-2,4.188172E-1,-3.992657E-2,-2.1673246E-1,-1.4655195E-2,2.4E-1],"split_indices":[58,0,60,0,19,0,0],"split_type":[0,0,0,0,0,0,0],"sum_hessian":[5.8862625E4,5.6474273E4,2.3883496E3,1.3306938E2,2.25528E3,2.6202629E0,2.25266E3],"tree_param":{"num_deleted":"0","num_feature":"64","num_nodes":"7","size_leaf_vector":"1"}},{"base_weights":[1.3709073E-2,-5.1884806E-1,3E0,-5.2558786E-1,8.6301166E-1,3E0,-4.2579316E-2,-5.2977717E-1,-2.1567878E-1,3E0,-4.960209E-1,3E0,-5.6580316E-2,-5.32606E-1,-3.7757996E-1,3E0,-4.9252698E-1,2.4E-1,-2.5171614E-1,2.0463963E0,-4.269945E-2,3E0,5.8268476E-1,-4.128294E-2,2.4E-1,-4.1515246E-2,-4.272241E-2,1.8621376E-1,-3.7361685E-2,2.4E-1,-2.1254212E-2,1.168101E-1,-4.2674277E-2,3.9774764E-2,-3.5349615E-2,-1.3034976E-2,2.3458274E-1,2.4E-1,-3.517911E-2,-3.8381115E-2,2.4E-1],"categories":[],"categories_nodes":[],"categories_segments":[],"categories_sizes":[],"default_left":[0,0,0,0,0,0,0,0,0,0,0,0,0,0,0,0,0,0,0,0,0,0,0,0,0,0,0,0,0,0,0,0,0,0,0,0,0,0,0,0,0],"id":28,"left_children":[1,3,5,7,9,11,-1,13,15,17,19,21,23,25,27,29,31,-1,33,35,-1,37,39,-1,-1,-1,-1,-1,-1,-1,-1,-1,-1,-1,-1,-1,-1,-1,-1,-1,-1],"loss_changes":[3.9071134E5,1.5718711E3,4.03375E3,2.1723047E2,3.2431907E3,7.1353125E2,0E0,7.0546875E1,2.5337454E3,1.7425049E2,5.8157104E1,1.8784375E2,1.3049951E2,2.3359375E0,7.369385E2,4.5552734E1,1.709353E2,0E0,3.5388527E0,1.9174511E1,0E0,1.8059375E2,1.1238034E2,0E0,0E0,0E0,0E0,0E0,0E0,0E0,0E0,0E0,0E0,0E0,0E0,0E0,0E0,0E0,0E0,0E0,0E0],"parents":[2147483647,0,0,1,1,2,2,3,3,4,4,5,5,7,7,8,8,9,9,10,10,11,11,12,12,13,13,14,14,15,15,16,16,18,18,19,19,21,21,22,22],"right_children":[2,4,6,8,10,12,-1,14,16,18,20,22,24,26,28,30,32,-1,34,36,-1,38,40,-1,-1,-1,-1,-1,-1,-1,-1,-1,-1,-1,-1,-1,-1,-1,-1,-1,-1],"split_conditions":[1.040392E0,6.5136194E-1,2.9595724E-1,1.6471747E-1,-5.2596205E-1,4.7364554E-1,-4.2579316E-2,-2.0651072E-2,-6.871123E-1,-1.7542692E-1,-8.2959455E-1,9.1106874E-1,8.144726E-1,-7.6624984E-1,-4.6913332E-1,-5.3954095E-1,-5.995257E-1,2.4E-1,5.1586044E-1,-9.38375E-1,-4.269945E-2,-1.5336901E-1,9.824882E-1,-4.128294E-2,2.4E-1,-4.1515246E-2,-4.272241E-2,1.8621376E-1,-3.7361685E-2,2.4E-1,-2.1254212E-2,1.168101E-1,-4.2674277E-2,3.9774764E-2,-3.5349615E-2,-1.3034976E-2,2.3458274E-1,2.4E-1,-3.517911E-2,-3.8381115E-2,2.4E-1],"split_indices":[10,10,60,10,13,20,0,30,54,58,31,40,23,60,58,31,14,0,19,2,0,47,1,0,0,0,0,0,0,0,0,0,0,0,0,0,0,0,0,0,0],"split_type":[0,0,0,0,0,0,0,0,0,0,0,0,0,0,0,0,0,0,0,0,0,0,0,0,0,0,0,0,0,0,0,0,0,0,0,0,0,0,0,0,0],"sum_hessian":[1.9032234E5,1.6862775E5,2.1694604E4,1.6781088E5,8.1686395E2,2.137202E4,3.225828E2,1.6556967E5,2.2412026E3,2.4650116E2,5.703628E2,2.1295887E4,7.613301E1,1.6254033E5,3.0293442E3,1.3235213E2,2.1088506E3,2.304848E2,1.6016363E1,6.588016E0,5.637748E2,2.1261988E4,3.3898193E1,6.902441E1,7.108599E0,1.5442327E4,1.47098E5,9.517018E1,2.934174E3,1.2855849E2,3.793644E0,4.1592392E1,2.067258E3,2.056872E0,1.3959491E1,2.1911664E0,4.3968496E0,2.124737E4,1.4618789E1,2.562815E1,8.270042E0],"tree_param":{"num_deleted":"0","num_feature":"64","num_nodes":"41","size_leaf_vector":"1"}},{"base_weights":[-9.152712E-3,2.247626E0,-5.743846E-1,1.8024476E-1,-4.548385E-2,-4.0179372E-1,-5.7447904E-1,1.536035E-1,-4.5584634E-2,-4.618133E-2,-5.717743E-1,-4.5744114E-2,3.9478157E-2],"categories":[],"categories_nodes":[],"categories_segments":[],"categories_sizes":[],"default_left":[0,0,0,0,0,0,0,0,0,0,0,0,0],"id":29,"left_children":[1,3,5,-1,-1,7,9,-1,-1,-1,11,-1,-1],"loss_changes":[4.6297762E5,1.1152812E3,3.890625E0,0E0,0E0,6.90181E1,1.25E0,0E0,0E0,0E0,5.0703125E0,0E0,0E0],"parents":[2147483647,0,0,1,1,2,2,5,5,6,6,10,10],"right_children":[2,4,6,-1,-1,8,10,-1,-1,-1,12,-1,-1],"split_conditions":[-6.7743623E-1,-4.8486274E-1,-4.612478E-1,1.8024476E-1,-4.548385E-2,2.1607272E-1,-3.1182792E-2,1.536035E-1,-4.5584634E-2,-4.618133E-2,1.16714366E-1,-4.5744114E-2,3.9478157E-2],"split_indices":[55,1,57,0,0,2,14,0,0,0,18,0,0],"split_type":[0,0,0,0,0,0,0,0,0,0,0,0,0],"sum_hessian":[3.6294238E5,7.269383E4,2.9024856E5,7.2554414E4,1.3941191E2,1.6620724E2,2.9008234E5,9.60745E0,1.565998E2,1.4255248E5,1.4752986E5,1.475275E5,2.359874E0],"tree_param":{"num_deleted":"0","num_feature":"64","num_nodes":"13","size_leaf_vector":"1"}},{"base_weights":[1.4413133E-2,-5.198648E-1,3E0,-4.216642E-2,1.0022281E0,2.4E-1,-3.16707E-2,3E0,-3.7332964E-1,-2.0872992E-2,3E0,-4.8746622E-1,2.4E-1,2.4E-1,-2.0394105E-2,1.7307188E-1,-4.133112E-2],"categories":[],"categories_nodes":[],"categories_segments":[],"categories_sizes":[],"default_left":[0,0,0,0,0,0,0,0,0,0,0,0,0,0,0,0,0],"id":30,"left_children":[1,3,5,-1,7,-1,-1,9,11,-1,13,15,-1,-1,-1,-1,-1],"loss_changes":[3.552876E5,1.5164805E3,1.1875E2,0E0,3.0048606E3,0E0,0E0,4.5322754E1,2.579671E2,0E0,4.303833E1,4.083008E1,0E0,0E0,0E0,0E0,0E0],"parents":[2147483647,0,0,1,1,2,2,4,4,7,7,8,8,10,10,11,11],"right_children":[2,4,6,-1,8,-1,-1,10,12,-1,14,16,-1,-1,-1,-1,-1],"split_conditions":[9.1106874E-1,1.8042192E-1,1.1586218E0,-4.216642E-2,-3.0909157E-1,2.4E-1,-3.16707E-2,1.0258255E0,1.1421343E0,-2.0872992E-2,8.2168686E-1,-9.461622E-1,2.4E-1,2.4E-1,-2.0394105E-2,1.7307188E-1,-4.133112E-2],"split_indices":[40,40,23,0,30,0,0,17,61,0,50,37,0,0,0,0,0],"split_type":[0,0,0,0,0,0,0,0,0,0,0,0,0,0,0,0,0],"sum_hessian":[1.5186152E5,1.3793548E5,1.3926025E4,1.3728631E5,6.491686E2,1.3916331E4,9.694868E0,1.5756717E2,4.916014E2,3.7894104E0,1.5377776E2,4.8251736E2,9.084027E0,1.5018211E2,3.5956395E0,3.473058E0,4.790443E2],"tree_param":{"num_deleted":"0","num_feature":"64","num_nodes":"17","size_leaf_vector":"1"}},{"base_weights":[-1.3173478E-2,-6.2400514E-1,1.6255141E0,-6.2508476E-1,-4.391917E-1,-5.242918E-1,1.666728E0,-6.2087476E-1,-5.039542E-2,1.3603814E-1,-5.0752852E-2,-5.9684455E-1,1.2859319E-1,1.3335256E-1,-3.9525762E-2,-6.218023E-1,-5.1846904E-1,6.855999E-1,-5.000129E-2,-4.9638823E-2,-5.0744675E-2,1.3019282E-1,-5.0741136E-2,1.23390876E-1,-4.4470478E-2],"categories":[],"categories_nodes":[],"categories_segments":[],"categories_sizes":[],"default_left":[0,0,0,0,0,0,0,0,0,0,0,0,0,0,0,0,0,0,0,0,0,0,0,0,0],"id":31,"left_children":[1,3,5,7,9,11,13,15,-1,-1,-1,17,-1,-1,-1,19,21,23,-1,-1,-1,-1,-1,-1,-1],"loss_changes":[5.133398E5,7.359375E1,1.23405E4,6.5E0,9.135479E2,4.0816223E2,5.471875E1,1.790625E1,0E0,0E0,0E0,9.287091E1,0E0,0E0,0E0,2.15625E0,4.5148114E2,6.187358E1,0E0,0E0,0E0,0E0,0E0,0E0,0E0],"parents":[2147483647,0,0,1,1,2,2,3,3,4,4,5,5,6,6,7,7,11,11,15,15,16,16,17,17],"right_children":[2,4,6,8,10,12,14,16,-1,-1,-1,18,-1,-1,-1,20,22,24,-1,-1,-1,-1,-1,-1,-1],"split_conditions":[3.2014972E-1,1.1032584E0,4.5764226E-1,-3.4743816E-2,3.3067918E-1,-8.115294E-3,4.9761453E-1,7.952705E-2,-5.039542E-2,1.3603814E-1,-5.0752852E-2,2.2273123E-2,1.2859319E-1,1.3335256E-1,-3.9525762E-2,3.46686E-2,6.3370067E-1,1.4686069E-2,-5.000129E-2,-4.9638823E-2,-5.0744675E-2,1.3019282E-1,-5.0741136E-2,1.23390876E-1,-4.4470478E-2],"split_indices":[32,16,16,1,13,12,27,16,0,0,0,27,0,0,0,3,19,18,0,0,0,0,0,0,0],"split_type":[0,0,0,0,0,0,0,0,0,0,0,0,0,0,0,0,0,0,0,0,0,0,0,0,0],"sum_hessian":[5.1284056E5,3.735856E5,1.3925495E5,3.7140844E5,2.1771687E3,2.618767E3,1.3663619E5,1.9916681E5,1.7224161E5,1.8052864E2,1.9966401E3,2.5341904E3,8.457673E1,1.3662556E5,1.0629918E1,1.9736414E5,1.8026721E3,5.3087524E1,2.481103E3,1.786884E5,1.8675734E4,9.0736984E1,1.7119352E3,3.1361757E1,2.1725769E1],"tree_param":{"num_deleted":"0","num_feature":"64","num_nodes":"25","size_leaf_vector":"1"}},{"base_weights":[1.5061074E-2,-5.163144E-1,3E0,-5.266364E-1,2.1277494E0,2.4E-1,-4.222231E-2,3E0,-5.2785915E-1,-4.1827854E-2,2.4E-1,2.4E-1,-2.0266315E-2,2.5011475E0,-5.2808774E-1,2.4E-1,-2.060262E-2,-1.7033657E-2,-4.225343E-2],"categories":[],"categories_nodes":[],"categories_segments":[],"categories_sizes":[],"default_left":[0,0,0,0,0,0,0,0,0,0,0,0,0,0,0,0,0,0,0],"id":32,"left_children":[1,3,5,7,9,-1,-1,11,13,-1,-1,-1,-1,15,17,-1,-1,-1,-1],"loss_changes":[3.5230772E5,3.9207344E3,1.0586406E4,7.969375E2,3.1880042E3,0E0,0E0,4.307135E1,1.0285547E2,0E0,0E0,0E0,0E0,4.2364006E1,2.96875E0,0E0,0E0,0E0,0E0],"parents":[2147483647,0,0,1,1,2,2,3,3,4,4,7,7,8,8,13,13,14,14],"right_children":[2,4,6,8,10,-1,-1,12,14,-1,-1,-1,-1,16,18,-1,-1,-1,-1],"split_conditions":[1.2576799E0,1.5439743E-1,1.040392E0,-9.89762E-1,-7.712122E-2,2.4E-1,-4.222231E-2,1.0718147E0,-9.57814E-1,-4.1827854E-2,2.4E-1,2.4E-1,-2.0266315E-2,9.348613E-1,-9.878075E-1,2.4E-1,-2.060262E-2,-1.7033657E-2,-4.225343E-2],"split_indices":[23,18,10,29,1,0,0,4,0,0,0,0,0,4,29,0,0,0,0],"split_type":[0,0,0,0,0,0,0,0,0,0,0,0,0,0,0,0,0,0,0],"sum_hessian":[1.5964447E5,1.4353408E5,1.6110399E4,1.429777E5,5.563742E2,1.5260476E4,8.4992334E2,3.3594437E1,1.4294411E5,2.902934E2,2.660808E2,2.9990013E1,3.6044238E0,8.969597E0,1.4293514E5,5.2599516E0,3.7096455E0,3.9297997E1,1.4289584E5],"tree_param":{"num_deleted":"0","num_feature":"64","num_nodes":"19","size_leaf_vector":"1"}},{"base_weights":[1.8923897E-2,-5.255256E-1,3E0,-4.226298E-2,4.483037E-2,2.4E-1,-4.8937598E-1,3E0,-5.030446E-1,5.886492E-1,-4.17267E-2,3E0,-2.0867119E-2,-5.2172226E-1,9.004042E-1,-2.6996907E-2,1.7058523E0,2.4E-1,7.887316E-2,-4.22406E-2,3.533083E-2,1.839373E-1,-2.186906E-2,1.8952833E-1,4.999773E-3],"categories":[],"categories_nodes":[],"categories_segments":[],"categories_sizes":[],"default_left":[0,0,0,0,0,0,0,0,0,0,0,0,0,0,0,0,0,0,0,0,0,0,0,0,0],"id":33,"left_children":[1,3,5,-1,7,-1,9,11,13,15,-1,17,-1,19,21,-1,23,-1,-1,-1,-1,-1,-1,-1,-1],"loss_changes":[3.1695144E5,2.2376172E2,4.8445312E3,0E0,1.2843772E3,0E0,1.4817238E1,4.5218628E1,1.6969742E1,1.54841175E1,0E0,4.5964355E0,0E0,4.2515564E0,1.6912968E1,0E0,4.9503613E0,0E0,0E0,0E0,0E0,0E0,0E0,0E0,0E0],"parents":[2147483647,0,0,1,1,2,2,4,4,6,6,7,7,8,8,9,9,11,11,13,13,14,14,16,16],"right_children":[2,4,6,-1,8,-1,10,12,14,16,-1,18,-1,20,22,-1,24,-1,-1,-1,-1,-1,-1,-1,-1],"split_conditions":[1.268623E0,6.444575E-1,1.0967345E0,-4.226298E-2,2.8676292E-1,2.4E-1,1.5544431E0,-2.9330128E-1,4.7321752E-1,-1.157253E-1,-4.17267E-2,1.5232184E0,-2.0867119E-2,3.0532092E-1,8.793649E-1,-2.6996907E-2,-5.848249E-1,2.4E-1,7.887316E-2,-4.22406E-2,3.533083E-2,1.839373E-1,-2.186906E-2,1.8952833E-1,4.999773E-3],"split_indices":[38,38,40,0,15,0,61,29,25,30,0,63,0,35,15,0,22,0,0,0,0,0,0,0,0],"split_type":[0,0,0,0,0,0,0,0,0,0,0,0,0,0,0,0,0,0,0,0,0,0,0,0,0],"sum_hessian":[1.6295534E5,1.4201166E5,2.0943693E4,1.4132839E5,6.832724E2,2.0546494E4,3.97199E2,9.198306E1,5.912893E2,1.0069995E1,3.87129E2,8.8203186E1,3.7798727E0,5.851152E2,6.174183E0,6.0243874E0,4.0456076E0,8.376653E1,4.436658E0,5.82736E2,2.3790958E0,2.1364381E0,4.037745E0,2.0362687E0,2.009339E0],"tree_param":{"num_deleted":"0","num_feature":"64","num_nodes":"25","size_leaf_vector":"1"}},{"base_weights":[-1.6766312E-2,1.3987488E0,-6.3119256E-1,1.4011488E0,-5.9476274E-1,-4.0435606E-1,-6.3235855E-1,1.4013456E0,-4.4358745E-2,-4.9702123E-2,6.282668E-2,-6.223783E-1,1.3728366E0,-5.1096205E-2,-4.9967647E-2,1.40154E0,-3.3648193E-1,8.270781E-3,-4.990954E-2,1.11308105E-1,-1.1054726E-2,1.1212525E-1,-1.6767684E-2,2.5382392E-2,-4.1750215E-2],"categories":[],"categories_nodes":[],"categories_segments":[],"categories_sizes":[],"default_left":[0,0,0,0,0,0,0,0,0,0,0,0,0,0,0,0,0,0,0,0,0,0,0,0,0],"id":34,"left_children":[1,3,5,7,9,11,13,15,-1,-1,-1,17,19,-1,-1,21,23,-1,-1,-1,-1,-1,-1,-1,-1],"loss_changes":[4.699925E5,7.845625E2,9.8703125E1,6.465625E1,8.647446E0,7.523533E2,1.734375E1,5.628125E1,0E0,0E0,0E0,2.0495605E0,6.40625E0,0E0,0E0,7.4375E0,3.1428082E0,0E0,0E0,0E0,0E0,0E0,0E0,0E0,0E0],"parents":[2147483647,0,0,1,1,2,2,3,3,4,4,5,5,6,6,7,7,11,11,12,12,15,15,16,16],"right_children":[2,4,6,8,10,12,14,16,-1,-1,-1,18,20,-1,-1,22,24,-1,-1,-1,-1,-1,-1,-1,-1],"split_conditions":[-4.357044E-1,-3.5072735E-3,-3.7952858E-1,8.506042E-1,2.8674653E-1,3.0519545E-1,2.5104806E-1,6.3960515E-2,-4.4358745E-2,-4.9702123E-2,6.282668E-2,-1.9608398E-1,2.8894892E-1,-5.1096205E-2,-4.9967647E-2,3.5746914E-1,-1.9571073E-1,8.270781E-3,-4.990954E-2,1.11308105E-1,-1.1054726E-2,1.1212525E-1,-1.6767684E-2,2.5382392E-2,-4.1750215E-2],"split_indices":[33,12,33,63,14,14,14,56,0,0,0,35,10,0,0,1,1,0,0,0,0,0,0,0,0],"split_type":[0,0,0,0,0,0,0,0,0,0,0,0,0,0,0,0,0,0,0,0,0,0,0,0,0],"sum_hessian":[5.4038325E5,1.6356316E5,3.768201E5,1.6336731E5,1.9583743E2,1.9326936E3,3.748874E5,1.633517E5,1.5614757E1,1.9358041E2,2.2570279E0,1.7229114E3,2.0978218E2,2.0617181E5,1.687156E5,1.6333411E5,1.7594223E1,2.5645094E0,1.7203468E3,2.0772618E2,2.056003E0,1.6333206E5,2.0353322E0,2.9769464E0,1.4617277E1],"tree_param":{"num_deleted":"0","num_feature":"64","num_nodes":"25","size_leaf_vector":"1"}},{"base_weights":[4.1767344E-2,3E0,-4.078021E-2,-3.9644744E-2,2.4E-1],"categories":[],"categories_nodes":[],"categories_segments":[],"categories_sizes":[],"default_left":[0,0,0,0,0],"id":35,"left_children":[1,3,-1,-1,-1],"loss_changes":[1.6862434E5,1.3245625E3,0E0,0E0,0E0],"parents":[2147483647,0,0,1,1],"right_children":[2,4,-1,-1,-1],"split_conditions":[-7.6510555E-1,7.1642935E-1,-4.078021E-2,-3.9644744E-2,2.4E-1],"split_indices":[53,62,0,0,0],"split_type":[0,0,0,0,0],"sum_hessian":[5.8016285E4,3.1114739E3,5.4904812E4,1.0771229E2,3.0037615E3],"tree_param":{"num_deleted":"0","num_feature":"64","num_nodes":"5","size_leaf_vector":"1"}},{"base_weights":[6.6110445E-3,-5.3562725E-1,2.857927E0,1.883814E-1,-5.3579646E-1,-4.2753056E-2,2.3037651E-1,-5.375554E-1,-3.333366E-1,-4.306253E-2,-4.5686987E-1,2.3310103E-1,-4.3366283E-2,-4.322854E-2,2.4E-1],"categories":[],"categories_nodes":[],"categories_segments":[],"categories_sizes":[],"default_left":[0,0,0,0,0,0,0,0,0,0,0,0,0,0,0],"id":36,"left_children":[1,3,5,-1,7,-1,-1,9,11,-1,13,-1,-1,-1,-1],"loss_changes":[3.3883912E5,9.375781E1,2.5905938E3,0E0,6.485547E1,0E0,0E0,9.890625E0,1.0851196E3,0E0,4.931873E2,0E0,0E0,0E0,0E0],"parents":[2147483647,0,0,1,1,2,2,4,4,7,7,8,8,10,10],"right_children":[2,4,6,-1,8,-1,-1,10,12,-1,14,-1,-1,-1,-1],"split_conditions":[7.2295904E-1,-8.535614E-1,5.157899E-2,1.883814E-1,4.034045E-1,-4.2753056E-2,2.3037651E-1,6.4955515E-1,2.9595724E-1,-4.306253E-2,-2.2119572E-2,2.3310103E-1,-4.3366283E-2,-4.322854E-2,2.4E-1],"split_indices":[55,27,52,0,31,0,0,55,60,0,52,0,0,0,0],"split_type":[0,0,0,0,0,0,0,0,0,0,0,0,0,0,0],"sum_hessian":[2.1915142E5,1.8413558E5,3.501584E4,8.976526E0,1.841266E5,2.2292464E2,3.4792914E4,1.8253494E5,1.5916581E3,1.8088938E5,1.645575E3,9.443019E1,1.4972279E3,1.6095818E3,3.5993153E1],"tree_param":{"num_deleted":"0","num_feature":"64","num_nodes":"15","size_leaf_vector":"1"}},{"base_weights":[3.466583E-2,-4.9777362E-1,3E0,-5.055873E-1,4.112329E-1,-4.9528474E-1,3E0,-5.0892067E-1,-1.0873794E-1,-5.079323E-1,3E0,-4.1090522E-2,1.4238687E0,3E0,-2.9438844E-2,-5.1477E-1,-3.969192E-1,-4.120466E-2,2.4E-1,-4.1062184E-2,2.9166523E-2,3E0,-1.4086316E-2,2.3448355E-1,-1.7836653E-2,3E0,3.6091283E-2,-4.1235626E-2,-3.727182E-2,2.4E-1,-3.8158234E-2,-0E0,2.4E-1,1.2101529E-1,2.4E-1],"categories":[],"categories_nodes":[],"categories_segments":[],"categories_sizes":[],"default_left":[0,0,0,0,0,0,0,0,0,0,0,0,0,0,0,0,0,0,0,0,0,0,0,0,0,0,0,0,0,0,0,0,0,0,0],"id":37,"left_children":[1,3,5,7,9,11,13,15,17,19,21,-1,23,25,-1,27,29,-1,-1,-1,-1,31,-1,-1,-1,33,-1,-1,-1,-1,-1,-1,-1,-1,-1],"loss_changes":[2.2830734E5,6.2299023E2,9.0849375E3,1.1436914E2,2.851944E3,2.8431808E1,1.00734375E2,5.572461E1,1.4455491E3,3.5480194E0,2.8311768E1,0E0,2.1863344E1,4.453125E0,0E0,1.9375E0,1.5653218E3,0E0,0E0,0E0,0E0,2.54292E1,0E0,0E0,0E0,1.90625E0,0E0,0E0,0E0,0E0,0E0,0E0,0E0,0E0,0E0],"parents":[2147483647,0,0,1,1,2,2,3,3,4,4,5,5,6,6,7,7,8,8,9,9,10,10,12,12,13,13,15,15,16,16,21,21,25,25],"right_children":[2,4,6,8,10,12,14,16,18,20,22,-1,24,26,-1,28,30,-1,-1,-1,-1,32,-1,-1,-1,34,-1,-1,-1,-1,-1,-1,-1,-1,-1],"split_conditions":[1.0475638E0,9.431345E-1,7.4977684E-1,1.9196451E0,6.866677E-1,1.4357864E0,3.277168E-3,8.793649E-1,-8.614438E-2,1.389292E0,2.4407515E-1,-4.1090522E-2,-2.4258591E-1,1.1550179E-1,-2.9438844E-2,1.3476013E0,-7.6238567E-1,-4.120466E-2,2.4E-1,-4.1062184E-2,2.9166523E-2,-8.8130134E-1,-1.4086316E-2,2.3448355E-1,-1.7836653E-2,9.317401E-1,3.6091283E-2,-4.1235626E-2,-3.727182E-2,2.4E-1,-3.8158234E-2,-0E0,2.4E-1,1.2101529E-1,2.4E-1],"split_indices":[50,50,3,3,3,63,37,15,50,63,20,0,0,29,0,63,29,0,0,0,0,20,0,0,0,3,0,0,0,0,0,0,0,0,0],"split_type":[0,0,0,0,0,0,0,0,0,0,0,0,0,0,0,0,0,0,0,0,0,0,0,0,0,0,0,0,0,0,0,0,0,0,0],"sum_hessian":[9.594596E4,8.762039E4,8.325569E3,8.687506E4,7.4532794E2,7.429416E2,7.5826274E3,8.614961E4,7.25452E2,6.377444E2,1.0758356E2,7.3761536E2,5.3262215E0,7.574325E3,8.302289E0,8.186267E4,4.2869395E3,6.8541724E2,4.0034775E1,6.3524945E2,2.4949741E0,1.05158676E2,2.424886E0,2.1252134E0,3.201008E0,7.572244E3,2.0810466E0,8.071785E4,1.1448234E3,6.4257195E1,4.222682E3,2.7791033E0,1.0237957E2,8.34815E0,7.563896E3],"tree_param":{"num_deleted":"0","num_feature":"64","num_nodes":"35","size_leaf_vector":"1"}},{"base_weights":[4.3915924E-2,-4.076992E-2,3E0,-3.9874475E-2,3E0,-1.5260317E-2,2.4E-1],"categories":[],"categories_nodes":[],"categories_segments":[],"categories_sizes":[],"default_left":[0,0,0,0,0,0,0],"id":38,"left_children":[1,-1,3,-1,5,-1,-1],"loss_changes":[1.6698328E5,0E0,1.588E3,0E0,3.1875E1,0E0,0E0],"parents":[2147483647,0,0,2,2,4,4],"right_children":[2,-1,4,-1,6,-1,-1],"split_conditions":[7.896425E-1,-4.076992E-2,4.188172E-1,-3.9874475E-2,-2.1673246E-1,-1.5260317E-2,2.4E-1],"split_indices":[58,0,60,0,19,0,0],"split_type":[0,0,0,0,0,0,0],"sum_hessian":[5.7225082E4,5.4154445E4,3.0706384E3,1.2905539E2,2.9415833E3,2.7314863E0,2.9388516E3],"tree_param":{"num_deleted":"0","num_feature":"64","num_nodes":"7","size_leaf_vector":"1"}},{"base_weights":[1.3307705E-2,-5.046896E-1,2.8424962E0,2.783754E0,-5.2363074E-1,3E0,-4.228735E-1,3E0,-4.1871537E-2,9.637837E-2,-5.275511E-1,3E0,-3.339584E-1,1.5866437E0,-4.898493E-1,-1.4751398E-2,2.4E-1,-5.292094E-1,3E0,-3.9511818E-1,-5.3070164E-1,3E0,-4.023746E-2,-4.200372E-2,2.3522773E-1,3E0,-4.1065477E-2,2.7853486E-1,-5.1804E-1,-4.2686246E-2,4.040089E-2,2.4E-1,-3.4030955E-2,-3.9229684E-2,2.2556853E-1,-4.2576723E-2,-3.861987E-2,2.4E-1,-3.8656726E-2,2.4E-1,-1.4844805E-2,2.4E-1,-3.589045E-2,1.4372365E-1,-4.1795626E-2],"categories":[],"categories_nodes":[],"categories_segments":[],"categories_sizes":[],"default_left":[0,0,0,0,0,0,0,0,0,0,0,0,0,0,0,0,0,0,0,0,0,0,0,0,0,0,0,0,0,0,0,0,0,0,0,0,0,0,0,0,0,0,0,0,0],"id":39,"left_children":[1,3,5,7,9,11,13,15,-1,17,19,21,23,25,27,-1,-1,29,31,33,35,37,-1,-1,-1,39,-1,41,43,-1,-1,-1,-1,-1,-1,-1,-1,-1,-1,-1,-1,-1,-1,-1,-1],"loss_changes":[2.7648312E5,9.936672E3,3.9855438E4,1.5322852E3,3.8553906E2,1.651E3,4.6879205E2,2.8987305E1,0E0,1.8338911E3,6.498047E1,5.713125E2,9.868701E1,4.9968787E2,7.314282E1,0E0,0E0,4.517044E0,1.5040906E2,1.1288888E3,1.0328125E1,3.4221875E2,0E0,0E0,0E0,2.8392883E1,0E0,2.725694E2,3.5793518E1,0E0,0E0,0E0,0E0,0E0,0E0,0E0,0E0,0E0,0E0,0E0,0E0,0E0,0E0,0E0,0E0],"parents":[2147483647,0,0,1,1,2,2,3,3,4,4,5,5,6,6,7,7,9,9,10,10,11,11,12,12,13,13,14,14,17,17,18,18,19,19,20,20,21,21,25,25,27,27,28,28],"right_children":[2,4,6,8,10,12,14,16,-1,18,20,22,24,26,28,-1,-1,30,32,34,36,38,-1,-1,-1,40,-1,42,44,-1,-1,-1,-1,-1,-1,-1,-1,-1,-1,-1,-1,-1,-1,-1,-1],"split_conditions":[4.125654E-2,-9.381951E-1,-1.0316318E-1,1.8042192E-1,-9.1454726E-1,1.1421343E0,-7.0855E-1,4.5169674E-2,-4.1871537E-2,-2.5380805E-1,-8.7527615E-1,1.3193884E-1,1.1743835E0,4.2273468E-1,-7.778995E-1,-1.4751398E-2,2.4E-1,2.4826859E-1,1.1500926E0,-9.940892E-2,1.6552912E0,9.59673E-1,-4.023746E-2,-4.200372E-2,2.3522773E-1,-4.5719102E-1,-4.1065477E-2,1.9854923E-1,-8.4251606E-1,-4.2686246E-2,4.040089E-2,2.4E-1,-3.4030955E-2,-3.9229684E-2,2.2556853E-1,-4.2576723E-2,-3.861987E-2,2.4E-1,-3.8656726E-2,2.4E-1,-1.4844805E-2,2.4E-1,-3.589045E-2,1.4372365E-1,-4.1795626E-2],"split_indices":[30,62,2,40,62,61,60,1,0,59,62,25,1,2,49,0,0,24,51,30,17,49,0,0,0,25,0,2,62,0,0,0,0,0,0,0,0,0,0,0,0,0,0,0,0],"split_type":[0,0,0,0,0,0,0,0,0,0,0,0,0,0,0,0,0,0,0,0,0,0,0,0,0,0,0,0,0,0,0,0,0,0,0,0,0,0,0,0,0,0,0,0,0],"sum_hessian":[1.8865275E5,1.5945883E5,2.9193918E4,9.113875E2,1.5854745E5,2.573097E4,3.462947E3,7.8525714E2,1.2613041E2,9.951159E2,1.5755233E5,2.5582986E4,1.4798471E2,1.099904E2,3.3529565E3,2.4674952E0,7.827896E2,8.21119E2,1.7399695E2,3.6705254E3,1.5388181E5,2.5537125E4,4.5862453E1,1.4155553E2,6.429171E0,5.2261044E1,5.772936E1,1.1740462E2,3.235552E3,8.1911053E2,2.0084515E0,1.6180792E2,1.2189024E1,3.566694E3,1.0383136E2,1.4916217E5,4.719627E3,2.5509598E4,2.7526121E1,4.9855423E1,2.4056175E0,2.1120886E1,9.628373E1,4.3852067E0,3.2311667E3],"tree_param":{"num_deleted":"0","num_feature":"64","num_nodes":"45","size_leaf_vector":"1"}},{"base_weights":[-1.3005718E-2,1.8934394E0,-5.7067025E-1,-4.4920333E-2,1.5179743E-1,-3.5176405E-1,-5.707959E-1,1.3783766E-1,-4.547353E-2,-4.5947764E-2,-5.671516E-1,-4.5374442E-2,3.5121508E-2],"categories":[],"categories_nodes":[],"categories_segments":[],"categories_sizes":[],"default_left":[0,0,0,0,0,0,0,0,0,0,0,0,0],"id":40,"left_children":[1,3,5,-1,-1,7,9,-1,-1,-1,11,-1,-1],"loss_changes":[3.834456E5,8.0971875E2,6.875E0,0E0,0E0,7.8476494E1,2.671875E0,0E0,0E0,0E0,4.7304688E0,0E0,0E0],"parents":[2147483647,0,0,1,1,2,2,5,5,6,6,10,10],"right_children":[2,4,6,-1,-1,8,10,-1,-1,-1,12,-1,-1],"split_conditions":[-3.9724502E-1,-8.879316E-1,-4.612478E-1,-4.4920333E-2,1.5179743E-1,2.1607272E-1,2.5104806E-1,1.3783766E-1,-4.547353E-2,-4.5947764E-2,1.5703206E-1,-4.5374442E-2,3.5121508E-2],"split_indices":[21,2,57,0,0,2,14,0,0,0,46,0,0],"split_type":[0,0,0,0,0,0,0,0,0,0,0,0,0],"sum_hessian":[3.6066134E5,8.162172E4,2.7903962E5,1.330675E2,8.148865E4,1.655884E2,2.7887403E5,1.41237135E1,1.5146468E2,1.4101234E5,1.3786169E5,1.378591E5,2.5914373E0],"tree_param":{"num_deleted":"0","num_feature":"64","num_nodes":"13","size_leaf_vector":"1"}},{"base_weights":[2.0782216E-2,-5.180438E-1,3E0,-4.2071845E-2,9.929188E-1,2.4E-1,-3.218694E-2,3E0,-3.441052E-1,-2.235176E-2,3E0,-4.6817052E-1,2.4E-1,2.4E-1,-1.9516023E-2,5.22947E-2,-3.980931E-2],"categories":[],"categories_nodes":[],"categories_segments":[],"categories_sizes":[],"default_left":[0,0,0,0,0,0,0,0,0,0,0,0,0,0,0,0,0],"id":41,"left_children":[1,3,5,-1,7,-1,-1,9,11,-1,13,15,-1,-1,-1,-1,-1],"loss_changes":[3.0896012E5,1.5747148E3,1.265625E2,0E0,2.613229E3,0E0,0E0,5.0848633E1,2.4251956E2,0E0,4.0521484E1,1.6538315E1,0E0,0E0,0E0,0E0,0E0],"parents":[2147483647,0,0,1,1,2,2,4,4,7,7,8,8,10,10,11,11],"right_children":[2,4,6,-1,8,-1,-1,10,12,-1,14,16,-1,-1,-1,-1,-1],"split_conditions":[9.1106874E-1,1.8042192E-1,1.0956559E0,-4.2071845E-2,-3.0909157E-1,2.4E-1,-3.218694E-2,1.0258255E0,1.1421343E0,-2.235176E-2,8.2168686E-1,-3.5592828E-2,2.4E-1,2.4E-1,-1.9516023E-2,5.22947E-2,-3.980931E-2],"split_indices":[40,40,23,0,30,0,0,17,61,0,50,33,0,0,0,0,0],"split_type":[0,0,0,0,0,0,0,0,0,0,0,0,0,0,0,0,0],"sum_hessian":[1.5003228E5,1.3255722E5,1.7475055E4,1.3187334E5,6.8387286E2,1.746473E4,1.0323745E1,2.0395312E2,4.799197E2,4.2364335E0,1.997167E2,4.6772046E2,1.2199252E1,1.9632123E2,3.395467E0,1.0443803E1,4.5727664E2],"tree_param":{"num_deleted":"0","num_feature":"64","num_nodes":"17","size_leaf_vector":"1"}},{"base_weights":[-1.5448278E-2,-6.174449E-1,1.4688511E0,-6.1827177E-1,-4.4846332E-1,-5.886927E-1,1.475702E0,-6.1279887E-1,-4.992533E-2,-6.067575E-1,1.17180325E-1,7.565425E-2,-4.8622884E-2,5.7680607E-1,1.1806587E-1,-3.1233957E-1,-6.130431E-1,6.278221E-2,-4.8836626E-2,1.043632E-1,-3.725588E-2,-4.809543E-2,1.074136E-1,-4.8888937E-2,-5.052294E-2],"categories":[],"categories_nodes":[],"categories_segments":[],"categories_sizes":[],"default_left":[0,0,0,0,0,0,0,0,0,0,0,0,0,0,0,0,0,0,0,0,0,0,0,0,0],"id":42,"left_children":[1,3,5,7,9,11,13,15,-1,17,-1,-1,-1,19,-1,21,23,-1,-1,-1,-1,-1,-1,-1,-1],"loss_changes":[4.540826E5,4.9578125E1,2.0690312E3,1.0328125E1,5.3904517E2,1.5942184E1,1.3E1,1.275E1,0E0,9.786072E0,0E0,0E0,0E0,2.0419037E1,0E0,7.737307E1,5.5390625E0,0E0,0E0,0E0,0E0,0E0,0E0,0E0,0E0],"parents":[2147483647,0,0,1,1,2,2,3,3,4,4,5,5,6,6,7,7,9,9,13,13,15,15,16,16],"right_children":[2,4,6,8,10,12,14,16,-1,18,-1,-1,-1,20,-1,22,24,-1,-1,-1,-1,-1,-1,-1,-1],"split_conditions":[3.998536E-1,1.7177689E-1,-2.7067907E-2,1.961453E-1,2.316562E-1,-1.8923417E-1,6.3960515E-2,-8.075302E-1,-4.992533E-2,-3.065055E-1,1.17180325E-1,7.565425E-2,-4.8622884E-2,-3.3262798E-1,1.1806587E-1,-3.9891684E-1,-1.9961543E-1,6.278221E-2,-4.8836626E-2,1.043632E-1,-3.725588E-2,-4.809543E-2,1.074136E-1,-4.8888937E-2,-5.052294E-2],"split_indices":[41,41,56,8,56,30,56,3,0,0,0,0,0,3,0,16,3,0,0,0,0,0,0,0,0],"split_type":[0,0,0,0,0,0,0,0,0,0,0,0,0,0,0,0,0,0,0,0,0,0,0,0,0],"sum_hessian":[5.0817622E5,3.6154403E5,1.4663217E5,3.5977522E5,1.7688295E3,4.8581567E2,1.4614636E5,1.8518203E5,1.7459319E5,1.6351675E3,1.3366206E2,4.4562836E0,4.8135938E2,2.1567081E1,1.461248E5,1.5416203E2,1.8502786E5,2.8586266E0,1.6323088E3,1.2687392E1,8.879689E0,1.325954E2,2.1566637E1,1.6761748E5,1.7410379E4],"tree_param":{"num_deleted":"0","num_feature":"64","num_nodes":"25","size_leaf_vector":"1"}},{"base_weights":[2.026436E-2,-5.148764E-1,3E0,-5.2504635E-1,1.8229523E0,2.4E-1,-4.213735E-2,3E0,-5.2648014E-1,-4.1695762E-2,2.4E-1,2.4E-1,-2.2948112E-2,2.5045853E0,-5.26745E-1,2.4E-1,-1.6765887E-2,-9.962535E-3,-4.2148504E-2],"categories":[],"categories_nodes":[],"categories_segments":[],"categories_sizes":[],"default_left":[0,0,0,0,0,0,0,0,0,0,0,0,0,0,0,0,0,0,0],"id":43,"left_children":[1,3,5,7,9,-1,-1,11,13,-1,-1,-1,-1,15,17,-1,-1,-1,-1],"loss_changes":[3.0242547E5,3.2815352E3,1.0314656E4,7.879414E2,2.6441328E3,0E0,0E0,5.271924E1,1.1410156E2,0E0,0E0,0E0,0E0,3.1536972E1,5.5429688E0,0E0,0E0,0E0,0E0],"parents":[2147483647,0,0,1,1,2,2,3,3,4,4,7,7,8,8,13,13,14,14],"right_children":[2,4,6,8,10,-1,-1,12,14,-1,-1,-1,-1,16,18,-1,-1,-1,-1],"split_conditions":[1.2576799E0,1.5439743E-1,1.283915E-1,-9.89762E-1,-7.712122E-2,2.4E-1,-4.213735E-2,-3.5684043E-1,-9.57814E-1,-4.1695762E-2,2.4E-1,2.4E-1,-2.2948112E-2,-6.476314E-1,-9.878075E-1,2.4E-1,-1.6765887E-2,-9.962535E-3,-4.2148504E-2],"split_indices":[23,18,24,29,1,0,0,6,0,0,0,0,0,6,29,0,0,0,0],"split_type":[0,0,0,0,0,0,0,0,0,0,0,0,0,0,0,0,0,0,0],"sum_hessian":[1.5781794E5,1.3790017E5,1.9917771E4,1.3730464E5,5.955321E2,1.9089186E4,8.285858E2,4.6803535E1,1.3725783E5,2.7917108E2,3.1636102E2,4.2422916E1,4.3806214E0,1.0176908E1,1.3724766E5,7.316101E0,2.8608065E0,3.9820183E1,1.3720784E5],"tree_param":{"num_deleted":"0","num_feature":"64","num_nodes":"19","size_leaf_vector":"1"}},{"base_weights":[1.7847933E-2,-5.240817E-1,2.9178896E0,-4.215329E-2,2.5086937E-2,2.9708784E0,-4.125513E-2,2.8752518E0,-4.0054965E-1,2.3771031E-1,1.1318022E0,2.965497E0,-1.4840427E-2,-4.832831E-1,1.7581042E0,-1.859757E-2,1.4949378E-1,2.4E-1,3.1225982E-3,1.2301132E-1,-4.040543E-2,1.9658384E-1,-2.5481442E-2],"categories":[],"categories_nodes":[],"categories_segments":[],"categories_sizes":[],"default_left":[0,0,0,0,0,0,0,0,0,0,0,0,0,0,0,0,0,0,0,0,0,0,0],"id":44,"left_children":[1,3,5,-1,7,9,-1,11,13,-1,15,17,-1,19,21,-1,-1,-1,-1,-1,-1,-1,-1],"loss_changes":[2.5314811E5,2.1128906E2,4.6175156E3,0E0,8.5337427E2,1.3859375E1,0E0,2.6484375E1,1.1142724E2,0E0,1.2444899E1,1.3496887E1,0E0,2.8246353E1,3.5703156E1,0E0,0E0,0E0,0E0,0E0,0E0,0E0,0E0],"parents":[2147483647,0,0,1,1,2,2,4,4,5,5,7,7,8,8,10,10,11,11,13,13,14,14],"right_children":[2,4,6,-1,8,10,-1,12,14,-1,16,18,-1,20,22,-1,-1,-1,-1,-1,-1,-1,-1],"split_conditions":[1.268623E0,6.444575E-1,1.4286059E0,-4.215329E-2,-8.8425136E-1,1.0822408E-1,-4.125513E-2,2.2847429E-1,3.0532092E-1,2.3771031E-1,-9.308002E-1,1.0550162E0,-1.4840427E-2,-3.0054405E-1,3.1452265E-1,-1.859757E-2,1.4949378E-1,2.4E-1,3.1225982E-3,1.2301132E-1,-4.040543E-2,1.9658384E-1,-2.5481442E-2],"split_indices":[38,38,61,0,61,29,0,50,35,0,9,7,0,13,26,0,0,0,0,0,0,0,0],"split_type":[0,0,0,0,0,0,0,0,0,0,0,0,0,0,0,0,0,0,0,0,0,0,0],"sum_hessian":[1.610679E5,1.3570942E5,2.5358498E4,1.3501356E5,6.958577E2,2.497351E4,3.84989E2,8.907233E1,6.067854E2,2.4965209E4,8.300037E0,8.6740425E1,2.3319044E0,5.861059E2,2.0679472E1,3.1529768E0,5.147061E0,8.463293E1,2.1075025E0,4.521687E0,5.815842E2,1.5376415E1,5.303057E0],"tree_param":{"num_deleted":"0","num_feature":"64","num_nodes":"23","size_leaf_vector":"1"}},{"base_weights":[-1.8874789E-2,1.2681768E0,-6.228772E-1,1.2704369E0,-2.3300388E-1,-3.9416364E-1,-6.240739E-1,-4.2844433E-2,1.2707137E0,-5.960586E-1,9.738292E-2,1.00712955E-1,-4.918686E-2,-6.1765695E-1,-6.326508E-1,1.0165939E-1,-2.1991346E-2,1.8313322E-2,-4.892987E-2,-5.007497E-2,-4.921806E-2,-5.0480075E-2,-6.4332056E-1,1.4582873E-2,-5.147955E-2],"categories":[],"categories_nodes":[],"categories_segments":[],"categories_sizes":[],"default_left":[0,0,0,0,0,0,0,0,0,0,0,0,0,0,0,0,0,0,0,0,0,0,0,0,0],"id":45,"left_children":[1,3,5,7,9,11,13,-1,15,17,-1,-1,-1,19,21,-1,-1,-1,-1,-1,-1,-1,23,-1,-1],"loss_changes":[4.139247E5,5.7771875E2,9.8296875E1,8.653125E1,1.379325E2,6.9342065E2,1.875E1,0E0,8.375E0,3.078102E0,0E0,0E0,0E0,3.0859375E0,1.5898438E0,0E0,0E0,0E0,0E0,0E0,0E0,0E0,3.2675781E0,0E0,0E0],"parents":[2147483647,0,0,1,1,2,2,3,3,4,4,5,5,6,6,8,8,9,9,13,13,14,14,22,22],"right_children":[2,4,6,8,10,12,14,-1,16,18,-1,-1,-1,20,22,-1,-1,-1,-1,-1,-1,-1,24,-1,-1],"split_conditions":[-4.357044E-1,-2.9936683E-1,-3.7952858E-1,-8.4819096E-1,2.501772E-1,-1.6954957E-2,3.000991E-1,-4.2844433E-2,-2.5321501E-1,-8.6839125E-2,9.738292E-2,1.00712955E-1,-4.918686E-2,1.4098112E-1,6.749954E-1,1.0165939E-1,-2.1991346E-2,1.8313322E-2,-4.892987E-2,-5.007497E-2,-4.921806E-2,-5.0480075E-2,-2.652481E-1,1.4582873E-2,-5.147955E-2],"split_indices":[33,52,33,39,4,34,44,0,58,48,0,0,0,2,60,0,0,0,0,0,0,0,33,0,0],"split_type":[0,0,0,0,0,0,0,0,0,0,0,0,0,0,0,0,0,0,0,0,0,0,0,0,0],"sum_hessian":[5.3245375E5,1.7006469E5,3.6238906E5,1.6980967E5,2.5501654E2,1.892012E3,3.6049703E5,2.515873E1,1.697845E5,2.0517688E2,4.9839653E1,2.2144804E2,1.6705638E3,2.0632964E5,1.5416739E5,1.6978203E5,2.4711378E0,2.696885E0,2.0248E2,4.666789E4,1.5966175E5,1.336663E5,2.0501107E4,3.2689543E0,2.0497838E4],"tree_param":{"num_deleted":"0","num_feature":"64","num_nodes":"25","size_leaf_vector":"1"}},{"base_weights":[5.6268744E-2,3E0,-4.074475E-2,-3.9526418E-2,2.4E-1],"categories":[],"categories_nodes":[],"categories_segments":[],"categories_sizes":[],"default_left":[0,0,0,0,0],"id":46,"left_children":[1,3,-1,-1,-1],"loss_changes":[1.5694606E5,1.2335469E3,0E0,0E0,0E0],"parents":[2147483647,0,0,1,1],"right_children":[2,4,-1,-1,-1],"split_conditions":[-7.6510555E-1,4.526346E-1,-4.074475E-2,-3.9526418E-2,2.4E-1],"split_indices":[53,6,0,0,0],"split_type":[0,0,0,0,0],"sum_hessian":[5.6385707E4,3.9658555E3,5.241985E4,1.00348625E2,3.8655068E3],"tree_param":{"num_deleted":"0","num_feature":"64","num_nodes":"5","size_leaf_vector":"1"}},{"base_weights":[4.345371E-3,-5.337937E-1,2.288868E0,1.4765117E0,-5.339764E-1,-4.2605676E-2,1.8429744E-1,-2.1062596E-2,1.657489E-1,-5.356867E-1,-3.479491E-1,-4.2912997E-2,-4.5646462E-1,1.8539535E-1,-4.3311536E-2,1.9711347E-1,-4.3092854E-2],"categories":[],"categories_nodes":[],"categories_segments":[],"categories_sizes":[],"default_left":[0,0,0,0,0,0,0,0,0,0,0,0,0,0,0,0,0],"id":47,"left_children":[1,3,5,7,9,-1,-1,-1,-1,11,13,-1,15,-1,-1,-1,-1],"loss_changes":[2.673E5,6.6953125E1,1.7395312E3,1.8972599E1,5.5253906E1,0E0,0E0,0E0,0E0,9.2265625E0,8.3476465E2,0E0,3.8868237E2,0E0,0E0,0E0,0E0],"parents":[2147483647,0,0,1,1,2,2,3,3,4,4,9,9,10,10,12,12],"right_children":[2,4,6,8,10,-1,-1,-1,-1,12,14,-1,16,-1,-1,-1,-1],"split_conditions":[7.2295904E-1,-8.7168896E-1,5.157899E-2,6.405375E-2,4.034045E-1,-4.2605676E-2,1.8429744E-1,-2.1062596E-2,1.657489E-1,6.4955515E-1,2.9595724E-1,-4.2912997E-2,6.45641E-1,1.8539535E-1,-4.3311536E-2,1.9711347E-1,-4.3092854E-2],"split_indices":[55,44,52,4,31,0,0,0,0,55,60,0,17,0,0,0,0],"split_type":[0,0,0,0,0,0,0,0,0,0,0,0,0,0,0,0,0],"sum_hessian":[2.1741778E5,1.7596825E5,4.144953E4,1.4274566E1,1.7595398E5,2.1647882E2,4.123305E4,3.7096176E0,1.0564948E1,1.7434466E5,1.6093175E3,1.7274416E5,1.6005087E3,1.07234764E2,1.5020826E3,4.2061207E1,1.5584475E3],"tree_param":{"num_deleted":"0","num_feature":"64","num_nodes":"17","size_leaf_vector":"1"}},{"base_weights":[4.281259E-2,-4.9592516E-1,3E0,-5.0401413E-1,3.968268E-1,-4.9837133E-1,3E0,-5.1259005E-1,-3.0725068E-1,-4.0841725E-2,3E0,1.4044577E-1,-4.101719E-2,3E0,-3.0930808E-2,-5.135532E-1,-3.3330005E-1,3E0,-4.7269297E-1,3E0,-1.7485814E-2,-3.5870199E-3,3E0,-4.116725E-2,-3.5580933E-2,2.4E-1,-4.096147E-2,-1.7649911E-2,2.4E-1,2.4E-1,-3.9522637E-2,2.4E-1,-1.55382855E-2,2.4E-1,1.1273491E-2],"categories":[],"categories_nodes":[],"categories_segments":[],"categories_sizes":[],"default_left":[0,0,0,0,0,0,0,0,0,0,0,0,0,0,0,0,0,0,0,0,0,0,0,0,0,0,0,0,0,0,0,0,0,0,0],"id":48,"left_children":[1,3,5,7,9,11,13,15,17,-1,19,-1,-1,21,-1,23,25,27,29,31,-1,-1,33,-1,-1,-1,-1,-1,-1,-1,-1,-1,-1,-1,-1],"loss_changes":[2.0157988E5,6.0581055E2,8.702469E3,1.3948828E2,2.5045183E3,2.573021E1,1.19515625E2,1.3052734E1,2.4716843E3,0E0,3.585254E1,0E0,0E0,3.5765625E1,0E0,4.9023438E0,3.7098764E2,1.5428662E2,3.435207E2,3.0972656E1,0E0,0E0,1.25E1,0E0,0E0,0E0,0E0,0E0,0E0,0E0,0E0,0E0,0E0,0E0,0E0],"parents":[2147483647,0,0,1,1,2,2,3,3,4,4,5,5,6,6,7,7,8,8,10,10,13,13,15,15,16,16,17,17,18,18,19,19,22,22],"right_children":[2,4,6,8,10,12,14,16,18,-1,20,-1,-1,22,-1,24,26,28,30,32,-1,-1,34,-1,-1,-1,-1,-1,-1,-1,-1,-1,-1,-1,-1],"split_conditions":[1.0475638E0,9.431345E-1,7.4977684E-1,3.9985594E-1,6.866677E-1,-3.0933365E-1,4.5764226E-1,2.0189362E0,-7.2340053E-1,-4.0841725E-2,2.4407515E-1,1.4044577E-1,-4.101719E-2,3.6556938E-1,-3.0930808E-2,1.8372229E0,-4.8241523E-1,1.1419694E0,-3.9960426E-1,1.5332205E0,-1.7485814E-2,-3.5870199E-3,1.1550179E-1,-4.116725E-2,-3.5580933E-2,2.4E-1,-4.096147E-2,-1.7649911E-2,2.4E-1,2.4E-1,-3.9522637E-2,2.4E-1,-1.55382855E-2,2.4E-1,1.1273491E-2],"split_indices":[50,50,3,26,3,24,16,34,29,0,20,0,0,34,0,3,60,3,24,19,0,0,29,0,0,0,0,0,0,0,0,0,0,0,0],"split_type":[0,0,0,0,0,0,0,0,0,0,0,0,0,0,0,0,0,0,0,0,0,0,0,0,0,0,0,0,0,0,0,0,0,0,0],"sum_hessian":[9.4068016E4,8.380362E4,1.0264401E4,8.305253E4,7.510852E2,7.10375E2,9.554026E3,7.957836E4,3.4741763E3,6.16309E2,1.3477617E2,2.736347E0,7.076387E2,9.5442E3,9.825787E0,7.9146664E4,4.3169153E2,1.168793E2,3.3572969E3,1.3174358E2,3.0326061E0,3.6331334E0,9.540567E3,7.795081E4,1.195853E3,1.1479855E1,4.2021167E2,1.4444199E1,1.02435104E2,1.12785015E1,3.3460186E3,1.2910982E2,2.6337514E0,9.538302E3,2.2659385E0],"tree_param":{"num_deleted":"0","num_feature":"64","num_nodes":"35","size_leaf_vector":"1"}},{"base_weights":[5.5914987E-2,-4.0734842E-2,3E0,-3.9797757E-2,2.4E-1],"categories":[],"categories_nodes":[],"categories_segments":[],"categories_sizes":[],"default_left":[0,0,0,0,0],"id":49,"left_children":[1,-1,3,-1,-1],"loss_changes":[1.5510944E5,0E0,1.508375E3,0E0,0E0],"parents":[2147483647,0,0,2,2],"right_children":[2,-1,4,-1,-1],"split_conditions":[7.896425E-1,-4.0734842E-2,4.6765068E-1,-3.9797757E-2,2.4E-1],"split_indices":[58,0,60,0,0],"split_type":[0,0,0,0,0],"sum_hessian":[5.5689207E4,5.1793703E4,3.895503E3,1.226183E2,3.7728845E3],"tree_param":{"num_deleted":"0","num_feature":"64","num_nodes":"5","size_leaf_vector":"1"}},{"base_weights":[1.0779032E-2,-5.1436406E-1,2.5719264E0,-5.213718E-1,6.4850295E-1,2.6032708E0,-4.2504445E-2,-5.260998E-1,-1.9594032E-1,2.4935482E0,-5.259789E-1,2.6096134E0,9.163018E-3,-5.290521E-1,-3.7465137E-1,2.66471E0,-4.8726946E-1,2.6641166E0,-3.723355E-2,3.9309062E-2,-4.2582594E-2,2.6120863E0,-3.7763104E-2,-4.1017644E-2,1.929538E-1,-1.7411888E-2,-4.234508E-2,1.025777E-1,-3.750423E-2,2.1673118E-1,-1.6855666E-2,1.5273476E-1,-4.19598E-2,2.1519879E-1,-1.6711941E-2,2.634617E-2,2.089795E-1],"categories":[],"categories_nodes":[],"categories_segments":[],"categories_sizes":[],"default_left":[0,0,0,0,0,0,0,0,0,0,0,0,0,0,0,0,0,0,0,0,0,0,0,0,0,0,0,0,0,0,0,0,0,0,0,0,0],"id":50,"left_children":[1,3,5,7,9,11,-1,13,15,17,19,21,23,25,27,29,31,33,-1,-1,-1,35,-1,-1,-1,-1,-1,-1,-1,-1,-1,-1,-1,-1,-1,-1,-1],"loss_changes":[2.5155567E5,1.2658047E3,3.0986094E3,2.3675781E2,2.0213223E3,5.1575E2,0E0,6.726172E1,1.8495297E3,1.8583228E2,4.432617E0,2.421875E2,1.0545464E2,1.1484375E1,4.571464E2,2.7476196E1,1.8244785E2,2.6760986E1,0E0,0E0,0E0,7.140625E0,0E0,0E0,0E0,0E0,0E0,0E0,0E0,0E0,0E0,0E0,0E0,0E0,0E0,0E0,0E0],"parents":[2147483647,0,0,1,1,2,2,3,3,4,4,5,5,7,7,8,8,9,9,10,10,11,11,12,12,13,13,14,14,15,15,16,16,17,17,21,21],"right_children":[2,4,6,8,10,12,-1,14,16,18,20,22,24,26,28,30,32,34,-1,-1,-1,36,-1,-1,-1,-1,-1,-1,-1,-1,-1,-1,-1,-1,-1,-1,-1],"split_conditions":[1.040392E0,6.5136194E-1,1.2457023E-1,1.6471747E-1,-3.782397E-1,9.1106874E-1,-4.2504445E-2,-2.0651072E-2,-7.0023984E-1,-9.941264E-2,-4.5052102E-1,3.998536E-1,1.0994982E0,-9.381951E-1,-4.3951687E-1,-3.3698428E-1,-7.8213894E-1,4.4505324E-2,-3.723355E-2,3.9309062E-2,-4.2582594E-2,-4.275596E-2,-3.7763104E-2,-4.1017644E-2,1.929538E-1,-1.7411888E-2,-4.234508E-2,1.025777E-1,-3.750423E-2,2.1673118E-1,-1.6855666E-2,1.5273476E-1,-4.19598E-2,2.1519879E-1,-1.6711941E-2,2.634617E-2,2.089795E-1],"split_indices":[10,10,2,10,13,40,0,30,54,58,20,41,8,62,58,58,31,45,0,0,0,7,0,0,0,0,0,0,0,0,0,0,0,0,0,0,0],"split_type":[0,0,0,0,0,0,0,0,0,0,0,0,0,0,0,0,0,0,0,0,0,0,0,0,0,0,0,0,0,0,0,0,0,0,0,0,0],"sum_hessian":[1.8702755E5,1.5520533E5,3.1822227E4,1.5427714E5,9.2817737E2,3.1504496E4,3.1772964E2,1.5206511E5,2.2120432E3,3.603178E2,5.6785956E2,3.1427451E4,7.704623E1,1.4914934E5,2.915757E3,2.0278873E2,2.0092545E3,3.4102768E2,1.929013E1,2.0606384E0,5.6579895E2,3.1402719E4,2.4731762E1,6.441936E1,1.2626869E1,1.280986E2,1.4902125E5,1.5513602E2,2.760621E3,1.9998811E2,2.800611E0,2.8991743E1,1.9802628E3,3.382833E2,2.7444031E0,2.6747472E0,3.1400043E4],"tree_param":{"num_deleted":"0","num_feature":"64","num_nodes":"37","size_leaf_vector":"1"}},{"base_weights":[-1.4979646E-2,1.6435282E0,-5.668354E-1,1.3173494E-1,-4.446156E-2,-5.632889E-1,-4.575025E-2,1.0827339E0,-5.6359375E-1,1.3411517E-1,-3.2160103E-2,-5.636487E-1,-0E0,-1.51781365E-2,-4.509468E-2,-3.714555E-2,1.2761725E-1],"categories":[],"categories_nodes":[],"categories_segments":[],"categories_sizes":[],"default_left":[0,0,0,0,0,0,0,0,0,0,0,0,0,0,0,0,0],"id":51,"left_children":[1,3,5,-1,-1,7,-1,9,11,-1,-1,13,15,-1,-1,-1,-1],"loss_changes":[3.2616766E5,6.201406E2,3.859375E0,0E0,0E0,8.0625E1,0E0,2.8427074E1,4.4492188E0,0E0,0E0,1.3671875E0,1.641695E1,0E0,0E0,0E0,0E0],"parents":[2147483647,0,0,1,1,2,2,5,5,7,7,8,8,11,11,12,12],"right_children":[2,4,6,-1,-1,8,-1,10,12,-1,-1,14,16,-1,-1,-1,-1],"split_conditions":[-6.4144516E-1,-6.476314E-1,8.0218E-1,1.3173494E-1,-4.446156E-2,-3.0943564E-1,-4.575025E-2,-3.0313018E-1,1.16714366E-1,1.3411517E-1,-3.2160103E-2,-2.5487363E-1,-9.024738E-1,-1.51781365E-2,-4.509468E-2,-3.714555E-2,1.2761725E-1],"split_indices":[1,6,17,0,0,21,0,1,18,0,0,21,16,0,0,0,0],"split_type":[0,0,0,0,0,0,0,0,0,0,0,0,0,0,0,0,0],"sum_hessian":[3.563614E5,8.8970625E4,2.673908E5,8.884376E4,1.2686688E2,1.5717581E5,1.1021498E5,2.7481302E1,1.5714833E5,1.9687376E1,7.7939267E0,1.5713258E5,1.5750136E1,1.6976107E1,1.5711561E5,1.3413979E1,2.3361578E0],"tree_param":{"num_deleted":"0","num_feature":"64","num_nodes":"17","size_leaf_vector":"1"}},{"base_weights":[2.5224373E-2,-5.024184E-1,3E0,2.6332252E0,-5.150123E-1,-4.4344383E-1,3E0,-4.933313E-1,2.4E-1,-5.209171E-1,1.1447054E-1,1.9905615E0,-4.0903553E-2,3E0,-3.531513E-2,7.997086E-3,-4.093709E-2,-5.224509E-1,-1.550077E-1,-4.17778E-2,3E0,-2.5718056E-2,2.3688766E-1,3E0,1.2460805E0,-2.4562735E-2,-4.1888718E-2,2.0239265E-1,-3.9840724E-2,2.4E-1,-2.6776783E-2,2.4E-1,7.914669E-2,1.6927426E-1,-1.7902188E-2],"categories":[],"categories_nodes":[],"categories_segments":[],"categories_sizes":[],"default_left":[0,0,0,0,0,0,0,0,0,0,0,0,0,0,0,0,0,0,0,0,0,0,0,0,0,0,0,0,0,0,0,0,0,0,0],"id":52,"left_children":[1,3,5,7,9,11,13,15,-1,17,19,21,-1,23,-1,-1,-1,25,27,-1,29,-1,-1,31,33,-1,-1,-1,-1,-1,-1,-1,-1,-1,-1],"loss_changes":[2.388724E5,4.9963086E3,8.332734E3,1.2295591E3,4.6820703E2,1.1941452E2,1.9853125E2,1.3533459E0,0E0,6.940234E1,2.4200405E3,4.6837433E1,0E0,7.40625E0,0E0,0E0,0E0,3.0296875E1,4.877106E2,0E0,7.408032E1,0E0,0E0,6.40625E0,1.4269396E1,0E0,0E0,0E0,0E0,0E0,0E0,0E0,0E0,0E0,0E0],"parents":[2147483647,0,0,1,1,2,2,3,3,4,4,5,5,6,6,7,7,9,9,10,10,11,11,13,13,17,17,18,18,20,20,23,23,24,24],"right_children":[2,4,6,8,10,12,14,16,-1,18,20,22,-1,24,-1,-1,-1,26,28,-1,30,-1,-1,32,34,-1,-1,-1,-1,-1,-1,-1,-1,-1,-1],"split_conditions":[6.579337E-1,-9.4723254E-1,-1.3766614E-1,-3.0054405E-1,1.4332994E0,-9.4350606E-1,1.0511938E0,-7.735553E-1,2.4E-1,2.7041355E-1,2.1998698E-1,-4.1447157E-1,-4.0903553E-2,2.0063617E-3,-3.531513E-2,7.997086E-3,-4.093709E-2,-8.246879E-1,-1.0789769E-1,-4.17778E-2,2.2192986E0,-2.5718056E-2,2.3688766E-1,4.2675865E-1,-8.84702E-1,-2.4562735E-2,-4.1888718E-2,2.0239265E-1,-3.9840724E-2,2.4E-1,-2.6776783E-2,2.4E-1,7.914669E-2,1.6927426E-1,-1.7902188E-2],"split_indices":[46,9,29,13,29,37,23,45,0,11,46,24,0,49,0,0,0,45,26,0,10,0,0,25,3,0,0,0,0,0,0,0,0,0,0],"split_type":[0,0,0,0,0,0,0,0,0,0,0,0,0,0,0,0,0,0,0,0,0,0,0,0,0,0,0,0,0,0,0,0,0,0,0],"sum_hessian":[1.4824469E5,1.2641604E5,2.1828645E4,5.038804E2,1.25912164E5,7.02104E2,2.112654E4,1.0559892E2,3.982815E2,1.2474316E5,1.1690032E3,1.7304262E1,6.8479974E2,2.111042E4,1.612013E1,2.0893161E0,1.03509605E2,1.2422024E5,5.2291656E2,9.799232E2,1.8907993E2,5.359365E0,1.1944898E1,2.1103107E4,7.3118925E0,6.693778E2,1.2355087E5,5.762617E1,4.652904E2,1.8296454E2,6.1153893E0,2.1098207E4,4.900059E0,4.254938E0,3.0569544E0],"tree_param":{"num_deleted":"0","num_feature":"64","num_nodes":"35","size_leaf_vector":"1"}},{"base_weights":[-1.8636962E-2,-6.114091E-1,1.3243366E0,-6.057394E-1,-6.1871517E-1,-5.714235E-1,1.3285935E0,-6.0586816E-1,1.3406976E0,-6.1891484E-1,-3.9864984E-1,8.111164E-2,-4.7840312E-2,1.3288083E0,-4.2566553E-2,-6.0589975E-1,1.1154093E-1,1.2735204E-1,1.349212E-2,-4.939361E-2,-5.0311074E-2,-5.708983E-1,1.3743982E-1,6.23557E-1,1.3289343E0,-4.8310895E-2,-4.9056247E-2,7.894263E-2,-3.0827353E-2,2.4742682E-2,-4.7510203E-2,-3.8355354E-2,9.564207E-2,1.0631701E-1,-1.6892936E-2],"categories":[],"categories_nodes":[],"categories_segments":[],"categories_sizes":[],"default_left":[0,0,0,0,0,0,0,0,0,0,0,0,0,0,0,0,0,0,0,0,0,0,0,0,0,0,0,0,0,0,0,0,0,0,0],"id":53,"left_children":[1,3,5,7,9,11,13,15,17,19,21,-1,-1,23,-1,25,27,-1,-1,-1,-1,29,-1,31,33,-1,-1,-1,-1,-1,-1,-1,-1,-1,-1],"loss_changes":[3.9884366E5,1.3359375E1,1.2399062E3,5.1359375E1,5.7617188E0,1.6291435E1,6.290625E1,4.625E0,2.2529812E0,1.1835938E0,5.6116493E1,0E0,0E0,1.09375E1,0E0,1.84375E0,6.447186E0,0E0,0E0,0E0,0E0,3.3121262E0,0E0,2.231876E1,7.375E0,0E0,0E0,0E0,0E0,0E0,0E0,0E0,0E0,0E0,0E0],"parents":[2147483647,0,0,1,1,2,2,3,3,4,4,5,5,6,6,7,7,8,8,9,9,10,10,13,13,15,15,16,16,21,21,23,23,24,24],"right_children":[2,4,6,8,10,12,14,16,18,20,22,-1,-1,24,-1,26,28,-1,-1,-1,-1,30,-1,32,34,-1,-1,-1,-1,-1,-1,-1,-1,-1,-1],"split_conditions":[1.8181345E-1,2.9129216E-1,-2.7067907E-2,1.338798E0,2.9072784E-2,-3.9785424E-1,4.9761453E-1,1.2256616E0,5.343221E-1,6.749954E-1,6.963127E-2,8.111164E-2,-4.7840312E-2,6.3960515E-2,-4.2566553E-2,-1.1707751E-1,-6.016825E-1,1.2735204E-1,1.349212E-2,-4.939361E-2,-5.0311074E-2,-2.2622323E-1,1.3743982E-1,1.9708318E-1,1.4711514E0,-4.8310895E-2,-4.9056247E-2,7.894263E-2,-3.0827353E-2,2.4742682E-2,-4.7510203E-2,-3.8355354E-2,9.564207E-2,1.0631701E-1,-1.6892936E-2],"split_indices":[47,44,56,16,41,3,27,16,4,60,50,0,0,56,0,1,3,0,0,0,0,30,0,4,3,0,0,0,0,0,0,0,0,0,0],"split_type":[0,0,0,0,0,0,0,0,0,0,0,0,0,0,0,0,0,0,0,0,0,0,0,0,0,0,0,0,0,0,0,0,0,0,0],"sum_hessian":[5.010051E5,3.4758622E5,1.5341888E5,1.9584166E5,1.5174458E5,3.428629E2,1.5307602E5,1.9583034E5,1.1316635E1,1.516011E5,1.4347198E2,4.1186295E0,3.3874426E2,1.5305917E5,1.683675E1,1.9582273E5,7.6142216E0,8.377951E0,2.938685E0,1.3199492E5,1.9606178E4,1.3424425E2,9.227736E0,2.982013E1,1.5302936E5,1.5368705E5,4.2135684E4,2.4076355E0,5.2065864E0,2.2279768E0,1.3201627E2,9.994963E0,1.9825167E1,1.5302714E5,2.218433E0],"tree_param":{"num_deleted":"0","num_feature":"64","num_nodes":"35","size_leaf_vector":"1"}},{"base_weights":[2.319787E-2,-5.128573E-1,2.9434137E0,-5.2387124E-1,1.6389447E0,2.4E-1,-4.2025965E-2,2.728061E0,-5.2508295E-1,-4.1559275E-2,2.4E-1,2.4E-1,-2.2373464E-2,1.8230663E-1,-5.2528465E-1,1.1867826E-2,-4.2027406E-2],"categories":[],"categories_nodes":[],"categories_segments":[],"categories_sizes":[],"default_left":[0,0,0,0,0,0,0,0,0,0,0,0,0,0,0,0,0],"id":54,"left_children":[1,3,5,7,9,-1,-1,11,13,-1,-1,-1,-1,-1,15,-1,-1],"loss_changes":[2.4450784E5,3.1301445E3,9.695906E3,5.2158984E2,2.0425779E3,0E0,0E0,4.752777E1,7.7765625E1,0E0,0E0,0E0,0E0,0E0,5.3476562E0,0E0,0E0],"parents":[2147483647,0,0,1,1,2,2,3,3,4,4,7,7,8,8,14,14],"right_children":[2,4,6,8,10,-1,-1,12,14,-1,-1,-1,-1,-1,16,-1,-1],"split_conditions":[1.2576799E0,1.5439743E-1,1.283915E-1,-9.57814E-1,-7.712122E-2,2.4E-1,-4.2025965E-2,-5.2072513E-1,-9.7481096E-1,-4.1559275E-2,2.4E-1,2.4E-1,-2.2373464E-2,1.8230663E-1,-9.7202176E-1,1.1867826E-2,-4.2027406E-2],"split_indices":[23,18,24,0,1,0,0,6,54,0,0,0,0,0,54,0,0],"split_type":[0,0,0,0,0,0,0,0,0,0,0,0,0,0,0,0,0],"sum_hessian":[1.5618855E5,1.3196552E5,2.4223033E4,1.3129523E5,6.702828E2,2.3437344E4,7.8569073E2,4.707337E1,1.3124816E5,2.6456577E2,4.05717E2,4.2847282E1,4.2260923E0,7.6378493E0,1.3124052E5,1.0100959E1,1.3123042E5],"tree_param":{"num_deleted":"0","num_feature":"64","num_nodes":"17","size_leaf_vector":"1"}},{"base_weights":[1.9818865E-2,-5.225116E-1,2.3260336E0,-4.2041916E-2,2.8043285E-2,2.3599935E0,-4.9303E-1,2.2627628E0,-5.004668E-1,-5.3983657E-3,1.8883537E-1,1.9264044E-1,-4.063497E-2,-2.0152597E-2,2.33725E0,-5.194863E-1,5.011085E-1,7.65121E-2,-2.2781363E-2,1.9037387E-1,-0E0,-4.2086184E-2,4.091619E-2,-1.13739325E-2,1.3083646E-1],"categories":[],"categories_nodes":[],"categories_segments":[],"categories_sizes":[],"default_left":[0,0,0,0,0,0,0,0,0,0,0,0,0,0,0,0,0,0,0,0,0,0,0,0,0],"id":55,"left_children":[1,3,5,-1,7,9,11,13,15,-1,-1,17,-1,-1,19,21,23,-1,-1,-1,-1,-1,-1,-1,-1],"loss_changes":[2.0003461E5,2.1478906E2,2.9176875E3,0E0,8.392276E2,3.3109375E1,4.034134E0,2.6795654E1,1.1697861E1,0E0,0E0,4.924745E0,0E0,0E0,1.1018982E1,4.628662E0,1.04027E1,0E0,0E0,0E0,0E0,0E0,0E0,0E0,0E0],"parents":[2147483647,0,0,1,1,2,2,4,4,5,5,6,6,7,7,8,8,11,11,14,14,15,15,16,16],"right_children":[2,4,6,-1,8,10,12,14,16,-1,-1,18,-1,-1,20,22,24,-1,-1,-1,-1,-1,-1,-1,-1],"split_conditions":[1.268623E0,6.444575E-1,1.4286059E0,-4.2041916E-2,2.8676292E-1,-3.8702148E-1,1.5544431E0,7.071243E-1,3.0532092E-1,-5.3983657E-3,1.8883537E-1,-1.5310918E-1,-4.063497E-2,-2.0152597E-2,4.941785E-1,4.2361233E-1,-4.5000565E-1,7.65121E-2,-2.2781363E-2,1.9037387E-1,-0E0,-4.2086184E-2,4.091619E-2,-1.13739325E-2,1.3083646E-1],"split_indices":[38,38,61,0,15,49,61,42,35,0,0,33,0,0,35,5,4,0,0,0,0,0,0,0,0],"split_type":[0,0,0,0,0,0,0,0,0,0,0,0,0,0,0,0,0,0,0,0,0,0,0,0,0],"sum_hessian":[1.5992728E5,1.2948002E5,3.044725E4,1.2877643E5,7.035967E2,3.008533E4,3.619203E2,1.3349937E2,5.700973E2,5.2968006E0,3.0080033E4,6.479989E0,3.554403E2,3.5104575E0,1.2998892E2,5.609078E2,9.189511E0,2.1234896E0,4.3564997E0,1.2746954E2,2.5193772E0,5.587997E2,2.1081223E0,6.6990557E0,2.490455E0],"tree_param":{"num_deleted":"0","num_feature":"64","num_nodes":"25","size_leaf_vector":"1"}},{"base_weights":[-1.839125E-2,7.538439E-1,-6.07812E-1,1.1199812E0,-6.052128E-1,-6.011596E-2,-6.115881E-1,1.1617217E0,-6.032305E-1,1.1233711E0,-6.2046385E-1,1.0066345E0,-6.029918E-1,9.3923867E-1,-6.1239904E-1,-5.877307E-1,1.1658463E0,2.1430306E-1,-6.1620486E-1,9.2703134E-2,-3.7115946E-2,-2.6644948E-1,-6.238167E-1,1.1553961E0,-4.8106077E-1,6.104775E-2,-4.877066E-2,-4.253142E-2,9.160663E-2,-3.332232E-1,-6.1272156E-1,3.953313E-2,-4.9764533E-2,9.3281046E-2,-4.293965E-2,-4.617444E-2,8.646851E-2,-4.9589228E-2,7.280094E-2,9.128636E-2,-5.0694283E-2,-5.0012182E-2,-2.222177E-2,-1.9807806E-2,9.306327E-2,4.2566802E-2,-4.5602415E-2,8.923143E-2,-4.9014978E-2,-4.9836855E-2,-4.859311E-2],"categories":[],"categories_nodes":[],"categories_segments":[],"categories_sizes":[],"default_left":[0,0,0,0,0,0,0,0,0,0,0,0,0,0,0,0,0,0,0,0,0,0,0,0,0,0,0,0,0,0,0,0,0,0,0,0,0,0,0,0,0,0,0,0,0,0,0,0,0,0,0],"id":56,"left_children":[1,3,5,7,9,11,13,15,17,19,21,23,25,27,29,31,33,35,37,-1,-1,39,41,43,45,-1,-1,-1,-1,47,49,-1,-1,-1,-1,-1,-1,-1,-1,-1,-1,-1,-1,-1,-1,-1,-1,-1,-1,-1,-1],"loss_changes":[2.3737458E5,1.1233228E5,6.1102344E2,1.2793016E4,1.2650215E3,1.177149E3,3.7101562E2,1.2545469E3,4.5011475E1,2.4940796E1,5.555664E1,1.5306805E2,1.3531982E1,4.8413544E1,2.5578125E1,1.6118713E1,5.0703125E1,4.8515064E1,2.4730225E1,0E0,0E0,2.3541423E2,2.0910156E1,7.614441E0,6.7148533E0,0E0,0E0,0E0,0E0,1.4197441E2,1.48671875E1,0E0,0E0,0E0,0E0,0E0,0E0,0E0,0E0,0E0,0E0,0E0,0E0,0E0,0E0,0E0,0E0,0E0,0E0,0E0,0E0],"parents":[2147483647,0,0,1,1,2,2,3,3,4,4,5,5,6,6,7,7,8,8,9,9,10,10,11,11,12,12,13,13,14,14,15,15,16,16,17,17,18,18,21,21,22,22,23,23,24,24,29,29,30,30],"right_children":[2,4,6,8,10,12,14,16,18,20,22,24,26,28,30,32,34,36,38,-1,-1,40,42,44,46,-1,-1,-1,-1,48,50,-1,-1,-1,-1,-1,-1,-1,-1,-1,-1,-1,-1,-1,-1,-1,-1,-1,-1,-1,-1],"split_conditions":[-1.15154654E-1,5.168503E-1,-9.805599E-2,-3.3121943E-1,-7.322312E-1,2.4246255E-2,-8.357124E-1,3.159259E-2,-2.9936683E-1,4.769577E-1,-6.8171835E-1,-2.8403673E-1,-4.804575E-1,-9.3158436E-1,-7.7789986E-1,-6.7614174E-1,3.2063985E-1,1.33392E-1,3.2484E-1,9.2703134E-2,-3.7115946E-2,1.338041E-1,3.122636E-1,1.1560684E-2,5.9882927E-1,6.104775E-2,-4.877066E-2,-4.253142E-2,9.160663E-2,-1.739725E-1,-4.5107585E-1,3.953313E-2,-4.9764533E-2,9.3281046E-2,-4.293965E-2,-4.617444E-2,8.646851E-2,-4.9589228E-2,7.280094E-2,9.128636E-2,-5.0694283E-2,-5.0012182E-2,-2.222177E-2,-1.9807806E-2,9.306327E-2,4.2566802E-2,-4.5602415E-2,8.923143E-2,-4.9014978E-2,-4.9836855E-2,-4.859311E-2],"split_indices":[22,4,22,52,58,34,58,6,52,10,58,5,58,3,58,38,27,6,43,0,0,56,43,18,42,0,0,0,0,5,45,0,0,0,0,0,0,0,0,0,0,0,0,0,0,0,0,0,0,0,0],"split_type":[0,0,0,0,0,0,0,0,0,0,0,0,0,0,0,0,0,0,0,0,0,0,0,0,0,0,0,0,0,0,0,0,0,0,0,0,0,0,0,0,0,0,0,0,0,0,0,0,0,0,0],"sum_hessian":[5.214992E5,2.2574103E5,2.9575816E5,1.7783266E5,4.7908375E4,2.0263041E3,2.9373184E5,1.7362789E5,4.204764E3,4.1743317E2,4.749094E4,6.825212E2,1.343783E3,1.5198158E2,2.9357988E5,4.0743793E2,1.7322045E5,6.4600716E1,4.140163E3,4.091585E2,8.274664E0,4.484802E2,4.704246E4,6.211884E2,6.1332726E1,5.0350595E0,1.3387479E3,1.79713E1,1.3401028E2,3.4290683E2,2.9323697E5,1.1257654E1,3.9618027E2,1.7320442E5,1.6039099E1,3.381029E1,3.0790422E1,4.1317686E3,8.394494E0,9.164475E1,3.5683545E2,4.685855E4,1.8391113E2,2.781787E0,6.184067E2,3.6933596E0,5.7639366E1,5.4197872E1,2.8870895E2,9.9998875E4,1.9323808E5],"tree_param":{"num_deleted":"0","num_feature":"64","num_nodes":"51","size_leaf_vector":"1"}},{"base_weights":[7.116473E-2,3E0,-4.070792E-2,2.4E-1,-3.9469533E-2],"categories":[],"categories_nodes":[],"categories_segments":[],"categories_sizes":[],"default_left":[0,0,0,0,0],"id":57,"left_children":[1,3,-1,-1,-1],"loss_changes":[1.4303592E5,1.2125156E3,0E0,0E0,0E0],"parents":[2147483647,0,0,1,1],"right_children":[2,4,-1,-1,-1],"split_conditions":[-7.6510555E-1,-5.633258E-1,-4.070792E-2,2.4E-1,-3.9469533E-2],"split_indices":[53,16,0,0,0],"split_type":[0,0,0,0,0],"sum_hessian":[5.4933363E4,5.042073E3,4.9891293E4,4.9434053E3,9.866783E1],"tree_param":{"num_deleted":"0","num_feature":"64","num_nodes":"5","size_leaf_vector":"1"}},{"base_weights":[2.243322E-3,-5.315821E-1,1.9220163E0,-5.3353304E-1,-3.3034635E-1,-4.239209E-2,1.546031E-1,-5.341114E-1,-4.058271E-1,1.5690129E-1,-4.3240953E-2,-4.002351E-1,-5.342194E-1,1.5716143E-1,-4.2834587E-2,-4.2344436E-2,1.5038438E-1,-4.2740114E-2,-1.7565615E-2],"categories":[],"categories_nodes":[],"categories_segments":[],"categories_sizes":[],"default_left":[0,0,0,0,0,0,0,0,0,0,0,0,0,0,0,0,0,0,0],"id":58,"left_children":[1,3,5,7,9,-1,-1,11,13,-1,-1,15,17,-1,-1,-1,-1,-1,-1],"loss_changes":[2.1991452E5,6.5203125E1,1.206875E3,1.1519531E1,7.835518E2,0E0,0E0,1.640625E0,2.3732864E2,0E0,0E0,4.5816288E1,1.0078125E0,0E0,0E0,0E0,0E0,0E0,0E0],"parents":[2147483647,0,0,1,1,2,2,3,3,4,4,7,7,8,8,11,11,12,12],"right_children":[2,4,6,8,10,-1,-1,12,14,-1,-1,16,18,-1,-1,-1,-1,-1,-1],"split_conditions":[7.2295904E-1,4.034045E-1,5.157899E-2,6.759083E-1,2.9595724E-1,-4.239209E-2,1.546031E-1,-9.410364E-1,3.207851E-1,1.5690129E-1,-4.3240953E-2,5.8132976E-1,1.5241933E0,1.5716143E-1,-4.2834587E-2,-4.2344436E-2,1.5038438E-1,-4.2740114E-2,-1.7565615E-2],"split_indices":[55,31,52,55,60,0,0,23,17,0,0,1,8,0,0,0,0,0,0],"split_type":[0,0,0,0,0,0,0,0,0,0,0,0,0,0,0,0,0,0,0],"sum_hessian":[2.1458061E5,1.6789558E5,4.6685027E4,1.6627775E5,1.6178229E3,1.988698E2,4.648616E4,1.655179E5,7.5985315E2,1.3430786E2,1.483515E3,1.430727E2,1.6537483E5,3.77252E1,7.221279E2,1.3706842E2,6.004282E0,1.6535497E5,1.9857862E1],"tree_param":{"num_deleted":"0","num_feature":"64","num_nodes":"19","size_leaf_vector":"1"}},{"base_weights":[5.0164424E-2,-4.8432788E-1,3E0,-4.9992454E-1,9.684002E-1,-4.4003195E-1,3E0,-5.117266E-1,-2.4079075E-1,3E0,-5.0497454E-1,2.3644865E0,-4.066315E-2,2.4E-1,-2.9817907E-2,-5.1278836E-1,-3.20985E-1,3E0,-4.581307E-1,-2.7349766E-2,3E0,3.5827342E-2,-4.0899687E-2,2.3795179E-1,-0E0,-4.1076805E-2,-3.7552107E-2,2.4E-1,-4.1145824E-2,-3.1957038E-2,2.4E-1,2.4E-1,-3.8166028E-2,2.4E-1,8.335418E-2],"categories":[],"categories_nodes":[],"categories_segments":[],"categories_sizes":[],"default_left":[0,0,0,0,0,0,0,0,0,0,0,0,0,0,0,0,0,0,0,0,0,0,0,0,0,0,0,0,0,0,0,0,0,0,0],"id":59,"left_children":[1,3,5,7,9,11,13,15,17,19,21,23,-1,-1,-1,25,27,29,31,-1,33,-1,-1,-1,-1,-1,-1,-1,-1,-1,-1,-1,-1,-1,-1],"loss_changes":[1.7086261E5,1.8212305E3,5.0694375E3,2.424043E2,3.1247822E3,8.595366E1,1.04578125E2,1.4708984E1,2.7694043E3,1.3986963E2,3.9309387E0,1.4339188E1,0E0,0E0,0E0,1.4453125E0,3.450055E2,1.3200952E2,2.7643457E2,0E0,1.8984375E0,0E0,0E0,0E0,0E0,0E0,0E0,0E0,0E0,0E0,0E0,0E0,0E0,0E0,0E0],"parents":[2147483647,0,0,1,1,2,2,3,3,4,4,5,5,6,6,7,7,8,8,9,9,10,10,11,11,15,15,16,16,17,17,18,18,20,20],"right_children":[2,4,6,8,10,12,14,16,18,20,22,24,-1,-1,-1,26,28,30,32,-1,34,-1,-1,-1,-1,-1,-1,-1,-1,-1,-1,-1,-1,-1,-1],"split_conditions":[1.1260676E0,9.840297E-1,6.072765E-1,3.9985594E-1,-2.7224612E-1,-6.963024E-1,1.5851E-1,2.0189362E0,-7.792862E-1,-8.914629E-1,-7.082E-1,-3.7066242E-1,-4.066315E-2,2.4E-1,-2.9817907E-2,1.6178535E0,-4.8241523E-1,-5.1589906E-1,-3.9960426E-1,-2.7349766E-2,5.708025E-1,3.5827342E-2,-4.0899687E-2,2.3795179E-1,-0E0,-4.1076805E-2,-3.7552107E-2,2.4E-1,-4.1145824E-2,-3.1957038E-2,2.4E-1,2.4E-1,-3.8166028E-2,2.4E-1,8.335418E-2],"split_indices":[50,50,34,26,54,10,54,34,14,20,14,0,0,0,0,34,60,19,24,0,11,0,0,0,0,0,0,0,0,0,0,0,0,0,0],"split_type":[0,0,0,0,0,0,0,0,0,0,0,0,0,0,0,0,0,0,0,0,0,0,0,0,0,0,0,0,0,0,0,0,0,0,0],"sum_hessian":[9.2417914E4,8.03131E4,1.2104806E4,7.946165E4,8.514535E2,4.2774286E2,1.16770625E4,7.5996555E4,3.465099E3,3.1130002E2,5.401535E2,8.390552E0,4.1935233E2,1.1668452E4,8.610172E0,7.556993E4,4.2662573E2,1.8903375E2,3.2760654E3,1.1970839E1,2.9932916E2,2.0899467E0,5.3806354E2,6.2516828E0,2.1388683E0,7.438498E4,1.1849501E3,1.647439E1,4.1015134E2,1.0816326E1,1.7821742E2,1.1252553E1,3.2648127E3,2.9523718E2,4.0919847E0],"tree_param":{"num_deleted":"0","num_feature":"64","num_nodes":"35","size_leaf_vector":"1"}},{"base_weights":[7.4139625E-2,-4.069856E-2,3E0,-3.6954436E-1,2.4E-1,2.4E-1,-3.9761662E-2],"categories":[],"categories_nodes":[],"categories_segments":[],"categories_sizes":[],"default_left":[0,0,0,0,0,0,0],"id":60,"left_children":[1,-1,3,5,-1,-1,-1],"loss_changes":[1.4217144E5,0E0,1.3952812E3,6.4831665E1,0E0,0E0,0E0],"parents":[2147483647,0,0,2,2,3,3],"right_children":[2,-1,4,6,-1,-1,-1],"split_conditions":[7.896425E-1,-4.069856E-2,3.8352042E-1,